{"learner":{"attributes":{"scikit_learn":"{\"_estimator_type\": \"regressor\"}"},"feature_names":[],"feature_types":[],"gradient_booster":{"model":{"cats":{"enc":[],"feature_segments":[],"sorted_idx":[]},"gbtree_model_param":{"num_parallel_tree":"1","num_trees":"100"},"iteration_indptr":[0,1,2,3,4,5,6,7,8,9,10,11,12,13,14,15,16,17,18,19,20,21,22,23,24,25,26,27,28,29,30,31,32,33,34,35,36,37,38,39,40,41,42,43,44,45,46,47,48,49,50,51,52,53,54,55,56,57,58,59,60,61,62,63,64,65,66,67,68,69,70,71,72,73,74,75,76,77,78,79,80,81,82,83,84,85,86,87,88,89,90,91,92,93,94,95,96,97,98,99,100],"tree_info":[0,0,0,0,0,0,0,0,0,0,0,0,0,0,0,0,0,0,0,0,0,0,0,0,0,0,0,0,0,0,0,0,0,0,0,0,0,0,0,0,0,0,0,0,0,0,0,0,0,0,0,0,0,0,0,0,0,0,0,0,0,0,0,0,0,0,0,0,0,0,0,0,0,0,0,0,0,0,0,0,0,0,0,0,0,0,0,0,0,0,0,0,0,0,0,0,0,0,0,0],"trees":[{"base_weights":[-3.8116426E-9,-1.0532203E-1,2.3992659E-1,-1.2495069E-1,9.956666E-3,1.6029248E-1,3.4273013E-1,-1.2894417E-1,-8.200314E-2,-2.1659272E-2,3.698141E-2,1.1683815E-1,2.0357673E-1,2.9875794E-1,4.1248274E-1,-1.2976989E-1,-1.1003979E-1,-9.238744E-2,-7.2714314E-2,-3.289012E-2,3.539482E-4,2.0763729E-2,5.295617E-2,9.154951E-2,1.3770162E-1,1.8637656E-1,2.2761817E-1,2.83682E-2,3.3469832E-1,3.8372207E-2,4.5556154E-2,-2.799617E-3,-1.2981224E-2,-1.1051406E-1,-4.3955166E-3,-8.0128826E-2,-1.0259843E-1,-8.060227E-2,-5.881836E-2,-2.2862019E-2,-4.383705E-2,4.3107593E-3,-6.809293E-2,2.2175318E-2,-4.3805055E-2,6.244041E-2,2.7366828E-2,8.346653E-2,1.0903516E-1,1.2727194E-1,1.5137294E-1,1.6316923E-1,1.9611943E-1,1.0564319E-1,2.2855109E-2,7.83027E-3,3.356507E-2,-1.1155799E-2,-6.788242E-3,-8.516639E-3,-2.5327874E-3,-1.0308625E-2,-2.7395845E-3,-8.18306E-3,-1.9302603E-3,-6.284989E-3,-1.3166555E-3,8.890983E-5,-2.594095E-3,-5.1605143E-3,-2.4925377E-3,-8.203204E-4,2.1647634E-3,-7.447231E-3,-1.4908307E-3,1.4053797E-3,3.2393709E-3,1.4195576E-3,-8.720401E-3,6.5078433E-3,-3.1826235E-3,-7.1287405E-4,3.979034E-3,8.496038E-3,2.537878E-4,4.4970005E-3,1.1280651E-2,-3.0812097E-3,1.2813843E-2,1.5322111E-2,7.932398E-3,1.6864292E-2,1.0733375E-2,1.1807947E-2,1.9768221E-2,1.203625E-2,3.074263E-3],"categories":[],"categories_nodes":[],"categories_segments":[],"categories_sizes":[],"default_left":[0,0,0,0,0,0,0,0,0,0,0,0,0,0,0,0,0,0,0,0,0,0,0,0,0,0,0,0,0,0,0,0,0,0,0,0,0,0,0,0,0,0,0,0,0,0,0,0,0,0,0,0,0,0,0,0,0,0,0,0,0,0,0,0,0,0,0,0,0,0,0,0,0,0,0,0,0,0,0,0,0,0,0,0,0,0,0,0,0,0,0,0,0,0,0,0,0],"id":0,"left_children":[1,3,5,7,9,11,13,15,17,19,21,23,25,27,29,31,33,35,37,39,41,43,45,47,49,51,53,-1,55,-1,-1,-1,-1,57,-1,59,61,63,65,67,69,71,73,75,77,79,81,83,85,87,89,91,93,95,-1,-1,-1,-1,-1,-1,-1,-1,-1,-1,-1,-1,-1,-1,-1,-1,-1,-1,-1,-1,-1,-1,-1,-1,-1,-1,-1,-1,-1,-1,-1,-1,-1,-1,-1,-1,-1,-1,-1,-1,-1,-1,-1],"loss_changes":[2.017016E2,1.2552811E1,1.9879608E1,8.023834E-1,6.9116634E-1,2.5605545E0,3.1341019E0,5.3390503E-2,3.2444E-2,9.2227355E-2,1.1185652E-1,3.5038757E-1,2.4166489E-1,2.5994873E-1,3.3068848E-1,1.424408E-2,1.0344982E-3,1.531148E-2,1.9263864E-2,2.6112705E-2,3.4689113E-2,2.0840913E-2,5.144155E-2,3.5278797E-2,3.4204483E-2,5.979824E-2,7.943153E-3,0E0,1.962471E-2,0E0,0E0,0E0,0E0,7.0500374E-4,0E0,2.2688508E-2,8.0776215E-4,8.736014E-3,1.4448315E-2,9.602837E-3,1.5901923E-2,2.6428893E-2,1.2647398E-3,1.7304368E-2,1.3823743E-2,4.1610837E-2,2.6425567E-2,2.6260257E-2,1.812172E-2,3.3946514E-2,8.752108E-3,2.0408154E-2,1.0928154E-2,7.09679E-4,0E0,0E0,0E0,0E0,0E0,0E0,0E0,0E0,0E0,0E0,0E0,0E0,0E0,0E0,0E0,0E0,0E0,0E0,0E0,0E0,0E0,0E0,0E0,0E0,0E0,0E0,0E0,0E0,0E0,0E0,0E0,0E0,0E0,0E0,0E0,0E0,0E0,0E0,0E0,0E0,0E0,0E0,0E0],"parents":[2147483647,0,0,1,1,2,2,3,3,4,4,5,5,6,6,7,7,8,8,9,9,10,10,11,11,12,12,13,13,14,14,15,15,16,16,17,17,18,18,19,19,20,20,21,21,22,22,23,23,24,24,25,25,26,26,28,28,33,33,35,35,36,36,37,37,38,38,39,39,40,40,41,41,42,42,43,43,44,44,45,45,46,46,47,47,48,48,49,49,50,50,51,51,52,52,53,53],"right_children":[2,4,6,8,10,12,14,16,18,20,22,24,26,28,30,32,34,36,38,40,42,44,46,48,50,52,54,-1,56,-1,-1,-1,-1,58,-1,60,62,64,66,68,70,72,74,76,78,80,82,84,86,88,90,92,94,96,-1,-1,-1,-1,-1,-1,-1,-1,-1,-1,-1,-1,-1,-1,-1,-1,-1,-1,-1,-1,-1,-1,-1,-1,-1,-1,-1,-1,-1,-1,-1,-1,-1,-1,-1,-1,-1,-1,-1,-1,-1,-1,-1],"split_conditions":[1.9843811E-1,6.767124E-2,3.8435408E-1,1.5430182E-2,1.3150707E-1,2.9394865E-1,4.8929715E-1,3.527537E-3,3.5154074E-2,1.0992685E-1,1.6585092E-1,2.4461254E-1,3.4548616E-1,4.5412987E-1,5.470218E-1,3.298599E-1,9.916434E-1,8.448711E-2,5.393305E-1,4.4921118E-1,5.793421E-1,8.1127685E-1,6.232633E-1,1.4019883E-1,2.7253616E-1,3.0951756E-1,1.02204874E-1,2.83682E-2,5.5710305E-3,3.8372207E-2,4.5556154E-2,-2.799617E-3,-1.2981224E-2,7.9361653E-1,-4.3955166E-3,6.415922E-2,8.1127685E-1,6.348911E-1,8.8857937E-1,3.154939E-1,5.336822E-1,5.4317546E-1,3.8953793E-1,5.230743E-1,1.4521132E-1,9.470752E-1,3.3147633E-1,5.7048273E-1,2.3092431E-1,9.430824E-2,8.456318E-1,7.060434E-1,2.7855154E-2,3.653754E-1,2.2855109E-2,7.83027E-3,3.356507E-2,-1.1155799E-2,-6.788242E-3,-8.516639E-3,-2.5327874E-3,-1.0308625E-2,-2.7395845E-3,-8.18306E-3,-1.9302603E-3,-6.284989E-3,-1.3166555E-3,8.890983E-5,-2.594095E-3,-5.1605143E-3,-2.4925377E-3,-8.203204E-4,2.1647634E-3,-7.447231E-3,-1.4908307E-3,1.4053797E-3,3.2393709E-3,1.4195576E-3,-8.720401E-3,6.5078433E-3,-3.1826235E-3,-7.1287405E-4,3.979034E-3,8.496038E-3,2.537878E-4,4.4970005E-3,1.1280651E-2,-3.0812097E-3,1.2813843E-2,1.5322111E-2,7.932398E-3,1.6864292E-2,1.0733375E-2,1.1807947E-2,1.9768221E-2,1.203625E-2,3.074263E-3],"split_indices":[0,0,0,0,0,0,0,0,0,0,0,0,0,0,0,1,4,3,2,1,1,2,2,3,0,0,1,0,4,0,0,0,0,2,0,3,2,1,4,2,1,4,2,2,0,4,4,1,2,2,2,2,4,0,0,0,0,0,0,0,0,0,0,0,0,0,0,0,0,0,0,0,0,0,0,0,0,0,0,0,0,0,0,0,0,0,0,0,0,0,0,0,0,0,0,0,0],"split_type":[0,0,0,0,0,0,0,0,0,0,0,0,0,0,0,0,0,0,0,0,0,0,0,0,0,0,0,0,0,0,0,0,0,0,0,0,0,0,0,0,0,0,0,0,0,0,0,0,0,0,0,0,0,0,0,0,0,0,0,0,0,0,0,0,0,0,0,0,0,0,0,0,0,0,0,0,0,0,0,0,0,0,0,0,0,0,0,0,0,0,0,0,0,0,0,0,0],"sum_hessian":[7.98E3,5.546E3,2.434E3,4.739E3,8.07E2,1.373E3,1.061E3,4.334E3,4.05E2,3.72E2,4.35E2,6.87E2,6.86E2,6.54E2,4.07E2,4.147E3,1.87E2,1.87E2,2.18E2,2.46E2,1.26E2,2.17E2,2.18E2,3.13E2,3.74E2,4.05E2,2.81E2,4.67E2,1.87E2,2.5E2,1.57E2,2E0,4.145E3,1.85E2,2E0,8.9E1,9.8E1,1.36E2,8.2E1,1.3E2,1.16E2,1.2E2,6E0,2.13E2,4E0,1.58E2,6E1,2.18E2,9.5E1,2.18E2,1.56E2,1.25E2,2.8E2,3E0,2.78E2,1E0,1.86E2,1.79E2,6E0,8.1E1,8E0,9.7E1,1E0,1.33E2,3E0,7.5E1,7E0,1.5E1,1.15E2,8.1E1,3.5E1,7E1,5E1,5E0,1E0,1.2E2,9.3E1,2E0,2E0,1.54E2,4E0,1.6E1,4.4E1,2.14E2,4E0,6E0,8.9E1,1E0,2.17E2,1.51E2,5E0,1.12E2,1.3E1,7E0,2.73E2,2E0,1E0],"tree_param":{"num_deleted":"0","num_feature":"6","num_nodes":"97","size_leaf_vector":"1"}},{"base_weights":[2.688392E-5,-9.568518E-2,2.1411759E-1,-1.1247249E-1,6.847085E-3,1.425472E-1,3.0860186E-1,-1.1605856E-1,-7.390581E-2,-1.9540936E-2,3.1133221E-2,1.03352144E-1,1.8336044E-1,2.6898864E-1,3.7144017E-1,-1.1679672E-1,-9.915464E-2,-8.3276875E-2,-6.552377E-2,-2.9642235E-2,2.5876184E-4,1.3637004E-2,4.2269923E-2,8.058813E-2,1.2401942E-1,1.6788465E-1,2.0499098E-1,2.53687E-2,2.9829383E-1,3.4550276E-2,4.102937E-2,-2.6129761E-3,-1.1683415E-1,-9.955913E-2,-4.1024825E-3,-7.223871E-2,-9.2470385E-2,-7.261586E-2,-5.302811E-2,-2.0594938E-2,-3.9518762E-2,3.8907954E-3,-6.25605E-2,1.6917886E-2,-4.292412E-2,4.9447507E-2,1.7477134E-2,6.426285E-2,8.9687325E-2,1.1458919E-1,1.3638377E-1,1.4707133E-1,1.7661986E-1,9.88565E-2,2.057779E-1,7.4387565E-3,2.9897971E-2,-8.790026E-3,-1.1692496E-2,-1.0046418E-2,-6.206393E-3,-7.675361E-3,-2.3076513E-3,-6.1583053E-3,-9.487486E-3,-7.370861E-3,-1.7854903E-3,-5.66476E-3,-1.2014485E-3,-2.3572957E-3,2.2828869E-4,-4.4463123E-3,-1.1676102E-3,-7.3944335E-4,1.9525314E-3,-6.826629E-3,-1.4162891E-3,4.5300866E-3,1.3454315E-3,-5.060967E-3,9.280145E-4,5.1569077E-3,-2.456228E-3,-2.2533052E-3,3.6521144E-3,1.4094355E-3,6.7969817E-3,9.141781E-3,-2.6611134E-4,-2.9271494E-3,1.1538337E-2,8.8716075E-3,1.3902296E-2,1.5523008E-2,1.129718E-2,1.7790364E-2,1.0095439E-2,1.1233834E-2,2.92055E-3,1.5294191E-2,2.0820063E-2],"categories":[],"categories_nodes":[],"categories_segments":[],"categories_sizes":[],"default_left":[0,0,0,0,0,0,0,0,0,0,0,0,0,0,0,0,0,0,0,0,0,0,0,0,0,0,0,0,0,0,0,0,0,0,0,0,0,0,0,0,0,0,0,0,0,0,0,0,0,0,0,0,0,0,0,0,0,0,0,0,0,0,0,0,0,0,0,0,0,0,0,0,0,0,0,0,0,0,0,0,0,0,0,0,0,0,0,0,0,0,0,0,0,0,0,0,0,0,0,0,0],"id":1,"left_children":[1,3,5,7,9,11,13,15,17,19,21,23,25,27,29,31,33,35,37,39,41,43,45,47,49,51,53,-1,55,-1,-1,-1,57,59,-1,61,63,65,67,69,71,73,75,77,79,81,83,85,87,89,91,93,95,97,99,-1,-1,-1,-1,-1,-1,-1,-1,-1,-1,-1,-1,-1,-1,-1,-1,-1,-1,-1,-1,-1,-1,-1,-1,-1,-1,-1,-1,-1,-1,-1,-1,-1,-1,-1,-1,-1,-1,-1,-1,-1,-1,-1,-1,-1,-1],"loss_changes":[1.6355966E2,9.495136E0,1.6631783E1,6.4697266E-1,4.9855897E-1,2.2285976E0,2.5436401E0,4.25148E-2,2.6434183E-2,7.460867E-2,7.833788E-2,3.2827282E-1,1.9555664E-1,2.1804047E-1,2.6940918E-1,1.102829E-2,3.36051E-4,1.2398243E-2,1.555717E-2,2.1257028E-2,2.9219942E-2,3.0231873E-2,4.3090016E-2,4.548502E-2,2.8095722E-2,4.7839165E-2,3.2100677E-3,0E0,1.1392593E-2,0E0,0E0,0E0,6.1416626E-4,7.6532364E-5,0E0,1.8205315E-2,1.5097857E-3,6.882012E-3,1.1640608E-2,8.978922E-3,1.55875385E-2,2.1493515E-2,9.6617825E-4,1.4234785E-2,4.0806327E-3,3.1256795E-2,4.4254333E-2,2.2660553E-2,3.5241127E-2,2.8398752E-2,7.4179173E-3,1.7517805E-2,9.335518E-3,4.751943E-4,3.870964E-3,0E0,0E0,0E0,0E0,0E0,0E0,0E0,0E0,0E0,0E0,0E0,0E0,0E0,0E0,0E0,0E0,0E0,0E0,0E0,0E0,0E0,0E0,0E0,0E0,0E0,0E0,0E0,0E0,0E0,0E0,0E0,0E0,0E0,0E0,0E0,0E0,0E0,0E0,0E0,0E0,0E0,0E0,0E0,0E0,0E0,0E0],"parents":[2147483647,0,0,1,1,2,2,3,3,4,4,5,5,6,6,7,7,8,8,9,9,10,10,11,11,12,12,13,13,14,14,15,15,16,16,17,17,18,18,19,19,20,20,21,21,22,22,23,23,24,24,25,25,26,26,28,28,32,32,33,33,35,35,36,36,37,37,38,38,39,39,40,40,41,41,42,42,43,43,44,44,45,45,46,46,47,47,48,48,49,49,50,50,51,51,52,52,53,53,54,54],"right_children":[2,4,6,8,10,12,14,16,18,20,22,24,26,28,30,32,34,36,38,40,42,44,46,48,50,52,54,-1,56,-1,-1,-1,58,60,-1,62,64,66,68,70,72,74,76,78,80,82,84,86,88,90,92,94,96,98,100,-1,-1,-1,-1,-1,-1,-1,-1,-1,-1,-1,-1,-1,-1,-1,-1,-1,-1,-1,-1,-1,-1,-1,-1,-1,-1,-1,-1,-1,-1,-1,-1,-1,-1,-1,-1,-1,-1,-1,-1,-1,-1,-1,-1,-1,-1],"split_conditions":[1.9442019E-1,6.767124E-2,3.8435408E-1,1.5430182E-2,1.3150707E-1,2.9394865E-1,4.8929715E-1,3.527537E-3,3.5154074E-2,1.0992685E-1,1.5554436E-1,2.4461254E-1,3.4548616E-1,4.473955E-1,5.470218E-1,3.298599E-1,9.916434E-1,8.448711E-2,5.393305E-1,4.4921118E-1,5.793421E-1,5.439383E-1,6.445398E-1,2.1315698E-1,2.7253616E-1,3.0951756E-1,1.02204874E-1,2.53687E-2,5.5710305E-3,3.4550276E-2,4.102937E-2,-2.6129761E-3,3.933293E-1,7.9361653E-1,-4.1024825E-3,6.415922E-2,3.650934E-1,6.348911E-1,8.8857937E-1,1.0418644E-1,2.1195081E-1,5.4317546E-1,3.8953793E-1,2.630025E-1,1.19530536E-1,9.415042E-1,6.6695035E-1,2.2021729E-1,8.2618326E-1,9.430824E-2,6.963788E-2,6.21547E-1,4.7486976E-1,3.653754E-1,2.3454219E-1,7.4387565E-3,2.9897971E-2,-8.790026E-3,-1.1692496E-2,-1.0046418E-2,-6.206393E-3,-7.675361E-3,-2.3076513E-3,-6.1583053E-3,-9.487486E-3,-7.370861E-3,-1.7854903E-3,-5.66476E-3,-1.2014485E-3,-2.3572957E-3,2.2828869E-4,-4.4463123E-3,-1.1676102E-3,-7.3944335E-4,1.9525314E-3,-6.826629E-3,-1.4162891E-3,4.5300866E-3,1.3454315E-3,-5.060967E-3,9.280145E-4,5.1569077E-3,-2.456228E-3,-2.2533052E-3,3.6521144E-3,1.4094355E-3,6.7969817E-3,9.141781E-3,-2.6611134E-4,-2.9271494E-3,1.1538337E-2,8.8716075E-3,1.3902296E-2,1.5523008E-2,1.129718E-2,1.7790364E-2,1.0095439E-2,1.1233834E-2,2.92055E-3,1.5294191E-2,2.0820063E-2],"split_indices":[0,0,0,0,0,0,0,0,0,0,0,0,0,0,0,1,4,3,2,1,1,1,2,0,0,0,1,0,4,0,0,0,1,2,0,3,1,1,4,0,3,4,2,2,3,4,2,2,2,2,4,2,1,0,2,0,0,0,0,0,0,0,0,0,0,0,0,0,0,0,0,0,0,0,0,0,0,0,0,0,0,0,0,0,0,0,0,0,0,0,0,0,0,0,0,0,0,0,0,0,0],"split_type":[0,0,0,0,0,0,0,0,0,0,0,0,0,0,0,0,0,0,0,0,0,0,0,0,0,0,0,0,0,0,0,0,0,0,0,0,0,0,0,0,0,0,0,0,0,0,0,0,0,0,0,0,0,0,0,0,0,0,0,0,0,0,0,0,0,0,0,0,0,0,0,0,0,0,0,0,0,0,0,0,0,0,0,0,0,0,0,0,0,0,0,0,0,0,0,0,0,0,0,0,0],"sum_hessian":[7.98E3,5.515E3,2.465E3,4.739E3,7.76E2,1.404E3,1.061E3,4.334E3,4.05E2,3.72E2,4.04E2,7.18E2,6.86E2,6.54E2,4.07E2,4.147E3,1.87E2,1.87E2,2.18E2,2.46E2,1.26E2,1.58E2,2.46E2,3.44E2,3.74E2,4.05E2,2.81E2,4.36E2,2.18E2,2.5E2,1.57E2,2E0,4.145E3,1.85E2,2E0,8.9E1,9.8E1,1.36E2,8.2E1,1.3E2,1.16E2,1.2E2,6E0,1.5E2,8E0,1.9E2,5.6E1,1.26E2,2.18E2,2.18E2,1.56E2,1.25E2,2.8E2,3E0,2.78E2,1E0,2.17E2,1.6E1,4.129E3,1.79E2,6E0,8.1E1,8E0,9E0,8.9E1,1.33E2,3E0,7.5E1,7E0,1.15E2,1.5E1,9.8E1,1.8E1,7E1,5E1,5E0,1E0,1.5E1,1.35E2,7E0,1E0,1.85E2,5E0,1.8E1,3.8E1,9E0,1.17E2,2.14E2,4E0,1E0,2.17E2,1E1,1.46E2,9.8E1,2.7E1,2.74E2,6E0,2E0,1E0,1.5E1,2.63E2],"tree_param":{"num_deleted":"0","num_feature":"6","num_nodes":"101","size_leaf_vector":"1"}},{"base_weights":[4.8963924E-5,-8.456982E-2,1.9638987E-1,-1.012432E-1,9.728581E-3,1.3181037E-1,2.7787188E-1,-1.0446273E-1,-6.661782E-2,-1.762645E-2,3.155663E-2,1.02620594E-1,1.7219222E-1,2.3988199E-1,3.3123818E-1,-1.0512261E-1,-8.934745E-2,-7.5085506E-2,-5.904456E-2,-2.6709363E-2,1.7753214E-4,1.6566783E-2,4.4501547E-2,8.1545785E-2,1.217393E-1,1.5905711E-1,1.8467015E-1,2.2351332E-2,2.5906682E-1,3.004202E-2,3.6027845E-2,-2.4387776E-3,-1.0515568E-1,-7.141453E-2,-9.165978E-2,-6.512576E-2,-8.3381385E-2,-6.02812E-2,-5.096931E-3,-1.8551702E-2,-3.5614867E-2,3.5117408E-3,-5.7482008E-2,1.786762E-2,-4.24224E-2,4.7883037E-2,8.695659E-4,6.758064E-2,9.1184966E-2,3.171274E-2,1.2255216E-1,9.218095E-2,1.604292E-1,1.13523714E-1,1.8580548E-1,1.3858946E-2,2.6030624E-1,-7.962731E-3,-1.052353E-2,-7.935836E-3,1.5940892E-3,-9.260218E-3,-5.1566795E-3,-6.9171847E-3,-2.1025266E-3,-4.7804113E-3,-8.516267E-3,-8.6366024E-4,-6.1475392E-3,-2.3858135E-3,2.1616982E-3,-3.1106193E-3,-1.3087435E-3,-4.283519E-3,-1.8179279E-3,-5.457144E-5,4.0412433E-3,-6.2577426E-3,-1.3454743E-3,6.5358016E-3,1.6183483E-3,1.2352254E-3,-8.305625E-3,6.8248543E-3,4.315406E-3,1.6169496E-3,-3.4975202E-3,9.779467E-5,7.115006E-3,1.0993241E-2,8.325125E-3,-2.780792E-3,5.3544887E-3,1.2935835E-2,1.0849561E-2,1.1093105E-2,-1.953487E-3,1.3051555E-2,1.649849E-2,1.35161625E-2,3.9619296E-3,9.250945E-3,1.8649187E-2,7.0668194E-3,2.607373E-2],"categories":[],"categories_nodes":[],"categories_segments":[],"categories_sizes":[],"default_left":[0,0,0,0,0,0,0,0,0,0,0,0,0,0,0,0,0,0,0,0,0,0,0,0,0,0,0,0,0,0,0,0,0,0,0,0,0,0,0,0,0,0,0,0,0,0,0,0,0,0,0,0,0,0,0,0,0,0,0,0,0,0,0,0,0,0,0,0,0,0,0,0,0,0,0,0,0,0,0,0,0,0,0,0,0,0,0,0,0,0,0,0,0,0,0,0,0,0,0,0,0,0,0,0,0],"id":2,"left_children":[1,3,5,7,9,11,13,15,17,19,21,23,25,27,29,31,33,35,37,39,41,43,45,47,49,51,53,-1,55,-1,-1,-1,57,59,61,63,65,67,69,71,73,75,77,79,81,83,85,87,89,91,93,95,97,99,101,-1,103,-1,-1,-1,-1,-1,-1,-1,-1,-1,-1,-1,-1,-1,-1,-1,-1,-1,-1,-1,-1,-1,-1,-1,-1,-1,-1,-1,-1,-1,-1,-1,-1,-1,-1,-1,-1,-1,-1,-1,-1,-1,-1,-1,-1,-1,-1,-1,-1],"loss_changes":[1.3261398E2,8.771122E0,1.2613373E1,5.214424E-1,5.015289E-1,1.5653725E0,2.0736237E0,3.3843994E-2,2.160263E-2,6.0323328E-2,8.9880496E-2,3.0515766E-1,6.273842E-2,1.3805008E-1,2.846527E-1,8.51059E-3,1.2499094E-3,1.01031065E-2,1.4303088E-2,1.7283365E-2,2.4617476E-2,1.7486282E-2,3.6843657E-2,4.4317484E-2,2.5970936E-2,1.0996342E-2,1.6851425E-3,0E0,5.882263E-3,0E0,0E0,0E0,4.5776367E-5,1.9307375E-2,1.3834238E-3,1.4604747E-2,2.2028685E-3,1.2667239E-2,3.522852E-3,8.579645E-3,1.3950497E-2,1.8138524E-2,7.2839856E-4,1.6058058E-2,1.2154456E-2,1.9398212E-2,1.0985557E-2,3.7254453E-2,2.3421526E-2,7.98629E-3,2.4616718E-2,1.892449E-2,1.5807152E-2,5.838953E-3,4.2152405E-4,0E0,4.219055E-3,0E0,0E0,0E0,0E0,0E0,0E0,0E0,0E0,0E0,0E0,0E0,0E0,0E0,0E0,0E0,0E0,0E0,0E0,0E0,0E0,0E0,0E0,0E0,0E0,0E0,0E0,0E0,0E0,0E0,0E0,0E0,0E0,0E0,0E0,0E0,0E0,0E0,0E0,0E0,0E0,0E0,0E0,0E0,0E0,0E0,0E0,0E0,0E0],"parents":[2147483647,0,0,1,1,2,2,3,3,4,4,5,5,6,6,7,7,8,8,9,9,10,10,11,11,12,12,13,13,14,14,15,15,16,16,17,17,18,18,19,19,20,20,21,21,22,22,23,23,24,24,25,25,26,26,28,28,32,32,33,33,34,34,35,35,36,36,37,37,38,38,39,39,40,40,41,41,42,42,43,43,44,44,45,45,46,46,47,47,48,48,49,49,50,50,51,51,52,52,53,53,54,54,56,56],"right_children":[2,4,6,8,10,12,14,16,18,20,22,24,26,28,30,32,34,36,38,40,42,44,46,48,50,52,54,-1,56,-1,-1,-1,58,60,62,64,66,68,70,72,74,76,78,80,82,84,86,88,90,92,94,96,98,100,102,-1,104,-1,-1,-1,-1,-1,-1,-1,-1,-1,-1,-1,-1,-1,-1,-1,-1,-1,-1,-1,-1,-1,-1,-1,-1,-1,-1,-1,-1,-1,-1,-1,-1,-1,-1,-1,-1,-1,-1,-1,-1,-1,-1,-1,-1,-1,-1,-1,-1],"split_conditions":[2.0309463E-1,6.767124E-2,3.8435408E-1,1.5430182E-2,1.3150707E-1,3.0951756E-1,4.8124307E-1,3.527537E-3,3.5154074E-2,1.0992685E-1,1.6585092E-1,2.557552E-1,3.4548616E-1,4.352671E-1,5.3010726E-1,3.298599E-1,1.0306407E-1,8.448711E-2,7.732316E-1,4.4921118E-1,5.793421E-1,8.1127685E-1,7.407391E-1,2.2700289E-1,1.1142061E-2,2.7855154E-2,1.7938656E-1,2.2351332E-2,1.6989887E-1,3.004202E-2,3.6027845E-2,-2.4387776E-3,3.933293E-1,8.077995E-2,7.9361653E-1,6.415922E-2,5.8495823E-2,1.9498607E-2,7.5E-1,2.8412256E-1,5.336822E-1,8.579387E-1,3.8953793E-1,1.8781802E-1,1.4521132E-1,2.7823137E-2,1.9442019E-1,2.3092431E-1,3.8077895E-2,3.5185194E-1,6.7409474E-1,6.859884E-1,2.8277212E-1,1E0,1.02204874E-1,1.3858946E-2,5.5710305E-3,-7.962731E-3,-1.052353E-2,-7.935836E-3,1.5940892E-3,-9.260218E-3,-5.1566795E-3,-6.9171847E-3,-2.1025266E-3,-4.7804113E-3,-8.516267E-3,-8.6366024E-4,-6.1475392E-3,-2.3858135E-3,2.1616982E-3,-3.1106193E-3,-1.3087435E-3,-4.283519E-3,-1.8179279E-3,-5.457144E-5,4.0412433E-3,-6.2577426E-3,-1.3454743E-3,6.5358016E-3,1.6183483E-3,1.2352254E-3,-8.305625E-3,6.8248543E-3,4.315406E-3,1.6169496E-3,-3.4975202E-3,9.779467E-5,7.115006E-3,1.0993241E-2,8.325125E-3,-2.780792E-3,5.3544887E-3,1.2935835E-2,1.0849561E-2,1.1093105E-2,-1.953487E-3,1.3051555E-2,1.649849E-2,1.35161625E-2,3.9619296E-3,9.250945E-3,1.8649187E-2,7.0668194E-3,2.607373E-2],"split_indices":[0,0,0,0,0,0,0,0,0,0,0,0,0,0,0,1,4,3,2,1,1,2,2,0,4,4,2,0,2,0,0,0,1,4,2,3,4,4,5,4,1,4,2,2,0,3,0,2,3,1,4,2,2,5,1,0,4,0,0,0,0,0,0,0,0,0,0,0,0,0,0,0,0,0,0,0,0,0,0,0,0,0,0,0,0,0,0,0,0,0,0,0,0,0,0,0,0,0,0,0,0,0,0,0,0],"split_type":[0,0,0,0,0,0,0,0,0,0,0,0,0,0,0,0,0,0,0,0,0,0,0,0,0,0,0,0,0,0,0,0,0,0,0,0,0,0,0,0,0,0,0,0,0,0,0,0,0,0,0,0,0,0,0,0,0,0,0,0,0,0,0,0,0,0,0,0,0,0,0,0,0,0,0,0,0,0,0,0,0,0,0,0,0,0,0,0,0,0,0,0,0,0,0,0,0,0,0,0,0,0,0,0,0],"sum_hessian":[7.98E3,5.577E3,2.403E3,4.739E3,8.38E2,1.342E3,1.061E3,4.334E3,4.05E2,3.72E2,4.66E2,7.81E2,5.61E2,6.23E2,4.38E2,4.147E3,1.87E2,1.87E2,2.18E2,2.46E2,1.26E2,2.17E2,2.49E2,3.74E2,4.07E2,2.8E2,2.81E2,3.43E2,2.8E2,2.18E2,2.2E2,2E0,4.145E3,2.5E1,1.62E2,8.9E1,9.8E1,2.13E2,5E0,1.3E2,1.16E2,1.2E2,6E0,2.13E2,4E0,2.31E2,1.8E1,1.56E2,2.18E2,4E0,4.03E2,7E0,2.73E2,6E0,2.75E2,4E0,2.76E2,1.6E1,4.129E3,2.3E1,2E0,1.57E2,5E0,8.1E1,8E0,6E0,9.2E1,5E0,2.08E2,3E0,2E0,3.8E1,9.2E1,8.1E1,3.5E1,1.09E2,1.1E1,5E0,1E0,6E0,2.07E2,2E0,2E0,4.1E1,1.9E2,1.3E1,5E0,8E0,1.48E2,6.1E1,1.57E2,1E0,3E0,2.66E2,1.37E2,6E0,1E0,4E1,2.33E2,4E0,2E0,3E0,2.72E2,1E0,2.75E2],"tree_param":{"num_deleted":"0","num_feature":"6","num_nodes":"105","size_leaf_vector":"1"}},{"base_weights":[6.879375E-5,-7.7548385E-2,1.736845E-1,-9.113391E-2,5.4283356E-3,1.1571573E-1,2.502122E-1,-9.4026074E-2,-6.002882E-2,-1.5901707E-2,2.5059639E-2,8.37564E-2,1.4899525E-1,2.1600492E-1,2.9826486E-1,-9.46154E-2,-8.0523126E-2,-6.769566E-2,-5.317314E-2,-2.4081022E-2,1.3129959E-4,1.0619616E-2,3.4253582E-2,6.547132E-2,1.0035532E-1,1.3656424E-1,1.6636404E-1,2.0122696E-1,2.333274E-1,2.8013071E-2,3.406091E-2,-2.2761924E-3,-9.464457E-3,-6.451699E-2,-8.258225E-2,-3.3428304E-2,-6.963641E-2,-6.004372E-2,-4.30361E-2,-3.057944E-2,-1.45432735E-2,3.1935116E-3,-5.281998E-2,1.35979075E-2,-4.052946E-2,4.0452305E-2,1.2881484E-2,6.741119E-2,1.0744665E-2,9.235965E-2,1.1086931E-1,1.2048293E-1,1.4328909E-1,1.24239154E-1,1.682653E-1,5.4573715E-3,2.0149542E-2,1.275023E-2,2.3439528E-1,-7.1753175E-3,1.4878166E-3,-8.332268E-3,-4.2519975E-3,-1.0906843E-3,-7.5744526E-3,-7.2055757E-3,-5.0304458E-3,-6.486565E-3,-4.05059E-3,-4.605469E-3,-5.584117E-4,-1.0263935E-3,-3.689276E-3,-4.5266687E-3,-1.1083302E-3,-6.6116086E-4,1.6781159E-3,-6.1494173E-3,-2.0756335E-3,3.8307344E-3,1.059093E-3,-4.759738E-3,8.00696E-4,4.2367545E-3,-2.566208E-3,-2.4173097E-3,3.060342E-3,5.922073E-3,8.091344E-3,-3.0676248E-3,4.0467265E-3,8.437688E-3,1.1165309E-2,1.1250144E-2,5.104397E-3,1.2780963E-2,9.027484E-3,1.4442587E-2,7.81596E-3,1.4733355E-2,7.349872E-3,1.6853912E-2,4.771603E-3,6.7134784E-3,2.3475805E-2],"categories":[],"categories_nodes":[],"categories_segments":[],"categories_sizes":[],"default_left":[0,0,0,0,0,0,0,0,0,0,0,0,0,0,0,0,0,0,0,0,0,0,0,0,0,0,0,0,0,0,0,0,0,0,0,0,0,0,0,0,0,0,0,0,0,0,0,0,0,0,0,0,0,0,0,0,0,0,0,0,0,0,0,0,0,0,0,0,0,0,0,0,0,0,0,0,0,0,0,0,0,0,0,0,0,0,0,0,0,0,0,0,0,0,0,0,0,0,0,0,0,0,0,0,0],"id":3,"left_children":[1,3,5,7,9,11,13,15,17,19,21,23,25,27,29,31,33,35,37,39,41,43,45,47,49,51,53,55,57,-1,-1,-1,-1,59,61,63,65,67,69,71,73,75,77,79,81,83,85,87,89,91,93,95,97,99,101,-1,-1,-1,103,-1,-1,-1,-1,-1,-1,-1,-1,-1,-1,-1,-1,-1,-1,-1,-1,-1,-1,-1,-1,-1,-1,-1,-1,-1,-1,-1,-1,-1,-1,-1,-1,-1,-1,-1,-1,-1,-1,-1,-1,-1,-1,-1,-1,-1,-1],"loss_changes":[1.0756192E2,6.2185783E0,1.0910759E1,4.2077255E-1,3.257568E-1,1.4818668E0,1.6812363E0,2.6878357E-2,1.774025E-2,4.891801E-2,5.340436E-2,2.1165466E-1,1.2561226E-1,1.1278534E-1,2.4168015E-1,6.538391E-3,8.6820126E-4,1.0175049E-2,1.2668729E-2,1.4864385E-2,2.0761484E-2,2.4772676E-2,3.220141E-2,3.5901666E-2,2.1285295E-2,2.6643276E-2,1.6798973E-3,2.547264E-3,1.8701553E-3,0E0,0E0,0E0,0E0,1.6005024E-2,1.2923479E-3,1.0610144E-2,4.6536922E-3,9.431452E-3,1.0143623E-2,1.8347055E-2,1.0341115E-2,1.62316E-2,6.704908E-4,1.0813698E-2,3.468576E-3,2.5272548E-2,3.8170476E-2,3.2034636E-2,1.7246168E-2,2.4308324E-2,9.587169E-3,1.6349077E-2,9.516239E-3,7.92028E-3,7.710457E-4,0E0,0E0,0E0,1.0471344E-3,0E0,0E0,0E0,0E0,0E0,0E0,0E0,0E0,0E0,0E0,0E0,0E0,0E0,0E0,0E0,0E0,0E0,0E0,0E0,0E0,0E0,0E0,0E0,0E0,0E0,0E0,0E0,0E0,0E0,0E0,0E0,0E0,0E0,0E0,0E0,0E0,0E0,0E0,0E0,0E0,0E0,0E0,0E0,0E0,0E0,0E0],"parents":[2147483647,0,0,1,1,2,2,3,3,4,4,5,5,6,6,7,7,8,8,9,9,10,10,11,11,12,12,13,13,14,14,15,15,16,16,17,17,18,18,19,19,20,20,21,21,22,22,23,23,24,24,25,25,26,26,27,27,28,28,33,33,34,34,35,35,36,36,37,37,38,38,39,39,40,40,41,41,42,42,43,43,44,44,45,45,46,46,47,47,48,48,49,49,50,50,51,51,52,52,53,53,54,54,58,58],"right_children":[2,4,6,8,10,12,14,16,18,20,22,24,26,28,30,32,34,36,38,40,42,44,46,48,50,52,54,56,58,-1,-1,-1,-1,60,62,64,66,68,70,72,74,76,78,80,82,84,86,88,90,92,94,96,98,100,102,-1,-1,-1,104,-1,-1,-1,-1,-1,-1,-1,-1,-1,-1,-1,-1,-1,-1,-1,-1,-1,-1,-1,-1,-1,-1,-1,-1,-1,-1,-1,-1,-1,-1,-1,-1,-1,-1,-1,-1,-1,-1,-1,-1,-1,-1,-1,-1,-1,-1],"split_conditions":[1.9442019E-1,6.767124E-2,3.8435408E-1,1.5430182E-2,1.3150707E-1,2.9394865E-1,4.8124307E-1,3.527537E-3,3.5154074E-2,1.0992685E-1,1.5554436E-1,2.4461254E-1,3.4548616E-1,4.352671E-1,5.571796E-1,3.298599E-1,1.0306407E-1,4.7211642E-3,5.259591E-1,1.2422169E-1,5.793421E-1,5.439383E-1,6.445398E-1,8.2618326E-1,2.7253616E-1,3.0951756E-1,2.3454219E-1,7.00448E-4,1.6989887E-1,2.8013071E-2,3.406091E-2,-2.2761924E-3,-9.464457E-3,8.077995E-2,9.7493035E-1,6.168528E-1,6.838623E-1,1E0,8.8857937E-1,3.933293E-1,3.1173262E-1,5.4317546E-1,7.138009E-2,2.630025E-1,1.19530536E-1,9.415042E-1,6.6695035E-1,2.2700289E-1,5E-1,6.13243E-1,8.456318E-1,6.21547E-1,4.7486976E-1,3.3763865E-1,6.459375E-1,5.4573715E-3,2.0149542E-2,1.275023E-2,5.5710305E-3,-7.1753175E-3,1.4878166E-3,-8.332268E-3,-4.2519975E-3,-1.0906843E-3,-7.5744526E-3,-7.2055757E-3,-5.0304458E-3,-6.486565E-3,-4.05059E-3,-4.605469E-3,-5.584117E-4,-1.0263935E-3,-3.689276E-3,-4.5266687E-3,-1.1083302E-3,-6.6116086E-4,1.6781159E-3,-6.1494173E-3,-2.0756335E-3,3.8307344E-3,1.059093E-3,-4.759738E-3,8.00696E-4,4.2367545E-3,-2.566208E-3,-2.4173097E-3,3.060342E-3,5.922073E-3,8.091344E-3,-3.0676248E-3,4.0467265E-3,8.437688E-3,1.1165309E-2,1.1250144E-2,5.104397E-3,1.2780963E-2,9.027484E-3,1.4442587E-2,7.81596E-3,1.4733355E-2,7.349872E-3,1.6853912E-2,4.771603E-3,6.7134784E-3,2.3475805E-2],"split_indices":[0,0,0,0,0,0,0,0,0,0,0,0,0,0,0,1,4,3,2,3,1,1,2,2,0,0,2,3,2,0,0,0,0,4,4,1,2,5,4,1,1,4,3,2,3,4,2,0,5,2,2,2,1,1,3,0,0,0,4,0,0,0,0,0,0,0,0,0,0,0,0,0,0,0,0,0,0,0,0,0,0,0,0,0,0,0,0,0,0,0,0,0,0,0,0,0,0,0,0,0,0,0,0,0,0],"split_type":[0,0,0,0,0,0,0,0,0,0,0,0,0,0,0,0,0,0,0,0,0,0,0,0,0,0,0,0,0,0,0,0,0,0,0,0,0,0,0,0,0,0,0,0,0,0,0,0,0,0,0,0,0,0,0,0,0,0,0,0,0,0,0,0,0,0,0,0,0,0,0,0,0,0,0,0,0,0,0,0,0,0,0,0,0,0,0,0,0,0,0,0,0,0,0,0,0,0,0,0,0,0,0,0,0],"sum_hessian":[7.98E3,5.515E3,2.465E3,4.739E3,7.76E2,1.404E3,1.061E3,4.334E3,4.05E2,3.72E2,4.04E2,7.18E2,6.86E2,6.23E2,4.38E2,4.147E3,1.87E2,1.87E2,2.18E2,2.46E2,1.26E2,1.58E2,2.46E2,3.44E2,3.74E2,4.05E2,2.81E2,3.43E2,2.8E2,3.12E2,1.26E2,2E0,4.145E3,2.5E1,1.62E2,1.1E1,1.76E2,1.27E2,9.1E1,1.45E2,1.01E2,1.2E2,6E0,1.5E2,8E0,1.9E2,5.6E1,3.32E2,1.2E1,2.18E2,1.56E2,1.25E2,2.8E2,1.5E1,2.66E2,1E0,3.42E2,4E0,2.76E2,2.3E1,2E0,1.58E2,4E0,8E0,3E0,1.54E2,2.2E1,1E2,2.7E1,8.4E1,7E0,3.5E1,1.1E2,9E0,9.2E1,7E1,5E1,4E0,2E0,1.5E1,1.35E2,7E0,1E0,1.85E2,5E0,1.8E1,3.8E1,2.1E2,1.22E2,5E0,7E0,1.58E2,6E1,1.51E2,5E0,9.8E1,2.7E1,2.74E2,6E0,9E0,6E0,2.65E2,1E0,1E0,2.75E2],"tree_param":{"num_deleted":"0","num_feature":"6","num_nodes":"105","size_leaf_vector":"1"}},{"base_weights":[8.552189E-5,-6.7830175E-2,1.6100182E-1,-8.2034566E-2,9.282725E-3,1.0866198E-1,2.2531396E-1,-8.4630385E-2,-5.4116093E-2,-7.2225323E-3,3.4733333E-2,8.514445E-2,1.397277E-1,1.9621733E-1,2.7147323E-1,-8.520489E-2,-7.3443696E-2,-4.6740625E-2,-6.0579587E-2,-2.1714823E-2,5.3627966E-3,3.6199063E-2,-1.7842E-2,6.951257E-2,1.00465916E-1,1.2903938E-1,1.4988263E-1,1.8566066E-2,2.21453E-1,2.5459362E-2,3.0681638E-2,-2.1244464E-3,-8.523082E-2,-1.6257247E-3,-7.363145E-2,-3.4533426E-2,-5.5004157E-2,-4.027746E-2,-6.475789E-2,-1.4727875E-2,-2.9352222E-2,8.503975E-3,-3.9061293E-2,3.488813E-2,9.2641704E-2,-5.317031E-2,2.8120369E-2,7.036678E-2,-2.6880087E-2,1.0702134E-1,8.6822085E-2,7.146804E-2,1.3024935E-1,1.6670507E-1,1.4448501E-1,4.956828E-3,2.221071E-1,-5.948826E-3,-8.527904E-3,-7.409375E-3,-3.9118384E-3,-4.203226E-3,-1.379583E-3,-5.860475E-3,-1.596182E-3,-4.7489987E-3,1.8265734E-3,-6.946442E-3,-5.1237745E-3,5.865372E-4,-1.7441359E-3,-3.6061245E-3,-1.3255213E-3,2.2463345E-3,3.9008952E-4,-4.4876863E-3,6.9140445E-4,4.3227817E-3,2.7998385E-3,1.1838456E-2,1.8856386E-3,-1.7670786E-3,-6.650238E-3,5.366926E-3,8.3158317E-4,6.6281604E-3,8.692778E-3,-5.452191E-3,2.8022684E-3,2.0874906E-3,1.0834261E-2,1.2032635E-2,8.160628E-3,6.8979565E-4,1.088305E-2,1.0369199E-2,1.3434595E-2,1.4692799E-3,1.689562E-2,9.263401E-3,1.4624928E-2,6.3778046E-3,2.2261543E-2],"categories":[],"categories_nodes":[],"categories_segments":[],"categories_sizes":[],"default_left":[0,0,0,0,0,0,0,0,0,0,0,0,0,0,0,0,0,0,0,0,0,0,0,0,0,0,0,0,0,0,0,0,0,0,0,0,0,0,0,0,0,0,0,0,0,0,0,0,0,0,0,0,0,0,0,0,0,0,0,0,0,0,0,0,0,0,0,0,0,0,0,0,0,0,0,0,0,0,0,0,0,0,0,0,0,0,0,0,0,0,0,0,0,0,0,0,0,0,0,0,0,0,0],"id":4,"left_children":[1,3,5,7,9,11,13,15,17,19,21,23,25,27,29,31,33,35,37,39,41,43,45,47,49,51,53,-1,55,-1,-1,-1,57,-1,59,61,63,65,67,69,71,73,75,77,79,81,83,85,87,89,91,93,95,97,99,-1,101,-1,-1,-1,-1,-1,-1,-1,-1,-1,-1,-1,-1,-1,-1,-1,-1,-1,-1,-1,-1,-1,-1,-1,-1,-1,-1,-1,-1,-1,-1,-1,-1,-1,-1,-1,-1,-1,-1,-1,-1,-1,-1,-1,-1,-1,-1],"loss_changes":[8.723321E1,6.1489162E0,7.9497833E0,3.3893394E-1,3.67391E-1,9.437132E-1,1.3730774E0,2.160263E-2,1.6523004E-2,9.696568E-2,2.7154952E-2,1.7192602E-1,4.1659355E-2,1.3338089E-1,1.6528893E-1,5.0144196E-3,1.1541843E-3,1.7670184E-2,1.5460193E-2,1.2748145E-2,4.010223E-2,2.1555454E-2,1.7732894E-2,3.26041E-2,2.4248362E-2,1.0265827E-2,1.5192032E-3,0E0,1.0127068E-2,0E0,0E0,0E0,3.6239624E-5,0E0,5.799532E-4,1.2016267E-2,1.50901675E-2,1.7334975E-2,7.576585E-3,7.422505E-3,1.215744E-2,1.7068747E-2,5.3903665E-3,1.769346E-2,1.106381E-2,1.6645454E-3,2.083615E-3,1.927042E-2,7.5982995E-3,2.608037E-2,1.2374043E-2,1.8549267E-2,1.5879154E-2,1.8733978E-2,6.6695213E-3,0E0,8.5258484E-4,0E0,0E0,0E0,0E0,0E0,0E0,0E0,0E0,0E0,0E0,0E0,0E0,0E0,0E0,0E0,0E0,0E0,0E0,0E0,0E0,0E0,0E0,0E0,0E0,0E0,0E0,0E0,0E0,0E0,0E0,0E0,0E0,0E0,0E0,0E0,0E0,0E0,0E0,0E0,0E0,0E0,0E0,0E0,0E0,0E0,0E0],"parents":[2147483647,0,0,1,1,2,2,3,3,4,4,5,5,6,6,7,7,8,8,9,9,10,10,11,11,12,12,13,13,14,14,15,15,16,16,17,17,18,18,19,19,20,20,21,21,22,22,23,23,24,24,25,25,26,26,28,28,32,32,34,34,35,35,36,36,37,37,38,38,39,39,40,40,41,41,42,42,43,43,44,44,45,45,46,46,47,47,48,48,49,49,50,50,51,51,52,52,53,53,54,54,56,56],"right_children":[2,4,6,8,10,12,14,16,18,20,22,24,26,28,30,32,34,36,38,40,42,44,46,48,50,52,54,-1,56,-1,-1,-1,58,-1,60,62,64,66,68,70,72,74,76,78,80,82,84,86,88,90,92,94,96,98,100,-1,102,-1,-1,-1,-1,-1,-1,-1,-1,-1,-1,-1,-1,-1,-1,-1,-1,-1,-1,-1,-1,-1,-1,-1,-1,-1,-1,-1,-1,-1,-1,-1,-1,-1,-1,-1,-1,-1,-1,-1,-1,-1,-1,-1,-1,-1,-1],"split_conditions":[2.0732424E-1,6.767124E-2,3.8435408E-1,1.5430182E-2,1.5554436E-1,3.0951756E-1,4.8929715E-1,3.1204522E-3,8.5395426E-2,1.0992685E-1,8.1127685E-1,2.6103693E-1,3.4548616E-1,4.5412987E-1,5.571796E-1,3.298599E-1,1.1297096E-3,4.7841066E-1,3.8820502E-1,4.4921118E-1,5.439383E-1,5.286259E-1,5E-1,5.7048273E-1,6.7409474E-1,2.7855154E-2,2.5E-1,1.8566066E-2,7.00448E-4,2.5459362E-2,3.0681638E-2,-2.1244464E-3,3.847743E-1,-1.6257247E-3,9.7493035E-1,4.5224577E-1,5.708994E-2,7.1670043E-1,4.6222195E-2,3.154939E-1,5.336822E-1,3.5489586E-1,1.2422169E-1,7.316773E-2,3.983287E-1,2.801354E-1,2.0293473E-1,1.9932768E-1,2.1796693E-1,1.1142061E-2,2.3722862E-1,7.5E-1,2.8277212E-1,1.02204874E-1,4.7211642E-3,4.956828E-3,5.5710305E-3,-5.948826E-3,-8.527904E-3,-7.409375E-3,-3.9118384E-3,-4.203226E-3,-1.379583E-3,-5.860475E-3,-1.596182E-3,-4.7489987E-3,1.8265734E-3,-6.946442E-3,-5.1237745E-3,5.865372E-4,-1.7441359E-3,-3.6061245E-3,-1.3255213E-3,2.2463345E-3,3.9008952E-4,-4.4876863E-3,6.9140445E-4,4.3227817E-3,2.7998385E-3,1.1838456E-2,1.8856386E-3,-1.7670786E-3,-6.650238E-3,5.366926E-3,8.3158317E-4,6.6281604E-3,8.692778E-3,-5.452191E-3,2.8022684E-3,2.0874906E-3,1.0834261E-2,1.2032635E-2,8.160628E-3,6.8979565E-4,1.088305E-2,1.0369199E-2,1.3434595E-2,1.4692799E-3,1.689562E-2,9.263401E-3,1.4624928E-2,6.3778046E-3,2.2261543E-2],"split_indices":[0,0,0,0,0,0,0,0,3,0,2,0,0,0,0,1,3,1,1,1,1,3,5,1,4,4,5,0,3,0,0,0,1,0,4,1,0,2,0,2,1,1,3,3,4,1,1,3,0,4,1,5,2,1,3,0,4,0,0,0,0,0,0,0,0,0,0,0,0,0,0,0,0,0,0,0,0,0,0,0,0,0,0,0,0,0,0,0,0,0,0,0,0,0,0,0,0,0,0,0,0,0,0],"split_type":[0,0,0,0,0,0,0,0,0,0,0,0,0,0,0,0,0,0,0,0,0,0,0,0,0,0,0,0,0,0,0,0,0,0,0,0,0,0,0,0,0,0,0,0,0,0,0,0,0,0,0,0,0,0,0,0,0,0,0,0,0,0,0,0,0,0,0,0,0,0,0,0,0,0,0,0,0,0,0,0,0,0,0,0,0,0,0,0,0,0,0,0,0,0,0,0,0,0,0,0,0,0,0],"sum_hessian":[7.98E3,5.612E3,2.368E3,4.739E3,8.73E2,1.307E3,1.061E3,4.334E3,4.05E2,5.3E2,3.43E2,7.46E2,5.61E2,6.54E2,4.07E2,4.116E3,2.18E2,1.93E2,2.12E2,2.46E2,2.84E2,3.34E2,9E0,3.72E2,3.74E2,2.8E2,2.81E2,4.67E2,1.87E2,2.81E2,1.26E2,2E0,4.114E3,1E0,2.17E2,8E1,1.13E2,3.8E1,1.74E2,1.3E2,1.16E2,2.66E2,1.8E1,3.28E2,6E0,5E0,4E0,3.69E2,3E0,2.48E2,1.26E2,7E0,2.73E2,6.1E1,2.2E2,1E0,1.86E2,1E1,4.104E3,2.13E2,4E0,5.8E1,2.2E1,1.03E2,1E1,3.4E1,4E0,1.26E2,4.8E1,1.5E1,1.15E2,8.1E1,3.5E1,6.5E1,2.01E2,1.6E1,2E0,1.46E2,1.82E2,4E0,2E0,2E0,3E0,1E0,3E0,3E2,6.9E1,2E0,1E0,4E0,2.44E2,1.4E1,1.12E2,3E0,4E0,4E1,2.33E2,1E0,6E1,9E0,2.11E2,1E0,1.85E2],"tree_param":{"num_deleted":"0","num_feature":"6","num_nodes":"103","size_leaf_vector":"1"}},{"base_weights":[1.0021628E-4,-6.341624E-2,1.3970406E-1,-7.409483E-2,1.2995456E-3,9.284875E-2,2.0288455E-1,-7.617416E-2,-4.9860198E-2,-2.135889E-2,1.38698965E-2,6.1839234E-2,1.1649706E-1,1.8272488E-1,2.577314E-1,-7.66499E-2,-6.527245E-2,-4.5678943E-2,-6.204767E-2,-2.7081102E-2,-1.313407E-2,4.8224516E-3,2.5688568E-2,4.6122488E-2,7.211024E-2,1.0206744E-1,1.3071083E-1,1.6713426E-1,2.0545231E-2,2.471557E-2,2.8939832E-2,-5.8583993E-2,-7.676287E-3,-5.1159635E-2,-6.712313E-2,-3.5872646E-2,-5.2678227E-2,-6.472112E-2,-1.9956501E-2,-2.4589848E-2,-6.697702E-2,-4.5628596E-2,-9.63809E-3,7.663457E-3,-3.5354964E-2,4.884917E-2,1.9850885E-2,2.2395482E-2,5.1246606E-2,2.1493996E-2,7.386858E-2,1.0369254E-1,6.109633E-2,7.2861776E-2,1.3213736E-1,1.5503548E-1,1.7268674E-1,2.2494474E-3,-6.2155477E-3,-5.7776175E-3,1.8825872E-3,-6.795039E-3,-3.4151524E-3,-1.0674944E-3,-4.0461677E-3,-4.4809594E-3,-6.2748403E-3,2.3981444E-4,-6.5529468E-3,3.8665717E-3,-5.113853E-3,-6.231395E-4,-2.9504583E-3,-7.790532E-3,-1.9151969E-3,2.4224387E-3,-6.384308E-3,-2.0373017E-3,3.265254E-4,3.5023477E-3,5.306276E-4,-4.200644E-3,8.966029E-6,-1.5178677E-3,5.7673324E-3,5.2695586E-3,1.6889919E-3,5.0787902E-3,-1.3982235E-4,2.3772619E-3,5.80114E-3,6.7946077E-3,-1.186228E-3,7.5073303E-3,1.8275442E-3,9.657343E-3,1.1425105E-2,6.6503757E-3,1.1891265E-3,1.2878619E-2,4.879827E-3,1.4077434E-2,1.22368205E-2,1.2315062E-2,1.5986321E-2,6.677039E-4,1.7319907E-2],"categories":[],"categories_nodes":[],"categories_segments":[],"categories_sizes":[],"default_left":[0,0,0,0,0,0,0,0,0,0,0,0,0,0,0,0,0,0,0,0,0,0,0,0,0,0,0,0,0,0,0,0,0,0,0,0,0,0,0,0,0,0,0,0,0,0,0,0,0,0,0,0,0,0,0,0,0,0,0,0,0,0,0,0,0,0,0,0,0,0,0,0,0,0,0,0,0,0,0,0,0,0,0,0,0,0,0,0,0,0,0,0,0,0,0,0,0,0,0,0,0,0,0,0,0,0,0],"id":5,"left_children":[1,3,5,7,9,11,13,15,17,19,21,23,25,27,29,31,33,35,37,39,41,43,45,47,49,51,53,55,-1,-1,-1,57,-1,59,61,63,65,67,69,71,73,75,77,79,81,83,85,87,89,91,93,95,97,99,101,103,105,-1,-1,-1,-1,-1,-1,-1,-1,-1,-1,-1,-1,-1,-1,-1,-1,-1,-1,-1,-1,-1,-1,-1,-1,-1,-1,-1,-1,-1,-1,-1,-1,-1,-1,-1,-1,-1,-1,-1,-1,-1,-1,-1,-1,-1,-1,-1,-1,-1,-1],"loss_changes":[7.077752E1,3.7913246E0,7.3701706E0,2.3349571E-1,2.218897E-1,1.0451145E0,1.1271553E0,1.7478943E-2,1.6275346E-2,1.2728155E-2,5.344744E-2,9.724307E-2,1.5340424E-1,2.4204254E-1,2.325058E-2,3.9691925E-3,1.4762878E-3,1.7534614E-2,9.173572E-3,1.45537555E-2,1.2737852E-2,3.2802057E-2,2.8369635E-2,2.912569E-2,3.1787515E-2,2.0830631E-2,2.387619E-2,4.668236E-3,0E0,0E0,0E0,1.0085262E-2,0E0,1.3127297E-2,2.1253824E-3,1.3559669E-2,1.010412E-2,4.8773587E-3,1.4773024E-2,1.3801321E-2,3.2117814E-3,1.5542258E-2,1.4749265E-2,1.703366E-2,4.4831857E-3,2.5170028E-2,1.6129091E-2,3.1146819E-2,3.65355E-2,2.2498552E-2,2.2872686E-2,1.8356323E-2,3.9984956E-3,9.864308E-3,1.610279E-2,4.4796467E-3,2.537918E-2,0E0,0E0,0E0,0E0,0E0,0E0,0E0,0E0,0E0,0E0,0E0,0E0,0E0,0E0,0E0,0E0,0E0,0E0,0E0,0E0,0E0,0E0,0E0,0E0,0E0,0E0,0E0,0E0,0E0,0E0,0E0,0E0,0E0,0E0,0E0,0E0,0E0,0E0,0E0,0E0,0E0,0E0,0E0,0E0,0E0,0E0,0E0,0E0,0E0,0E0],"parents":[2147483647,0,0,1,1,2,2,3,3,4,4,5,5,6,6,7,7,8,8,9,9,10,10,11,11,12,12,13,13,14,14,15,15,16,16,17,17,18,18,19,19,20,20,21,21,22,22,23,23,24,24,25,25,26,26,27,27,31,31,33,33,34,34,35,35,36,36,37,37,38,38,39,39,40,40,41,41,42,42,43,43,44,44,45,45,46,46,47,47,48,48,49,49,50,50,51,51,52,52,53,53,54,54,55,55,56,56],"right_children":[2,4,6,8,10,12,14,16,18,20,22,24,26,28,30,32,34,36,38,40,42,44,46,48,50,52,54,56,-1,-1,-1,58,-1,60,62,64,66,68,70,72,74,76,78,80,82,84,86,88,90,92,94,96,98,100,102,104,106,-1,-1,-1,-1,-1,-1,-1,-1,-1,-1,-1,-1,-1,-1,-1,-1,-1,-1,-1,-1,-1,-1,-1,-1,-1,-1,-1,-1,-1,-1,-1,-1,-1,-1,-1,-1,-1,-1,-1,-1,-1,-1,-1,-1,-1,-1,-1,-1,-1,-1],"split_conditions":[1.8967198E-1,6.401967E-2,3.8435408E-1,1.5430182E-2,1.0992685E-1,2.7673766E-1,5.160019E-1,3.527537E-3,2.0274825E-1,1.2422169E-1,1.5554436E-1,2.2700289E-1,3.302362E-1,4.5412987E-1,5.8560324E-1,4.1036528E-1,1.0306407E-1,4.7841066E-1,7.1021104E-1,1.15779124E-1,3.1173262E-1,5.439383E-1,2.9120134E-2,2.76945E-1,2.2284122E-2,4.7486976E-1,1.7938656E-1,4.0842053E-1,2.0545231E-2,2.471557E-2,2.8939832E-2,5.5710305E-3,-7.676287E-3,8.077995E-2,7.9361653E-1,1.7270195E-1,4.3418673E-1,9.430824E-2,7.448797E-1,3.933293E-1,1.2289613E-1,4.5391154E-1,5.2114314E-1,2.4693376E-1,1.19530536E-1,3.033412E-1,2.4684857E-1,2.542399E-1,3.3357993E-1,3.298599E-1,8.2618326E-1,3.0951756E-1,9.7771585E-1,2.542399E-1,8.165252E-2,1.615599E-1,1.1142061E-2,2.2494474E-3,-6.2155477E-3,-5.7776175E-3,1.8825872E-3,-6.795039E-3,-3.4151524E-3,-1.0674944E-3,-4.0461677E-3,-4.4809594E-3,-6.2748403E-3,2.3981444E-4,-6.5529468E-3,3.8665717E-3,-5.113853E-3,-6.231395E-4,-2.9504583E-3,-7.790532E-3,-1.9151969E-3,2.4224387E-3,-6.384308E-3,-2.0373017E-3,3.265254E-4,3.5023477E-3,5.306276E-4,-4.200644E-3,8.966029E-6,-1.5178677E-3,5.7673324E-3,5.2695586E-3,1.6889919E-3,5.0787902E-3,-1.3982235E-4,2.3772619E-3,5.80114E-3,6.7946077E-3,-1.186228E-3,7.5073303E-3,1.8275442E-3,9.657343E-3,1.1425105E-2,6.6503757E-3,1.1891265E-3,1.2878619E-2,4.879827E-3,1.4077434E-2,1.22368205E-2,1.2315062E-2,1.5986321E-2,6.677039E-4,1.7319907E-2],"split_indices":[0,0,0,0,0,0,0,0,3,3,0,0,0,0,0,1,4,1,2,3,1,1,3,1,4,1,2,0,0,0,0,4,0,4,2,4,2,2,2,1,3,2,2,2,3,1,1,1,2,1,2,0,4,1,3,4,4,0,0,0,0,0,0,0,0,0,0,0,0,0,0,0,0,0,0,0,0,0,0,0,0,0,0,0,0,0,0,0,0,0,0,0,0,0,0,0,0,0,0,0,0,0,0,0,0,0,0],"split_type":[0,0,0,0,0,0,0,0,0,0,0,0,0,0,0,0,0,0,0,0,0,0,0,0,0,0,0,0,0,0,0,0,0,0,0,0,0,0,0,0,0,0,0,0,0,0,0,0,0,0,0,0,0,0,0,0,0,0,0,0,0,0,0,0,0,0,0,0,0,0,0,0,0,0,0,0,0,0,0,0,0,0,0,0,0,0,0,0,0,0,0,0,0,0,0,0,0,0,0,0,0,0,0,0,0,0,0],"sum_hessian":[7.98E3,5.485E3,2.495E3,4.708E3,7.77E2,1.434E3,1.061E3,4.334E3,3.74E2,2.77E2,5E2,6.22E2,8.12E2,7.79E2,2.82E2,4.147E3,1.87E2,2.82E2,9.2E1,1.62E2,1.15E2,2.84E2,2.16E2,2.48E2,3.74E2,4.07E2,4.05E2,4.67E2,3.12E2,2.18E2,6.4E1,2.9E1,4.118E3,2.5E1,1.62E2,1.2E2,1.62E2,8.6E1,6E0,1.54E2,8E0,1E1,1.05E2,2.66E2,1.8E1,4.2E1,1.74E2,4.5E1,2.03E2,1.3E1,3.61E2,3.9E2,1.7E1,1.1E1,3.94E2,1.56E2,3.11E2,1E0,2.8E1,2.3E1,2E0,1.57E2,5E0,1.9E1,1.01E2,9.4E1,6.8E1,1E0,8.5E1,2E0,4E0,3.3E1,1.21E2,6E0,2E0,2E0,8E0,5.7E1,4.8E1,2E1,2.46E2,1.5E1,3E0,5E0,3.7E1,1.3E1,1.61E2,2E1,2.5E1,4.1E1,1.62E2,5E0,8E0,3.53E2,8E0,2.39E2,1.51E2,1.5E1,2E0,2E0,9E0,2.02E2,1.92E2,2.4E1,1.32E2,1E0,3.1E2],"tree_param":{"num_deleted":"0","num_feature":"6","num_nodes":"107","size_leaf_vector":"1"}},{"base_weights":[1.10802364E-4,-5.6586158E-2,1.269317E-1,-6.647805E-2,3.8310438E-3,8.468044E-2,1.8270954E-1,-6.856269E-2,-4.4055987E-2,-1.18718175E-2,1.8283727E-2,6.1208453E-2,1.0912248E-1,1.6317189E-1,2.2873183E-1,-6.898771E-2,-5.8820233E-2,-3.768299E-2,-4.9653668E-2,-1.8843994E-2,-2.265097E-3,1.7369706E-2,1.0557184E-2,4.7649715E-2,7.351927E-2,9.987912E-2,1.2204332E-1,1.5159468E-1,1.8567362E-1,2.1333253E-1,2.497266E-2,-1.5684469E-3,-6.900964E-2,-5.6912214E-2,-7.367865E-3,-4.1103333E-2,-1.4001416E-2,-6.4794384E-2,-4.509518E-2,-2.4754457E-2,-7.402262E-3,-3.2695808E-2,1.8809641E-3,9.860394E-3,2.5950678E-2,4.9222965E-2,3.6849442E-3,1.739084E-2,7.423076E-2,1.0111285E-1,5.094567E-2,1.3728195E-1,1.17216E-1,1.4225543E-1,1.5830994E-1,4.0767E-3,1.8667785E-2,9.016684E-3,2.1417214E-2,-6.614094E-3,-6.956325E-3,-5.1329886E-3,-6.2212395E-3,-3.144101E-3,-4.7297366E-3,4.377873E-3,-2.0640544E-3,-6.6197957E-3,-2.2142658E-3,4.3482632E-5,-4.621515E-3,-1.0398476E-3,-3.0479177E-3,2.6464243E-3,-1.2421396E-3,-4.080037E-3,5.6593167E-3,-4.8433766E-3,4.893271E-4,1.2166266E-3,-3.0353281E-3,3.298578E-3,3.0180096E-4,4.4446033E-3,6.4791725E-3,-1.2924008E-3,6.335612E-3,5.6682555E-3,-1.6425655E-3,3.5710712E-3,7.5311563E-3,9.088765E-3,1.0524426E-2,5.8582514E-3,8.5076346E-4,6.919436E-4,1.3930561E-2,1.4614329E-2,1.1295002E-2,1.6740628E-2,1.3569988E-2,3.7773144E-3,1.5903601E-2],"categories":[],"categories_nodes":[],"categories_segments":[],"categories_sizes":[],"default_left":[0,0,0,0,0,0,0,0,0,0,0,0,0,0,0,0,0,0,0,0,0,0,0,0,0,0,0,0,0,0,0,0,0,0,0,0,0,0,0,0,0,0,0,0,0,0,0,0,0,0,0,0,0,0,0,0,0,0,0,0,0,0,0,0,0,0,0,0,0,0,0,0,0,0,0,0,0,0,0,0,0,0,0,0,0,0,0,0,0,0,0,0,0,0,0,0,0,0,0,0,0,0,0],"id":6,"left_children":[1,3,5,7,9,11,13,15,17,19,21,23,25,27,29,31,33,35,37,39,41,43,-1,45,47,49,51,53,55,57,-1,-1,59,61,-1,63,65,67,69,71,73,75,77,79,81,83,85,87,89,91,93,95,97,99,101,-1,-1,-1,-1,-1,-1,-1,-1,-1,-1,-1,-1,-1,-1,-1,-1,-1,-1,-1,-1,-1,-1,-1,-1,-1,-1,-1,-1,-1,-1,-1,-1,-1,-1,-1,-1,-1,-1,-1,-1,-1,-1,-1,-1,-1,-1,-1,-1],"loss_changes":[5.7393433E1,3.2968407E0,5.796112E0,2.1853447E-1,1.7655602E-1,7.993736E-1,9.175949E-1,1.389122E-2,1.2612522E-2,2.4940759E-2,3.0478403E-2,1.1651158E-1,6.9859505E-2,1.6697311E-1,4.824257E-2,3.7670135E-3,1.136601E-3,1.5138328E-2,1.17791295E-2,1.4423966E-2,1.9995978E-2,2.5647871E-2,0E0,2.3681462E-2,1.3684511E-2,1.9359112E-2,4.652977E-3,8.836746E-3,2.876854E-2,1.296997E-4,0E0,0E0,1.9836426E-3,1.8661022E-3,0E0,8.627355E-3,1.0877468E-2,1.3478547E-3,8.535773E-3,1.1353187E-2,1.3077259E-2,1.6058337E-2,2.1455878E-2,2.039844E-2,3.0069828E-2,2.1885753E-2,1.3702797E-2,8.903296E-3,1.2714863E-2,7.121086E-3,3.3907127E-3,1.5392184E-2,1.0765076E-2,1.3391018E-2,1.8672943E-2,0E0,0E0,0E0,0E0,0E0,0E0,0E0,0E0,0E0,0E0,0E0,0E0,0E0,0E0,0E0,0E0,0E0,0E0,0E0,0E0,0E0,0E0,0E0,0E0,0E0,0E0,0E0,0E0,0E0,0E0,0E0,0E0,0E0,0E0,0E0,0E0,0E0,0E0,0E0,0E0,0E0,0E0,0E0,0E0,0E0,0E0,0E0,0E0],"parents":[2147483647,0,0,1,1,2,2,3,3,4,4,5,5,6,6,7,7,8,8,9,9,10,10,11,11,12,12,13,13,14,14,15,15,16,16,17,17,18,18,19,19,20,20,21,21,23,23,24,24,25,25,26,26,27,27,28,28,29,29,32,32,33,33,35,35,36,36,37,37,38,38,39,39,40,40,41,41,42,42,43,43,44,44,45,45,46,46,47,47,48,48,49,49,50,50,51,51,52,52,53,53,54,54],"right_children":[2,4,6,8,10,12,14,16,18,20,22,24,26,28,30,32,34,36,38,40,42,44,-1,46,48,50,52,54,56,58,-1,-1,60,62,-1,64,66,68,70,72,74,76,78,80,82,84,86,88,90,92,94,96,98,100,102,-1,-1,-1,-1,-1,-1,-1,-1,-1,-1,-1,-1,-1,-1,-1,-1,-1,-1,-1,-1,-1,-1,-1,-1,-1,-1,-1,-1,-1,-1,-1,-1,-1,-1,-1,-1,-1,-1,-1,-1,-1,-1,-1,-1,-1,-1,-1,-1],"split_conditions":[1.9442019E-1,6.767124E-2,3.8435408E-1,1.5430182E-2,1.3150707E-1,2.9394865E-1,5.085412E-1,3.527537E-3,8.5395426E-2,1.0418644E-1,5.774323E-1,2.4461254E-1,3.4548616E-1,4.586197E-1,5.571796E-1,3.298599E-1,3.131775E-1,7.0313565E-2,2.4463922E-2,5.878238E-1,1.6461138E-2,1.6585092E-1,1.0557184E-2,8.2618326E-1,1.5220192E-3,4.7486976E-1,2.5E-1,4.1697764E-1,7.00448E-4,1.1142061E-2,2.497266E-2,-1.5684469E-3,5.8410573E-1,5.3717846E-1,-7.367865E-3,3.6768803E-1,7.138009E-2,6.8647027E-1,1.9498607E-2,3.2749447E-1,6.0876197E-1,7.195843E-1,4.4568244E-2,3.7406155E-1,6.3724947E-1,6.3945657E-1,1E0,7.00448E-4,2.2284122E-2,3.0951756E-1,4.4267568E-1,1.02204874E-1,1.7451811E-1,2.5E-1,1.1142061E-2,4.0767E-3,1.8667785E-2,9.016684E-3,2.1417214E-2,-6.614094E-3,-6.956325E-3,-5.1329886E-3,-6.2212395E-3,-3.144101E-3,-4.7297366E-3,4.377873E-3,-2.0640544E-3,-6.6197957E-3,-2.2142658E-3,4.3482632E-5,-4.621515E-3,-1.0398476E-3,-3.0479177E-3,2.6464243E-3,-1.2421396E-3,-4.080037E-3,5.6593167E-3,-4.8433766E-3,4.893271E-4,1.2166266E-3,-3.0353281E-3,3.298578E-3,3.0180096E-4,4.4446033E-3,6.4791725E-3,-1.2924008E-3,6.335612E-3,5.6682555E-3,-1.6425655E-3,3.5710712E-3,7.5311563E-3,9.088765E-3,1.0524426E-2,5.8582514E-3,8.5076346E-4,6.919436E-4,1.3930561E-2,1.4614329E-2,1.1295002E-2,1.6740628E-2,1.3569988E-2,3.7773144E-3,1.5903601E-2],"split_indices":[0,0,0,0,0,0,0,0,3,0,3,0,0,0,0,1,3,3,0,2,3,0,0,2,3,1,5,0,3,4,0,0,1,1,0,4,3,1,4,2,2,2,4,3,2,2,5,3,4,0,2,1,1,5,4,0,0,0,0,0,0,0,0,0,0,0,0,0,0,0,0,0,0,0,0,0,0,0,0,0,0,0,0,0,0,0,0,0,0,0,0,0,0,0,0,0,0,0,0,0,0,0,0],"split_type":[0,0,0,0,0,0,0,0,0,0,0,0,0,0,0,0,0,0,0,0,0,0,0,0,0,0,0,0,0,0,0,0,0,0,0,0,0,0,0,0,0,0,0,0,0,0,0,0,0,0,0,0,0,0,0,0,0,0,0,0,0,0,0,0,0,0,0,0,0,0,0,0,0,0,0,0,0,0,0,0,0,0,0,0,0,0,0,0,0,0,0,0,0,0,0,0,0,0,0,0,0,0,0],"sum_hessian":[7.98E3,5.515E3,2.465E3,4.739E3,7.76E2,1.404E3,1.061E3,4.334E3,4.05E2,3.72E2,4.04E2,7.18E2,6.86E2,7.48E2,3.13E2,4.147E3,1.87E2,1.93E2,2.12E2,2.15E2,1.57E2,4.01E2,3E0,3.44E2,3.74E2,4.05E2,2.81E2,4.99E2,2.49E2,1.87E2,1.26E2,2E0,4.145E3,1.7E2,1.7E1,1.68E2,2.5E1,4.6E1,1.66E2,1.41E2,7.4E1,1.8E1,1.39E2,2.15E2,1.86E2,3.32E2,1.2E1,5E0,3.69E2,3.94E2,1.1E1,6.1E1,2.2E2,2.18E2,2.81E2,2E0,2.47E2,2E0,1.85E2,6.9E2,3.455E3,8.8E1,8.2E1,6.8E1,1E2,2E0,2.3E1,4.4E1,2E0,4E0,1.62E2,4.1E1,1E2,9E0,6.5E1,1.7E1,1E0,7E0,1.32E2,2.04E2,1.1E1,1.42E2,4.4E1,2.57E2,7.5E1,1E1,2E0,2E0,3E0,1.1E1,3.58E2,1.2E2,2.74E2,9E0,2E0,1E0,6E1,2.4E1,1.96E2,4E1,1.78E2,2E0,2.79E2],"tree_param":{"num_deleted":"0","num_feature":"6","num_nodes":"103","size_leaf_vector":"1"}},{"base_weights":[1.2229421E-4,-4.9497038E-2,1.17688015E-1,-5.9841394E-2,6.6605504E-3,8.146355E-2,1.6719785E-1,-6.171423E-2,-3.9697118E-2,-1.06992675E-2,1.9546112E-2,6.2416032E-2,1.0413508E-1,1.5036607E-1,2.0931098E-1,-6.212683E-2,-5.3675827E-2,-3.6204882E-2,-4.8765272E-2,-1.6972017E-2,-2.0561467E-3,1.1417458E-2,2.9664842E-2,5.0578132E-2,7.402435E-2,9.3954004E-2,1.1214887E-1,1.3953826E-1,1.7007759E-1,2.0034028E-2,2.3631524E-2,-3.9269436E-2,-6.2184084E-2,-8.2991924E-4,-5.384591E-2,-2.8273655E-2,-4.220959E-2,-3.171648E-2,-5.2907865E-2,-2.2307796E-2,-6.643313E-3,-2.9343104E-2,1.6617699E-3,1.2389641E-2,-3.5043836E-2,3.9394826E-2,2.1861643E-2,5.1335357E-2,-3.210944E-2,7.995756E-2,6.1808657E-2,8.65992E-2,1.0510481E-1,1.2826698E-1,1.0741075E-1,1.4123741E-1,1.0888774E-1,1.4182584E-1,1.7575286E-1,1.8443963E-4,-4.6912353E-3,-5.9882747E-3,-6.2606805E-3,-4.384603E-3,-5.545542E-3,-1.6531608E-3,-3.3629097E-3,-4.633654E-3,-2.47031E-3,-4.9285754E-3,-2.1909282E-4,-5.421976E-3,-1.2131177E-3,-9.383387E-4,-2.7461434E-3,2.408246E-3,-1.1198077E-3,-3.6947E-3,5.376351E-3,-4.4195815E-3,4.407626E-4,4.5331536E-4,1.7366492E-3,6.2016625E-4,-7.8356555E-3,-1.5519971E-4,4.5126383E-3,1.1178436E-3,3.5016038E-3,4.765917E-3,6.6145496E-3,-5.6576314E-3,2.064559E-3,8.193086E-3,3.4157333E-3,5.3691226E-3,8.010265E-3,-1.048739E-3,8.835355E-3,1.07573215E-2,3.3234693E-3,1.3169773E-2,3.6161963E-3,1.1254013E-2,9.18863E-3,8.121902E-3,1.4187855E-2,4.4545234E-4,1.1245841E-2,1.1577975E-2,1.6397046E-2,1.30796535E-2,1.7966298E-2],"categories":[],"categories_nodes":[],"categories_segments":[],"categories_sizes":[],"default_left":[0,0,0,0,0,0,0,0,0,0,0,0,0,0,0,0,0,0,0,0,0,0,0,0,0,0,0,0,0,0,0,0,0,0,0,0,0,0,0,0,0,0,0,0,0,0,0,0,0,0,0,0,0,0,0,0,0,0,0,0,0,0,0,0,0,0,0,0,0,0,0,0,0,0,0,0,0,0,0,0,0,0,0,0,0,0,0,0,0,0,0,0,0,0,0,0,0,0,0,0,0,0,0,0,0,0,0,0,0,0,0,0,0],"id":7,"left_children":[1,3,5,7,9,11,13,15,17,19,21,23,25,27,29,31,33,35,37,39,41,43,45,47,49,51,53,55,57,-1,-1,59,61,-1,63,65,67,69,71,73,75,77,79,81,83,85,87,89,91,93,95,97,99,101,103,105,107,109,111,-1,-1,-1,-1,-1,-1,-1,-1,-1,-1,-1,-1,-1,-1,-1,-1,-1,-1,-1,-1,-1,-1,-1,-1,-1,-1,-1,-1,-1,-1,-1,-1,-1,-1,-1,-1,-1,-1,-1,-1,-1,-1,-1,-1,-1,-1,-1,-1,-1,-1,-1,-1,-1,-1],"loss_changes":[4.656325E1,3.2610683E0,4.2351074E0,1.7637444E-1,1.9571504E-1,5.851164E-1,6.7736244E-1,1.1043549E-2,1.1091769E-2,2.0187717E-2,4.095164E-2,9.890747E-2,4.0374756E-2,1.2951279E-1,2.1212578E-2,2.9459E-3,1.2432933E-3,1.2951106E-2,6.09082E-3,1.1755928E-2,1.607796E-2,1.3081465E-2,1.6070038E-2,2.5003016E-2,2.22373E-2,1.3943195E-2,1.2494087E-2,9.046555E-3,1.5158176E-2,0E0,0E0,4.1715074E-3,2.450943E-4,0E0,1.0772347E-3,7.6818466E-3,1.0920793E-2,1.2341835E-2,3.996268E-3,9.20061E-3,1.07658245E-2,1.3993148E-2,1.7823365E-2,1.0673933E-2,1.1204669E-2,2.3069546E-2,1.7315492E-2,1.6992092E-2,6.3310536E-3,1.9705296E-2,1.45587325E-2,3.0733109E-2,1.5407085E-2,1.8304825E-2,1.1318684E-2,5.4473877E-3,1.0313064E-2,8.124173E-3,1.2360573E-2,0E0,0E0,0E0,0E0,0E0,0E0,0E0,0E0,0E0,0E0,0E0,0E0,0E0,0E0,0E0,0E0,0E0,0E0,0E0,0E0,0E0,0E0,0E0,0E0,0E0,0E0,0E0,0E0,0E0,0E0,0E0,0E0,0E0,0E0,0E0,0E0,0E0,0E0,0E0,0E0,0E0,0E0,0E0,0E0,0E0,0E0,0E0,0E0,0E0,0E0,0E0,0E0,0E0,0E0],"parents":[2147483647,0,0,1,1,2,2,3,3,4,4,5,5,6,6,7,7,8,8,9,9,10,10,11,11,12,12,13,13,14,14,15,15,16,16,17,17,18,18,19,19,20,20,21,21,22,22,23,23,24,24,25,25,26,26,27,27,28,28,31,31,32,32,34,34,35,35,36,36,37,37,38,38,39,39,40,40,41,41,42,42,43,43,44,44,45,45,46,46,47,47,48,48,49,49,50,50,51,51,52,52,53,53,54,54,55,55,56,56,57,57,58,58],"right_children":[2,4,6,8,10,12,14,16,18,20,22,24,26,28,30,32,34,36,38,40,42,44,46,48,50,52,54,56,58,-1,-1,60,62,-1,64,66,68,70,72,74,76,78,80,82,84,86,88,90,92,94,96,98,100,102,104,106,108,110,112,-1,-1,-1,-1,-1,-1,-1,-1,-1,-1,-1,-1,-1,-1,-1,-1,-1,-1,-1,-1,-1,-1,-1,-1,-1,-1,-1,-1,-1,-1,-1,-1,-1,-1,-1,-1,-1,-1,-1,-1,-1,-1,-1,-1,-1,-1,-1,-1,-1,-1,-1,-1,-1,-1],"split_conditions":[2.0732424E-1,6.767124E-2,3.9532933E-1,1.5430182E-2,1.3150707E-1,3.0951756E-1,5.160019E-1,3.1204522E-3,1.9149585E-1,1.0418644E-1,1.7586619E-1,2.6103693E-1,3.4548616E-1,4.6355247E-1,5.8560324E-1,3.847743E-1,1.1297096E-3,4.7841066E-1,3.8820502E-1,5.878238E-1,1.6461138E-2,8.1127685E-1,4.4568247E-1,5.7048273E-1,6.7409474E-1,7.5E-1,2.5E-1,2.665903E-1,2.5E-1,2.0034028E-2,2.3631524E-2,3.3426184E-2,5.8410573E-1,-8.2991924E-4,1.0306407E-1,3.481894E-1,5.1766865E-2,3.4872058E-1,9.5264626E-1,3.2749447E-1,6.0876197E-1,7.195843E-1,4.4568244E-2,3.3426183E-1,1.0337516E-1,2.6588234E-1,7.4094707E-1,1.9668241E-1,2.1796693E-1,4.689099E-1,1.4384073E-1,2.7855154E-2,4.5567906E-1,4.3356597E-1,6.351276E-1,1.4109072E-1,1.1142061E-2,6.2674093E-1,8.866585E-2,1.8443963E-4,-4.6912353E-3,-5.9882747E-3,-6.2606805E-3,-4.384603E-3,-5.545542E-3,-1.6531608E-3,-3.3629097E-3,-4.633654E-3,-2.47031E-3,-4.9285754E-3,-2.1909282E-4,-5.421976E-3,-1.2131177E-3,-9.383387E-4,-2.7461434E-3,2.408246E-3,-1.1198077E-3,-3.6947E-3,5.376351E-3,-4.4195815E-3,4.407626E-4,4.5331536E-4,1.7366492E-3,6.2016625E-4,-7.8356555E-3,-1.5519971E-4,4.5126383E-3,1.1178436E-3,3.5016038E-3,4.765917E-3,6.6145496E-3,-5.6576314E-3,2.064559E-3,8.193086E-3,3.4157333E-3,5.3691226E-3,8.010265E-3,-1.048739E-3,8.835355E-3,1.07573215E-2,3.3234693E-3,1.3169773E-2,3.6161963E-3,1.1254013E-2,9.18863E-3,8.121902E-3,1.4187855E-2,4.4545234E-4,1.1245841E-2,1.1577975E-2,1.6397046E-2,1.30796535E-2,1.7966298E-2],"split_indices":[0,0,0,0,0,0,0,0,3,0,0,0,0,0,0,1,3,1,1,2,3,2,4,1,4,5,5,3,5,0,0,4,1,0,4,4,0,1,4,2,2,2,4,4,3,1,4,3,0,1,3,4,1,1,2,2,4,4,1,0,0,0,0,0,0,0,0,0,0,0,0,0,0,0,0,0,0,0,0,0,0,0,0,0,0,0,0,0,0,0,0,0,0,0,0,0,0,0,0,0,0,0,0,0,0,0,0,0,0,0,0,0,0],"split_type":[0,0,0,0,0,0,0,0,0,0,0,0,0,0,0,0,0,0,0,0,0,0,0,0,0,0,0,0,0,0,0,0,0,0,0,0,0,0,0,0,0,0,0,0,0,0,0,0,0,0,0,0,0,0,0,0,0,0,0,0,0,0,0,0,0,0,0,0,0,0,0,0,0,0,0,0,0,0,0,0,0,0,0,0,0,0,0,0,0,0,0,0,0,0,0,0,0,0,0,0,0,0,0,0,0,0,0,0,0,0,0,0,0],"sum_hessian":[7.98E3,5.612E3,2.368E3,4.739E3,8.73E2,1.369E3,9.99E2,4.334E3,4.05E2,3.72E2,5.01E2,7.46E2,6.23E2,7.17E2,2.82E2,4.116E3,2.18E2,2.96E2,1.09E2,2.15E2,1.57E2,2.79E2,2.22E2,3.72E2,3.74E2,2.8E2,3.43E2,4.68E2,2.49E2,2.18E2,6.4E1,1.2E1,4.104E3,1E0,2.17E2,1.3E2,1.66E2,2.3E1,8.6E1,1.41E2,7.4E1,1.8E1,1.39E2,2.74E2,5E0,9.7E1,1.25E2,3.69E2,3E0,2.48E2,1.26E2,1.74E2,1.06E2,7.2E1,2.71E2,4.4E2,2.8E1,4.6E1,2.03E2,2E0,1E1,6.59E2,3.445E3,3.4E1,1.83E2,4.2E1,8.8E1,1.33E2,3.3E1,1.4E1,9E0,8.3E1,3E0,4.1E1,1E2,9E0,6.5E1,1.7E1,1E0,7E0,1.32E2,1.07E2,1.67E2,3E0,2E0,1.2E1,8.5E1,7E1,5.5E1,2.99E2,7E1,2E0,1E0,2.37E2,1.1E1,9E1,3.6E1,3E0,1.71E2,1.02E2,4E0,6.9E1,3E0,1.99E2,7.2E1,6E0,4.34E2,1E0,2.7E1,2.4E1,2.2E1,1.9E1,1.84E2],"tree_param":{"num_deleted":"0","num_feature":"6","num_nodes":"113","size_leaf_vector":"1"}},{"base_weights":[1.3216834E-4,-4.6270497E-2,1.021213E-1,-5.38681E-2,2.0011486E-3,6.787575E-2,1.4829856E-1,-5.5549152E-2,-3.5786282E-2,-1.0642496E-2,1.2762071E-2,4.399756E-2,8.459211E-2,1.288503E-1,1.7915717E-1,-5.5892587E-2,-4.767613E-2,-3.0298619E-2,-4.0616427E-2,-1.5285908E-2,-2.7849805E-3,5.581765E-3,1.8923985E-2,3.332892E-2,5.1570006E-2,7.4210666E-2,9.558345E-2,1.1826675E-1,1.4010637E-1,1.59987E-1,1.9465415E-2,-1.1511348E-2,-5.591122E-2,-4.507062E-2,-5.647487E-3,-3.334421E-2,-9.336951E-3,-2.4940861E-2,-4.3877743E-2,-2.0102965E-2,-5.961803E-3,1.7039504E-2,-8.199693E-3,8.549149E-3,-1.9771721E-2,3.964198E-2,1.372514E-2,1.2341651E-2,3.7897967E-2,7.166906E-2,4.7087155E-2,7.491045E-2,2.042252E-2,4.7714382E-2,9.6795715E-2,9.4657645E-2,1.2063458E-1,9.3806796E-2,1.4164566E-1,1.3286036E-1,1.6553765E-2,-3.516909E-4,-1.3750114E-3,-5.3618373E-3,-5.635348E-3,-2.9436552E-3,-4.7249426E-3,-3.5243947E-3,-1.149063E-3,4.2532175E-3,-1.5431553E-3,-3.2711967E-3,1.5257332E-3,-4.7539426E-3,-3.34918E-3,-2.549243E-3,-8.3012035E-4,-2.6361924E-5,-2.6957379E-3,6.738455E-3,-6.467742E-4,-1.1973679E-3,2.1103015E-3,2.9956293E-4,2.475259E-3,1.6834572E-3,-2.4774342E-3,-1.6848119E-3,4.751826E-3,4.523485E-3,1.0917357E-3,3.9095576E-3,-9.741969E-4,7.7925124E-3,3.3365854E-3,1.1578846E-3,7.682749E-3,5.0899885E-3,1.5352158E-3,7.174442E-3,8.567969E-3,-3.0108096E-4,2.4829877E-3,1.0516778E-2,2.5706924E-3,1.0468952E-2,8.799138E-3,-3.3903905E-4,1.0367384E-2,1.4777911E-2,1.1772475E-2,9.736447E-3,2.5557415E-3,1.4707155E-2,1.2858366E-2,1.3763745E-2,3.284083E-3],"categories":[],"categories_nodes":[],"categories_segments":[],"categories_sizes":[],"default_left":[0,0,0,0,0,0,0,0,0,0,0,0,0,0,0,0,0,0,0,0,0,0,0,0,0,0,0,0,0,0,0,0,0,0,0,0,0,0,0,0,0,0,0,0,0,0,0,0,0,0,0,0,0,0,0,0,0,0,0,0,0,0,0,0,0,0,0,0,0,0,0,0,0,0,0,0,0,0,0,0,0,0,0,0,0,0,0,0,0,0,0,0,0,0,0,0,0,0,0,0,0,0,0,0,0,0,0,0,0,0,0,0,0,0,0,0,0],"id":8,"left_children":[1,3,5,7,9,11,13,15,17,19,21,23,25,27,29,31,33,35,37,39,41,43,45,47,49,51,53,55,57,59,-1,61,63,65,-1,67,69,71,73,75,77,79,81,83,85,87,89,91,93,95,97,99,101,103,105,107,109,111,113,115,-1,-1,-1,-1,-1,-1,-1,-1,-1,-1,-1,-1,-1,-1,-1,-1,-1,-1,-1,-1,-1,-1,-1,-1,-1,-1,-1,-1,-1,-1,-1,-1,-1,-1,-1,-1,-1,-1,-1,-1,-1,-1,-1,-1,-1,-1,-1,-1,-1,-1,-1,-1,-1,-1,-1,-1,-1],"loss_changes":[3.777535E1,2.0120916E0,3.9370232E0,1.4209175E-1,1.017706E-1,5.6906796E-1,6.1426926E-1,9.056091E-3,9.530902E-3,1.25085E-2,1.776912E-2,4.6188354E-2,8.909798E-2,6.145954E-2,9.006691E-2,2.7866364E-3,1.7645955E-3,1.207377E-2,9.794831E-3,9.5817335E-3,1.3987078E-2,1.4312936E-2,2.2828907E-2,2.3409307E-2,2.771014E-2,1.4956474E-2,1.894164E-2,7.812023E-3,8.948326E-3,6.3142776E-3,0E0,5.3351396E-6,1.1825562E-3,3.718704E-3,0E0,6.611228E-3,8.875499E-3,1.2682088E-2,5.0630867E-3,8.820318E-3,8.965642E-3,3.357308E-2,1.1532659E-2,1.51335085E-2,4.079613E-3,1.9932665E-2,1.4988836E-2,2.7558751E-2,3.440714E-2,1.8018633E-2,3.370273E-2,8.582592E-3,7.9771155E-4,1.2469299E-2,1.824069E-2,3.2176226E-2,7.0090294E-3,6.6812336E-4,2.3508072E-3,1.315856E-2,0E0,0E0,0E0,0E0,0E0,0E0,0E0,0E0,0E0,0E0,0E0,0E0,0E0,0E0,0E0,0E0,0E0,0E0,0E0,0E0,0E0,0E0,0E0,0E0,0E0,0E0,0E0,0E0,0E0,0E0,0E0,0E0,0E0,0E0,0E0,0E0,0E0,0E0,0E0,0E0,0E0,0E0,0E0,0E0,0E0,0E0,0E0,0E0,0E0,0E0,0E0,0E0,0E0,0E0,0E0,0E0,0E0],"parents":[2147483647,0,0,1,1,2,2,3,3,4,4,5,5,6,6,7,7,8,8,9,9,10,10,11,11,12,12,13,13,14,14,15,15,16,16,17,17,18,18,19,19,20,20,21,21,22,22,23,23,24,24,25,25,26,26,27,27,28,28,29,29,31,31,32,32,33,33,35,35,36,36,37,37,38,38,39,39,40,40,41,41,42,42,43,43,44,44,45,45,46,46,47,47,48,48,49,49,50,50,51,51,52,52,53,53,54,54,55,55,56,56,57,57,58,58,59,59],"right_children":[2,4,6,8,10,12,14,16,18,20,22,24,26,28,30,32,34,36,38,40,42,44,46,48,50,52,54,56,58,60,-1,62,64,66,-1,68,70,72,74,76,78,80,82,84,86,88,90,92,94,96,98,100,102,104,106,108,110,112,114,116,-1,-1,-1,-1,-1,-1,-1,-1,-1,-1,-1,-1,-1,-1,-1,-1,-1,-1,-1,-1,-1,-1,-1,-1,-1,-1,-1,-1,-1,-1,-1,-1,-1,-1,-1,-1,-1,-1,-1,-1,-1,-1,-1,-1,-1,-1,-1,-1,-1,-1,-1,-1,-1,-1,-1,-1,-1],"split_conditions":[1.8967198E-1,6.767124E-2,3.8435408E-1,1.5430182E-2,1.2677744E-1,2.7253616E-1,4.8929715E-1,3.527537E-3,8.5395426E-2,1.0418644E-1,1.5554436E-1,2.2700289E-1,3.302362E-1,4.352671E-1,5.3010726E-1,3.298599E-1,2.0091514E-1,7.0313565E-2,3.8820502E-1,5.878238E-1,3.5489586E-1,5.303946E-1,2.9120134E-2,2.76945E-1,2.1904703E-2,8.456318E-1,1.7938656E-1,1.3587637E-1,2.140722E-1,2.5E-1,1.9465415E-2,6.994456E-4,5.8410573E-1,1.0306407E-1,-5.647487E-3,7.1021104E-1,7.138009E-2,6.838623E-1,4.6222195E-2,1.5723836E-1,7.437326E-1,8.8967174E-2,8.8579386E-1,4.6158677E-1,1.4763232E-1,3.033412E-1,2.4684857E-1,2.542399E-1,3.0011594E-1,1.5220192E-3,8.690808E-1,1.6161177E-1,8.63427E-1,2.542399E-1,8.165252E-2,7.755783E-3,1.088603E-2,2.0861039E-1,6.148251E-1,9.6657383E-1,1.6553765E-2,-3.516909E-4,-1.3750114E-3,-5.3618373E-3,-5.635348E-3,-2.9436552E-3,-4.7249426E-3,-3.5243947E-3,-1.149063E-3,4.2532175E-3,-1.5431553E-3,-3.2711967E-3,1.5257332E-3,-4.7539426E-3,-3.34918E-3,-2.549243E-3,-8.3012035E-4,-2.6361924E-5,-2.6957379E-3,6.738455E-3,-6.467742E-4,-1.1973679E-3,2.1103015E-3,2.9956293E-4,2.475259E-3,1.6834572E-3,-2.4774342E-3,-1.6848119E-3,4.751826E-3,4.523485E-3,1.0917357E-3,3.9095576E-3,-9.741969E-4,7.7925124E-3,3.3365854E-3,1.1578846E-3,7.682749E-3,5.0899885E-3,1.5352158E-3,7.174442E-3,8.567969E-3,-3.0108096E-4,2.4829877E-3,1.0516778E-2,2.5706924E-3,1.0468952E-2,8.799138E-3,-3.3903905E-4,1.0367384E-2,1.4777911E-2,1.1772475E-2,9.736447E-3,2.5557415E-3,1.4707155E-2,1.2858366E-2,1.3763745E-2,3.284083E-3],"split_indices":[0,0,0,0,0,0,0,0,3,0,0,0,0,0,0,1,3,3,1,2,1,1,3,1,3,2,2,1,2,5,0,0,1,4,0,2,3,2,0,3,4,3,4,1,4,1,1,1,1,3,4,3,2,1,3,3,3,2,2,4,0,0,0,0,0,0,0,0,0,0,0,0,0,0,0,0,0,0,0,0,0,0,0,0,0,0,0,0,0,0,0,0,0,0,0,0,0,0,0,0,0,0,0,0,0,0,0,0,0,0,0,0,0,0,0,0,0],"split_type":[0,0,0,0,0,0,0,0,0,0,0,0,0,0,0,0,0,0,0,0,0,0,0,0,0,0,0,0,0,0,0,0,0,0,0,0,0,0,0,0,0,0,0,0,0,0,0,0,0,0,0,0,0,0,0,0,0,0,0,0,0,0,0,0,0,0,0,0,0,0,0,0,0,0,0,0,0,0,0,0,0,0,0,0,0,0,0,0,0,0,0,0,0,0,0,0,0,0,0,0,0,0,0,0,0,0,0,0,0,0,0,0,0,0,0,0,0],"sum_hessian":[7.98E3,5.485E3,2.495E3,4.739E3,7.46E2,1.434E3,1.061E3,4.334E3,4.05E2,3.43E2,4.03E2,5.92E2,8.42E2,6.54E2,4.07E2,4.147E3,1.87E2,1.93E2,2.12E2,2.15E2,1.28E2,1.87E2,2.16E2,2.48E2,3.44E2,4.37E2,4.05E2,3.43E2,3.11E2,1.87E2,2.2E2,2E0,4.145E3,1.49E2,3.8E1,1.68E2,2.5E1,3.8E1,1.74E2,1.41E2,7.4E1,2.7E1,1.01E2,1.68E2,1.9E1,4.2E1,1.74E2,4.5E1,2.03E2,6E1,2.84E2,4.31E2,6E0,1.1E1,3.94E2,3.5E1,3.08E2,1.2E1,2.99E2,3.6E1,1.51E2,1E0,1E0,6.9E2,3.455E3,2E1,1.29E2,1.54E2,1.4E1,2E0,2.3E1,3.2E1,6E0,1.26E2,4.8E1,9.6E1,4.5E1,5.9E1,1.5E1,8E0,1.9E1,9E1,1.1E1,1.26E2,4.2E1,2E0,1.7E1,5E0,3.7E1,1.3E1,1.61E2,2E1,2.5E1,1.9E1,1.84E2,5E0,5.5E1,2.53E2,3.1E1,3.39E2,9.2E1,1E0,5E0,2E0,9E0,2.02E2,1.92E2,3E0,3.2E1,2.5E1,2.83E2,1.1E1,1E0,2.04E2,9.5E1,3.4E1,2E0],"tree_param":{"num_deleted":"0","num_feature":"6","num_nodes":"117","size_leaf_vector":"1"}},{"base_weights":[1.41884E-4,-4.0118977E-2,9.5534064E-2,-4.8333954E-2,6.227495E-3,6.612332E-2,1.3573125E-1,-5.0000243E-2,-3.1578876E-2,-3.44033E-3,2.0345775E-2,4.7465805E-2,8.1529E-2,1.2206928E-1,1.6991347E-1,-5.03064E-2,-4.297935E-2,-1.1374494E-2,-3.3051044E-2,-1.17125325E-2,2.928276E-3,2.1573758E-2,-2.2826193E-2,3.869523E-2,5.4395523E-2,7.321719E-2,9.110187E-2,1.13059945E-1,1.384825E-1,1.6202386E-1,1.9388134E-2,-3.70942E-2,-5.0390414E-3,-4.133495E-2,-5.6213415E-3,2.5458194E-2,-2.5292743E-2,-5.3832877E-2,-3.147919E-2,-1.614852E-2,-1.8350444E-3,5.282564E-3,-3.0309785E-2,2.048628E-2,6.960321E-2,-5.284038E-2,1.7756071E-2,3.321555E-2,5.982512E-2,4.9242064E-2,6.524856E-2,7.41894E-2,3.5113767E-2,1.0578512E-1,8.682621E-2,1.1372012E-1,6.0802326E-3,1.1504645E-1,1.4320314E-1,1.7472568E-1,1.4967123E-2,1.7099039E-3,-4.1575823E-3,-3.8574655E-3,-5.0614527E-3,-4.3369853E-3,3.948293E-3,-1.0603621E-3,-4.6964306E-3,-1.6018749E-8,-5.590336E-3,-3.8141904E-3,-2.6305576E-3,-1.9243148E-3,3.925031E-4,-5.8750566E-3,1.642185E-4,3.03761E-3,3.2375913E-4,-3.5076402E-3,6.8043027E-4,2.6579187E-3,1.4194156E-3,9.318487E-3,7.099385E-4,-1.7038981E-3,-6.648134E-3,4.6578906E-3,-1.0943636E-4,4.087561E-3,1.3546421E-3,6.2712627E-3,-4.9493955E-3,3.9471923E-3,6.166437E-3,7.197009E-3,3.570211E-3,1.7719854E-3,7.4576363E-3,4.472863E-4,4.483042E-3,1.0883216E-2,2.6015562E-3,1.1720406E-2,8.395018E-3,1.188095E-2,1.0485413E-2,9.129467E-3,1.3586158E-2,1.0375343E-2,1.466939E-2,3.9032043E-3,1.7568273E-2],"categories":[],"categories_nodes":[],"categories_segments":[],"categories_sizes":[],"default_left":[0,0,0,0,0,0,0,0,0,0,0,0,0,0,0,0,0,0,0,0,0,0,0,0,0,0,0,0,0,0,0,0,0,0,0,0,0,0,0,0,0,0,0,0,0,0,0,0,0,0,0,0,0,0,0,0,0,0,0,0,0,0,0,0,0,0,0,0,0,0,0,0,0,0,0,0,0,0,0,0,0,0,0,0,0,0,0,0,0,0,0,0,0,0,0,0,0,0,0,0,0,0,0,0,0,0,0,0,0,0,0,0,0],"id":9,"left_children":[1,3,5,7,9,11,13,15,17,19,21,23,25,27,29,31,33,35,37,39,41,43,45,47,49,51,53,55,57,59,-1,61,-1,63,-1,65,67,69,71,73,75,77,79,81,83,85,87,89,91,93,95,97,99,101,103,105,-1,107,109,111,-1,-1,-1,-1,-1,-1,-1,-1,-1,-1,-1,-1,-1,-1,-1,-1,-1,-1,-1,-1,-1,-1,-1,-1,-1,-1,-1,-1,-1,-1,-1,-1,-1,-1,-1,-1,-1,-1,-1,-1,-1,-1,-1,-1,-1,-1,-1,-1,-1,-1,-1,-1,-1],"loss_changes":[3.0655434E1,2.1373672E0,2.7917252E0,1.3153744E-1,1.1554314E-1,3.8991117E-1,4.4625664E-1,7.156372E-3,1.2533098E-2,2.6533548E-2,1.8729389E-2,3.569889E-2,5.2926064E-2,9.051609E-2,2.2101402E-2,2.7360916E-3,1.7677248E-3,1.6535949E-2,1.1502445E-2,9.56616E-3,2.2461923E-2,1.6071469E-2,1.3118675E-2,3.0201107E-2,1.6083002E-2,1.2435198E-2,1.2411356E-2,9.265423E-3,1.1183739E-2,8.209705E-3,0E0,7.997122E-3,0E0,2.4276078E-3,0E0,1.0400026E-2,6.823742E-3,3.0094013E-3,1.2026429E-2,9.455673E-3,1.3752153E-2,1.3602921E-2,3.5999361E-3,1.2235701E-2,9.656049E-3,1.7974172E-3,2.7675894E-3,3.304492E-2,2.0780861E-2,2.6451528E-2,1.8879056E-2,7.3099136E-3,3.3722045E-3,1.4912188E-2,1.3924837E-2,8.389473E-3,0E0,1.0833263E-2,1.2872219E-2,6.3889027E-3,0E0,0E0,0E0,0E0,0E0,0E0,0E0,0E0,0E0,0E0,0E0,0E0,0E0,0E0,0E0,0E0,0E0,0E0,0E0,0E0,0E0,0E0,0E0,0E0,0E0,0E0,0E0,0E0,0E0,0E0,0E0,0E0,0E0,0E0,0E0,0E0,0E0,0E0,0E0,0E0,0E0,0E0,0E0,0E0,0E0,0E0,0E0,0E0,0E0,0E0,0E0,0E0,0E0],"parents":[2147483647,0,0,1,1,2,2,3,3,4,4,5,5,6,6,7,7,8,8,9,9,10,10,11,11,12,12,13,13,14,14,15,15,16,16,17,17,18,18,19,19,20,20,21,21,22,22,23,23,24,24,25,25,26,26,27,27,28,28,29,29,31,31,33,33,35,35,36,36,37,37,38,38,39,39,40,40,41,41,42,42,43,43,44,44,45,45,46,46,47,47,48,48,49,49,50,50,51,51,52,52,53,53,54,54,55,55,57,57,58,58,59,59],"right_children":[2,4,6,8,10,12,14,16,18,20,22,24,26,28,30,32,34,36,38,40,42,44,46,48,50,52,54,56,58,60,-1,62,-1,64,-1,66,68,70,72,74,76,78,80,82,84,86,88,90,92,94,96,98,100,102,104,106,-1,108,110,112,-1,-1,-1,-1,-1,-1,-1,-1,-1,-1,-1,-1,-1,-1,-1,-1,-1,-1,-1,-1,-1,-1,-1,-1,-1,-1,-1,-1,-1,-1,-1,-1,-1,-1,-1,-1,-1,-1,-1,-1,-1,-1,-1,-1,-1,-1,-1,-1,-1,-1,-1,-1,-1],"split_conditions":[2.0732424E-1,7.3352516E-2,3.9532933E-1,1.5430182E-2,1.5554436E-1,2.9394865E-1,5.160019E-1,3.527537E-3,7.281103E-3,1.0992685E-1,8.1127685E-1,2.4849644E-1,3.4548616E-1,4.6355247E-1,5.8560324E-1,4.1036528E-1,3.131775E-1,2.5E-1,1.6993187E-2,1.5963641E-1,5.439383E-1,5.286259E-1,5E-1,1.8667398E-1,6.048316E-1,4.7486976E-1,2.5E-1,4.0338683E-1,2.5E-1,4.931842E-2,1.9388134E-2,1.1142061E-2,-5.0390414E-3,6.064421E-1,-5.6213415E-3,3.2729685E-1,5.643658E-1,2.425338E-1,3.5154074E-2,5.466201E-1,2.9730484E-1,2.8638375E-1,1.2422169E-1,8.722053E-2,3.983287E-1,2.801354E-1,2.0293473E-1,7.3537606E-1,8.0520266E-1,2.7253616E-1,7.778829E-1,5.5710305E-3,1.5456272E-2,4.3356597E-1,1.5289575E-1,5.844889E-1,6.0802326E-3,6.2674093E-1,8.866585E-2,7.565596E-2,1.4967123E-2,1.7099039E-3,-4.1575823E-3,-3.8574655E-3,-5.0614527E-3,-4.3369853E-3,3.948293E-3,-1.0603621E-3,-4.6964306E-3,-1.6018749E-8,-5.590336E-3,-3.8141904E-3,-2.6305576E-3,-1.9243148E-3,3.925031E-4,-5.8750566E-3,1.642185E-4,3.03761E-3,3.2375913E-4,-3.5076402E-3,6.8043027E-4,2.6579187E-3,1.4194156E-3,9.318487E-3,7.099385E-4,-1.7038981E-3,-6.648134E-3,4.6578906E-3,-1.0943636E-4,4.087561E-3,1.3546421E-3,6.2712627E-3,-4.9493955E-3,3.9471923E-3,6.166437E-3,7.197009E-3,3.570211E-3,1.7719854E-3,7.4576363E-3,4.472863E-4,4.483042E-3,1.0883216E-2,2.6015562E-3,1.1720406E-2,8.395018E-3,1.188095E-2,1.0485413E-2,9.129467E-3,1.3586158E-2,1.0375343E-2,1.466939E-2,3.9032043E-3,1.7568273E-2],"split_indices":[0,0,0,0,0,0,0,0,3,0,2,0,0,0,0,1,3,5,3,3,1,3,5,3,2,1,5,3,5,3,0,4,0,1,0,1,1,1,0,1,1,1,3,3,4,1,1,4,2,0,2,4,3,1,1,2,0,4,1,1,0,0,0,0,0,0,0,0,0,0,0,0,0,0,0,0,0,0,0,0,0,0,0,0,0,0,0,0,0,0,0,0,0,0,0,0,0,0,0,0,0,0,0,0,0,0,0,0,0,0,0,0,0],"split_type":[0,0,0,0,0,0,0,0,0,0,0,0,0,0,0,0,0,0,0,0,0,0,0,0,0,0,0,0,0,0,0,0,0,0,0,0,0,0,0,0,0,0,0,0,0,0,0,0,0,0,0,0,0,0,0,0,0,0,0,0,0,0,0,0,0,0,0,0,0,0,0,0,0,0,0,0,0,0,0,0,0,0,0,0,0,0,0,0,0,0,0,0,0,0,0,0,0,0,0,0,0,0,0,0,0,0,0,0,0,0,0,0,0],"sum_hessian":[7.98E3,5.612E3,2.368E3,4.767E3,8.45E2,1.369E3,9.99E2,4.334E3,4.33E2,5.02E2,3.43E2,6.21E2,7.48E2,7.17E2,2.82E2,4.147E3,1.87E2,3E1,4.03E2,2.18E2,2.84E2,3.34E2,9E0,2.77E2,3.44E2,4.05E2,3.43E2,4.68E2,2.49E2,2.18E2,6.4E1,2.9E1,4.118E3,1.7E2,1.7E1,8E0,2.2E1,2.6E1,3.77E2,1.5E2,6.8E1,2.66E2,1.8E1,3.28E2,6E0,5E0,4E0,2.22E2,5.5E1,2.37E2,1.07E2,3.94E2,1.1E1,7.2E1,2.71E2,4.61E2,7E0,4.6E1,2.03E2,1.01E2,1.17E2,2E0,2.7E1,1.35E2,3.5E1,1E0,7E0,1.4E1,8E0,1E0,2.5E1,1.62E2,2.15E2,1.3E2,2E1,3E0,6.5E1,1.9E1,2.47E2,1.6E1,2E0,1.65E2,1.63E2,4E0,2E0,2E0,3E0,1E0,3E0,1.59E2,6.3E1,5.4E1,1E0,1.35E2,1.02E2,8.6E1,2.1E1,3E0,3.91E2,3E0,8E0,6.9E1,3E0,2E1,2.51E2,2.85E2,1.76E2,2.4E1,2.2E1,1.9E1,1.84E2,1E0,1E2],"tree_param":{"num_deleted":"0","num_feature":"6","num_nodes":"113","size_leaf_vector":"1"}},{"base_weights":[1.4909828E-4,-3.750451E-2,8.2908526E-2,-4.3805864E-2,6.8392034E-4,5.5102434E-2,1.20402716E-1,-4.5005303E-2,-2.9823562E-2,-9.646833E-3,1.0271417E-2,3.9576855E-2,7.194895E-2,1.0455171E-1,1.455547E-1,-4.213012E-2,-4.5675146E-3,-2.653507E-2,-3.836497E-2,-1.4866477E-2,-3.1269954E-3,1.2898648E-2,-2.2323362E-3,3.0732607E-2,4.8315566E-2,6.5930344E-2,8.03589E-2,9.798043E-2,1.17186844E-1,1.3382354E-1,1.6326968E-1,-4.330222E-2,-3.697619E-2,-1.9036436E-2,-3.191991E-2,1.2705692E-3,-3.8996417E-2,-1.1022844E-2,-4.134795E-2,6.2928036E-2,-5.961923E-3,9.100681E-3,2.6838994E-2,-6.574916E-3,5.6404704E-3,-2.117249E-3,3.229843E-2,3.496294E-2,5.1212195E-2,6.679382E-2,3.201325E-2,9.236121E-2,7.4976146E-2,9.9554725E-2,7.142906E-2,1.3596956E-1,1.07640326E-1,1.4582919E-2,1.23100795E-1,1.6371269E-2,4.685943E-3,-8.1640604E-4,-4.339493E-3,-3.3996452E-3,-4.6378165E-3,-5.5751247E-5,-2.2390608E-3,-2.53984E-3,-4.0398403E-3,-4.0714317E-3,-1.393656E-3,-1.2752522E-3,2.3834526E-3,2.9287792E-3,-5.183469E-3,7.7608423E-3,1.7484723E-3,-1.0707368E-3,8.304085E-4,1.0303037E-3,-7.1628154E-3,4.4060647E-3,1.0723857E-3,4.1890307E-3,-1.0316999E-3,4.6175676E-3,-3.70469E-3,3.3917406E-3,1.6274238E-4,2.4570532E-3,8.314538E-3,1.0440975E-2,4.961757E-3,6.3955053E-3,7.864061E-3,3.9055177E-3,-2.1309305E-4,1.8061463E-3,9.58946E-3,2.9386885E-3,7.905063E-3,9.8004835E-3,1.4686391E-2,-7.594928E-4,7.463717E-3,8.323262E-3,1.4337185E-2,9.79143E-3,1.4044522E-2,1.10563245E-2,1.4320637E-2],"categories":[],"categories_nodes":[],"categories_segments":[],"categories_sizes":[],"default_left":[0,0,0,0,0,0,0,0,0,0,0,0,0,0,0,0,0,0,0,0,0,0,0,0,0,0,0,0,0,0,0,0,0,0,0,0,0,0,0,0,0,0,0,0,0,0,0,0,0,0,0,0,0,0,0,0,0,0,0,0,0,0,0,0,0,0,0,0,0,0,0,0,0,0,0,0,0,0,0,0,0,0,0,0,0,0,0,0,0,0,0,0,0,0,0,0,0,0,0,0,0,0,0,0,0,0,0,0,0,0,0],"id":10,"left_children":[1,3,5,7,9,11,13,15,17,19,21,23,25,27,29,31,-1,33,35,37,39,41,43,45,47,49,51,53,55,57,59,61,63,65,67,-1,69,71,73,75,77,79,81,83,-1,85,87,89,91,93,95,97,99,101,103,105,107,-1,109,-1,-1,-1,-1,-1,-1,-1,-1,-1,-1,-1,-1,-1,-1,-1,-1,-1,-1,-1,-1,-1,-1,-1,-1,-1,-1,-1,-1,-1,-1,-1,-1,-1,-1,-1,-1,-1,-1,-1,-1,-1,-1,-1,-1,-1,-1,-1,-1,-1,-1,-1,-1],"loss_changes":[2.4873428E1,1.3201756E0,2.5956135E0,7.763195E-2,7.715692E-2,3.7247944E-1,4.081831E-1,6.424904E-3,9.515107E-3,1.271522E-2,1.3300292E-2,5.6403518E-2,2.947545E-2,4.290247E-2,6.29406E-2,3.424883E-3,0E0,1.0456204E-2,3.7848204E-3,2.0715516E-2,3.183506E-2,1.743937E-2,1.8450012E-2,1.9357264E-2,1.2713492E-2,9.752274E-3,1.1293769E-2,1.11551285E-2,2.4632692E-2,1.4359951E-2,4.7683716E-4,1.8347502E-3,2.9337704E-3,7.239353E-3,7.7101737E-3,0E0,3.780663E-3,1.1337386E-2,2.077733E-2,3.3129156E-3,1.1056082E-2,2.6363071E-2,1.9232083E-2,1.2583362E-2,0E0,3.2074053E-2,1.7721504E-2,3.3008285E-2,2.0777464E-2,8.254409E-3,2.9685143E-3,2.0057976E-2,3.482759E-2,1.5669346E-2,7.665366E-3,1.5393138E-2,3.4107566E-2,0E0,1.9205093E-2,0E0,0E0,0E0,0E0,0E0,0E0,0E0,0E0,0E0,0E0,0E0,0E0,0E0,0E0,0E0,0E0,0E0,0E0,0E0,0E0,0E0,0E0,0E0,0E0,0E0,0E0,0E0,0E0,0E0,0E0,0E0,0E0,0E0,0E0,0E0,0E0,0E0,0E0,0E0,0E0,0E0,0E0,0E0,0E0,0E0,0E0,0E0,0E0,0E0,0E0,0E0,0E0],"parents":[2147483647,0,0,1,1,2,2,3,3,4,4,5,5,6,6,7,7,8,8,9,9,10,10,11,11,12,12,13,13,14,14,15,15,17,17,18,18,19,19,20,20,21,21,22,22,23,23,24,24,25,25,26,26,27,27,28,28,29,29,30,30,31,31,32,32,33,33,34,34,36,36,37,37,38,38,39,39,40,40,41,41,42,42,43,43,45,45,46,46,47,47,48,48,49,49,50,50,51,51,52,52,53,53,54,54,55,55,56,56,58,58],"right_children":[2,4,6,8,10,12,14,16,18,20,22,24,26,28,30,32,-1,34,36,38,40,42,44,46,48,50,52,54,56,58,60,62,64,66,68,-1,70,72,74,76,78,80,82,84,-1,86,88,90,92,94,96,98,100,102,104,106,108,-1,110,-1,-1,-1,-1,-1,-1,-1,-1,-1,-1,-1,-1,-1,-1,-1,-1,-1,-1,-1,-1,-1,-1,-1,-1,-1,-1,-1,-1,-1,-1,-1,-1,-1,-1,-1,-1,-1,-1,-1,-1,-1,-1,-1,-1,-1,-1,-1,-1,-1,-1,-1,-1],"split_conditions":[1.8967198E-1,6.401967E-2,3.8435408E-1,1.5430182E-2,1.2677744E-1,2.9394865E-1,4.8929715E-1,5.8410573E-1,1.9149585E-1,5.598886E-1,1.9668241E-1,2.4461254E-1,3.4548616E-1,4.473955E-1,5.470218E-1,3.1204522E-3,-4.5675146E-3,4.7841066E-1,1.1142061E-2,4.8746517E-1,5.821727E-1,1.2992072E-1,5.286259E-1,2.3092431E-1,1.7270195E-1,4.7486976E-1,2.729805E-1,2.665903E-1,3.3983287E-1,4.931842E-2,3.5185194E-1,3.298599E-1,2.0091514E-1,1.7270195E-1,4.3418673E-1,1.2705692E-3,7.1021104E-1,4.54039E-1,3.5185194E-1,3.7266E-1,1.0992685E-1,9.6657383E-1,5E-1,2.0293473E-1,5.6404704E-3,4.068996E-1,8.0520266E-1,4.1036528E-1,1.8941504E-1,1E0,9.5821726E-1,2.140722E-1,3.0640668E-1,2.4336332E-1,1.1142061E-2,3.7911847E-1,8.495822E-1,1.4582919E-2,1.171871E-1,1.6371269E-2,4.685943E-3,-8.1640604E-4,-4.339493E-3,-3.3996452E-3,-4.6378165E-3,-5.5751247E-5,-2.2390608E-3,-2.53984E-3,-4.0398403E-3,-4.0714317E-3,-1.393656E-3,-1.2752522E-3,2.3834526E-3,2.9287792E-3,-5.183469E-3,7.7608423E-3,1.7484723E-3,-1.0707368E-3,8.304085E-4,1.0303037E-3,-7.1628154E-3,4.4060647E-3,1.0723857E-3,4.1890307E-3,-1.0316999E-3,4.6175676E-3,-3.70469E-3,3.3917406E-3,1.6274238E-4,2.4570532E-3,8.314538E-3,1.0440975E-2,4.961757E-3,6.3955053E-3,7.864061E-3,3.9055177E-3,-2.1309305E-4,1.8061463E-3,9.58946E-3,2.9386885E-3,7.905063E-3,9.8004835E-3,1.4686391E-2,-7.594928E-4,7.463717E-3,8.323262E-3,1.4337185E-2,9.79143E-3,1.4044522E-2,1.10563245E-2,1.4320637E-2],"split_indices":[0,0,0,0,0,0,0,1,3,4,3,0,0,0,0,0,0,1,4,4,4,3,3,2,4,1,4,3,4,3,1,1,3,4,2,0,2,4,1,1,0,4,5,1,0,1,2,1,4,5,4,2,4,3,4,2,4,0,3,0,0,0,0,0,0,0,0,0,0,0,0,0,0,0,0,0,0,0,0,0,0,0,0,0,0,0,0,0,0,0,0,0,0,0,0,0,0,0,0,0,0,0,0,0,0,0,0,0,0,0,0],"split_type":[0,0,0,0,0,0,0,0,0,0,0,0,0,0,0,0,0,0,0,0,0,0,0,0,0,0,0,0,0,0,0,0,0,0,0,0,0,0,0,0,0,0,0,0,0,0,0,0,0,0,0,0,0,0,0,0,0,0,0,0,0,0,0,0,0,0,0,0,0,0,0,0,0,0,0,0,0,0,0,0,0,0,0,0,0,0,0,0,0,0,0,0,0,0,0,0,0,0,0,0,0,0,0,0,0,0,0,0,0,0,0],"sum_hessian":[7.98E3,5.485E3,2.495E3,4.708E3,7.77E2,1.434E3,1.061E3,4.334E3,3.74E2,3.74E2,4.03E2,7.48E2,6.86E2,6.54E2,4.07E2,8.31E2,3.503E3,2.73E2,1.01E2,2.07E2,1.67E2,3.33E2,7E1,3.74E2,3.74E2,4.05E2,2.81E2,4.36E2,2.18E2,2.5E2,1.57E2,6.71E2,1.6E2,1.16E2,1.57E2,1E0,1E2,1.82E2,2.5E1,6E0,1.61E2,2.63E2,7E1,6.6E1,4E0,1.7E1,3.57E2,6.9E1,3.05E2,3.94E2,1.1E1,8.2E1,1.99E2,4.09E2,2.7E1,6.9E1,1.49E2,1.12E2,1.38E2,1.56E2,1E0,2E0,6.69E2,1.25E2,3.5E1,1.8E1,9.8E1,9.1E1,6.6E1,9.3E1,7E0,1.74E2,8E0,3E0,2.2E1,4E0,2E0,1.21E2,4E1,2.6E2,3E0,3.3E1,3.7E1,4E0,6.2E1,7E0,1E1,3.39E2,1.8E1,5.8E1,1.1E1,7E0,2.98E2,3.23E2,7.1E1,9E0,2E0,4E0,7.8E1,1.7E1,1.82E2,3.99E2,1E1,1E0,2.6E1,1E1,5.9E1,1.18E2,3.1E1,8.9E1,4.9E1],"tree_param":{"num_deleted":"0","num_feature":"6","num_nodes":"111","size_leaf_vector":"1"}},{"base_weights":[1.586164E-4,-3.2517873E-2,7.758073E-2,-3.917381E-2,5.032983E-3,5.5552024E-2,1.1309115E-1,-4.0358003E-2,-2.3827206E-2,-2.9398755E-3,1.667634E-2,4.0965296E-2,7.065054E-2,1.0235071E-1,1.4055897E-1,-4.075475E-2,-3.429302E-2,-2.6305597E-2,-1.3750283E-2,8.56801E-3,-5.8166906E-3,1.776502E-2,-2.146204E-2,3.3324715E-2,4.845589E-2,6.391824E-2,7.778414E-2,9.405096E-2,1.1306266E-1,1.3354881E-1,1.5867206E-1,-2.9600382E-2,-4.0826097E-2,-3.0914234E-2,-4.4079274E-2,-3.0965978E-2,-1.6698906E-2,-2.058642E-2,1.5064723E-2,4.352931E-2,-1.7190517E-3,-5.9600107E-2,-4.853717E-3,1.6794384E-2,6.084707E-2,-4.9592108E-2,1.6586449E-2,3.3990297E-2,-3.6572926E-2,5.3796574E-2,3.7603248E-2,6.967008E-2,5.4924317E-2,9.232061E-2,7.426081E-2,1.095598E-1,8.912747E-2,9.228536E-2,1.17487706E-1,1.4896378E-1,1.2048735E-1,1.6063562E-2,6.4547E-3,6.747911E-4,-3.5451965E-3,-3.9701783E-3,-4.1256067E-3,-1.6045388E-3,-3.3113589E-3,-4.495717E-3,7.8088307E-4,-2.8340367E-3,-5.107897E-3,4.286497E-3,-1.8498825E-3,-2.5375744E-3,1.1920155E-3,3.3771995E-4,4.343923E-3,-2.9294626E-4,6.4038113E-3,3.0713018E-3,-9.1769284E-4,-7.3247063E-3,1.1140809E-3,-8.827285E-4,3.6635314E-4,1.5487628E-3,4.3116636E-3,8.256694E-3,4.3649325E-4,-1.7425979E-3,-6.1318683E-3,4.4168592E-3,-1.3512337E-4,3.3040643E-3,8.609593E-3,-5.7649678E-3,1.3328664E-3,5.54923E-3,1.5681582E-3,6.7489925E-3,3.330322E-3,3.6479873E-3,7.1867094E-3,5.0933794E-3,8.338292E-3,6.2270137E-3,1.0041409E-2,9.45889E-3,7.0609017E-3,1.7778644E-3,1.1153341E-2,9.231096E-3,6.486447E-3,9.950529E-3,4.512958E-3,8.196005E-3,1.2032534E-2,2.8894797E-3,1.50089385E-2,1.3147051E-2,1.0634224E-2],"categories":[],"categories_nodes":[],"categories_segments":[],"categories_sizes":[],"default_left":[0,0,0,0,0,0,0,0,0,0,0,0,0,0,0,0,0,0,0,0,0,0,0,0,0,0,0,0,0,0,0,0,0,0,0,0,0,0,0,0,0,0,0,0,0,0,0,0,0,0,0,0,0,0,0,0,0,0,0,0,0,0,0,0,0,0,0,0,0,0,0,0,0,0,0,0,0,0,0,0,0,0,0,0,0,0,0,0,0,0,0,0,0,0,0,0,0,0,0,0,0,0,0,0,0,0,0,0,0,0,0,0,0,0,0,0,0,0,0,0,0,0,0],"id":11,"left_children":[1,3,5,7,9,11,13,15,17,19,21,23,25,27,29,31,33,35,37,39,41,43,45,47,49,51,53,55,57,59,61,63,65,67,69,71,73,75,77,79,81,83,85,87,89,91,93,95,97,99,101,103,105,107,109,111,113,115,117,119,121,-1,-1,-1,-1,-1,-1,-1,-1,-1,-1,-1,-1,-1,-1,-1,-1,-1,-1,-1,-1,-1,-1,-1,-1,-1,-1,-1,-1,-1,-1,-1,-1,-1,-1,-1,-1,-1,-1,-1,-1,-1,-1,-1,-1,-1,-1,-1,-1,-1,-1,-1,-1,-1,-1,-1,-1,-1,-1,-1,-1,-1,-1],"loss_changes":[2.0193518E1,1.4030886E0,1.8468637E0,8.568907E-2,7.8583926E-2,3.195343E-1,2.5289822E-1,9.250164E-3,8.229539E-3,1.6702186E-2,1.4664307E-2,4.1137934E-2,2.951026E-2,4.760027E-2,1.0807037E-2,2.0928383E-3,7.829547E-3,1.1794895E-2,1.4098962E-2,3.6399383E-2,2.0582903E-2,1.2986809E-2,1.1525623E-2,1.8596113E-2,1.971227E-2,1.5572786E-2,1.076293E-2,1.8869162E-2,1.4993191E-2,1.9904137E-2,1.6447306E-3,6.6200774E-3,3.528595E-4,6.336078E-3,3.4941733E-3,8.269221E-3,1.0656284E-2,9.176498E-3,4.4960855E-3,2.2102315E-2,1.9389927E-2,7.573815E-3,1.3468352E-2,1.0648765E-2,8.227091E-3,1.1946531E-3,2.5334808E-3,1.5463799E-2,4.9754474E-3,1.5223265E-2,1.4073595E-2,1.3785124E-2,1.2901247E-2,9.069622E-3,1.4255047E-2,1.3595104E-2,1.641202E-2,1.389426E-2,1.3123751E-2,6.7454576E-3,2.642393E-3,0E0,0E0,0E0,0E0,0E0,0E0,0E0,0E0,0E0,0E0,0E0,0E0,0E0,0E0,0E0,0E0,0E0,0E0,0E0,0E0,0E0,0E0,0E0,0E0,0E0,0E0,0E0,0E0,0E0,0E0,0E0,0E0,0E0,0E0,0E0,0E0,0E0,0E0,0E0,0E0,0E0,0E0,0E0,0E0,0E0,0E0,0E0,0E0,0E0,0E0,0E0,0E0,0E0,0E0,0E0,0E0,0E0,0E0,0E0,0E0,0E0,0E0],"parents":[2147483647,0,0,1,1,2,2,3,3,4,4,5,5,6,6,7,7,8,8,9,9,10,10,11,11,12,12,13,13,14,14,15,15,16,16,17,17,18,18,19,19,20,20,21,21,22,22,23,23,24,24,25,25,26,26,27,27,28,28,29,29,30,30,31,31,32,32,33,33,34,34,35,35,36,36,37,37,38,38,39,39,40,40,41,41,42,42,43,43,44,44,45,45,46,46,47,47,48,48,49,49,50,50,51,51,52,52,53,53,54,54,55,55,56,56,57,57,58,58,59,59,60,60],"right_children":[2,4,6,8,10,12,14,16,18,20,22,24,26,28,30,32,34,36,38,40,42,44,46,48,50,52,54,56,58,60,62,64,66,68,70,72,74,76,78,80,82,84,86,88,90,92,94,96,98,100,102,104,106,108,110,112,114,116,118,120,122,-1,-1,-1,-1,-1,-1,-1,-1,-1,-1,-1,-1,-1,-1,-1,-1,-1,-1,-1,-1,-1,-1,-1,-1,-1,-1,-1,-1,-1,-1,-1,-1,-1,-1,-1,-1,-1,-1,-1,-1,-1,-1,-1,-1,-1,-1,-1,-1,-1,-1,-1,-1,-1,-1,-1,-1,-1,-1,-1,-1,-1,-1],"split_conditions":[2.0732424E-1,7.3352516E-2,4.0842053E-1,2.4463922E-2,1.5554436E-1,3.0951756E-1,5.226152E-1,3.527537E-3,1E0,3.5489586E-1,8.1127685E-1,2.6103693E-1,3.572365E-1,4.6355247E-1,5.8560324E-1,4.1036528E-1,1.7836234E-1,5.8022726E-1,6.401967E-2,6.1463937E-2,3.6091664E-1,5.286259E-1,5E-1,5.7048273E-1,6.7409474E-1,1.10167414E-1,2.5E-1,3.7250316E-1,2.5E-1,4.931842E-2,9.275766E-1,3.3426184E-2,6.400122E-1,1.0306407E-1,7.866251E-1,3.5690355E-1,6.900981E-3,8.579387E-1,5.033272E-1,2.1904703E-2,1.281337E-1,7.883008E-1,1.2992072E-1,5.439383E-1,3.983287E-1,2.801354E-1,2.0293473E-1,5.2637345E-1,2.1796693E-1,4.689099E-1,2.3722862E-1,2.140722E-1,8.523677E-1,1.4763232E-1,1.7005782E-1,2.1781623E-3,3.1173262E-1,6.859884E-1,8.866585E-2,7.565596E-2,5.259591E-1,1.6063562E-2,6.4547E-3,6.747911E-4,-3.5451965E-3,-3.9701783E-3,-4.1256067E-3,-1.6045388E-3,-3.3113589E-3,-4.495717E-3,7.8088307E-4,-2.8340367E-3,-5.107897E-3,4.286497E-3,-1.8498825E-3,-2.5375744E-3,1.1920155E-3,3.3771995E-4,4.343923E-3,-2.9294626E-4,6.4038113E-3,3.0713018E-3,-9.1769284E-4,-7.3247063E-3,1.1140809E-3,-8.827285E-4,3.6635314E-4,1.5487628E-3,4.3116636E-3,8.256694E-3,4.3649325E-4,-1.7425979E-3,-6.1318683E-3,4.4168592E-3,-1.3512337E-4,3.3040643E-3,8.609593E-3,-5.7649678E-3,1.3328664E-3,5.54923E-3,1.5681582E-3,6.7489925E-3,3.330322E-3,3.6479873E-3,7.1867094E-3,5.0933794E-3,8.338292E-3,6.2270137E-3,1.0041409E-2,9.45889E-3,7.0609017E-3,1.7778644E-3,1.1153341E-2,9.231096E-3,6.486447E-3,9.950529E-3,4.512958E-3,8.196005E-3,1.2032534E-2,2.8894797E-3,1.50089385E-2,1.3147051E-2,1.0634224E-2],"split_indices":[0,0,0,0,0,0,0,0,5,1,2,0,0,0,0,1,3,2,0,3,1,3,5,1,4,3,5,2,5,3,4,4,1,4,2,3,3,4,2,3,4,4,3,1,4,1,1,1,0,1,1,2,4,4,1,3,1,2,1,1,2,0,0,0,0,0,0,0,0,0,0,0,0,0,0,0,0,0,0,0,0,0,0,0,0,0,0,0,0,0,0,0,0,0,0,0,0,0,0,0,0,0,0,0,0,0,0,0,0,0,0,0,0,0,0,0,0,0,0,0,0,0,0],"split_type":[0,0,0,0,0,0,0,0,0,0,0,0,0,0,0,0,0,0,0,0,0,0,0,0,0,0,0,0,0,0,0,0,0,0,0,0,0,0,0,0,0,0,0,0,0,0,0,0,0,0,0,0,0,0,0,0,0,0,0,0,0,0,0,0,0,0,0,0,0,0,0,0,0,0,0,0,0,0,0,0,0,0,0,0,0,0,0,0,0,0,0,0,0,0,0,0,0,0,0,0,0,0,0,0,0,0,0,0,0,0,0,0,0,0,0,0,0,0,0,0,0,0,0],"sum_hessian":[7.98E3,5.612E3,2.368E3,4.767E3,8.45E2,1.463E3,9.05E2,4.424E3,3.43E2,5.02E2,3.43E2,7.46E2,7.17E2,6.54E2,2.51E2,4.147E3,2.77E2,2.74E2,6.9E1,1E2,4.02E2,3.34E2,9E0,3.72E2,3.74E2,3.74E2,3.43E2,3.74E2,2.8E2,1.87E2,6.4E1,2.9E1,4.118E3,2.09E2,6.8E1,1.83E2,9.1E1,5.6E1,1.3E1,2.2E1,7.8E1,6E0,3.96E2,3.28E2,6E0,5E0,4E0,3.69E2,3E0,2.48E2,1.26E2,2.24E2,1.5E2,6.2E1,2.81E2,8.5E1,2.89E2,5.3E1,2.27E2,8.1E1,1.06E2,6.2E1,2E0,4E0,2.5E1,1.165E3,2.953E3,2.8E1,1.81E2,6.7E1,1E0,1.64E2,1.9E1,2E0,8.9E1,4.9E1,7E0,1E1,3E0,7E0,1.5E1,1.4E1,6.4E1,5E0,1E0,2.7E2,1.26E2,3.14E2,1.4E1,4E0,2E0,2E0,3E0,1E0,3E0,3.64E2,5E0,2E0,1E0,2.37E2,1.1E1,1.4E1,1.12E2,1.5E1,2.09E2,1.34E2,1.6E1,1.5E1,4.7E1,3.9E1,2.42E2,2E0,8.3E1,2.53E2,3.6E1,4.5E1,8E0,1.9E1,2.08E2,1E0,8E1,5.5E1,5.1E1],"tree_param":{"num_deleted":"0","num_feature":"6","num_nodes":"123","size_leaf_vector":"1"}},{"base_weights":[1.6781435E-4,-3.0395206E-2,6.734272E-2,-3.537079E-2,1.217468E-3,4.4733834E-2,9.782898E-2,-3.6326632E-2,-2.187406E-2,-6.653505E-3,9.043216E-3,2.9037049E-2,5.5722516E-2,8.40753E-2,1.1715578E-1,-3.668192E-2,-3.0894762E-2,1.12662995E-2,-2.2661274E-2,-7.0087533E-3,6.2749437E-3,1.24104405E-2,-1.9167474E-3,2.1814557E-2,3.416564E-2,4.544315E-2,6.0781337E-2,7.744716E-2,9.189027E-2,1.04573205E-1,1.2909438E-1,-2.6736027E-2,-3.6745455E-2,-2.5780635E-2,-3.6276475E-2,-5.5221817E-3,1.7782825E-3,-3.4449715E-2,-2.0677887E-2,-1.1243621E-2,-1.6277757E-3,1.730736E-2,-1.6622829E-3,-2.1061745E-2,1.4141653E-2,7.523765E-2,2.0185849E-2,5.251888E-2,3.0117523E-2,5.0728586E-2,3.1219458E-2,7.90524E-2,5.9038106E-2,8.615633E-2,7.126691E-2,1.0589136E-1,8.5890375E-2,1.143026E-1,9.389314E-2,1.2445477E-1,1.5095179E-1,3.0057493E-3,-2.9730888E-3,-3.5447103E-3,-3.7053046E-3,-1.3190198E-4,-2.878115E-3,-4.1629947E-3,-3.2209426E-3,-7.308297E-4,-9.7497556E-5,-4.1092746E-3,-1.3864159E-3,3.121468E-4,-2.2007187E-3,-9.776166E-4,-5.9018587E-3,5.310417E-3,-3.67005E-4,8.6316717E-4,2.8408982E-3,-1.4067305E-3,1.8499729E-3,-5.806165E-4,-4.225749E-3,3.2090798E-3,-1.1318676E-3,8.408276E-3,1.1083469E-3,1.5265027E-4,2.4303861E-3,-4.881546E-5,5.726037E-3,3.3338894E-3,2.647628E-4,1.1202409E-2,4.8625567E-3,3.392291E-3,-4.857562E-3,-1.9660757E-3,8.168294E-3,5.8372547E-3,1.2980327E-2,3.9373394E-3,8.798454E-3,8.152026E-3,6.012257E-3,1.2673964E-2,8.855662E-3,8.037261E-3,1.1269186E-2,1.1763527E-2,6.9212406E-3,8.041876E-3,1.0845402E-2,1.3558762E-2,1.1212906E-2,1.7421385E-2,1.1744184E-2],"categories":[],"categories_nodes":[],"categories_segments":[],"categories_sizes":[],"default_left":[0,0,0,0,0,0,0,0,0,0,0,0,0,0,0,0,0,0,0,0,0,0,0,0,0,0,0,0,0,0,0,0,0,0,0,0,0,0,0,0,0,0,0,0,0,0,0,0,0,0,0,0,0,0,0,0,0,0,0,0,0,0,0,0,0,0,0,0,0,0,0,0,0,0,0,0,0,0,0,0,0,0,0,0,0,0,0,0,0,0,0,0,0,0,0,0,0,0,0,0,0,0,0,0,0,0,0,0,0,0,0,0,0,0,0,0,0,0,0],"id":12,"left_children":[1,3,5,7,9,11,13,15,17,19,21,23,25,27,29,31,33,35,37,39,-1,41,43,45,47,49,51,53,55,57,59,61,63,65,67,69,-1,71,73,75,77,79,81,83,85,87,89,91,93,95,97,99,101,103,105,107,109,111,113,115,117,-1,-1,-1,-1,-1,-1,-1,-1,-1,-1,-1,-1,-1,-1,-1,-1,-1,-1,-1,-1,-1,-1,-1,-1,-1,-1,-1,-1,-1,-1,-1,-1,-1,-1,-1,-1,-1,-1,-1,-1,-1,-1,-1,-1,-1,-1,-1,-1,-1,-1,-1,-1,-1,-1,-1,-1,-1,-1],"loss_changes":[1.6387583E1,8.629446E-1,1.7160177E0,6.0354233E-2,4.607257E-2,2.4590063E-1,2.7244568E-1,7.4067116E-3,8.49928E-3,9.636216E-3,1.3863036E-2,2.1220118E-2,4.107523E-2,2.5205612E-2,5.244589E-2,1.6384125E-3,6.7161024E-3,9.7342033E-4,6.5124035E-3,8.458732E-3,0E0,1.9806799E-2,2.7659832E-2,2.0146914E-2,2.4050444E-2,1.9616604E-2,1.3232946E-2,1.2375593E-2,1.4510632E-2,1.2024164E-2,3.624916E-3,5.996302E-3,3.3140182E-4,1.0678068E-2,1.5548915E-3,1.7240098E-5,0E0,5.310554E-3,8.515619E-3,1.4005411E-2,1.8638207E-2,2.0269707E-2,1.9018508E-2,1.3012134E-2,2.2755794E-2,3.040228E-3,1.8634886E-2,1.5359208E-2,2.5131553E-2,2.0849586E-2,1.8689878E-2,1.3550699E-2,1.6773105E-2,8.33869E-3,1.8751979E-2,1.7688334E-2,2.0815134E-2,8.387923E-3,1.286006E-2,1.059413E-2,6.0433745E-3,0E0,0E0,0E0,0E0,0E0,0E0,0E0,0E0,0E0,0E0,0E0,0E0,0E0,0E0,0E0,0E0,0E0,0E0,0E0,0E0,0E0,0E0,0E0,0E0,0E0,0E0,0E0,0E0,0E0,0E0,0E0,0E0,0E0,0E0,0E0,0E0,0E0,0E0,0E0,0E0,0E0,0E0,0E0,0E0,0E0,0E0,0E0,0E0,0E0,0E0,0E0,0E0,0E0,0E0,0E0,0E0,0E0,0E0],"parents":[2147483647,0,0,1,1,2,2,3,3,4,4,5,5,6,6,7,7,8,8,9,9,10,10,11,11,12,12,13,13,14,14,15,15,16,16,17,17,18,18,19,19,21,21,22,22,23,23,24,24,25,25,26,26,27,27,28,28,29,29,30,30,31,31,32,32,33,33,34,34,35,35,37,37,38,38,39,39,40,40,41,41,42,42,43,43,44,44,45,45,46,46,47,47,48,48,49,49,50,50,51,51,52,52,53,53,54,54,55,55,56,56,57,57,58,58,59,59,60,60],"right_children":[2,4,6,8,10,12,14,16,18,20,22,24,26,28,30,32,34,36,38,40,-1,42,44,46,48,50,52,54,56,58,60,62,64,66,68,70,-1,72,74,76,78,80,82,84,86,88,90,92,94,96,98,100,102,104,106,108,110,112,114,116,118,-1,-1,-1,-1,-1,-1,-1,-1,-1,-1,-1,-1,-1,-1,-1,-1,-1,-1,-1,-1,-1,-1,-1,-1,-1,-1,-1,-1,-1,-1,-1,-1,-1,-1,-1,-1,-1,-1,-1,-1,-1,-1,-1,-1,-1,-1,-1,-1,-1,-1,-1,-1,-1,-1,-1,-1,-1,-1],"split_conditions":[1.8967198E-1,6.767124E-2,3.8435408E-1,2.4463922E-2,1.3150707E-1,2.7253616E-1,4.8124307E-1,3.527537E-3,1.9498607E-2,8.864755E-1,6.3724947E-1,2.2700289E-1,3.0951756E-1,4.352671E-1,5.3010726E-1,4.1036528E-1,8.5395426E-2,5.5710305E-3,3.0491504E-1,5.598886E-1,6.2749437E-3,1E0,6.909853E-1,1.1142061E-2,2.1904703E-2,6.192624E-1,1.7451811E-1,5E-1,3.259053E-1,5.9041847E-2,6.077723E-1,5.5710305E-3,6.0284024E-1,1.0306407E-1,4.363196E-1,4.0036902E-1,1.7782825E-3,7.4094707E-1,3.2902932E-1,5.5153203E-1,5.738162E-1,1.6585092E-1,4.5391154E-1,6.37883E-1,3.5185194E-1,3.677462E-1,2.76945E-1,1.5220192E-3,8.746518E-1,1.7905971E-1,9.247911E-1,7.00448E-4,8.1127685E-1,6.963788E-2,5.5570996E-1,1.8987663E-1,9.164345E-1,9.275766E-1,1.171871E-1,5.4247178E-2,1.5289575E-1,3.0057493E-3,-2.9730888E-3,-3.5447103E-3,-3.7053046E-3,-1.3190198E-4,-2.878115E-3,-4.1629947E-3,-3.2209426E-3,-7.308297E-4,-9.7497556E-5,-4.1092746E-3,-1.3864159E-3,3.121468E-4,-2.2007187E-3,-9.776166E-4,-5.9018587E-3,5.310417E-3,-3.67005E-4,8.6316717E-4,2.8408982E-3,-1.4067305E-3,1.8499729E-3,-5.806165E-4,-4.225749E-3,3.2090798E-3,-1.1318676E-3,8.408276E-3,1.1083469E-3,1.5265027E-4,2.4303861E-3,-4.881546E-5,5.726037E-3,3.3338894E-3,2.647628E-4,1.1202409E-2,4.8625567E-3,3.392291E-3,-4.857562E-3,-1.9660757E-3,8.168294E-3,5.8372547E-3,1.2980327E-2,3.9373394E-3,8.798454E-3,8.152026E-3,6.012257E-3,1.2673964E-2,8.855662E-3,8.037261E-3,1.1269186E-2,1.1763527E-2,6.9212406E-3,8.041876E-3,1.0845402E-2,1.3558762E-2,1.1212906E-2,1.7421385E-2,1.1744184E-2],"split_indices":[0,0,0,0,0,0,0,0,4,2,2,0,0,0,0,1,3,4,2,4,0,5,2,4,3,2,1,5,4,3,0,4,1,4,2,1,0,4,2,4,4,0,2,4,1,1,1,3,4,1,4,3,2,4,2,1,4,4,3,3,1,0,0,0,0,0,0,0,0,0,0,0,0,0,0,0,0,0,0,0,0,0,0,0,0,0,0,0,0,0,0,0,0,0,0,0,0,0,0,0,0,0,0,0,0,0,0,0,0,0,0,0,0,0,0,0,0,0,0],"split_type":[0,0,0,0,0,0,0,0,0,0,0,0,0,0,0,0,0,0,0,0,0,0,0,0,0,0,0,0,0,0,0,0,0,0,0,0,0,0,0,0,0,0,0,0,0,0,0,0,0,0,0,0,0,0,0,0,0,0,0,0,0,0,0,0,0,0,0,0,0,0,0,0,0,0,0,0,0,0,0,0,0,0,0,0,0,0,0,0,0,0,0,0,0,0,0,0,0,0,0,0,0,0,0,0,0,0,0,0,0,0,0,0,0,0,0,0,0,0,0],"sum_hessian":[7.98E3,5.485E3,2.495E3,4.739E3,7.46E2,1.434E3,1.061E3,4.424E3,3.15E2,3.72E2,3.74E2,5.92E2,8.42E2,6.23E2,4.38E2,4.147E3,2.77E2,7E0,3.08E2,3.71E2,1E0,2.86E2,8.8E1,2.48E2,3.44E2,2.81E2,5.61E2,3.43E2,2.8E2,2.18E2,2.2E2,2.9E1,4.118E3,1.45E2,1.32E2,2E0,5E0,4.2E1,2.66E2,2.07E2,1.64E2,2.12E2,7.4E1,4E1,4.8E1,6E0,2.42E2,6E1,2.84E2,2.03E2,7.8E1,4.5E1,5.16E2,1.37E2,2.06E2,7.9E1,2.01E2,1.09E2,1.09E2,1.87E2,3.3E1,1E0,2.8E1,8.11E2,3.307E3,1.6E1,1.29E2,5.3E1,7.9E1,1E0,1E0,3.1E1,1.1E1,1.4E1,2.52E2,2.02E2,5E0,5E0,1.59E2,1.2E2,9.2E1,4.6E1,2.8E1,2.4E1,1.6E1,2.8E1,2E1,5E0,1E0,4.4E1,1.98E2,5E0,5.5E1,2.54E2,3E1,5E0,1.98E2,7.6E1,2E0,1E0,4.4E1,5.13E2,3E0,6E0,1.31E2,1.04E2,1.02E2,3.3E1,4.6E1,1.7E2,3.1E1,1E2,9E0,6E1,4.9E1,9.3E1,9.4E1,1.7E1,1.6E1],"tree_param":{"num_deleted":"0","num_feature":"6","num_nodes":"119","size_leaf_vector":"1"}},{"base_weights":[1.763358E-4,-2.6350318E-2,6.302729E-2,-3.1747386E-2,4.0983604E-3,4.5100186E-2,9.192604E-2,-3.269795E-2,-1.9427659E-2,-2.2860458E-3,1.3421784E-2,3.3305574E-2,5.730837E-2,8.31266E-2,1.14432804E-1,-3.3015467E-2,-2.7842674E-2,-3.1380943E-4,-2.0482061E-2,-8.220878E-3,2.2824253E-3,1.2362286E-2,4.757279E-2,2.6473528E-2,3.8917318E-2,5.161323E-2,6.335014E-2,7.635377E-2,9.1869235E-2,1.0851829E-1,1.297789E-1,-3.2742694E-3,-3.3029024E-2,-2.4951985E-2,-3.6236905E-2,4.841401E-3,-1.2476151E-2,-5.603634E-3,-1.9295864E-2,-1.0225136E-2,9.303452E-3,4.3647615E-3,-2.7100004E-2,1.8950392E-2,6.8527525E-3,7.183732E-3,1.9423552E-2,2.253384E-2,4.377514E-2,5.838611E-2,3.646377E-2,3.555142E-2,5.438044E-2,7.645705E-2,6.019735E-2,9.028419E-2,7.19594E-2,7.369596E-2,9.57705E-2,1.2111119E-1,9.785346E-2,1.1815754E-1,1.5798448E-2,2.4050698E-4,-7.316474E-4,-3.1541951E-3,-3.3316799E-3,-2.2523317E-3,-3.6861468E-3,-3.7035358E-3,9.028863E-4,1.0979794E-3,-4.4202334E-3,-2.0804664E-3,-1.6087225E-4,-5.75116E-4,-2.8203006E-3,-4.950529E-3,1.7261681E-3,2.860055E-3,2.2865576E-4,-3.2404957E-3,8.948073E-5,1.7808216E-3,9.570948E-3,3.7009602E-3,3.5612794E-4,-7.671252E-4,2.6376764E-3,2.8878755E-3,6.9383817E-4,4.715321E-3,-3.837796E-3,6.802318E-4,6.337443E-3,5.4457085E-3,3.309574E-3,4.755692E-3,8.4055535E-4,4.6106754E-3,6.0793827E-3,5.041732E-3,8.4984405E-3,7.7940137E-3,5.7029002E-3,1.0962427E-3,9.20423E-3,8.056706E-3,6.404919E-3,8.03316E-3,3.1592005E-3,6.500886E-3,9.825597E-3,1.0469988E-2,1.4015782E-2,8.009881E-3,1.0468866E-2,1.2531026E-2,-3.5671783E-3],"categories":[],"categories_nodes":[],"categories_segments":[],"categories_sizes":[],"default_left":[0,0,0,0,0,0,0,0,0,0,0,0,0,0,0,0,0,0,0,0,0,0,0,0,0,0,0,0,0,0,0,0,0,0,0,0,0,0,0,0,0,0,0,0,0,0,0,0,0,0,0,0,0,0,0,0,0,0,0,0,0,0,0,0,0,0,0,0,0,0,0,0,0,0,0,0,0,0,0,0,0,0,0,0,0,0,0,0,0,0,0,0,0,0,0,0,0,0,0,0,0,0,0,0,0,0,0,0,0,0,0,0,0,0,0,0,0,0,0],"id":13,"left_children":[1,3,5,7,9,11,13,15,17,19,21,23,25,27,29,31,33,35,37,39,41,43,45,47,49,51,53,55,57,59,61,63,65,67,69,-1,71,-1,73,75,77,79,81,83,85,-1,87,89,91,93,95,97,99,101,103,105,107,109,111,113,115,117,-1,-1,-1,-1,-1,-1,-1,-1,-1,-1,-1,-1,-1,-1,-1,-1,-1,-1,-1,-1,-1,-1,-1,-1,-1,-1,-1,-1,-1,-1,-1,-1,-1,-1,-1,-1,-1,-1,-1,-1,-1,-1,-1,-1,-1,-1,-1,-1,-1,-1,-1,-1,-1,-1,-1,-1,-1],"loss_changes":[1.3307788E1,9.225352E-1,1.2231636E0,5.5200577E-2,5.0388426E-2,2.0889401E-1,1.6991854E-1,5.9022903E-3,6.926447E-3,1.3656657E-2,1.1858825E-2,2.7609408E-2,2.1435738E-2,3.1769753E-2,8.789301E-3,1.5645027E-3,5.8415085E-3,1.1864264E-2,1.2667596E-2,7.787126E-3,1.755575E-2,1.2029763E-2,5.434945E-3,2.2188991E-2,1.736021E-2,1.473403E-2,9.6126795E-3,1.6458988E-2,1.2864828E-2,1.3397694E-2,2.6390553E-3,8.646778E-5,7.2288513E-4,5.243838E-3,2.828218E-3,0E0,1.2392015E-2,0E0,8.426115E-3,1.5683012E-2,1.1618851E-2,1.3382569E-2,2.8507076E-3,1.1621784E-2,1.8132124E-2,0E0,1.332718E-3,2.7407214E-2,1.9015804E-2,1.0890827E-2,2.0317405E-2,1.8502451E-2,1.4070809E-2,9.704471E-3,1.1407852E-2,1.0984302E-2,1.4585376E-2,1.2549043E-2,1.1044502E-2,1.0957003E-2,4.5996904E-3,5.94849E-2,0E0,0E0,0E0,0E0,0E0,0E0,0E0,0E0,0E0,0E0,0E0,0E0,0E0,0E0,0E0,0E0,0E0,0E0,0E0,0E0,0E0,0E0,0E0,0E0,0E0,0E0,0E0,0E0,0E0,0E0,0E0,0E0,0E0,0E0,0E0,0E0,0E0,0E0,0E0,0E0,0E0,0E0,0E0,0E0,0E0,0E0,0E0,0E0,0E0,0E0,0E0,0E0,0E0,0E0,0E0,0E0,0E0],"parents":[2147483647,0,0,1,1,2,2,3,3,4,4,5,5,6,6,7,7,8,8,9,9,10,10,11,11,12,12,13,13,14,14,15,15,16,16,17,17,18,18,19,19,20,20,21,21,22,22,23,23,24,24,25,25,26,26,27,27,28,28,29,29,30,30,31,31,32,32,33,33,34,34,36,36,38,38,39,39,40,40,41,41,42,42,43,43,44,44,46,46,47,47,48,48,49,49,50,50,51,51,52,52,53,53,54,54,55,55,56,56,57,57,58,58,59,59,60,60,61,61],"right_children":[2,4,6,8,10,12,14,16,18,20,22,24,26,28,30,32,34,36,38,40,42,44,46,48,50,52,54,56,58,60,62,64,66,68,70,-1,72,-1,74,76,78,80,82,84,86,-1,88,90,92,94,96,98,100,102,104,106,108,110,112,114,116,118,-1,-1,-1,-1,-1,-1,-1,-1,-1,-1,-1,-1,-1,-1,-1,-1,-1,-1,-1,-1,-1,-1,-1,-1,-1,-1,-1,-1,-1,-1,-1,-1,-1,-1,-1,-1,-1,-1,-1,-1,-1,-1,-1,-1,-1,-1,-1,-1,-1,-1,-1,-1,-1,-1,-1,-1,-1],"split_conditions":[2.0732424E-1,7.3352516E-2,4.0842053E-1,2.4463922E-2,1.5554436E-1,3.0951756E-1,5.226152E-1,3.527537E-3,7.281103E-3,1.0992685E-1,4.590963E-1,2.557552E-1,3.572365E-1,4.6355247E-1,5.8560324E-1,3.298599E-1,1.7836234E-1,2.5E-1,1.2073142E-2,5.466201E-1,5.439383E-1,7.316773E-2,5E-1,1.9932768E-1,2.1272859E-1,2.8277212E-1,2.5E-1,3.7250316E-1,2.5E-1,4.931842E-2,1.1246646E-1,6.994456E-4,5.8410573E-1,6.2510204E-1,7.866251E-1,4.841401E-3,5.643658E-1,-5.603634E-3,7.1295685E-1,4.8994362E-1,5.292479E-2,2.4693376E-1,1.19530536E-1,7.223254E-2,2.5087577E-1,7.183732E-3,3.8953793E-1,7.3537606E-1,7.81837E-1,1.3587637E-1,2.9467505E-1,2.5867638E-1,2.76945E-1,2.8346691E-2,1.7005782E-1,2.1781623E-3,4.7910863E-1,6.859884E-1,8.866585E-2,2.8635599E-2,7.0313565E-2,1.0337516E-1,1.5798448E-2,2.4050698E-4,-7.316474E-4,-3.1541951E-3,-3.3316799E-3,-2.2523317E-3,-3.6861468E-3,-3.7035358E-3,9.028863E-4,1.0979794E-3,-4.4202334E-3,-2.0804664E-3,-1.6087225E-4,-5.75116E-4,-2.8203006E-3,-4.950529E-3,1.7261681E-3,2.860055E-3,2.2865576E-4,-3.2404957E-3,8.948073E-5,1.7808216E-3,9.570948E-3,3.7009602E-3,3.5612794E-4,-7.671252E-4,2.6376764E-3,2.8878755E-3,6.9383817E-4,4.715321E-3,-3.837796E-3,6.802318E-4,6.337443E-3,5.4457085E-3,3.309574E-3,4.755692E-3,8.4055535E-4,4.6106754E-3,6.0793827E-3,5.041732E-3,8.4984405E-3,7.7940137E-3,5.7029002E-3,1.0962427E-3,9.20423E-3,8.056706E-3,6.404919E-3,8.03316E-3,3.1592005E-3,6.500886E-3,9.825597E-3,1.0469988E-2,1.4015782E-2,8.009881E-3,1.0468866E-2,1.2531026E-2,-3.5671783E-3],"split_indices":[0,0,0,0,0,0,0,0,3,0,3,0,0,0,0,1,3,5,3,1,1,3,5,3,1,2,5,2,5,3,3,0,1,1,2,0,1,0,2,1,4,2,3,3,1,0,2,4,2,1,2,2,1,3,1,3,4,2,1,3,3,3,0,0,0,0,0,0,0,0,0,0,0,0,0,0,0,0,0,0,0,0,0,0,0,0,0,0,0,0,0,0,0,0,0,0,0,0,0,0,0,0,0,0,0,0,0,0,0,0,0,0,0,0,0,0,0,0,0],"split_type":[0,0,0,0,0,0,0,0,0,0,0,0,0,0,0,0,0,0,0,0,0,0,0,0,0,0,0,0,0,0,0,0,0,0,0,0,0,0,0,0,0,0,0,0,0,0,0,0,0,0,0,0,0,0,0,0,0,0,0,0,0,0,0,0,0,0,0,0,0,0,0,0,0,0,0,0,0,0,0,0,0,0,0,0,0,0,0,0,0,0,0,0,0,0,0,0,0,0,0,0,0,0,0,0,0,0,0,0,0,0,0,0,0,0,0,0,0,0,0],"sum_hessian":[7.98E3,5.612E3,2.368E3,4.767E3,8.45E2,1.463E3,9.05E2,4.424E3,3.43E2,5.02E2,3.43E2,7.46E2,7.17E2,6.54E2,2.51E2,4.147E3,2.77E2,1.8E1,3.25E2,2.18E2,2.84E2,3.34E2,9E0,3.39E2,4.07E2,3.74E2,3.43E2,3.74E2,2.8E2,1.87E2,6.4E1,2E0,4.145E3,2.09E2,6.8E1,3E0,1.5E1,9E0,3.16E2,1.96E2,2.2E1,2.66E2,1.8E1,1.51E2,1.83E2,4E0,5E0,2.78E2,6.1E1,4.3E1,3.64E2,5.7E1,3.17E2,6.2E1,2.81E2,8.5E1,2.89E2,5.3E1,2.27E2,8.1E1,1.06E2,4.9E1,1.5E1,1E0,1E0,6.9E2,3.455E3,1.76E2,3.3E1,6.7E1,1E0,9E0,6E0,2.91E2,2.5E1,1.58E2,3.8E1,2E0,2E1,2E1,2.46E2,1.5E1,3E0,1.5E2,1E0,1.7E1,1.66E2,1E0,4E0,1.97E2,8.1E1,5.9E1,2E0,4E0,3.9E1,5.5E1,3.09E2,3.9E1,1.8E1,1.42E2,1.75E2,1.7E1,4.5E1,3.9E1,2.42E2,2E0,8.3E1,1.34E2,1.55E2,4.5E1,8E0,1.9E1,2.08E2,4.7E1,3.4E1,3.3E1,7.3E1,4.7E1,2E0],"tree_param":{"num_deleted":"0","num_feature":"6","num_nodes":"119","size_leaf_vector":"1"}},{"base_weights":[1.8116835E-4,-2.4635281E-2,5.4725587E-2,-2.8968249E-2,-7.696431E-4,3.6321517E-2,7.954207E-2,-2.9550629E-2,-2.0704206E-2,-9.836638E-3,5.457535E-3,2.4101702E-2,4.564086E-2,6.88867E-2,9.6453175E-2,-2.764437E-2,-2.9994824E-3,-1.6748141E-2,-2.6471335E-2,-7.485922E-3,-1.8931074E-2,2.623415E-2,4.0313452E-3,1.780861E-2,2.8216047E-2,3.9778277E-2,5.1419906E-2,6.275965E-2,7.542136E-2,8.956439E-2,1.1099006E-1,-2.7001394E-2,-3.2030647E-3,-6.462612E-3,-2.3486234E-2,-1.2078355E-3,-2.7972503E-2,-9.886901E-3,1.8036274E-2,-4.7975652E-2,-1.49423815E-2,8.367416E-3,5.958269E-2,7.3403716E-3,-9.107869E-3,2.4198773E-4,2.1682413E-2,-1.4498338E-2,2.9790038E-2,4.2874992E-2,3.189739E-2,5.7810087E-2,4.4278335E-2,4.209958E-2,6.496354E-2,3.721529E-2,7.682556E-2,9.702459E-2,8.0842234E-2,1.1899763E-1,9.129132E-2,-2.4693944E-3,-2.870445E-3,-1.3093626E-3,1.6931061E-3,-2.4817353E-3,3.3150208E-3,-3.1803013E-3,3.7338093E-3,1.7346593E-3,-2.89115E-3,-8.883302E-4,-5.7688034E-3,3.060359E-3,-3.5840247E-3,2.088003E-4,-5.542589E-3,3.0428794E-4,-2.3378383E-3,6.4773583E-3,-5.1187875E-5,6.550061E-3,2.0176172E-5,1.6590477E-3,2.9926948E-4,-3.1059242E-3,3.63649E-4,2.439596E-3,-1.9276297E-3,5.7330565E-3,1.7711358E-3,3.2024307E-3,-4.390251E-3,4.5337775E-3,2.6612962E-3,4.505999E-3,-3.4192982E-4,1.7095726E-3,4.1663363E-3,7.3657036E-3,5.0721713E-3,-3.4205858E-3,4.5263767E-3,-3.5979834E-3,5.0288006E-3,9.076342E-3,6.237284E-3,5.474259E-3,1.9417901E-3,8.199557E-3,6.7283884E-3,4.623093E-3,9.848753E-3,6.928754E-3,9.611168E-3,8.3956E-3,1.2456786E-2,9.669702E-3,-9.413093E-4],"categories":[],"categories_nodes":[],"categories_segments":[],"categories_sizes":[],"default_left":[0,0,0,0,0,0,0,0,0,0,0,0,0,0,0,0,0,0,0,0,0,0,0,0,0,0,0,0,0,0,0,0,0,0,0,0,0,0,0,0,0,0,0,0,0,0,0,0,0,0,0,0,0,0,0,0,0,0,0,0,0,0,0,0,0,0,0,0,0,0,0,0,0,0,0,0,0,0,0,0,0,0,0,0,0,0,0,0,0,0,0,0,0,0,0,0,0,0,0,0,0,0,0,0,0,0,0,0,0,0,0,0,0,0,0,0,0,0,0],"id":14,"left_children":[1,3,5,7,9,11,13,15,17,19,21,23,25,27,29,31,-1,33,35,37,39,41,43,45,47,49,51,53,55,57,59,61,-1,63,65,67,69,71,73,75,77,79,81,83,85,87,89,91,93,95,97,99,101,103,105,107,109,111,113,115,117,-1,-1,-1,-1,-1,-1,-1,-1,-1,-1,-1,-1,-1,-1,-1,-1,-1,-1,-1,-1,-1,-1,-1,-1,-1,-1,-1,-1,-1,-1,-1,-1,-1,-1,-1,-1,-1,-1,-1,-1,-1,-1,-1,-1,-1,-1,-1,-1,-1,-1,-1,-1,-1,-1,-1,-1,-1,-1],"loss_changes":[1.080442E1,5.672796E-1,1.137094E0,2.1734E-2,4.770744E-2,1.6231847E-1,1.8472195E-1,2.8414726E-3,6.606534E-3,7.2124638E-3,1.4739568E-2,1.5628159E-2,2.5499225E-2,2.1491528E-2,3.0917168E-2,1.4815927E-3,0E0,1.2738921E-2,4.668884E-3,1.7029844E-2,7.3926244E-3,1.8567992E-2,2.0501519E-2,1.6939126E-2,2.5643975E-2,8.589625E-3,1.5968442E-2,1.2928247E-2,1.3879299E-2,1.0505676E-2,9.169459E-3,2.1677613E-3,0E0,1.1855972E-2,9.266362E-3,1.0622018E-2,5.480394E-3,1.1576774E-2,1.7346838E-2,3.0996185E-3,9.629731E-3,1.105179E-2,3.8523078E-3,1.5071742E-2,2.6689779E-2,2.2156693E-2,2.7863003E-2,2.0557385E-2,1.6674876E-2,2.9488444E-2,1.6489506E-2,1.996541E-2,1.6707122E-2,2.4825864E-2,1.4992356E-2,2.9922351E-3,9.282231E-3,6.370187E-3,1.7335653E-2,6.5231323E-3,2.3229659E-2,0E0,0E0,0E0,0E0,0E0,0E0,0E0,0E0,0E0,0E0,0E0,0E0,0E0,0E0,0E0,0E0,0E0,0E0,0E0,0E0,0E0,0E0,0E0,0E0,0E0,0E0,0E0,0E0,0E0,0E0,0E0,0E0,0E0,0E0,0E0,0E0,0E0,0E0,0E0,0E0,0E0,0E0,0E0,0E0,0E0,0E0,0E0,0E0,0E0,0E0,0E0,0E0,0E0,0E0,0E0,0E0,0E0,0E0],"parents":[2147483647,0,0,1,1,2,2,3,3,4,4,5,5,6,6,7,7,8,8,9,9,10,10,11,11,12,12,13,13,14,14,15,15,17,17,18,18,19,19,20,20,21,21,22,22,23,23,24,24,25,25,26,26,27,27,28,28,29,29,30,30,31,31,33,33,34,34,35,35,36,36,37,37,38,38,39,39,40,40,41,41,42,42,43,43,44,44,45,45,46,46,47,47,48,48,49,49,50,50,51,51,52,52,53,53,54,54,55,55,56,56,57,57,58,58,59,59,60,60],"right_children":[2,4,6,8,10,12,14,16,18,20,22,24,26,28,30,32,-1,34,36,38,40,42,44,46,48,50,52,54,56,58,60,62,-1,64,66,68,70,72,74,76,78,80,82,84,86,88,90,92,94,96,98,100,102,104,106,108,110,112,114,116,118,-1,-1,-1,-1,-1,-1,-1,-1,-1,-1,-1,-1,-1,-1,-1,-1,-1,-1,-1,-1,-1,-1,-1,-1,-1,-1,-1,-1,-1,-1,-1,-1,-1,-1,-1,-1,-1,-1,-1,-1,-1,-1,-1,-1,-1,-1,-1,-1,-1,-1,-1,-1,-1,-1,-1,-1,-1,-1],"split_conditions":[1.8967198E-1,5.1766865E-2,3.8435408E-1,1.5430182E-2,1.0992685E-1,2.7673766E-1,4.8929715E-1,5.8410573E-1,1.3113272E-1,7.7437323E-1,2.542399E-1,2.2700289E-1,3.302362E-1,4.352671E-1,5.571796E-1,2.665903E-1,-2.9994824E-3,4.7841066E-1,2.3919621E-1,7.0194983E-1,3.4632903E-1,2.2425807E-1,6.4734024E-1,2.76945E-1,2.2284122E-2,7.047354E-1,8.165252E-2,1.3587637E-1,2.140722E-1,5.9041847E-2,6.2568486E-1,5.733679E-1,-3.2030647E-3,4.5224577E-1,1.253284E-1,1.8781802E-1,1.9498607E-2,6.935933E-1,6.838623E-1,3.1892113E-2,4.3356597E-1,1.4067759E-1,8.356546E-1,4.2127863E-2,7.0064527E-1,2.542399E-1,3.0011594E-1,3.298599E-1,2.0850716E-2,7.6500344E-1,8.1894153E-1,3.6215198E-1,8.244773E-2,7.755783E-3,1.088603E-2,5E-1,5.878238E-1,8.866585E-2,1.171871E-1,3.4347898E-1,2.0579648E-1,-2.4693944E-3,-2.870445E-3,-1.3093626E-3,1.6931061E-3,-2.4817353E-3,3.3150208E-3,-3.1803013E-3,3.7338093E-3,1.7346593E-3,-2.89115E-3,-8.883302E-4,-5.7688034E-3,3.060359E-3,-3.5840247E-3,2.088003E-4,-5.542589E-3,3.0428794E-4,-2.3378383E-3,6.4773583E-3,-5.1187875E-5,6.550061E-3,2.0176172E-5,1.6590477E-3,2.9926948E-4,-3.1059242E-3,3.63649E-4,2.439596E-3,-1.9276297E-3,5.7330565E-3,1.7711358E-3,3.2024307E-3,-4.390251E-3,4.5337775E-3,2.6612962E-3,4.505999E-3,-3.4192982E-4,1.7095726E-3,4.1663363E-3,7.3657036E-3,5.0721713E-3,-3.4205858E-3,4.5263767E-3,-3.5979834E-3,5.0288006E-3,9.076342E-3,6.237284E-3,5.474259E-3,1.9417901E-3,8.199557E-3,6.7283884E-3,4.623093E-3,9.848753E-3,6.928754E-3,9.611168E-3,8.3956E-3,1.2456786E-2,9.669702E-3,-9.413093E-4],"split_indices":[0,0,0,0,0,0,0,1,3,4,1,0,0,0,0,3,0,1,2,4,1,1,2,1,4,4,3,1,2,3,2,2,0,1,3,2,4,4,2,3,1,1,4,3,2,1,1,1,3,2,4,2,3,3,3,5,2,1,3,2,1,0,0,0,0,0,0,0,0,0,0,0,0,0,0,0,0,0,0,0,0,0,0,0,0,0,0,0,0,0,0,0,0,0,0,0,0,0,0,0,0,0,0,0,0,0,0,0,0,0,0,0,0,0,0,0,0,0,0],"split_type":[0,0,0,0,0,0,0,0,0,0,0,0,0,0,0,0,0,0,0,0,0,0,0,0,0,0,0,0,0,0,0,0,0,0,0,0,0,0,0,0,0,0,0,0,0,0,0,0,0,0,0,0,0,0,0,0,0,0,0,0,0,0,0,0,0,0,0,0,0,0,0,0,0,0,0,0,0,0,0,0,0,0,0,0,0,0,0,0,0,0,0,0,0,0,0,0,0,0,0,0,0,0,0,0,0,0,0,0,0,0,0,0,0,0,0,0,0,0,0],"sum_hessian":[7.98E3,5.485E3,2.495E3,4.642E3,8.43E2,1.434E3,1.061E3,4.334E3,3.08E2,3.43E2,5E2,6.22E2,8.12E2,6.54E2,4.07E2,8.31E2,3.503E3,1.85E2,1.23E2,2.74E2,6.9E1,3.1E1,4.69E2,2.48E2,3.74E2,4.07E2,4.05E2,3.43E2,3.11E2,2.81E2,1.26E2,7.31E2,1E2,7.4E1,1.11E2,7E0,1.16E2,2.51E2,2.3E1,7E0,6.2E1,2.1E1,1E1,3.75E2,9.4E1,4.5E1,2.03E2,1.3E1,3.61E2,2.89E2,1.18E2,2.1E2,1.95E2,3.5E1,3.08E2,1.2E1,2.99E2,1.46E2,1.35E2,8.6E1,4E1,3.17E2,4.14E2,5.8E1,1.6E1,1.09E2,2E0,4E0,3E0,2E0,1.14E2,2.47E2,4E0,1.9E1,4E0,1E0,6E0,2E1,4.2E1,2E0,1.9E1,9E0,1E0,1.19E2,2.56E2,3.4E1,6E1,2E1,2.5E1,1.9E1,1.84E2,5E0,8E0,5.9E1,3.02E2,2.76E2,1.3E1,4.8E1,7E1,6.2E1,1.48E2,2E0,1.93E2,3E0,3.2E1,2.5E1,2.83E2,5E0,7E0,1.89E2,1.1E2,5E0,1.41E2,8E1,5.5E1,1.4E1,7.2E1,3.8E1,2E0],"tree_param":{"num_deleted":"0","num_feature":"6","num_nodes":"119","size_leaf_vector":"1"}},{"base_weights":[1.785914E-4,-2.2571808E-2,4.8474163E-2,-2.6073778E-2,-1.8036686E-3,3.195583E-2,7.168173E-2,-2.675574E-2,-2.031802E-2,-9.55207E-3,3.3383935E-3,2.0509984E-2,4.078404E-2,6.425502E-2,9.1897815E-2,-1.8451637E-2,-2.6809726E-2,-1.6762236E-2,-2.3834731E-2,-1.2107029E-2,9.524455E-6,2.6694782E-2,2.027572E-3,2.2830168E-2,8.84917E-3,3.6256418E-2,4.724633E-2,5.7891846E-2,7.215168E-2,8.8526405E-2,1.1398472E-1,1.2210493E-2,-2.3638522E-2,-2.6245208E-2,-2.727155E-3,-1.7240932E-2,5.1216506E-3,-3.9168645E-2,-2.2745274E-2,-9.9215945E-3,-3.295988E-2,-4.2581707E-3,3.2016046E-3,7.583631E-3,5.4603145E-2,2.9546581E-3,-3.190278E-2,2.7254835E-2,1.5663054E-2,1.9741716E-2,-1.607951E-2,3.6708687E-2,-8.4036804E-4,5.9884638E-2,4.1671984E-2,5.930141E-2,3.5184205E-2,8.775003E-2,6.619437E-2,7.878431E-2,9.5739275E-2,1.3433698E-1,8.5730284E-2,-1.4197443E-3,3.4548265E-3,-2.8915978E-3,-1.2276738E-4,-2.5046838E-3,-2.734363E-3,-8.427834E-4,-2.1137332E-3,-1.8655884E-3,-4.493184E-3,-2.1619243E-3,-3.6665879E-3,-1.674449E-3,-4.4278568E-4,-5.7126833E-3,-1.3343492E-3,5.4716114E-5,-2.1673383E-3,-6.5793394E-4,4.0058037E-3,6.485501E-3,9.0637954E-4,-2.8728854E-4,7.75007E-4,-3.9923317E-3,5.466603E-4,1.6461585E-3,3.1909128E-3,-2.2857178E-3,1.8531118E-3,-3.252156E-3,2.5432638E-3,2.8205009E-3,-4.4836835E-3,2.746848E-3,3.8534806E-3,2.002094E-3,-7.6540763E-4,4.5687365E-4,6.325914E-3,3.9111899E-4,4.487173E-3,5.7895463E-3,1.0503576E-2,-8.003429E-4,4.068686E-3,1.1544682E-2,7.895982E-3,5.920908E-3,8.508892E-3,9.526931E-3,6.1206347E-3,8.3564995E-3,1.0831362E-2,3.639236E-3,1.379577E-2,1.0112899E-2,1.0402255E-3],"categories":[],"categories_nodes":[],"categories_segments":[],"categories_sizes":[],"default_left":[0,0,0,0,0,0,0,0,0,0,0,0,0,0,0,0,0,0,0,0,0,0,0,0,0,0,0,0,0,0,0,0,0,0,0,0,0,0,0,0,0,0,0,0,0,0,0,0,0,0,0,0,0,0,0,0,0,0,0,0,0,0,0,0,0,0,0,0,0,0,0,0,0,0,0,0,0,0,0,0,0,0,0,0,0,0,0,0,0,0,0,0,0,0,0,0,0,0,0,0,0,0,0,0,0,0,0,0,0,0,0,0,0,0,0,0,0,0,0,0,0],"id":15,"left_children":[1,3,5,7,9,11,13,15,17,19,21,23,25,27,29,31,33,35,37,39,41,43,45,47,49,51,53,55,57,59,61,63,65,67,-1,69,-1,71,73,75,77,79,-1,81,83,85,87,89,91,93,95,97,99,101,103,105,107,109,111,113,115,117,119,-1,-1,-1,-1,-1,-1,-1,-1,-1,-1,-1,-1,-1,-1,-1,-1,-1,-1,-1,-1,-1,-1,-1,-1,-1,-1,-1,-1,-1,-1,-1,-1,-1,-1,-1,-1,-1,-1,-1,-1,-1,-1,-1,-1,-1,-1,-1,-1,-1,-1,-1,-1,-1,-1,-1,-1,-1,-1],"loss_changes":[8.770165E0,3.94583E-1,9.7755337E-1,1.7681122E-2,3.1268615E-2,1.5022779E-1,1.5354252E-1,1.364708E-3,5.8027953E-3,7.646544E-3,1.4396654E-2,1.7465025E-2,2.2952199E-2,3.5016537E-2,1.0982752E-2,5.059867E-3,3.578663E-4,9.018302E-3,3.2353848E-3,1.0929398E-2,9.288133E-3,1.2919936E-2,1.4186711E-2,1.6824484E-2,3.0186485E-2,8.4196925E-3,2.1739364E-2,1.1900902E-2,2.615726E-2,1.002419E-2,8.034676E-3,3.4399687E-3,3.0395798E-3,1.7899275E-3,0E0,8.3723515E-3,0E0,9.350423E-4,2.8596E-3,8.3595775E-3,1.0141298E-2,