{"learner":{"attributes":{"scikit_learn":"{\"_estimator_type\": \"regressor\"}"},"feature_names":[],"feature_types":[],"gradient_booster":{"model":{"cats":{"enc":[],"feature_segments":[],"sorted_idx":[]},"gbtree_model_param":{"num_parallel_tree":"1","num_trees":"100"},"iteration_indptr":[0,1,2,3,4,5,6,7,8,9,10,11,12,13,14,15,16,17,18,19,20,21,22,23,24,25,26,27,28,29,30,31,32,33,34,35,36,37,38,39,40,41,42,43,44,45,46,47,48,49,50,51,52,53,54,55,56,57,58,59,60,61,62,63,64,65,66,67,68,69,70,71,72,73,74,75,76,77,78,79,80,81,82,83,84,85,86,87,88,89,90,91,92,93,94,95,96,97,98,99,100],"tree_info":[0,0,0,0,0,0,0,0,0,0,0,0,0,0,0,0,0,0,0,0,0,0,0,0,0,0,0,0,0,0,0,0,0,0,0,0,0,0,0,0,0,0,0,0,0,0,0,0,0,0,0,0,0,0,0,0,0,0,0,0,0,0,0,0,0,0,0,0,0,0,0,0,0,0,0,0,0,0,0,0,0,0,0,0,0,0,0,0,0,0,0,0,0,0,0,0,0,0,0,0],"trees":[{"base_weights":[-3.8116426E-9,-1.06305644E-1,2.3778667E-1,-1.2548777E-1,5.618756E-3,1.5861462E-1,3.4230542E-1,-1.2932388E-1,-8.806858E-2,-2.3636024E-2,3.478743E-2,1.16412744E-1,2.0662193E-1,2.9901502E-1,4.1096458E-1,-1.3004264E-1,-1.1969182E-1,-1.01329796E-1,-8.250218E-2,-4.071956E-2,-1.272574E-2,2.3287741E-2,5.2804213E-2,9.290945E-2,1.4373428E-1,1.8564837E-1,2.2510478E-1,2.8186187E-2,3.4012485E-1,3.7094492E-2,4.4314887E-2,-1.9731706E-3,-1.3006552E-2,-8.094311E-5,-1.2007518E-2,-1.0451469E-2,-6.838544E-2,-7.319982E-2,-9.067754E-2,-3.068458E-2,-4.9756274E-2,2.2635708E-2,-1.4938115E-2,2.7492508E-2,1.9096647E-3,5.5611897E-2,-2.7124507E-2,7.433151E-2,1.0432473E-1,2.796139E-2,1.4466807E-1,1.8711354E-1,1.1536791E-2,1.3919504E-2,2.2673596E-1,7.83027E-3,3.4110624E-2,-7.1418784E-3,-1.4475941E-3,-5.9825196E-3,-8.165479E-3,-1.03691695E-2,-8.10855E-3,-6.255655E-3,-2.554628E-3,-3.7145826E-3,-5.8543663E-3,-1.7008046E-3,5.095466E-3,-1.2893792E-3,-5.168361E-3,3.038876E-3,-6.83528E-4,-7.559453E-4,7.3493025E-3,6.134355E-3,3.3915471E-3,-5.593206E-3,2.0327063E-3,1.7408783E-3,7.8890845E-3,1.1025977E-2,8.7244045E-3,-3.0812097E-3,5.7823253E-3,6.792242E-3,1.4560518E-2,8.489439E-3,1.8784786E-2,1.0564319E-2,2.2750964E-2],"categories":[],"categories_nodes":[],"categories_segments":[],"categories_sizes":[],"default_left":[0,0,0,0,0,0,0,0,0,0,0,0,0,0,0,0,0,0,0,0,0,0,0,0,0,0,0,0,0,0,0,0,0,0,0,0,0,0,0,0,0,0,0,0,0,0,0,0,0,0,0,0,0,0,0,0,0,0,0,0,0,0,0,0,0,0,0,0,0,0,0,0,0,0,0,0,0,0,0,0,0,0,0,0,0,0,0,0,0,0,0],"id":0,"left_children":[1,3,5,7,9,11,13,15,17,19,21,23,25,27,29,31,33,35,37,39,41,43,45,47,49,51,53,-1,55,-1,-1,-1,-1,-1,-1,-1,57,59,61,63,65,67,69,71,73,75,77,79,81,83,85,87,-1,-1,89,-1,-1,-1,-1,-1,-1,-1,-1,-1,-1,-1,-1,-1,-1,-1,-1,-1,-1,-1,-1,-1,-1,-1,-1,-1,-1,-1,-1,-1,-1,-1,-1,-1,-1,-1,-1],"loss_changes":[2.017695E2,1.1843273E1,2.0351776E1,6.645584E-1,6.903074E-1,2.8224754E0,3.0336838E0,1.3977051E-2,2.4193525E-2,7.478188E-2,8.268127E-2,4.68256E-1,2.1250534E-1,3.6601257E-1,3.6112213E-1,7.4386597E-3,1.3985634E-2,6.0732365E-3,1.7394304E-2,1.2710512E-2,1.973987E-2,2.233006E-2,3.6741525E-2,7.834673E-2,3.3251762E-2,1.0643959E-2,1.6647339E-2,0E0,2.1596909E-2,0E0,0E0,0E0,0E0,0E0,0E0,0E0,1.2555122E-3,1.2416482E-2,1.2064576E-2,1.1012033E-2,6.801188E-3,1.7706681E-2,1.6911604E-2,2.088748E-2,2.9024478E-2,1.6821653E-2,9.338714E-3,3.963238E-2,1.5622854E-2,8.801999E-3,1.4706612E-2,6.9475174E-3,0E0,0E0,7.4443817E-3,0E0,0E0,0E0,0E0,0E0,0E0,0E0,0E0,0E0,0E0,0E0,0E0,0E0,0E0,0E0,0E0,0E0,0E0,0E0,0E0,0E0,0E0,0E0,0E0,0E0,0E0,0E0,0E0,0E0,0E0,0E0,0E0,0E0,0E0,0E0,0E0],"parents":[2147483647,0,0,1,1,2,2,3,3,4,4,5,5,6,6,7,7,8,8,9,9,10,10,11,11,12,12,13,13,14,14,15,15,16,16,17,17,18,18,19,19,20,20,21,21,22,22,23,23,24,24,25,25,26,26,28,28,36,36,37,37,38,38,39,39,40,40,41,41,42,42,43,43,44,44,45,45,46,46,47,47,48,48,49,49,50,50,51,51,54,54],"right_children":[2,4,6,8,10,12,14,16,18,20,22,24,26,28,30,32,34,36,38,40,42,44,46,48,50,52,54,-1,56,-1,-1,-1,-1,-1,-1,-1,58,60,62,64,66,68,70,72,74,76,78,80,82,84,86,88,-1,-1,90,-1,-1,-1,-1,-1,-1,-1,-1,-1,-1,-1,-1,-1,-1,-1,-1,-1,-1,-1,-1,-1,-1,-1,-1,-1,-1,-1,-1,-1,-1,-1,-1,-1,-1,-1,-1],"split_conditions":[1.9601555E-1,7.682684E-2,3.955559E-1,7.2307885E-3,1.372476E-1,3.0502027E-1,5.0032866E-1,3.3081323E-3,1.7799422E-2,1.02563724E-1,1.7383121E-1,2.552563E-1,3.468448E-1,4.6472937E-1,5.360184E-1,3.779948E-1,5.5710305E-3,9.164345E-1,8.628744E-2,4.372204E-1,2.8638375E-1,2.1195081E-1,7.9361653E-1,2.1991213E-1,1.1142061E-2,4.7486976E-1,1.7938656E-1,2.8186187E-2,5.5710305E-3,3.7094492E-2,4.4314887E-2,-1.9731706E-3,-1.3006552E-2,-8.094311E-5,-1.2007518E-2,-1.0451469E-2,1.3046905E-2,4.7148237E-1,4.8177287E-2,1.3850978E-2,3.983287E-1,5.1666176E-1,5.818402E-1,5.4004455E-1,5.286259E-1,6.428769E-1,8.864755E-1,2.2021729E-1,7.4930364E-1,3.5185194E-1,1.5220192E-3,5.5710305E-3,1.1536791E-2,1.3919504E-2,1.02204874E-1,7.83027E-3,3.4110624E-2,-7.1418784E-3,-1.4475941E-3,-5.9825196E-3,-8.165479E-3,-1.03691695E-2,-8.10855E-3,-6.255655E-3,-2.554628E-3,-3.7145826E-3,-5.8543663E-3,-1.7008046E-3,5.095466E-3,-1.2893792E-3,-5.168361E-3,3.038876E-3,-6.83528E-4,-7.559453E-4,7.3493025E-3,6.134355E-3,3.3915471E-3,-5.593206E-3,2.0327063E-3,1.7408783E-3,7.8890845E-3,1.1025977E-2,8.7244045E-3,-3.0812097E-3,5.7823253E-3,6.792242E-3,1.4560518E-2,8.489439E-3,1.8784786E-2,1.0564319E-2,2.2750964E-2],"split_indices":[0,0,0,0,0,0,0,0,0,0,0,0,0,0,0,1,4,4,3,1,1,3,2,0,4,1,2,0,4,0,0,0,0,0,0,0,0,1,0,3,4,2,1,1,3,2,2,2,4,1,3,4,0,0,1,0,0,0,0,0,0,0,0,0,0,0,0,0,0,0,0,0,0,0,0,0,0,0,0,0,0,0,0,0,0,0,0,0,0,0,0],"split_type":[0,0,0,0,0,0,0,0,0,0,0,0,0,0,0,0,0,0,0,0,0,0,0,0,0,0,0,0,0,0,0,0,0,0,0,0,0,0,0,0,0,0,0,0,0,0,0,0,0,0,0,0,0,0,0,0,0,0,0,0,0,0,0,0,0,0,0,0,0,0,0,0,0,0,0,0,0,0,0,0,0,0,0,0,0,0,0,0,0,0,0],"sum_hessian":[7.98E3,5.515E3,2.465E3,4.708E3,8.07E2,1.404E3,1.061E3,4.268E3,4.4E2,4.03E2,4.04E2,7.49E2,6.55E2,6.54E2,4.07E2,3.96E3,3.08E2,1.25E2,3.15E2,1.56E2,2.47E2,2.48E2,1.56E2,4.05E2,3.44E2,3.12E2,3.43E2,4.67E2,1.87E2,1.87E2,2.2E2,1E0,3.959E3,1E0,3.07E2,1.12E2,1.3E1,1.52E2,1.63E2,7.6E1,8E1,1.4E1,2.33E2,2.07E2,4.1E1,1.51E2,5E0,1.57E2,2.48E2,3E0,3.41E2,3.04E2,8E0,8E0,3.35E2,1E0,1.86E2,1.2E1,1E0,6.2E1,9E1,6.5E1,9.8E1,9E0,6.7E1,3.5E1,4.5E1,6E0,8E0,2.22E2,1.1E1,1.91E2,1.6E1,3.7E1,4E0,1.18E2,3.3E1,3E0,2E0,1.2E1,1.45E2,1.8E2,6.8E1,1E0,2E0,5E0,3.36E2,3E0,3.01E2,3E0,3.32E2],"tree_param":{"num_deleted":"0","num_feature":"6","num_nodes":"91","size_leaf_vector":"1"}},{"base_weights":[2.577734E-5,-9.569054E-2,2.14126E-1,-1.1295571E-1,5.0487993E-3,1.4464253E-1,3.1069648E-1,-1.16397835E-1,-7.937888E-2,-2.1325497E-2,3.134551E-2,1.0800591E-1,1.918752E-1,2.7137893E-1,3.7006766E-1,-1.1697361E-1,-1.06673785E-1,-9.134794E-2,-7.435521E-2,-3.263605E-2,-7.893581E-3,2.0994902E-2,4.7561783E-2,8.369087E-2,1.3205494E-1,1.7616616E-1,2.1029228E-2,2.5571946E-2,3.0633545E-1,3.340477E-2,3.990345E-2,-1.8745121E-3,-1.1699338E-2,-2.016254E-2,-1.0729015E-1,-9.415571E-2,-6.2160425E-2,-7.703115E-2,-4.9895007E-2,4.460828E-3,-3.3195004E-2,-5.3558145E-3,-6.36894E-2,2.4754576E-2,1.8756883E-3,5.0113373E-2,-2.5005473E-2,6.69593E-2,9.397157E-2,2.584053E-2,1.3278149E-1,1.4930851E-2,1.8012114E-1,7.4387565E-3,3.0717803E-2,-2.947485E-3,-7.689595E-5,-7.921216E-3,-1.0875778E-2,-7.075528E-3,-9.675016E-3,-1.2309585E-3,-6.504821E-3,-7.168002E-3,-9.422207E-3,-6.5261247E-3,-2.8529163E-3,-3.7939392E-3,-2.144377E-3,3.926378E-3,-7.948992E-4,-6.9266716E-3,-1.2324125E-3,3.4048536E-3,1.5313373E-3,-6.8233954E-4,6.7613586E-3,4.7322456E-3,9.443461E-3,-5.173715E-3,1.897192E-3,1.5801823E-3,7.105579E-3,1.1367451E-2,8.8575985E-3,-2.9271494E-3,5.396837E-3,1.2393243E-2,1.4234016E-2,1.8137153E-2,1.0276667E-2],"categories":[],"categories_nodes":[],"categories_segments":[],"categories_sizes":[],"default_left":[0,0,0,0,0,0,0,0,0,0,0,0,0,0,0,0,0,0,0,0,0,0,0,0,0,0,0,0,0,0,0,0,0,0,0,0,0,0,0,0,0,0,0,0,0,0,0,0,0,0,0,0,0,0,0,0,0,0,0,0,0,0,0,0,0,0,0,0,0,0,0,0,0,0,0,0,0,0,0,0,0,0,0,0,0,0,0,0,0,0,0],"id":1,"left_children":[1,3,5,7,9,11,13,15,17,19,21,23,25,27,29,31,33,35,37,39,41,43,45,47,49,51,-1,-1,53,-1,-1,-1,-1,55,57,59,61,63,65,-1,67,69,71,73,75,77,79,81,83,85,87,-1,89,-1,-1,-1,-1,-1,-1,-1,-1,-1,-1,-1,-1,-1,-1,-1,-1,-1,-1,-1,-1,-1,-1,-1,-1,-1,-1,-1,-1,-1,-1,-1,-1,-1,-1,-1,-1,-1,-1],"loss_changes":[1.6357422E2,9.594448E0,1.6502052E1,5.3500366E-1,5.610627E-1,2.4641933E0,2.3062592E0,1.1425018E-2,1.9724607E-2,6.1119035E-2,6.6979975E-2,4.631834E-1,1.4406395E-1,2.6324463E-1,2.9240417E-1,5.619049E-3,1.1167288E-2,4.4732094E-3,1.6839862E-2,1.09363645E-2,2.599589E-2,1.785218E-2,3.0323505E-2,6.354475E-2,2.7899742E-2,9.647369E-3,0E0,0E0,1.389122E-2,0E0,0E0,0E0,0E0,5.191321E-4,1.6047955E-3,1.4781952E-5,1.2147054E-3,1.92796E-2,9.300776E-3,0E0,1.1340469E-2,2.1023575E-2,1.4381893E-3,1.7729804E-2,2.447945E-2,1.4333069E-2,8.03509E-3,3.198862E-2,1.6402006E-2,7.780464E-3,1.6448021E-2,0E0,9.894371E-3,0E0,0E0,0E0,0E0,0E0,0E0,0E0,0E0,0E0,0E0,0E0,0E0,0E0,0E0,0E0,0E0,0E0,0E0,0E0,0E0,0E0,0E0,0E0,0E0,0E0,0E0,0E0,0E0,0E0,0E0,0E0,0E0,0E0,0E0,0E0,0E0,0E0,0E0],"parents":[2147483647,0,0,1,1,2,2,3,3,4,4,5,5,6,6,7,7,8,8,9,9,10,10,11,11,12,12,13,13,14,14,15,15,16,16,17,17,18,18,19,19,20,20,21,21,22,22,23,23,24,24,25,25,28,28,33,33,34,34,35,35,36,36,37,37,38,38,40,40,41,41,42,42,43,43,44,44,45,45,46,46,47,47,48,48,49,49,50,50,52,52],"right_children":[2,4,6,8,10,12,14,16,18,20,22,24,26,28,30,32,34,36,38,40,42,44,46,48,50,52,-1,-1,54,-1,-1,-1,-1,56,58,60,62,64,66,-1,68,70,72,74,76,78,80,82,84,86,88,-1,90,-1,-1,-1,-1,-1,-1,-1,-1,-1,-1,-1,-1,-1,-1,-1,-1,-1,-1,-1,-1,-1,-1,-1,-1,-1,-1,-1,-1,-1,-1,-1,-1,-1,-1,-1,-1,-1,-1],"split_conditions":[1.9601555E-1,7.682684E-2,4.0239918E-1,7.2307885E-3,1.372476E-1,3.1280035E-1,5.0032866E-1,3.502354E-3,1.7799422E-2,1.1084227E-1,1.7383121E-1,2.552563E-1,3.6092067E-1,4.6472937E-1,5.360184E-1,3.779948E-1,1.1142061E-2,9.164345E-1,7.03091E-1,2.3722862E-1,5.793421E-1,2.1195081E-1,7.9361653E-1,2.1991213E-1,1.1142061E-2,2.8277212E-1,2.1029228E-2,2.5571946E-2,5.5710305E-3,3.340477E-2,3.990345E-2,-1.8745121E-3,-1.1699338E-2,5.483255E-3,1.0306407E-1,1.7270195E-1,3.1173262E-1,2.3471294E-1,4.4568247E-1,4.460828E-3,6.6573817E-1,2.3919621E-1,1.171871E-1,4.2895225E-1,5.286259E-1,5.439383E-1,8.864755E-1,2.2021729E-1,2.434575E-2,3.5185194E-1,2.8732783E-1,1.4930851E-2,4.7486976E-1,7.4387565E-3,3.0717803E-2,-2.947485E-3,-7.689595E-5,-7.921216E-3,-1.0875778E-2,-7.075528E-3,-9.675016E-3,-1.2309585E-3,-6.504821E-3,-7.168002E-3,-9.422207E-3,-6.5261247E-3,-2.8529163E-3,-3.7939392E-3,-2.144377E-3,3.926378E-3,-7.948992E-4,-6.9266716E-3,-1.2324125E-3,3.4048536E-3,1.5313373E-3,-6.8233954E-4,6.7613586E-3,4.7322456E-3,9.443461E-3,-5.173715E-3,1.897192E-3,1.5801823E-3,7.105579E-3,1.1367451E-2,8.8575985E-3,-2.9271494E-3,5.396837E-3,1.2393243E-2,1.4234016E-2,1.8137153E-2,1.0276667E-2],"split_indices":[0,0,0,0,0,0,0,0,0,0,0,0,0,0,0,1,4,4,2,1,1,3,2,0,4,2,0,0,4,0,0,0,0,0,4,4,1,3,4,0,4,2,3,1,3,1,2,2,3,1,0,0,1,0,0,0,0,0,0,0,0,0,0,0,0,0,0,0,0,0,0,0,0,0,0,0,0,0,0,0,0,0,0,0,0,0,0,0,0,0,0],"split_type":[0,0,0,0,0,0,0,0,0,0,0,0,0,0,0,0,0,0,0,0,0,0,0,0,0,0,0,0,0,0,0,0,0,0,0,0,0,0,0,0,0,0,0,0,0,0,0,0,0,0,0,0,0,0,0,0,0,0,0,0,0,0,0,0,0,0,0,0,0,0,0,0,0,0,0,0,0,0,0,0,0,0,0,0,0,0,0,0,0,0,0],"sum_hessian":[7.98E3,5.515E3,2.465E3,4.708E3,8.07E2,1.435E3,1.03E3,4.268E3,4.4E2,4.03E2,4.04E2,8.1E2,6.25E2,6.23E2,4.07E2,4.019E3,2.49E2,1.25E2,3.15E2,2.18E2,1.85E2,2.48E2,1.56E2,4.05E2,4.05E2,3.43E2,2.82E2,4.36E2,1.87E2,1.87E2,2.2E2,1E0,4.018E3,2E0,2.47E2,1.12E2,1.3E1,2.82E2,3.3E1,1E0,2.17E2,1.78E2,7E0,2.07E2,4.1E1,1.51E2,5E0,1.57E2,2.48E2,3E0,4.02E2,4.9E1,2.94E2,1E0,1.86E2,1E0,1E0,1.5E1,2.32E2,1.4E1,9.8E1,1E0,1.2E1,2.19E2,6.3E1,1.8E1,1.5E1,1.53E2,6.4E1,9E0,1.69E2,6E0,1E0,1.03E2,1.04E2,3.7E1,4E0,1.44E2,7E0,3E0,2E0,1.2E1,1.45E2,4.9E1,1.99E2,1E0,2E0,2.16E2,1.86E2,2.88E2,6E0],"tree_param":{"num_deleted":"0","num_feature":"6","num_nodes":"91","size_leaf_vector":"1"}},{"base_weights":[4.6879275E-5,-8.763231E-2,1.8953809E-1,-1.01678364E-1,7.929204E-4,1.2039531E-1,2.713167E-1,-1.0476634E-1,-7.1555406E-2,-1.9209048E-2,2.4145527E-2,8.4808476E-2,1.5554851E-1,2.3073341E-1,3.2391414E-1,-1.05348244E-1,-9.696796E-2,-8.240748E-2,-6.700187E-2,-3.3509728E-2,-1.0078337E-2,1.1608434E-2,3.136289E-2,6.6485584E-2,1.0309749E-1,1.2798052E-1,1.6558293E-1,2.1294907E-2,2.4954197E-1,2.9492214E-2,3.5931163E-2,-1.7807868E-3,-1.0536586E-2,-7.305145E-5,-9.727804E-2,-8.488837E-3,-5.649694E-2,-6.938666E-2,-4.5181356E-2,-1.5359785E-2,-3.7676174E-2,2.1079939E-2,-1.2032593E-2,1.5690982E-2,-4.4115376E-2,3.6557723E-2,9.250139E-3,6.858107E-2,7.855869E-3,1.1847878E-2,1.0414854E-1,1.2921506E-1,5.6952707E-2,1.5471652E-1,1.7587392E-1,7.0668194E-3,2.4988879E-2,-7.467246E-3,-9.842366E-3,-5.9227515E-3,-1.0499739E-3,-6.45446E-3,-8.494709E-3,-2.2328969E-3,-5.8264793E-3,-5.781755E-3,-4.9710786E-4,-3.86158E-3,1.4033731E-3,-1.4868869E-3,4.6697906E-3,-1.4942286E-3,9.051174E-4,1.919737E-3,-1.7466277E-3,-1.1352894E-3,-6.805478E-3,3.8440984E-3,-3.591469E-3,-2.8306933E-3,2.835724E-3,6.9526024E-3,-2.628663E-3,-2.5232348E-3,3.982182E-3,-1.9641628E-3,3.938809E-3,8.9812605E-3,1.115963E-2,1.1606809E-2,1.3864628E-2,6.24914E-3,1.7398968E-3,6.572602E-3,1.5552475E-2,8.96906E-3,1.7762562E-2],"categories":[],"categories_nodes":[],"categories_segments":[],"categories_sizes":[],"default_left":[0,0,0,0,0,0,0,0,0,0,0,0,0,0,0,0,0,0,0,0,0,0,0,0,0,0,0,0,0,0,0,0,0,0,0,0,0,0,0,0,0,0,0,0,0,0,0,0,0,0,0,0,0,0,0,0,0,0,0,0,0,0,0,0,0,0,0,0,0,0,0,0,0,0,0,0,0,0,0,0,0,0,0,0,0,0,0,0,0,0,0,0,0,0,0,0,0],"id":2,"left_children":[1,3,5,7,9,11,13,15,17,19,21,23,25,27,29,31,33,35,37,39,41,43,45,47,49,51,53,-1,55,-1,-1,-1,-1,-1,57,-1,59,61,63,65,67,69,71,73,75,77,79,81,83,85,87,89,91,93,95,-1,-1,-1,-1,-1,-1,-1,-1,-1,-1,-1,-1,-1,-1,-1,-1,-1,-1,-1,-1,-1,-1,-1,-1,-1,-1,-1,-1,-1,-1,-1,-1,-1,-1,-1,-1,-1,-1,-1,-1,-1,-1],"loss_changes":[1.3261642E2,6.777809E0,1.4244698E1,4.3053055E-1,3.5032025E-1,1.7006645E0,2.3928375E0,9.155273E-3,1.6270638E-2,5.241473E-2,3.0943647E-2,2.2202396E-1,1.6913033E-1,1.6629028E-1,4.0818024E-1,4.2304993E-3,9.14979E-3,3.3035278E-3,1.33087635E-2,1.1293739E-2,1.5354672E-2,2.9811595E-2,2.4818838E-2,4.1724324E-2,3.1374693E-2,9.126186E-3,2.8814316E-2,0E0,1.7585754E-3,0E0,0E0,0E0,0E0,0E0,6.2680244E-4,0E0,1.1365116E-3,1.5839577E-2,8.864589E-3,1.3386104E-2,6.7126155E-3,1.4508376E-2,1.4490508E-2,1.4286766E-2,6.2862113E-3,2.5538325E-2,3.1659793E-2,3.1589985E-2,1.47548495E-2,5.1097847E-3,2.5851965E-2,6.7219734E-3,8.093193E-6,7.902622E-3,2.1809578E-2,0E0,0E0,0E0,0E0,0E0,0E0,0E0,0E0,0E0,0E0,0E0,0E0,0E0,0E0,0E0,0E0,0E0,0E0,0E0,0E0,0E0,0E0,0E0,0E0,0E0,0E0,0E0,0E0,0E0,0E0,0E0,0E0,0E0,0E0,0E0,0E0,0E0,0E0,0E0,0E0,0E0,0E0],"parents":[2147483647,0,0,1,1,2,2,3,3,4,4,5,5,6,6,7,7,8,8,9,9,10,10,11,11,12,12,13,13,14,14,15,15,16,16,17,17,18,18,19,19,20,20,21,21,22,22,23,23,24,24,25,25,26,26,28,28,34,34,36,36,37,37,38,38,39,39,40,40,41,41,42,42,43,43,44,44,45,45,46,46,47,47,48,48,49,49,50,50,51,51,52,52,53,53,54,54],"right_children":[2,4,6,8,10,12,14,16,18,20,22,24,26,28,30,32,34,36,38,40,42,44,46,48,50,52,54,-1,56,-1,-1,-1,-1,-1,58,-1,60,62,64,66,68,70,72,74,76,78,80,82,84,86,88,90,92,94,96,-1,-1,-1,-1,-1,-1,-1,-1,-1,-1,-1,-1,-1,-1,-1,-1,-1,-1,-1,-1,-1,-1,-1,-1,-1,-1,-1,-1,-1,-1,-1,-1,-1,-1,-1,-1,-1,-1,-1,-1,-1,-1],"split_conditions":[1.8803842E-1,7.682684E-2,3.802423E-1,7.2307885E-3,1.372476E-1,2.8732783E-1,4.7935778E-1,3.3081323E-3,1.7799422E-2,1.02563724E-1,1.5494011E-1,2.396919E-1,3.1280035E-1,4.342206E-1,5.360184E-1,3.779948E-1,5.5710305E-3,9.164345E-1,7.03091E-1,3.7583995E-1,2.8638375E-1,5.439383E-1,6.445398E-1,8.2618326E-1,1.1142061E-2,8.456318E-1,3.468448E-1,2.1294907E-2,5.5710305E-3,2.9492214E-2,3.5931163E-2,-1.7807868E-3,-1.0536586E-2,-7.305145E-5,1.0306407E-1,-8.488837E-3,1.3046905E-2,2.3471294E-1,4.0036902E-1,3.1173262E-1,9.94429E-1,5.1666176E-1,8.8579386E-1,3.7406155E-1,1.412922E-1,9.470752E-1,6.6695035E-1,5.7048273E-1,5E-1,9.147373E-2,2.552563E-1,7.0313565E-2,2.5944152E-1,5.5710305E-3,1.7938656E-1,7.0668194E-3,2.4988879E-2,-7.467246E-3,-9.842366E-3,-5.9227515E-3,-1.0499739E-3,-6.45446E-3,-8.494709E-3,-2.2328969E-3,-5.8264793E-3,-5.781755E-3,-4.9710786E-4,-3.86158E-3,1.4033731E-3,-1.4868869E-3,4.6697906E-3,-1.4942286E-3,9.051174E-4,1.919737E-3,-1.7466277E-3,-1.1352894E-3,-6.805478E-3,3.8440984E-3,-3.591469E-3,-2.8306933E-3,2.835724E-3,6.9526024E-3,-2.628663E-3,-2.5232348E-3,3.982182E-3,-1.9641628E-3,3.938809E-3,8.9812605E-3,1.115963E-2,1.1606809E-2,1.3864628E-2,6.24914E-3,1.7398968E-3,6.572602E-3,1.5552475E-2,8.96906E-3,1.7762562E-2],"split_indices":[0,0,0,0,0,0,0,0,0,0,0,0,0,0,0,1,4,4,2,1,1,1,2,2,4,2,0,0,4,0,0,0,0,0,4,0,0,3,1,1,4,2,4,3,0,4,2,1,5,3,0,3,1,4,2,0,0,0,0,0,0,0,0,0,0,0,0,0,0,0,0,0,0,0,0,0,0,0,0,0,0,0,0,0,0,0,0,0,0,0,0,0,0,0,0,0,0],"split_type":[0,0,0,0,0,0,0,0,0,0,0,0,0,0,0,0,0,0,0,0,0,0,0,0,0,0,0,0,0,0,0,0,0,0,0,0,0,0,0,0,0,0,0,0,0,0,0,0,0,0,0,0,0,0,0,0,0,0,0,0,0,0,0,0,0,0,0,0,0,0,0,0,0,0,0,0,0,0,0,0,0,0,0,0,0,0,0,0,0,0,0,0,0,0,0,0,0],"sum_hessian":[7.98E3,5.456E3,2.524E3,4.708E3,7.48E2,1.369E3,1.155E3,4.268E3,4.4E2,4.03E2,3.45E2,6.82E2,6.87E2,6.55E2,5E2,3.96E3,3.08E2,1.25E2,3.15E2,1.56E2,2.47E2,1.27E2,2.18E2,3.43E2,3.39E2,1.87E2,5E2,3.43E2,3.12E2,2.8E2,2.2E2,1E0,3.959E3,1E0,3.07E2,1.12E2,1.3E1,2.82E2,3.3E1,3E1,1.26E2,1.4E1,2.33E2,1.19E2,8E0,1.76E2,4.2E1,3.31E2,1.2E1,4E0,3.35E2,1.83E2,4E0,2.51E2,2.49E2,1E0,3.11E2,1.8E1,2.89E2,1.2E1,1E0,2.19E2,6.3E1,1.3E1,2E1,5E0,2.5E1,1.24E2,2E0,6E0,8E0,2.05E2,2.8E1,1.08E2,1.1E1,4E0,4E0,1.72E2,4E0,1.4E1,2.8E1,3.28E2,3E0,6E0,6E0,2E0,2E0,1.19E2,2.16E2,8.2E1,1.01E2,3E0,1E0,3E0,2.48E2,6E0,2.43E2],"tree_param":{"num_deleted":"0","num_feature":"6","num_nodes":"97","size_leaf_vector":"1"}},{"base_weights":[6.063379E-5,-7.7549435E-2,1.7366043E-1,-9.1525E-2,3.995722E-3,1.17268726E-1,2.5203562E-1,-9.429666E-2,-6.44871E-2,-1.7303348E-2,2.5232336E-2,8.7718554E-2,1.5536445E-1,2.2202592E-1,3.0372268E-1,-9.47592E-2,-8.648178E-2,-6.916764E-2,-5.58346E-2,-2.4484223E-2,-1.4483356E-3,1.6884854E-2,3.831062E-2,6.8085715E-2,1.0713533E-1,1.4275777E-1,1.7013948E-1,2.071171E-2,2.5063106E-1,2.831498E-1,3.41829E-2,-1.6917471E-3,-9.477436E-3,-6.939918E-5,-8.682352E-2,-6.2141553E-2,-7.85451E-2,-5.069688E-3,-5.743947E-2,-3.4730013E-2,-1.9394591E-2,1.597942E-3,-6.3147927E-3,9.601723E-3,2.6304483E-2,4.5549184E-2,1.5241397E-2,5.386917E-2,7.683322E-2,2.047853E-2,1.0772961E-1,1.19787514E-1,1.4616711E-1,1.2280853E-1,1.7178215E-1,6.7134784E-3,2.5116239E-2,2.0007892E-1,2.86136E-2,-6.3829557E-3,-8.812856E-3,-6.2967944E-3,3.7106269E-3,-3.2002297E-3,-8.077262E-3,-2.3006636E-3,3.1190293E-4,-6.023239E-3,-2.941142E-3,-4.030626E-3,-1.291903E-3,5.519097E-4,-2.2900857E-3,-1.2005022E-3,1.8949915E-3,6.4802505E-3,6.689906E-4,4.359377E-3,1.3263029E-3,5.3157057E-3,1.6291905E-3,4.517314E-3,-3.3273033E-4,1.2314447E-2,5.0800405E-3,8.018408E-3,5.1604453E-3,-2.682584E-3,4.5188605E-3,4.2634825E-3,1.0844026E-2,1.2896957E-2,8.373326E-3,1.4724882E-2,8.062741E-3,1.33547755E-2,-3.0310676E-4,1.7206203E-2,4.8106834E-3,8.338305E-3,2.1507978E-2],"categories":[],"categories_nodes":[],"categories_segments":[],"categories_sizes":[],"default_left":[0,0,0,0,0,0,0,0,0,0,0,0,0,0,0,0,0,0,0,0,0,0,0,0,0,0,0,0,0,0,0,0,0,0,0,0,0,0,0,0,0,0,0,0,0,0,0,0,0,0,0,0,0,0,0,0,0,0,0,0,0,0,0,0,0,0,0,0,0,0,0,0,0,0,0,0,0,0,0,0,0,0,0,0,0,0,0,0,0,0,0,0,0,0,0,0,0,0,0,0,0],"id":3,"left_children":[1,3,5,7,9,11,13,15,17,19,21,23,25,27,29,31,33,35,37,39,41,43,45,47,49,51,53,-1,55,57,-1,-1,-1,-1,59,61,63,65,67,69,71,73,-1,75,77,79,81,83,85,87,89,91,93,95,97,-1,-1,99,-1,-1,-1,-1,-1,-1,-1,-1,-1,-1,-1,-1,-1,-1,-1,-1,-1,-1,-1,-1,-1,-1,-1,-1,-1,-1,-1,-1,-1,-1,-1,-1,-1,-1,-1,-1,-1,-1,-1,-1,-1,-1,-1],"loss_changes":[1.0754222E2,6.286621E0,1.0869446E1,3.468094E-1,3.6591128E-1,1.6029282E0,1.5317688E0,7.2364807E-3,1.3997793E-2,4.596109E-2,4.35673E-2,3.0186367E-1,9.231186E-2,2.2785187E-1,1.9797897E-1,3.1394958E-3,7.269025E-3,1.3699293E-2,1.27441585E-2,1.3823375E-2,2.3971073E-2,1.6829908E-2,2.5522903E-2,4.6351075E-2,1.870203E-2,9.4304085E-3,9.0789795E-4,0E0,4.58622E-3,4.7664642E-3,0E0,0E0,0E0,0E0,1.8466711E-3,1.5951335E-2,9.545028E-3,9.530419E-4,1.036191E-2,1.0547012E-2,1.6548946E-2,2.9024161E-2,0E0,2.239079E-2,2.377338E-2,2.5621668E-2,2.1826252E-2,2.7333349E-2,1.6912222E-2,5.8878E-3,1.4019012E-2,5.7535768E-3,9.041786E-3,1.797323E-2,1.1034012E-3,0E0,0E0,3.0724406E-3,0E0,0E0,0E0,0E0,0E0,0E0,0E0,0E0,0E0,0E0,0E0,0E0,0E0,0E0,0E0,0E0,0E0,0E0,0E0,0E0,0E0,0E0,0E0,0E0,0E0,0E0,0E0,0E0,0E0,0E0,0E0,0E0,0E0,0E0,0E0,0E0,0E0,0E0,0E0,0E0,0E0,0E0,0E0],"parents":[2147483647,0,0,1,1,2,2,3,3,4,4,5,5,6,6,7,7,8,8,9,9,10,10,11,11,12,12,13,13,14,14,15,15,16,16,17,17,18,18,19,19,20,20,21,21,22,22,23,23,24,24,25,25,26,26,28,28,29,29,34,34,35,35,36,36,37,37,38,38,39,39,40,40,41,41,43,43,44,44,45,45,46,46,47,47,48,48,49,49,50,50,51,51,52,52,53,53,54,54,57,57],"right_children":[2,4,6,8,10,12,14,16,18,20,22,24,26,28,30,32,34,36,38,40,42,44,46,48,50,52,54,-1,56,58,-1,-1,-1,-1,60,62,64,66,68,70,72,74,-1,76,78,80,82,84,86,88,90,92,94,96,98,-1,-1,100,-1,-1,-1,-1,-1,-1,-1,-1,-1,-1,-1,-1,-1,-1,-1,-1,-1,-1,-1,-1,-1,-1,-1,-1,-1,-1,-1,-1,-1,-1,-1,-1,-1,-1,-1,-1,-1,-1,-1,-1,-1,-1,-1],"split_conditions":[1.9601555E-1,7.682684E-2,4.0239918E-1,7.2307885E-3,1.372476E-1,3.1280035E-1,5.0776184E-1,3.502354E-3,4.8177287E-2,1.1913158E-1,1.7383121E-1,2.552563E-1,3.6092067E-1,4.6472937E-1,5.6410307E-1,3.779948E-1,5.5710305E-3,8.448711E-2,1.9498607E-2,9.2481196E-2,5.793421E-1,5.230743E-1,6.428769E-1,2.1991213E-1,1.1142061E-2,2.8277212E-1,4.7211642E-3,2.071171E-2,5.5710305E-3,7.565596E-2,3.41829E-2,-1.6917471E-3,-9.477436E-3,-6.939918E-5,1.0306407E-1,8.165252E-2,3.650934E-1,3.4632903E-1,8.9972144E-1,2.3171441E-1,1.281337E-1,5.4317546E-1,-6.3147927E-3,1.8781802E-1,6.351276E-1,1E0,5.849582E-1,1.1142061E-2,4.5567906E-1,3.5185194E-1,1.5220192E-3,2.5867638E-1,4.7486976E-1,7.866251E-1,6.459375E-1,6.7134784E-3,2.5116239E-2,2.5491351E-2,2.86136E-2,-6.3829557E-3,-8.812856E-3,-6.2967944E-3,3.7106269E-3,-3.2002297E-3,-8.077262E-3,-2.3006636E-3,3.1190293E-4,-6.023239E-3,-2.941142E-3,-4.030626E-3,-1.291903E-3,5.519097E-4,-2.2900857E-3,-1.2005022E-3,1.8949915E-3,6.4802505E-3,6.689906E-4,4.359377E-3,1.3263029E-3,5.3157057E-3,1.6291905E-3,4.517314E-3,-3.3273033E-4,1.2314447E-2,5.0800405E-3,8.018408E-3,5.1604453E-3,-2.682584E-3,4.5188605E-3,4.2634825E-3,1.0844026E-2,1.2896957E-2,8.373326E-3,1.4724882E-2,8.062741E-3,1.33547755E-2,-3.0310676E-4,1.7206203E-2,4.8106834E-3,8.338305E-3,2.1507978E-2],"split_indices":[0,0,0,0,0,0,0,0,0,0,0,0,0,0,0,1,4,3,4,0,1,2,2,0,4,2,3,0,4,1,0,0,0,0,4,3,1,1,4,3,4,4,0,2,2,5,4,4,1,1,3,2,1,2,3,0,0,3,0,0,0,0,0,0,0,0,0,0,0,0,0,0,0,0,0,0,0,0,0,0,0,0,0,0,0,0,0,0,0,0,0,0,0,0,0,0,0,0,0,0,0],"split_type":[0,0,0,0,0,0,0,0,0,0,0,0,0,0,0,0,0,0,0,0,0,0,0,0,0,0,0,0,0,0,0,0,0,0,0,0,0,0,0,0,0,0,0,0,0,0,0,0,0,0,0,0,0,0,0,0,0,0,0,0,0,0,0,0,0,0,0,0,0,0,0,0,0,0,0,0,0,0,0,0,0,0,0,0,0,0,0,0,0,0,0,0,0,0,0,0,0,0,0,0,0],"sum_hessian":[7.98E3,5.515E3,2.465E3,4.708E3,8.07E2,1.435E3,1.03E3,4.268E3,4.4E2,4.03E2,4.04E2,8.1E2,6.25E2,6.55E2,3.75E2,4.019E3,2.49E2,2.81E2,1.59E2,2.77E2,1.26E2,2.48E2,1.56E2,4.05E2,4.05E2,3.43E2,2.82E2,4.36E2,2.19E2,2.49E2,1.26E2,1E0,4.018E3,1E0,2.48E2,1.65E2,1.16E2,5E0,1.54E2,9E1,1.87E2,1.21E2,5E0,1.41E2,1.07E2,1.18E2,3.8E1,1.57E2,2.48E2,3E0,4.02E2,4.9E1,2.94E2,1.2E1,2.7E2,1E0,2.18E2,1.1E1,2.38E2,1.6E1,2.32E2,1.64E2,1E0,6E0,1.1E2,1E0,4E0,1.39E2,1.5E1,7.1E1,1.9E1,2.3E1,1.64E2,6.8E1,5.3E1,6E0,1.35E2,4.5E1,6.2E1,9.3E1,2.5E1,1.4E1,2.4E1,5E0,1.52E2,2.17E2,3.1E1,1E0,2E0,5E0,3.97E2,3.7E1,1.2E1,2.88E2,6E0,1.1E1,1E0,2.69E2,1E0,2E0,9E0],"tree_param":{"num_deleted":"0","num_feature":"6","num_nodes":"101","size_leaf_vector":"1"}},{"base_weights":[8.362213E-5,-6.9166824E-2,1.5783809E-1,-8.238339E-2,5.095362E-3,1.0565731E-1,2.2520019E-1,-8.4873185E-2,-5.809466E-2,-1.2842676E-2,2.7324943E-2,7.67118E-2,1.3449116E-1,1.9656703E-1,2.706157E-1,-8.534345E-2,-7.85703E-2,-6.743808E-2,-5.418528E-2,-2.20612E-2,8.572841E-4,2.9147487E-2,-3.5634484E-2,6.146723E-2,9.168983E-2,1.20657735E-1,1.4793362E-1,1.8511418E-1,2.2403176E-1,2.5285805E-2,3.0791521E-2,-1.60716E-3,-8.535689E-3,-1.4490199E-2,-7.8940555E-2,-6.902903E-2,-3.9085764E-2,-4.6993878E-2,-6.0563933E-2,-3.13155E-2,-1.7464377E-2,2.1811174E-2,-6.084196E-3,1.97172E-2,3.8521253E-2,1.4190197E-2,-5.6092516E-2,6.237273E-2,-1.240008E-2,8.0346406E-2,9.868677E-2,1.2210135E-1,7.054261E-2,1.63416E-1,1.4063859E-1,1.7616317E-2,1.9448695E-1,6.3778046E-3,2.2454767E-2,-2.1076004E-3,-6.5929446E-5,-1.7818836E-3,-7.908207E-3,-7.633138E-3,-6.211914E-3,-1.5172813E-3,-4.8513445E-3,-3.5839286E-3,-5.4199873E-3,-7.1124057E-3,-5.2912096E-3,-2.0374632E-3,-4.112452E-3,4.990184E-4,-2.062465E-3,-3.8603507E-3,2.8328903E-3,4.402827E-3,-9.806304E-4,9.404652E-4,2.672671E-3,1.7404264E-3,4.4732033E-3,4.2372147E-4,2.2024573E-3,-5.6244062E-5,-6.394503E-3,6.903121E-3,5.1357616E-3,-6.3551962E-3,1.6275881E-3,9.464027E-3,6.651836E-3,1.0040207E-2,4.30398E-3,5.9919977E-3,1.2305905E-2,7.7725733E-3,2.308468E-3,8.108028E-3,1.6675537E-2,9.330581E-3,1.4381426E-2,1.4349617E-3,1.9524744E-2],"categories":[],"categories_nodes":[],"categories_segments":[],"categories_sizes":[],"default_left":[0,0,0,0,0,0,0,0,0,0,0,0,0,0,0,0,0,0,0,0,0,0,0,0,0,0,0,0,0,0,0,0,0,0,0,0,0,0,0,0,0,0,0,0,0,0,0,0,0,0,0,0,0,0,0,0,0,0,0,0,0,0,0,0,0,0,0,0,0,0,0,0,0,0,0,0,0,0,0,0,0,0,0,0,0,0,0,0,0,0,0,0,0,0,0,0,0,0,0,0,0,0,0,0,0],"id":4,"left_children":[1,3,5,7,9,11,13,15,17,19,21,23,25,27,29,31,33,35,37,39,41,43,45,47,49,51,53,55,57,-1,-1,-1,-1,59,61,63,65,67,69,71,73,75,77,79,81,83,85,87,89,91,93,95,97,99,101,-1,103,-1,-1,-1,-1,-1,-1,-1,-1,-1,-1,-1,-1,-1,-1,-1,-1,-1,-1,-1,-1,-1,-1,-1,-1,-1,-1,-1,-1,-1,-1,-1,-1,-1,-1,-1,-1,-1,-1,-1,-1,-1,-1,-1,-1,-1,-1,-1,-1],"loss_changes":[8.719989E1,5.4447517E0,8.535244E0,2.7983856E-1,3.3490643E-1,1.1364365E0,1.3278236E0,5.9490204E-3,1.24543905E-2,5.8745347E-2,4.4068545E-2,1.5145779E-1,1.09903336E-1,1.6455841E-1,1.923809E-1,2.313614E-3,6.187558E-3,2.9854774E-3,1.1649191E-2,1.1279315E-2,2.7477495E-2,3.1505466E-2,1.2008427E-2,2.3782372E-2,1.9453287E-2,1.6273975E-2,1.5869617E-2,5.0029755E-3,1.2216568E-3,0E0,0E0,0E0,0E0,2.593677E-4,1.2463331E-3,1.2124181E-3,1.2929067E-3,1.0355622E-2,9.488583E-3,8.92815E-3,1.344388E-2,1.9600613E-2,2.6918171E-2,1.3049245E-2,2.3091316E-2,2.1857873E-4,3.4524444E-3,2.139163E-2,8.368511E-3,2.0783603E-2,1.5627861E-2,1.2456894E-2,2.2964813E-3,1.5073776E-2,2.2806644E-2,0E0,2.7199745E-2,0E0,0E0,0E0,0E0,0E0,0E0,0E0,0E0,0E0,0E0,0E0,0E0,0E0,0E0,0E0,0E0,0E0,0E0,0E0,0E0,0E0,0E0,0E0,0E0,0E0,0E0,0E0,0E0,0E0,0E0,0E0,0E0,0E0,0E0,0E0,0E0,0E0,0E0,0E0,0E0,0E0,0E0,0E0,0E0,0E0,0E0,0E0,0E0],"parents":[2147483647,0,0,1,1,2,2,3,3,4,4,5,5,6,6,7,7,8,8,9,9,10,10,11,11,12,12,13,13,14,14,15,15,16,16,17,17,18,18,19,19,20,20,21,21,22,22,23,23,24,24,25,25,26,26,27,27,28,28,33,33,34,34,35,35,36,36,37,37,38,38,39,39,40,40,41,41,42,42,43,43,44,44,45,45,46,46,47,47,48,48,49,49,50,50,51,51,52,52,53,53,54,54,56,56],"right_children":[2,4,6,8,10,12,14,16,18,20,22,24,26,28,30,32,34,36,38,40,42,44,46,48,50,52,54,56,58,-1,-1,-1,-1,60,62,64,66,68,70,72,74,76,78,80,82,84,86,88,90,92,94,96,98,100,102,-1,104,-1,-1,-1,-1,-1,-1,-1,-1,-1,-1,-1,-1,-1,-1,-1,-1,-1,-1,-1,-1,-1,-1,-1,-1,-1,-1,-1,-1,-1,-1,-1,-1,-1,-1,-1,-1,-1,-1,-1,-1,-1,-1,-1,-1,-1,-1,-1,-1],"split_conditions":[2.0147024E-1,7.682684E-2,3.955559E-1,7.2307885E-3,1.4560674E-1,3.0068707E-1,5.0032866E-1,3.3081323E-3,1.7799422E-2,1.1913158E-1,7.9361653E-1,2.5191432E-1,3.468448E-1,4.6472937E-1,5.6410307E-1,3.779948E-1,1.1142061E-2,9.5821726E-1,8.628744E-2,9.2481196E-2,3.5489586E-1,1.7383121E-1,4.4879578E-2,5.7048273E-1,4.3189657E-1,4.7486976E-1,2.729805E-1,4.342206E-1,5.5710305E-3,2.5285805E-2,3.0791521E-2,-1.60716E-3,-8.535689E-3,5.483255E-3,1.1297096E-3,5.0597686E-1,9.832869E-1,4.7148237E-1,4.8177287E-2,4.3356597E-1,1.281337E-1,2.1904703E-2,2.4693376E-1,3.3426183E-1,3.5198852E-1,1.7383121E-1,2.801354E-1,6.2952644E-1,5.793421E-1,3.2749447E-1,8.456318E-1,1.3587637E-1,3.6215198E-1,2.140722E-1,3.0640668E-1,1.7616317E-2,1.1142061E-2,6.3778046E-3,2.2454767E-2,-2.1076004E-3,-6.5929446E-5,-1.7818836E-3,-7.908207E-3,-7.633138E-3,-6.211914E-3,-1.5172813E-3,-4.8513445E-3,-3.5839286E-3,-5.4199873E-3,-7.1124057E-3,-5.2912096E-3,-2.0374632E-3,-4.112452E-3,4.990184E-4,-2.062465E-3,-3.8603507E-3,2.8328903E-3,4.402827E-3,-9.806304E-4,9.404652E-4,2.672671E-3,1.7404264E-3,4.4732033E-3,4.2372147E-4,2.2024573E-3,-5.6244062E-5,-6.394503E-3,6.903121E-3,5.1357616E-3,-6.3551962E-3,1.6275881E-3,9.464027E-3,6.651836E-3,1.0040207E-2,4.30398E-3,5.9919977E-3,1.2305905E-2,7.7725733E-3,2.308468E-3,8.108028E-3,1.6675537E-2,9.330581E-3,1.4381426E-2,1.4349617E-3,1.9524744E-2],"split_indices":[0,0,0,0,0,0,0,0,0,0,2,0,0,0,0,1,4,4,3,0,1,0,3,1,2,1,4,0,4,0,0,0,0,0,3,1,4,1,0,1,4,3,2,4,2,0,1,4,1,2,2,1,2,2,4,0,4,0,0,0,0,0,0,0,0,0,0,0,0,0,0,0,0,0,0,0,0,0,0,0,0,0,0,0,0,0,0,0,0,0,0,0,0,0,0,0,0,0,0,0,0,0,0,0,0],"split_type":[0,0,0,0,0,0,0,0,0,0,0,0,0,0,0,0,0,0,0,0,0,0,0,0,0,0,0,0,0,0,0,0,0,0,0,0,0,0,0,0,0,0,0,0,0,0,0,0,0,0,0,0,0,0,0,0,0,0,0,0,0,0,0,0,0,0,0,0,0,0,0,0,0,0,0,0,0,0,0,0,0,0,0,0,0,0,0,0,0,0,0,0,0,0,0,0,0,0,0,0,0,0,0,0,0],"sum_hessian":[7.98E3,5.546E3,2.434E3,4.708E3,8.38E2,1.373E3,1.061E3,4.268E3,4.4E2,4.64E2,3.74E2,6.87E2,6.86E2,6.54E2,4.07E2,3.96E3,3.08E2,1.25E2,3.15E2,2.77E2,1.87E2,3.64E2,1E1,3.43E2,3.44E2,3.43E2,3.43E2,4.67E2,1.87E2,2.81E2,1.26E2,1E0,3.959E3,2E0,3.06E2,1.17E2,8E0,1.52E2,1.63E2,9E1,1.87E2,4.6E1,1.41E2,1.83E2,1.81E2,3E0,7E0,3.39E2,4E0,1.36E2,2.08E2,3.32E2,1.1E1,1.03E2,2.4E2,2.49E2,2.18E2,1E0,1.86E2,1E0,1E0,1E0,3.05E2,5.2E1,6.5E1,3E0,5E0,6.2E1,9E1,6.5E1,9.8E1,4.4E1,4.6E1,2.3E1,1.64E2,4E0,4.2E1,9E0,1.32E2,7.5E1,1.08E2,4.2E1,1.39E2,2E0,1E0,1E0,6E0,2.08E2,1.31E2,1E0,3E0,6.4E1,7.2E1,2.01E2,7E0,6E0,3.26E2,9E0,2E0,5E0,9.8E1,1.7E1,2.23E2,1E0,2.17E2],"tree_param":{"num_deleted":"0","num_feature":"6","num_nodes":"105","size_leaf_vector":"1"}},{"base_weights":[9.721175E-5,-6.3938454E-2,1.3849029E-1,-7.415856E-2,4.0120172E-4,8.7926954E-2,1.9829418E-1,-7.639102E-2,-5.237958E-2,-1.4107464E-2,1.7340796E-2,5.9347637E-2,1.1154298E-1,1.6519803E-1,2.3286048E-1,-7.6648355E-3,-6.7015484E-2,-6.08547E-2,-4.88345E-2,-2.5008218E-2,-7.1496977E-3,1.8245429E-2,-3.69626E-2,4.1979842E-2,6.848425E-2,9.248635E-2,1.207916E-1,1.5555981E-1,1.7774922E-1,2.1235144E-2,2.6363757E-1,-5.2559115E-2,-7.2227135E-2,-6.282189E-2,-4.0629916E-2,-7.134735E-2,-4.6739787E-2,-9.838073E-3,-2.8514253E-2,-1.3008005E-2,2.754019E-3,9.174167E-3,2.3386728E-2,6.64993E-4,-8.279177E-3,8.175883E-3,4.48123E-2,6.238524E-2,8.726991E-2,9.6249186E-2,5.798271E-2,1.286892E-1,1.13272645E-1,1.7340742E-2,1.5078023E-2,4.948085E-2,1.7858076E-1,2.4685314E-2,2.8292095E-2,2.375242E-4,-5.9500136E-3,-1.3765693E-3,-7.3440755E-3,-4.3439674E-3,-6.512402E-3,-9.633663E-4,-4.4993153E-3,-2.7983382E-3,-7.390146E-3,-5.0354055E-3,-3.060906E-3,-4.998695E-3,-1.945596E-5,-2.934629E-3,1.5658783E-3,3.180359E-3,-1.5012493E-3,4.9004066E-3,-9.989046E-5,1.2949808E-3,-4.0928507E-3,3.6141053E-3,1.61137E-3,2.6274878E-3,-4.413647E-3,4.7342586E-3,7.814073E-4,9.5046434E-4,6.4298892E-3,9.285063E-3,3.5197889E-3,9.874951E-3,6.0142395E-3,6.4566727E-3,-5.660081E-3,5.9708566E-3,1.30529E-2,1.154244E-2,6.6450164E-3,1.3632134E-3,6.058914E-3,1.2869676E-2,1.8100493E-2],"categories":[],"categories_nodes":[],"categories_segments":[],"categories_sizes":[],"default_left":[0,0,0,0,0,0,0,0,0,0,0,0,0,0,0,0,0,0,0,0,0,0,0,0,0,0,0,0,0,0,0,0,0,0,0,0,0,0,0,0,0,0,0,0,0,0,0,0,0,0,0,0,0,0,0,0,0,0,0,0,0,0,0,0,0,0,0,0,0,0,0,0,0,0,0,0,0,0,0,0,0,0,0,0,0,0,0,0,0,0,0,0,0,0,0,0,0,0,0,0,0,0,0],"id":5,"left_children":[1,3,5,7,9,11,13,15,17,19,21,23,25,27,29,-1,31,33,35,37,39,41,43,45,47,49,51,53,55,-1,57,59,61,63,65,67,69,71,73,75,77,79,81,-1,-1,83,85,87,89,91,93,95,97,-1,-1,99,101,-1,-1,-1,-1,-1,-1,-1,-1,-1,-1,-1,-1,-1,-1,-1,-1,-1,-1,-1,-1,-1,-1,-1,-1,-1,-1,-1,-1,-1,-1,-1,-1,-1,-1,-1,-1,-1,-1,-1,-1,-1,-1,-1,-1,-1,-1],"loss_changes":[7.073722E1,3.5883217E0,7.617874E0,2.249546E-1,1.8432704E-1,9.180336E-1,1.2840118E0,5.1612854E-3,1.02779865E-2,3.046254E-2,1.7671503E-2,9.582591E-2,1.20838165E-1,4.4204712E-2,2.9938507E-1,0E0,5.395472E-3,2.4605691E-3,1.1567116E-2,8.069836E-3,1.4424543E-2,1.5689038E-2,1.2542917E-2,2.0410955E-2,4.1072726E-2,2.6747227E-2,1.5172958E-2,3.19767E-3,1.7935753E-2,0E0,1.6889572E-3,1.3868146E-2,5.161673E-3,2.2131503E-3,1.4599673E-3,7.00891E-4,1.5482545E-2,1.1992738E-2,5.1272437E-3,1.4490042E-2,1.619123E-2,2.4176227E-2,1.9547105E-2,0E0,0E0,1.8202098E-2,1.8353313E-2,3.0759215E-2,2.4919927E-2,1.4193058E-2,2.4023846E-2,2.228427E-2,1.902914E-2,0E0,0E0,3.6869524E-4,6.8159103E-3,0E0,0E0,0E0,0E0,0E0,0E0,0E0,0E0,0E0,0E0,0E0,0E0,0E0,0E0,0E0,0E0,0E0,0E0,0E0,0E0,0E0,0E0,0E0,0E0,0E0,0E0,0E0,0E0,0E0,0E0,0E0,0E0,0E0,0E0,0E0,0E0,0E0,0E0,0E0,0E0,0E0,0E0,0E0,0E0,0E0,0E0],"parents":[2147483647,0,0,1,1,2,2,3,3,4,4,5,5,6,6,7,7,8,8,9,9,10,10,11,11,12,12,13,13,14,14,16,16,17,17,18,18,19,19,20,20,21,21,22,22,23,23,24,24,25,25,26,26,27,27,28,28,30,30,31,31,32,32,33,33,34,34,35,35,36,36,37,37,38,38,39,39,40,40,41,41,42,42,45,45,46,46,47,47,48,48,49,49,50,50,51,51,52,52,55,55,56,56],"right_children":[2,4,6,8,10,12,14,16,18,20,22,24,26,28,30,-1,32,34,36,38,40,42,44,46,48,50,52,54,56,-1,58,60,62,64,66,68,70,72,74,76,78,80,82,-1,-1,84,86,88,90,92,94,96,98,-1,-1,100,102,-1,-1,-1,-1,-1,-1,-1,-1,-1,-1,-1,-1,-1,-1,-1,-1,-1,-1,-1,-1,-1,-1,-1,-1,-1,-1,-1,-1,-1,-1,-1,-1,-1,-1,-1,-1,-1,-1,-1,-1,-1,-1,-1,-1,-1,-1],"split_conditions":[1.8803842E-1,7.682684E-2,3.802423E-1,7.2307885E-3,1.372476E-1,2.7618867E-1,4.7009838E-1,4.5730025E-3,1.7799422E-2,1.02563724E-1,8.1127685E-1,2.1991213E-1,3.1280035E-1,4.342206E-1,5.360184E-1,-7.6648355E-3,4.5997635E-1,9.164345E-1,3.4872058E-1,3.7583995E-1,1.2851942E-1,1.5494011E-1,1.0337516E-1,2.2495528E-1,6.428769E-1,7.2950786E-1,7.0313565E-2,2.5E-1,1.1142061E-2,2.1235144E-2,5.750834E-1,4.5567906E-1,1.1142061E-2,1.7270195E-1,9.275766E-1,2.6276207E-1,6.3945657E-1,3.1173262E-1,9.94429E-1,2.2021729E-1,1.3825554E-1,5.439383E-1,5.0594084E-2,6.64993E-4,-8.279177E-3,2.1083151E-1,8.0520266E-1,2.2284122E-2,8.1127685E-1,4.689099E-1,3.298599E-1,1.5838723E-1,4.1976607E-1,1.7340742E-2,1.5078023E-2,4.3821794E-1,3.6453903E-3,2.4685314E-2,2.8292095E-2,2.375242E-4,-5.9500136E-3,-1.3765693E-3,-7.3440755E-3,-4.3439674E-3,-6.512402E-3,-9.633663E-4,-4.4993153E-3,-2.7983382E-3,-7.390146E-3,-5.0354055E-3,-3.060906E-3,-4.998695E-3,-1.945596E-5,-2.934629E-3,1.5658783E-3,3.180359E-3,-1.5012493E-3,4.9004066E-3,-9.989046E-5,1.2949808E-3,-4.0928507E-3,3.6141053E-3,1.61137E-3,2.6274878E-3,-4.413647E-3,4.7342586E-3,7.814073E-4,9.5046434E-4,6.4298892E-3,9.285063E-3,3.5197889E-3,9.874951E-3,6.0142395E-3,6.4566727E-3,-5.660081E-3,5.9708566E-3,1.30529E-2,1.154244E-2,6.6450164E-3,1.3632134E-3,6.058914E-3,1.2869676E-2,1.8100493E-2],"split_indices":[0,0,0,0,0,0,0,0,0,0,2,0,0,0,0,0,2,4,1,1,3,0,3,2,2,2,3,5,4,0,0,1,4,4,4,1,2,1,4,2,3,1,3,0,0,0,2,4,2,1,1,2,1,0,0,0,3,0,0,0,0,0,0,0,0,0,0,0,0,0,0,0,0,0,0,0,0,0,0,0,0,0,0,0,0,0,0,0,0,0,0,0,0,0,0,0,0,0,0,0,0,0,0],"split_type":[0,0,0,0,0,0,0,0,0,0,0,0,0,0,0,0,0,0,0,0,0,0,0,0,0,0,0,0,0,0,0,0,0,0,0,0,0,0,0,0,0,0,0,0,0,0,0,0,0,0,0,0,0,0,0,0,0,0,0,0,0,0,0,0,0,0,0,0,0,0,0,0,0,0,0,0,0,0,0,0,0,0,0,0,0,0,0,0,0,0,0,0,0,0,0,0,0,0,0,0,0,0,0],"sum_hessian":[7.98E3,5.456E3,2.524E3,4.708E3,7.48E2,1.369E3,1.155E3,4.268E3,4.4E2,4.03E2,3.45E2,6.21E2,7.48E2,5.93E2,5.62E2,4.147E3,1.21E2,1.25E2,3.15E2,1.56E2,2.47E2,3.4E2,5E0,2.16E2,4.05E2,2.48E2,5E2,3.43E2,2.5E2,3.42E2,2.2E2,3.5E1,8.6E1,1.12E2,1.3E1,2.4E1,2.91E2,3E1,1.26E2,1.55E2,9.2E1,1.24E2,2.16E2,3E0,2E0,1.7E1,1.99E2,3.09E2,9.6E1,2.22E2,2.6E1,2.36E2,2.64E2,6.5E1,2.78E2,2E0,2.48E2,1.25E2,9.5E1,4E0,3.1E1,2E0,8.4E1,1.4E1,9.8E1,2E0,1.1E1,2E0,2.2E1,2.36E2,5.5E1,5E0,2.5E1,1.24E2,2E0,6E0,1.49E2,6E0,8.6E1,1.16E2,8E0,7.7E1,1.39E2,1.3E1,4E0,1.86E2,1.3E1,1.1E1,2.98E2,8.6E1,1E1,2.06E2,1.6E1,2.5E1,1E0,7E0,2.29E2,2.51E2,1.3E1,1E0,1E0,1.4E1,2.34E2],"tree_param":{"num_deleted":"0","num_feature":"6","num_nodes":"103","size_leaf_vector":"1"}},{"base_weights":[1.07669184E-4,-5.7555933E-2,1.24729514E-1,-6.675474E-2,3.5428052E-4,7.919105E-2,1.7859022E-1,-6.8757094E-2,-4.7220085E-2,-1.8193707E-2,1.127798E-2,5.560339E-2,1.0249219E-1,1.5589923E-1,2.1980827E-1,-6.9148764E-2,-6.351386E-2,-5.0932743E-2,-4.0381398E-2,3.5999778E-3,-1.8716848E-2,3.3560498E-3,2.0414475E-2,4.337684E-2,6.781024E-2,8.517278E-2,1.0878671E-1,1.4292802E-1,1.7360914E-1,2.0535201E-1,2.5017722E-2,-1.1435602E-3,-6.9160447E-3,6.1951578E-6,-6.372047E-2,-4.5202993E-2,-5.862681E-2,-4.50985E-2,-2.2880878E-2,-5.3012535E-2,-1.7758379E-2,6.4585707E-3,-4.3197613E-2,1.780254E-2,5.4749947E-2,4.493182E-2,3.2827974E-4,6.0926377E-5,6.86166E-2,1.1329037E-1,8.095865E-2,1.0136568E-1,1.1583196E-1,1.3190879E-1,1.48556E-1,1.1516595E-2,1.7536232E-1,1.6011105E-1,2.081944E-1,-1.3095478E-3,-6.384272E-3,-4.59676E-3,4.047865E-3,-1.9347525E-3,-6.057571E-3,-3.829738E-3,-6.0848556E-3,-2.946541E-3,1.4952671E-3,2.567217E-4,-7.5757876E-3,-3.7098532E-3,-1.5978292E-3,4.162013E-3,4.579636E-4,7.0168974E-4,-4.7013042E-3,6.197448E-4,2.4735313E-3,2.9680766E-3,7.297538E-3,5.1114396E-3,3.3286193E-3,-4.0019155E-3,2.2707046E-3,-2.620016E-3,2.6301702E-3,8.446567E-3,6.3974173E-3,1.232767E-2,3.7532744E-3,1.1036571E-2,7.689008E-3,1.0363423E-2,7.2938413E-3,5.0665145E-3,1.1722679E-2,9.798449E-3,1.3614604E-2,1.509001E-2,1.122363E-2,1.758234E-2,7.0953704E-3,2.8649212E-3,1.6525168E-2,1.818963E-2,2.1399299E-2],"categories":[],"categories_nodes":[],"categories_segments":[],"categories_sizes":[],"default_left":[0,0,0,0,0,0,0,0,0,0,0,0,0,0,0,0,0,0,0,0,0,0,0,0,0,0,0,0,0,0,0,0,0,0,0,0,0,0,0,0,0,0,0,0,0,0,0,0,0,0,0,0,0,0,0,0,0,0,0,0,0,0,0,0,0,0,0,0,0,0,0,0,0,0,0,0,0,0,0,0,0,0,0,0,0,0,0,0,0,0,0,0,0,0,0,0,0,0,0,0,0,0,0,0,0,0,0],"id":6,"left_children":[1,3,5,7,9,11,13,15,17,19,21,23,25,27,29,31,33,35,37,-1,39,41,43,45,47,49,51,53,55,57,-1,-1,-1,-1,59,61,63,65,67,69,71,73,75,77,79,81,83,85,87,89,91,93,95,97,99,-1,101,103,105,-1,-1,-1,-1,-1,-1,-1,-1,-1,-1,-1,-1,-1,-1,-1,-1,-1,-1,-1,-1,-1,-1,-1,-1,-1,-1,-1,-1,-1,-1,-1,-1,-1,-1,-1,-1,-1,-1,-1,-1,-1,-1,-1,-1,-1,-1,-1,-1],"loss_changes":[5.7359802E1,2.9069958E0,6.1790085E0,1.8094635E-1,1.5196206E-1,7.4727917E-1,1.0469131E0,4.3735504E-3,9.140074E-3,8.55533E-3,3.4094226E-2,9.899473E-2,6.57382E-2,1.4724731E-1,1.2774658E-1,1.8825531E-3,4.062891E-3,9.781897E-3,1.2176365E-2,0E0,8.131079E-3,3.6965165E-2,1.8665671E-2,2.3012519E-2,1.8570185E-2,1.3104558E-2,1.4452457E-2,7.5674057E-3,1.1772156E-2,2.9277802E-3,0E0,0E0,0E0,0E0,1.0700226E-3,1.2735814E-2,7.7845454E-3,1.1059433E-2,9.408766E-3,9.043749E-3,8.702561E-3,1.5599239E-2,3.3953246E-3,1.634007E-2,4.6874844E-3,2.2202611E-2,1.26467515E-2,4.134665E-3,1.93187E-2,1.2016952E-2,1.1494517E-2,8.692265E-3,1.6784668E-2,9.227753E-3,7.0724487E-3,0E0,2.0151138E-3,9.457409E-3,1.0290146E-3,0E0,0E0,0E0,0E0,0E0,0E0,0E0,0E0,0E0,0E0,0E0,0E0,0E0,0E0,0E0,0E0,0E0,0E0,0E0,0E0,0E0,0E0,0E0,0E0,0E0,0E0,0E0,0E0,0E0,0E0,0E0,0E0,0E0,0E0,0E0,0E0,0E0,0E0,0E0,0E0,0E0,0E0,0E0,0E0,0E0,0E0,0E0,0E0],"parents":[2147483647,0,0,1,1,2,2,3,3,4,4,5,5,6,6,7,7,8,8,9,9,10,10,11,11,12,12,13,13,14,14,15,15,16,16,17,17,18,18,20,20,21,21,22,22,23,23,24,24,25,25,26,26,27,27,28,28,29,29,34,34,35,35,36,36,37,37,38,38,39,39,40,40,41,41,42,42,43,43,44,44,45,45,46,46,47,47,48,48,49,49,50,50,51,51,52,52,53,53,54,54,56,56,57,57,58,58],"right_children":[2,4,6,8,10,12,14,16,18,20,22,24,26,28,30,32,34,36,38,-1,40,42,44,46,48,50,52,54,56,58,-1,-1,-1,-1,60,62,64,66,68,70,72,74,76,78,80,82,84,86,88,90,92,94,96,98,100,-1,102,104,106,-1,-1,-1,-1,-1,-1,-1,-1,-1,-1,-1,-1,-1,-1,-1,-1,-1,-1,-1,-1,-1,-1,-1,-1,-1,-1,-1,-1,-1,-1,-1,-1,-1,-1,-1,-1,-1,-1,-1,-1,-1,-1,-1,-1,-1,-1,-1,-1],"split_conditions":[1.8803842E-1,7.682684E-2,3.802423E-1,7.2307885E-3,1.1913158E-1,2.8732783E-1,5.0032866E-1,3.3081323E-3,4.8177287E-2,2.425338E-1,1.5494011E-1,2.396919E-1,3.1280035E-1,4.474455E-1,5.6410307E-1,3.779948E-1,5.5710305E-3,8.448711E-2,1E0,3.5999778E-3,2.9231724E-1,5.439383E-1,5.466201E-1,8.2618326E-1,1.1142061E-2,2.8277212E-1,3.468448E-1,4.0590882E-1,2.140722E-1,8.866585E-2,2.5017722E-2,-1.1435602E-3,-6.9160447E-3,6.1951578E-6,1.1297096E-3,8.165252E-2,3.650934E-1,7.5E-1,8.7743735E-1,1.5881337E-2,6.963788E-2,2.4693376E-1,2.5456467E-1,3.3426183E-1,1.7383121E-1,6.2952644E-1,2.1169916E-1,9.147373E-2,2.5491351E-2,3.0869663E-1,1.7905971E-1,4.2585716E-1,1.7938656E-1,1.9614134E-2,2.5814322E-1,1.1516595E-2,4.372204E-1,7.00448E-4,2.5E-1,-1.3095478E-3,-6.384272E-3,-4.59676E-3,4.047865E-3,-1.9347525E-3,-6.057571E-3,-3.829738E-3,-6.0848556E-3,-2.946541E-3,1.4952671E-3,2.567217E-4,-7.5757876E-3,-3.7098532E-3,-1.5978292E-3,4.162013E-3,4.579636E-4,7.0168974E-4,-4.7013042E-3,6.197448E-4,2.4735313E-3,2.9680766E-3,7.297538E-3,5.1114396E-3,3.3286193E-3,-4.0019155E-3,2.2707046E-3,-2.620016E-3,2.6301702E-3,8.446567E-3,6.3974173E-3,1.232767E-2,3.7532744E-3,1.1036571E-2,7.689008E-3,1.0363423E-2,7.2938413E-3,5.0665145E-3,1.1722679E-2,9.798449E-3,1.3614604E-2,1.509001E-2,1.122363E-2,1.758234E-2,7.0953704E-3,2.8649212E-3,1.6525168E-2,1.818963E-2,2.1399299E-2],"split_indices":[0,0,0,0,0,0,0,0,0,1,0,0,0,0,0,1,4,3,5,0,1,1,1,2,4,2,0,0,2,1,0,0,0,0,3,3,1,5,4,3,4,2,2,4,0,4,4,3,3,0,1,1,2,3,3,0,1,3,5,0,0,0,0,0,0,0,0,0,0,0,0,0,0,0,0,0,0,0,0,0,0,0,0,0,0,0,0,0,0,0,0,0,0,0,0,0,0,0,0,0,0,0,0,0,0,0,0],"split_type":[0,0,0,0,0,0,0,0,0,0,0,0,0,0,0,0,0,0,0,0,0,0,0,0,0,0,0,0,0,0,0,0,0,0,0,0,0,0,0,0,0,0,0,0,0,0,0,0,0,0,0,0,0,0,0,0,0,0,0,0,0,0,0,0,0,0,0,0,0,0,0,0,0,0,0,0,0,0,0,0,0,0,0,0,0,0,0,0,0,0,0,0,0,0,0,0,0,0,0,0,0,0,0,0,0,0,0],"sum_hessian":[7.98E3,5.456E3,2.524E3,4.708E3,7.48E2,1.369E3,1.155E3,4.268E3,4.4E2,2.77E2,4.71E2,6.82E2,6.87E2,7.48E2,4.07E2,3.96E3,3.08E2,2.81E2,1.59E2,2E0,2.75E2,2.53E2,2.18E2,3.43E2,3.39E2,1.87E2,5E2,4.37E2,3.11E2,2.81E2,1.26E2,1E0,3.959E3,1E0,3.07E2,1.65E2,1.16E2,1.24E2,3.5E1,6E0,2.69E2,2.38E2,1.5E1,2.04E2,1.4E1,3.31E2,1.2E1,4E0,3.35E2,2.1E1,1.66E2,2.51E2,2.49E2,1.56E2,2.81E2,1.1E1,3E2,2E1,2.61E2,1E0,3.06E2,1.64E2,1E0,6E0,1.1E2,8.9E1,3.5E1,3E1,5E0,2E0,4E0,2.1E1,2.48E2,1.1E1,2.27E2,1E0,1.4E1,7.7E1,1.27E2,7E0,7E0,2.14E2,1.17E2,4E0,8E0,2E0,2E0,7.2E1,2.63E2,1.8E1,3E0,1.7E1,1.49E2,2.3E2,2.1E1,6E0,2.43E2,2E1,1.36E2,2.61E2,2E1,2.98E2,2E0,1E0,1.9E1,5.3E1,2.08E2],"tree_param":{"num_deleted":"0","num_feature":"6","num_nodes":"107","size_leaf_vector":"1"}},{"base_weights":[1.2572593E-4,-5.0464526E-2,1.1537172E-1,-6.008684E-2,3.6021487E-3,7.9120524E-2,1.6731305E-1,-6.188507E-2,-4.2543218E-2,-1.1607046E-2,1.768681E-2,5.8805868E-2,1.0311796E-1,1.5070361E-1,2.0886172E-1,-6.209757E-2,-5.415268E-2,-4.984535E-2,-3.9496977E-2,-2.068249E-2,-5.814903E-3,1.1208898E-2,2.617252E-2,4.539653E-2,7.10465E-2,9.352615E-2,1.1329778E-1,1.3710238E-1,1.6786462E-1,1.9687174E-2,2.3016645E-2,-5.962228E-2,-6.255474E-3,-5.5202566E-2,-9.380393E-3,-5.112916E-2,-2.7474789E-2,-6.0722258E-2,-3.7544478E-2,-1.3380591E-2,-2.7368462E-2,-1.1073434E-2,3.2220997E-3,4.8343805E-3,1.9486422E-2,2.9589817E-2,-9.942045E-3,4.6129048E-2,-1.8035771E-2,1.745061E-2,7.167126E-2,9.9282086E-2,8.364806E-2,9.469296E-2,1.16299056E-1,1.19935036E-1,1.4088306E-1,1.8557481E-1,1.6077453E-1,-3.1881314E-3,-5.9910226E-3,-4.053482E-3,-5.867234E-3,9.2578534E-4,-3.2647566E-3,-6.085453E-3,-4.6294914E-3,-7.2127936E-4,-3.6403656E-3,-6.5665483E-3,-3.4124448E-3,-1.5795652E-3,-3.9791344E-3,-4.2718155E-3,-8.8694703E-4,-3.470104E-3,-1.374638E-3,2.7978634E-3,-1.2810461E-3,5.2606347E-3,-2.2074606E-5,5.3611333E-3,2.2882553E-4,3.4634706E-3,8.116464E-4,9.114842E-4,3.6134694E-3,-5.5213883E-3,3.7029106E-4,3.998819E-3,5.4909997E-3,-6.072326E-3,7.8169163E-4,5.5723093E-3,-1.5616402E-3,7.481957E-4,7.21363E-3,4.67403E-3,1.008482E-2,5.4702754E-3,8.920296E-3,9.955107E-3,-1.2981887E-3,1.2822384E-2,1.0636811E-2,3.303886E-3,1.240738E-2,1.4111856E-2,3.2055737E-3,4.8768516E-3,1.8664846E-2,2.8922171E-3,1.6179979E-2],"categories":[],"categories_nodes":[],"categories_segments":[],"categories_sizes":[],"default_left":[0,0,0,0,0,0,0,0,0,0,0,0,0,0,0,0,0,0,0,0,0,0,0,0,0,0,0,0,0,0,0,0,0,0,0,0,0,0,0,0,0,0,0,0,0,0,0,0,0,0,0,0,0,0,0,0,0,0,0,0,0,0,0,0,0,0,0,0,0,0,0,0,0,0,0,0,0,0,0,0,0,0,0,0,0,0,0,0,0,0,0,0,0,0,0,0,0,0,0,0,0,0,0,0,0,0,0,0,0,0,0,0,0],"id":7,"left_children":[1,3,5,7,9,11,13,15,17,19,21,23,25,27,29,31,33,35,37,39,41,43,45,47,49,51,53,55,57,-1,-1,59,-1,61,63,65,67,69,71,73,75,77,79,81,83,85,87,89,91,93,95,97,99,101,103,105,107,109,111,-1,-1,-1,-1,-1,-1,-1,-1,-1,-1,-1,-1,-1,-1,-1,-1,-1,-1,-1,-1,-1,-1,-1,-1,-1,-1,-1,-1,-1,-1,-1,-1,-1,-1,-1,-1,-1,-1,-1,-1,-1,-1,-1,-1,-1,-1,-1,-1,-1,-1,-1,-1,-1,-1],"loss_changes":[4.6537636E1,2.8860254E0,4.5717087E0,1.4592361E-1,1.7993283E-1,6.93985E-1,6.5862465E-1,3.6525726E-3,7.840872E-3,2.1116517E-2,2.3673415E-2,1.24803066E-1,5.3555965E-2,1.4457512E-1,2.6977539E-2,9.6416473E-4,5.2168965E-3,2.2139251E-3,1.0816008E-2,7.298574E-3,1.1820975E-2,1.3044335E-2,2.3496062E-2,1.8256485E-2,1.23438835E-2,1.1254549E-2,6.5202713E-3,9.45425E-3,9.467125E-3,0E0,0E0,3.426075E-3,0E0,3.6780536E-3,2.0368835E-3,2.730459E-3,1.3656775E-3,1.0461807E-3,1.3640523E-2,9.811699E-3,7.6136626E-3,1.1008434E-2,1.565367E-2,1.7512618E-2,1.8320303E-2,2.2719696E-2,1.0705899E-2,1.780945E-2,5.9925998E-3,8.463533E-3,1.1430502E-2,1.2730837E-2,1.6505241E-2,2.6924103E-2,1.7862082E-2,2.467215E-2,3.856659E-3,3.0884743E-3,2.6547909E-2,0E0,0E0,0E0,0E0,0E0,0E0,0E0,0E0,0E0,0E0,0E0,0E0,0E0,0E0,0E0,0E0,0E0,0E0,0E0,0E0,0E0,0E0,0E0,0E0,0E0,0E0,0E0,0E0,0E0,0E0,0E0,0E0,0E0,0E0,0E0,0E0,0E0,0E0,0E0,0E0,0E0,0E0,0E0,0E0,0E0,0E0,0E0,0E0,0E0,0E0,0E0,0E0,0E0,0E0],"parents":[2147483647,0,0,1,1,2,2,3,3,4,4,5,5,6,6,7,7,8,8,9,9,10,10,11,11,12,12,13,13,14,14,15,15,16,16,17,17,18,18,19,19,20,20,21,21,22,22,23,23,24,24,25,25,26,26,27,27,28,28,31,31,33,33,34,34,35,35,36,36,37,37,38,38,39,39,40,40,41,41,42,42,43,43,44,44,45,45,46,46,47,47,48,48,49,49,50,50,51,51,52,52,53,53,54,54,55,55,56,56,57,57,58,58],"right_children":[2,4,6,8,10,12,14,16,18,20,22,24,26,28,30,32,34,36,38,40,42,44,46,48,50,52,54,56,58,-1,-1,60,-1,62,64,66,68,70,72,74,76,78,80,82,84,86,88,90,92,94,96,98,100,102,104,106,108,110,112,-1,-1,-1,-1,-1,-1,-1,-1,-1,-1,-1,-1,-1,-1,-1,-1,-1,-1,-1,-1,-1,-1,-1,-1,-1,-1,-1,-1,-1,-1,-1,-1,-1,-1,-1,-1,-1,-1,-1,-1,-1,-1,-1,-1,-1,-1,-1,-1,-1,-1,-1,-1,-1,-1],"split_conditions":[2.0147024E-1,7.682684E-2,4.0590882E-1,7.2307885E-3,1.372476E-1,3.1280035E-1,5.2299035E-1,4.5730025E-3,1.7799422E-2,1.02563724E-1,1.7383121E-1,2.552563E-1,3.6092067E-1,4.6472937E-1,5.750834E-1,5.8410573E-1,6.602004E-1,9.5821726E-1,3.4872058E-1,4.372204E-1,1.2992072E-1,5.230743E-1,7.407391E-1,5.7048273E-1,1.5220192E-3,1.1127279E-1,1.9614134E-2,1.5838213E-1,2.9805014E-1,1.9687174E-2,2.3016645E-2,4.4758618E-4,-6.255474E-3,4.363196E-1,6.9358814E-1,4.7148237E-1,9.832869E-1,7.262583E-2,3.8820502E-1,1.3850978E-2,5.1411074E-1,2.2021729E-1,1.3825554E-1,1.8781802E-1,6.351276E-1,3.5198852E-1,1.7951046E-1,7.5E-1,5.793421E-1,7.00448E-4,1.1142061E-2,1.5838723E-1,3.3357993E-1,8.0520266E-1,8.165252E-2,3.6453903E-3,4.654483E-1,5.5710305E-3,7.00448E-4,-3.1881314E-3,-5.9910226E-3,-4.053482E-3,-5.867234E-3,9.2578534E-4,-3.2647566E-3,-6.085453E-3,-4.6294914E-3,-7.2127936E-4,-3.6403656E-3,-6.5665483E-3,-3.4124448E-3,-1.5795652E-3,-3.9791344E-3,-4.2718155E-3,-8.8694703E-4,-3.470104E-3,-1.374638E-3,2.7978634E-3,-1.2810461E-3,5.2606347E-3,-2.2074606E-5,5.3611333E-3,2.2882553E-4,3.4634706E-3,8.116464E-4,9.114842E-4,3.6134694E-3,-5.5213883E-3,3.7029106E-4,3.998819E-3,5.4909997E-3,-6.072326E-3,7.8169163E-4,5.5723093E-3,-1.5616402E-3,7.481957E-4,7.21363E-3,4.67403E-3,1.008482E-2,5.4702754E-3,8.920296E-3,9.955107E-3,-1.2981887E-3,1.2822384E-2,1.0636811E-2,3.303886E-3,1.240738E-2,1.4111856E-2,3.2055737E-3,4.8768516E-3,1.8664846E-2,2.8922171E-3,1.6179979E-2],"split_indices":[0,0,0,0,0,0,0,0,0,0,0,0,0,0,0,1,1,4,1,1,3,2,2,1,3,3,3,1,4,0,0,0,0,2,1,1,4,0,1,3,1,2,3,2,2,2,0,5,1,3,4,2,2,2,3,3,1,4,3,0,0,0,0,0,0,0,0,0,0,0,0,0,0,0,0,0,0,0,0,0,0,0,0,0,0,0,0,0,0,0,0,0,0,0,0,0,0,0,0,0,0,0,0,0,0,0,0,0,0,0,0,0,0],"split_type":[0,0,0,0,0,0,0,0,0,0,0,0,0,0,0,0,0,0,0,0,0,0,0,0,0,0,0,0,0,0,0,0,0,0,0,0,0,0,0,0,0,0,0,0,0,0,0,0,0,0,0,0,0,0,0,0,0,0,0,0,0,0,0,0,0,0,0,0,0,0,0,0,0,0,0,0,0,0,0,0,0,0,0,0,0,0,0,0,0,0,0,0,0,0,0,0,0,0,0,0,0,0,0,0,0,0,0,0,0,0,0,0,0],"sum_hessian":[7.98E3,5.546E3,2.434E3,4.708E3,8.38E2,1.435E3,9.99E2,4.268E3,4.4E2,4.03E2,4.35E2,7.79E2,6.56E2,7.17E2,2.82E2,4.147E3,1.21E2,1.25E2,3.15E2,1.56E2,2.47E2,2.48E2,1.87E2,3.74E2,4.05E2,3.43E2,3.13E2,4.05E2,3.12E2,1.87E2,9.5E1,6.67E2,3.48E3,1.18E2,3E0,1.17E2,8E0,2.4E1,2.91E2,7.6E1,8E1,1.56E2,9.1E1,1.41E2,1.07E2,1.71E2,1.6E1,3.7E2,4E0,5E0,4E2,2.11E2,1.32E2,4.8E1,2.65E2,7.9E1,3.26E2,8.2E1,2.3E2,8E0,6.59E2,2.5E1,9.3E1,2E0,1E0,3.5E1,8.2E1,3E0,5E0,1.9E1,5E0,2.8E1,2.63E2,9E0,6.7E1,5.1E1,2.9E1,6E0,1.5E2,5E0,8.6E1,6E0,1.35E2,4.5E1,6.2E1,4.2E1,1.29E2,3E0,1.3E1,2.21E2,1.49E2,1E0,3E0,2E0,3E0,3E0,3.97E2,7E0,2.04E2,2.3E1,1.09E2,4.6E1,2E0,1.15E2,1.5E2,4E0,7.5E1,3.25E2,1E0,1E0,8.1E1,2E0,2.28E2],"tree_param":{"num_deleted":"0","num_feature":"6","num_nodes":"113","size_leaf_vector":"1"}},{"base_weights":[1.311296E-4,-4.4553462E-2,1.060047E-1,-5.3720985E-2,7.1667423E-3,7.330294E-2,1.507001E-1,-5.550001E-2,-3.4470733E-2,-6.3611357E-3,1.9604728E-2,5.516823E-2,9.289941E-2,1.357386E-1,1.8812644E-1,-5.5891536E-2,-4.7724254E-2,-3.8051438E-2,-2.6211614E-2,-1.2534448E-2,8.639517E-4,3.0862685E-2,1.415492E-2,4.3423146E-2,6.397134E-2,8.4258266E-2,1.0207029E-1,1.23473495E-1,1.5121432E-1,1.8206683E-1,2.2714941E-1,-5.3673793E-2,-5.6301067E-3,2.9924698E-4,-4.7974065E-2,-3.1663753E-2,-4.4725057E-2,-2.8071208E-2,4.726298E-3,-1.4683323E-2,8.425578E-3,1.8689005E-2,-5.041974E-3,2.4040647E-2,5.473454E-2,1.5314479E-2,-5.7090037E-2,3.8777795E-2,6.328019E-2,6.466163E-2,2.1546852E-2,8.155957E-2,1.04445904E-1,1.0626832E-1,8.910628E-2,1.0813791E-1,1.2684771E-1,1.2880577E-1,1.5570056E-1,1.9446506E-1,1.6832201E-1,2.3014538E-2,6.414105E-3,-2.9047418E-3,-5.3928285E-3,-4.4678743E-3,-5.556097E-3,-3.478085E-3,-1.9146175E-4,-2.3120756E-3,-4.76416E-3,1.342201E-3,-2.9631164E-3,-1.74095E-3,3.1214473E-3,-9.367305E-4,-3.1211476E-3,-4.950712E-3,1.3797568E-3,-3.5163907E-3,2.4516345E-3,-3.2745383E-3,3.098622E-5,2.974717E-3,4.7625747E-4,3.2408691E-3,1.0570787E-2,3.946398E-4,2.297843E-3,-7.290455E-3,3.084004E-4,4.519421E-3,1.952425E-3,9.810466E-3,5.470675E-3,6.0031395E-3,7.367591E-3,-8.892946E-4,2.7165816E-3,1.0251033E-2,7.8050084E-3,2.0338485E-3,1.0867095E-2,4.3314877E-3,1.0746415E-2,4.5781555E-3,9.441403E-3,3.039575E-3,1.1182967E-2,1.2453015E-2,1.5619585E-2,1.5003199E-2,1.0399358E-2,2.5770634E-3,1.56109035E-2,6.811308E-3,1.959658E-2,5.560141E-3,1.7061925E-2],"categories":[],"categories_nodes":[],"categories_segments":[],"categories_sizes":[],"default_left":[0,0,0,0,0,0,0,0,0,0,0,0,0,0,0,0,0,0,0,0,0,0,0,0,0,0,0,0,0,0,0,0,0,0,0,0,0,0,0,0,0,0,0,0,0,0,0,0,0,0,0,0,0,0,0,0,0,0,0,0,0,0,0,0,0,0,0,0,0,0,0,0,0,0,0,0,0,0,0,0,0,0,0,0,0,0,0,0,0,0,0,0,0,0,0,0,0,0,0,0,0,0,0,0,0,0,0,0,0,0,0,0,0,0,0,0,0,0,0],"id":8,"left_children":[1,3,5,7,9,11,13,15,17,19,21,23,25,27,29,31,33,35,37,39,41,43,45,47,49,51,53,55,57,59,61,63,-1,-1,65,67,69,71,73,75,77,79,81,83,85,87,89,91,93,95,97,99,101,103,105,107,109,111,113,115,117,-1,-1,-1,-1,-1,-1,-1,-1,-1,-1,-1,-1,-1,-1,-1,-1,-1,-1,-1,-1,-1,-1,-1,-1,-1,-1,-1,-1,-1,-1,-1,-1,-1,-1,-1,-1,-1,-1,-1,-1,-1,-1,-1,-1,-1,-1,-1,-1,-1,-1,-1,-1,-1,-1,-1,-1,-1,-1],"loss_changes":[3.7762173E1,2.661766E0,3.4515285E0,1.6137505E-1,1.424723E-1,4.8174095E-1,5.344181E-1,1.0615349E-2,1.1009425E-2,1.811953E-2,2.662012E-2,7.104492E-2,4.346466E-2,1.1761284E-1,2.5562286E-2,7.457733E-4,2.8801858E-3,1.0562599E-2,7.3817E-3,9.9875815E-3,1.9885639E-2,2.1972358E-2,2.5575519E-2,2.6049197E-2,1.0496497E-2,1.0222673E-2,7.6196194E-3,7.291317E-3,1.1410236E-2,9.870529E-3,1.8428564E-3,2.6199818E-3,0E0,0E0,2.8928816E-3,1.356484E-2,7.404834E-3,8.100286E-3,5.234123E-3,1.7192561E-2,7.21857E-3,1.5611589E-2,2.1063652E-2,1.2289539E-2,3.1852856E-2,2.561102E-2,4.982952E-3,3.0372947E-2,1.1651263E-2,1.2230635E-2,1.6099049E-3,1.46451E-2,1.0937989E-2,1.2810469E-2,1.4764011E-2,1.9561231E-2,2.7899742E-3,1.4944494E-2,9.563446E-3,1.0354996E-2,2.3140669E-2,0E0,0E0,0E0,0E0,0E0,0E0,0E0,0E0,0E0,0E0,0E0,0E0,0E0,0E0,0E0,0E0,0E0,0E0,0E0,0E0,0E0,0E0,0E0,0E0,0E0,0E0,0E0,0E0,0E0,0E0,0E0,0E0,0E0,0E0,0E0,0E0,0E0,0E0,0E0,0E0,0E0,0E0,0E0,0E0,0E0,0E0,0E0,0E0,0E0,0E0,0E0,0E0,0E0,0E0,0E0,0E0,0E0,0E0],"parents":[2147483647,0,0,1,1,2,2,3,3,4,4,5,5,6,6,7,7,8,8,9,9,10,10,11,11,12,12,13,13,14,14,15,15,16,16,17,17,18,18,19,19,20,20,21,21,22,22,23,23,24,24,25,25,26,26,27,27,28,28,29,29,30,30,31,31,34,34,35,35,36,36,37,37,38,38,39,39,40,40,41,41,42,42,43,43,44,44,45,45,46,46,47,47,48,48,49,49,50,50,51,51,52,52,53,53,54,54,55,55,56,56,57,57,58,58,59,59,60,60],"right_children":[2,4,6,8,10,12,14,16,18,20,22,24,26,28,30,32,34,36,38,40,42,44,46,48,50,52,54,56,58,60,62,64,-1,-1,66,68,70,72,74,76,78,80,82,84,86,88,90,92,94,96,98,100,102,104,106,108,110,112,114,116,118,-1,-1,-1,-1,-1,-1,-1,-1,-1,-1,-1,-1,-1,-1,-1,-1,-1,-1,-1,-1,-1,-1,-1,-1,-1,-1,-1,-1,-1,-1,-1,-1,-1,-1,-1,-1,-1,-1,-1,-1,-1,-1,-1,-1,-1,-1,-1,-1,-1,-1,-1,-1,-1,-1,-1,-1,-1,-1],"split_conditions":[2.1083151E-1,8.755861E-2,4.0590882E-1,1.3046905E-2,1.4560674E-1,3.1280035E-1,5.2299035E-1,4.5730025E-3,6.670393E-2,1.1913158E-1,5.0594084E-2,2.552563E-1,3.6092067E-1,4.6472937E-1,6.08245E-1,5.8410573E-1,5.5710305E-3,8.448711E-2,7.195843E-1,5.466201E-1,3.5489586E-1,1.9601555E-1,8.358671E-1,1.9668241E-1,8.456318E-1,6.930902E-1,6.331368E-1,1.5838213E-1,2.5E-1,5.4247178E-2,9.275766E-1,4.4758618E-4,-5.6301067E-3,2.9924698E-4,1.3113272E-1,7.0313565E-2,3.847743E-1,1.6713092E-2,2.3119777E-1,4.7486976E-1,5.292479E-2,2.1904703E-2,3.847743E-1,6.148251E-1,3.4660995E-2,3.3426183E-1,8.864755E-1,7.6044565E-1,1.3370474E-1,5.901838E-1,8.63427E-1,1.1678667E-2,5.5710305E-3,2.5500224E-3,6.5014637E-1,3.6453903E-3,9.6657383E-1,5.243922E-1,7.00448E-4,7.565596E-2,5.5091828E-2,2.3014538E-2,6.414105E-3,-2.9047418E-3,-5.3928285E-3,-4.4678743E-3,-5.556097E-3,-3.478085E-3,-1.9146175E-4,-2.3120756E-3,-4.76416E-3,1.342201E-3,-2.9631164E-3,-1.74095E-3,3.1214473E-3,-9.367305E-4,-3.1211476E-3,-4.950712E-3,1.3797568E-3,-3.5163907E-3,2.4516345E-3,-3.2745383E-3,3.098622E-5,2.974717E-3,4.7625747E-4,3.2408691E-3,1.0570787E-2,3.946398E-4,2.297843E-3,-7.290455E-3,3.084004E-4,4.519421E-3,1.952425E-3,9.810466E-3,5.470675E-3,6.0031395E-3,7.367591E-3,-8.892946E-4,2.7165816E-3,1.0251033E-2,7.8050084E-3,2.0338485E-3,1.0867095E-2,4.3314877E-3,1.0746415E-2,4.5781555E-3,9.441403E-3,3.039575E-3,1.1182967E-2,1.2453015E-2,1.5619585E-2,1.5003199E-2,1.0399358E-2,2.5770634E-3,1.56109035E-2,6.811308E-3,1.959658E-2,5.560141E-3,1.7061925E-2],"split_indices":[0,0,0,0,0,0,0,0,0,0,3,0,0,0,0,1,4,3,2,1,1,0,2,3,2,2,2,1,5,3,4,0,0,0,3,3,1,4,4,1,4,3,1,2,3,4,2,4,4,2,2,3,4,3,2,3,4,2,3,1,3,0,0,0,0,0,0,0,0,0,0,0,0,0,0,0,0,0,0,0,0,0,0,0,0,0,0,0,0,0,0,0,0,0,0,0,0,0,0,0,0,0,0,0,0,0,0,0,0,0,0,0,0,0,0,0,0,0,0],"split_type":[0,0,0,0,0,0,0,0,0,0,0,0,0,0,0,0,0,0,0,0,0,0,0,0,0,0,0,0,0,0,0,0,0,0,0,0,0,0,0,0,0,0,0,0,0,0,0,0,0,0,0,0,0,0,0,0,0,0,0,0,0,0,0,0,0,0,0,0,0,0,0,0,0,0,0,0,0,0,0,0,0,0,0,0,0,0,0,0,0,0,0,0,0,0,0,0,0,0,0,0,0,0,0,0,0,0,0,0,0,0,0,0,0,0,0,0,0,0,0],"sum_hessian":[7.98E3,5.612E3,2.368E3,4.767E3,8.45E2,1.369E3,9.99E2,4.362E3,4.05E2,4.05E2,4.4E2,7.13E2,6.56E2,7.17E2,2.82E2,4.147E3,2.15E2,2.8E2,1.25E2,2.18E2,1.87E2,1.42E2,2.98E2,3.08E2,4.05E2,3.43E2,3.13E2,4.05E2,3.12E2,2.49E2,3.3E1,6.67E2,3.48E3,1E0,2.14E2,1.46E2,1.34E2,1.18E2,7E0,1.98E2,2E1,4.6E1,1.41E2,1.12E2,3E1,2.94E2,4E0,2.52E2,5.6E1,3.98E2,7E0,3.07E2,3.6E1,2.31E2,8.2E1,7.9E1,3.26E2,5.7E1,2.55E2,1.24E2,1.25E2,3.2E1,1E0,8E0,6.59E2,1.54E2,6E1,1.32E2,1.4E1,1.7E1,1.17E2,4E0,1.14E2,4E0,3E0,1.51E2,4.7E1,1E0,1.9E1,4E0,4.2E1,2.2E1,1.19E2,8.6E1,2.6E1,2.2E1,8E0,1.19E2,1.75E2,3E0,1E0,1.88E2,6.4E1,9E0,4.7E1,2.68E2,1.3E2,1E0,6E0,4E1,2.67E2,2E0,3.4E1,5E0,2.26E2,1E1,7.2E1,4E0,7.5E1,3.07E2,1.9E1,2.8E1,2.9E1,1E0,2.54E2,2E0,1.22E2,3E0,1.22E2],"tree_param":{"num_deleted":"0","num_feature":"6","num_nodes":"119","size_leaf_vector":"1"}},{"base_weights":[1.4655202E-4,-4.1999575E-2,9.12322E-2,-4.86908E-2,1.2454847E-4,5.7844386E-2,1.3072188E-1,-5.0197892E-2,-3.5055723E-2,-1.3508373E-2,8.153845E-3,3.8852155E-2,7.353908E-2,1.14909165E-1,1.6321927E-1,-2.178436E-2,-5.023303E-2,-3.347247E-2,-4.7468975E-2,-4.3124877E-2,-1.2471125E-2,2.4279861E-3,1.47575615E-2,2.7091663E-2,4.5042243E-2,6.1884984E-2,7.918445E-2,1.0520187E-1,1.2908748E-1,1.5189627E-1,1.8422347E-2,-2.8915524E-2,1.0501314E-3,-4.883002E-2,-5.0811414E-2,-3.3898223E-2,3.729025E-2,-4.9683634E-2,3.1631992E-3,-1.6789928E-2,-6.083485E-2,3.465866E-3,-1.2952163E-2,5.1909965E-3,-3.8996235E-2,1.2423502E-2,4.5672532E-2,1.9052368E-2,3.888541E-2,3.9632935E-2,6.1865363E-2,6.535017E-2,3.0973068E-2,7.814943E-2,1.4106269E-1,1.1999487E-1,1.0137241E-1,1.4374353E-1,1.22716464E-1,1.06395826E-1,1.5496787E-1,-5.171899E-4,-3.2629871E-3,-4.6951785E-3,-5.0702197E-3,-5.0852657E-3,-2.9174117E-3,-3.8687938E-3,-2.7297006E-3,5.482879E-3,1.10658635E-4,1.1442233E-3,-5.116462E-3,-2.7063484E-3,-9.197295E-5,-6.7881867E-3,-1.6323396E-3,-4.7148364E-3,-1.1989089E-3,-1.027866E-4,1.3698234E-3,6.661594E-4,-4.2484193E-3,5.0391266E-3,1.0422987E-3,2.3643405E-3,6.1992593E-3,3.175898E-3,6.440694E-4,4.1720024E-3,-5.4390384E-3,-4.8156246E-4,4.1284272E-3,6.550841E-3,5.6678796E-4,7.536405E-3,5.6747436E-3,4.632669E-3,-1.951252E-3,8.429303E-3,7.236413E-3,3.7018477E-3,1.5223364E-2,-1.1539891E-3,1.2308038E-2,9.280714E-3,1.066989E-2,1.0167196E-2,1.5089761E-2,1.1630804E-2,1.552959E-2,4.862214E-3,1.1418951E-2,1.647299E-2,1.4159164E-2],"categories":[],"categories_nodes":[],"categories_segments":[],"categories_sizes":[],"default_left":[0,0,0,0,0,0,0,0,0,0,0,0,0,0,0,0,0,0,0,0,0,0,0,0,0,0,0,0,0,0,0,0,0,0,0,0,0,0,0,0,0,0,0,0,0,0,0,0,0,0,0,0,0,0,0,0,0,0,0,0,0,0,0,0,0,0,0,0,0,0,0,0,0,0,0,0,0,0,0,0,0,0,0,0,0,0,0,0,0,0,0,0,0,0,0,0,0,0,0,0,0,0,0,0,0,0,0,0,0,0,0,0,0,0,0],"id":9,"left_children":[1,3,5,7,9,11,13,15,17,19,21,23,25,27,29,31,33,35,37,39,41,43,45,47,49,51,53,55,57,59,-1,61,-1,63,65,67,69,71,-1,73,75,-1,77,79,81,83,85,87,89,91,93,95,97,99,101,103,105,107,109,111,113,-1,-1,-1,-1,-1,-1,-1,-1,-1,-1,-1,-1,-1,-1,-1,-1,-1,-1,-1,-1,-1,-1,-1,-1,-1,-1,-1,-1,-1,-1,-1,-1,-1,-1,-1,-1,-1,-1,-1,-1,-1,-1,-1,-1,-1,-1,-1,-1,-1,-1,-1,-1,-1,-1],"loss_changes":[3.0642153E1,1.538126E0,3.3215847E0,9.50079E-2,8.2097754E-2,4.0550852E-1,5.7528114E-1,3.1356812E-3,7.687509E-3,8.002251E-3,1.7811406E-2,4.406029E-2,4.4377804E-2,9.3912125E-2,6.144142E-2,1.9152921E-3,9.536743E-4,1.3977796E-2,1.0505855E-2,3.1761061E-3,6.5701306E-3,2.927414E-2,1.5235055E-2,1.9833669E-2,3.4494698E-2,2.4647653E-2,2.1062613E-2,1.440382E-2,1.1586189E-2,1.845169E-2,0E0,3.603939E-4,0E0,2.0534992E-3,1.1687279E-3,1.2223452E-2,1.8431526E-3,5.111754E-3,0E0,7.903258E-4,4.6030246E-4,0E0,8.2609095E-3,1.2658456E-2,2.8310549E-3,1.5045572E-2,3.9270334E-3,2.0788409E-2,2.5272027E-2,2.2952646E-2,1.948753E-2,1.4934003E-2,2.1832637E-2,1.1493683E-2,2.5004596E-3,3.8352728E-2,7.3885918E-3,1.1445403E-2,2.8914213E-2,3.0029863E-3,6.9699287E-3,0E0,0E0,0E0,0E0,0E0,0E0,0E0,0E0,0E0,0E0,0E0,0E0,0E0,0E0,0E0,0E0,0E0,0E0,0E0,0E0,0E0,0E0,0E0,0E0,0E0,0E0,0E0,0E0,0E0,0E0,0E0,0E0,0E0,0E0,0E0,0E0,0E0,0E0,0E0,0E0,0E0,0E0,0E0,0E0,0E0,0E0,0E0,0E0,0E0,0E0,0E0,0E0,0E0,0E0],"parents":[2147483647,0,0,1,1,2,2,3,3,4,4,5,5,6,6,7,7,8,8,9,9,10,10,11,11,12,12,13,13,14,14,15,15,16,16,17,17,18,18,19,19,20,20,21,21,22,22,23,23,24,24,25,25,26,26,27,27,28,28,29,29,31,31,33,33,34,34,35,35,36,36,37,37,39,39,40,40,42,42,43,43,44,44,45,45,46,46,47,47,48,48,49,49,50,50,51,51,52,52,53,53,54,54,55,55,56,56,57,57,58,58,59,59,60,60],"right_children":[2,4,6,8,10,12,14,16,18,20,22,24,26,28,30,32,34,36,38,40,42,44,46,48,50,52,54,56,58,60,-1,62,-1,64,66,68,70,72,-1,74,76,-1,78,80,82,84,86,88,90,92,94,96,98,100,102,104,106,108,110,112,114,-1,-1,-1,-1,-1,-1,-1,-1,-1,-1,-1,-1,-1,-1,-1,-1,-1,-1,-1,-1,-1,-1,-1,-1,-1,-1,-1,-1,-1,-1,-1,-1,-1,-1,-1,-1,-1,-1,-1,-1,-1,-1,-1,-1,-1,-1,-1,-1,-1,-1,-1,-1,-1,-1],"split_conditions":[1.8803842E-1,7.682684E-2,3.802423E-1,6.088391E-3,1.1913158E-1,2.7618867E-1,5.0776184E-1,3.847743E-1,3.0481532E-1,1.8781802E-1,1.5494011E-1,2.1991213E-1,3.1280035E-1,4.5091355E-1,5.6410307E-1,6.772463E-1,6.400122E-1,2.930819E-1,9.08078E-1,1.5838723E-1,2.425338E-1,5.439383E-1,5.466201E-1,7.5E-1,6.428769E-1,7.2950786E-1,7.998867E-1,2.5E-1,3.259053E-1,8.866585E-2,1.8422347E-2,1.6997159E-3,1.0501314E-3,5.878238E-1,4.9822927E-3,3.5412207E-2,2.9001608E-2,1.9498607E-2,3.1631992E-3,1.4109072E-1,4.9695078E-1,3.465866E-3,2.9231724E-1,5.4317546E-1,2.5456467E-1,5.234891E-3,1.7383121E-1,5.013928E-1,5.534884E-1,2.2284122E-2,8.2618326E-1,4.7910863E-1,3.0502027E-1,7.0313565E-2,1.5838213E-1,3.6453903E-3,4.0985286E-1,4.6039373E-1,9.164345E-1,2.5491351E-2,6.21276E-2,-5.171899E-4,-3.2629871E-3,-4.6951785E-3,-5.0702197E-3,-5.0852657E-3,-2.9174117E-3,-3.8687938E-3,-2.7297006E-3,5.482879E-3,1.10658635E-4,1.1442233E-3,-5.116462E-3,-2.7063484E-3,-9.197295E-5,-6.7881867E-3,-1.6323396E-3,-4.7148364E-3,-1.1989089E-3,-1.027866E-4,1.3698234E-3,6.661594E-4,-4.2484193E-3,5.0391266E-3,1.0422987E-3,2.3643405E-3,6.1992593E-3,3.175898E-3,6.440694E-4,4.1720024E-3,-5.4390384E-3,-4.8156246E-4,4.1284272E-3,6.550841E-3,5.6678796E-4,7.536405E-3,5.6747436E-3,4.632669E-3,-1.951252E-3,8.429303E-3,7.236413E-3,3.7018477E-3,1.5223364E-2,-1.1539891E-3,1.2308038E-2,9.280714E-3,1.066989E-2,1.0167196E-2,1.5089761E-2,1.1630804E-2,1.552959E-2,4.862214E-3,1.1418951E-2,1.647299E-2,1.4159164E-2],"split_indices":[0,0,0,0,0,0,0,1,3,2,0,0,0,0,0,2,1,3,4,2,1,1,1,5,2,2,2,5,4,1,0,0,0,2,0,0,0,4,0,2,1,0,1,4,2,3,0,4,1,4,2,4,0,3,1,3,0,0,4,3,3,0,0,0,0,0,0,0,0,0,0,0,0,0,0,0,0,0,0,0,0,0,0,0,0,0,0,0,0,0,0,0,0,0,0,0,0,0,0,0,0,0,0,0,0,0,0,0,0,0,0,0,0,0,0],"split_type":[0,0,0,0,0,0,0,0,0,0,0,0,0,0,0,0,0,0,0,0,0,0,0,0,0,0,0,0,0,0,0,0,0,0,0,0,0,0,0,0,0,0,0,0,0,0,0,0,0,0,0,0,0,0,0,0,0,0,0,0,0,0,0,0,0,0,0,0,0,0,0,0,0,0,0,0,0,0,0,0,0,0,0,0,0,0,0,0,0,0,0,0,0,0,0,0,0,0,0,0,0,0,0,0,0,0,0,0,0,0,0,0,0,0,0],"sum_hessian":[7.98E3,5.456E3,2.524E3,4.708E3,7.48E2,1.369E3,1.155E3,4.237E3,4.71E2,2.77E2,4.71E2,6.21E2,7.48E2,7.8E2,3.75E2,6E0,4.231E3,4.21E2,5E1,8E0,2.69E2,2.53E2,2.18E2,2.16E2,4.05E2,2.48E2,5E2,4.68E2,3.12E2,2.49E2,1.26E2,5E0,1E0,1.26E3,2.971E3,4.19E2,2E0,4.9E1,1E0,4E0,4E0,2E0,2.67E2,2.38E2,1.5E1,2.04E2,1.4E1,1.3E2,8.6E1,3.09E2,9.6E1,2.22E2,2.6E1,4.94E2,6E0,9E1,3.78E2,8.8E1,2.24E2,1.8E1,2.31E2,1E0,4E0,6.42E2,6.18E2,2.964E3,7E0,2.4E2,1.79E2,1E0,1E0,1E0,4.8E1,2E0,2E0,3E0,1E0,6E0,2.61E2,1.38E2,1E2,1E0,1.4E1,9E0,1.95E2,7E0,7E0,6.4E1,6.6E1,8.4E1,2E0,1.1E1,2.98E2,9E1,6E0,9.9E1,1.23E2,2E1,6E0,2.33E2,2.61E2,1E0,5E0,2E0,8.8E1,1.52E2,2.26E2,1.5E1,7.3E1,1.91E2,3.3E1,3E0,1.5E1,1.27E2,1.04E2],"tree_param":{"num_deleted":"0","num_feature":"6","num_nodes":"115","size_leaf_vector":"1"}},{"base_weights":[1.5558032E-4,-3.6101267E-2,8.606082E-2,-4.353685E-2,5.847862E-3,5.8779184E-2,1.2140908E-1,-4.4971883E-2,-2.8008299E-2,-5.1451176E-3,1.5955122E-2,4.338713E-2,7.332392E-2,1.0651528E-1,1.4707111E-1,-4.5282576E-2,-3.8797237E-2,-6.23891E-4,-2.884076E-2,-1.619147E-2,-2.510587E-3,1.2141739E-2,2.9005984E-2,3.5009E-2,5.076526E-2,6.4799845E-2,8.024314E-2,9.9458575E-2,1.2004831E-1,1.3491914E-1,1.6298383E-1,-4.3448653E-2,-4.5621498E-3,-3.2897756E-2,-4.2025626E-2,-1.2233534E-2,2.855619E-3,-2.9393006E-2,1.1770059E-2,-4.5647018E-4,-3.6540985E-2,1.6049998E-2,-5.2826935E-3,1.4549951E-2,-1.2565099E-2,3.375909E-2,-8.267289E-3,3.0829089E-2,5.294775E-2,4.571394E-2,6.142683E-2,6.065856E-2,9.3173414E-2,9.4723865E-2,7.36361E-2,1.0127704E-1,6.927903E-2,1.3903305E-1,1.10826015E-1,4.95917E-3,1.3587464E-1,1.5503347E-1,1.874195E-1,-2.2291935E-3,-4.3671327E-3,-3.6289345E-3,-5.1885174E-4,2.1593792E-3,-4.2656837E-3,-2.7390255E-3,8.4012374E-4,-3.2442862E-3,-2.1844283E-3,-3.5446894E-4,2.0313605E-3,-1.945304E-3,1.1771913E-3,-6.695606E-3,-2.6175743E-3,6.205228E-3,6.9130794E-4,-2.8026002E-3,-2.0126862E-4,7.7806646E-4,2.2239608E-3,-7.566044E-4,-5.6700925E-3,2.920576E-3,6.2977346E-3,-2.9835715E-3,4.232849E-3,3.6689949E-3,1.331322E-3,8.586931E-3,4.498601E-3,3.3569883E-3,5.5211666E-3,6.7767547E-3,3.0139317E-3,6.17386E-3,1.767181E-4,1.0646323E-2,7.4280277E-3,2.8415858E-3,9.814453E-3,3.5499192E-3,7.613744E-3,4.678491E-3,1.0183427E-2,-1.2531162E-3,7.605409E-3,1.8355073E-2,1.25173405E-2,1.1884413E-2,9.245952E-3,8.703108E-3,1.37823215E-2,1.571372E-2,1.7102689E-3,1.8996416E-2,5.1722825E-3],"categories":[],"categories_nodes":[],"categories_segments":[],"categories_sizes":[],"default_left":[0,0,0,0,0,0,0,0,0,0,0,0,0,0,0,0,0,0,0,0,0,0,0,0,0,0,0,0,0,0,0,0,0,0,0,0,0,0,0,0,0,0,0,0,0,0,0,0,0,0,0,0,0,0,0,0,0,0,0,0,0,0,0,0,0,0,0,0,0,0,0,0,0,0,0,0,0,0,0,0,0,0,0,0,0,0,0,0,0,0,0,0,0,0,0,0,0,0,0,0,0,0,0,0,0,0,0,0,0,0,0,0,0,0,0,0,0,0,0,0,0],"id":10,"left_children":[1,3,5,7,9,11,13,15,17,19,21,23,25,27,29,31,33,35,37,39,41,43,45,47,49,51,53,55,57,59,61,63,-1,65,67,69,-1,71,73,75,77,79,81,83,85,87,89,91,93,95,97,99,101,103,105,107,109,111,113,-1,115,117,119,-1,-1,-1,-1,-1,-1,-1,-1,-1,-1,-1,-1,-1,-1,-1,-1,-1,-1,-1,-1,-1,-1,-1,-1,-1,-1,-1,-1,-1,-1,-1,-1,-1,-1,-1,-1,-1,-1,-1,-1,-1,-1,-1,-1,-1,-1,-1,-1,-1,-1,-1,-1,-1,-1,-1,-1,-1,-1],"loss_changes":[2.4861155E1,1.7510405E0,2.2774277E0,1.04990005E-1,9.4080225E-2,2.9658508E-1,3.783884E-1,6.6127777E-3,9.237379E-3,1.1774744E-2,2.1595478E-2,3.8587928E-2,3.5319567E-2,5.0706863E-2,5.0718307E-2,5.970001E-4,2.731353E-3,4.753357E-3,9.182274E-3,2.4958888E-2,1.701247E-2,2.0591076E-2,1.781831E-2,2.1537215E-2,1.5771925E-2,3.1126618E-2,2.8903008E-2,1.696682E-2,2.3109913E-2,1.111722E-2,1.6388893E-3,2.1734238E-3,0E0,7.423967E-3,6.382495E-3,3.3576665E-3,0E0,8.247077E-3,8.570591E-4,1.0682378E-2,8.966204E-3,1.7644748E-2,2.1288006E-2,1.6119711E-2,6.410757E-3,9.868257E-3,1.4358155E-2,2.548401E-2,1.1077523E-2,2.5597662E-2,1.9383132E-2,1.7445803E-2,1.6331673E-3,2.3068309E-2,2.2290349E-2,7.6851845E-3,1.6472563E-2,1.8980265E-2,1.1543155E-2,0E0,8.562565E-3,3.358364E-2,1.9148588E-3,0E0,0E0,0E0,0E0,0E0,0E0,0E0,0E0,0E0,0E0,0E0,0E0,0E0,0E0,0E0,0E0,0E0,0E0,0E0,0E0,0E0,0E0,0E0,0E0,0E0,0E0,0E0,0E0,0E0,0E0,0E0,0E0,0E0,0E0,0E0,0E0,0E0,0E0,0E0,0E0,0E0,0E0,0E0,0E0,0E0,0E0,0E0,0E0,0E0,0E0,0E0,0E0,0E0,0E0,0E0,0E0,0E0,0E0],"parents":[2147483647,0,0,1,1,2,2,3,3,4,4,5,5,6,6,7,7,8,8,9,9,10,10,11,11,12,12,13,13,14,14,15,15,16,16,17,17,18,18,19,19,20,20,21,21,22,22,23,23,24,24,25,25,26,26,27,27,28,28,29,29,30,30,31,31,33,33,34,34,35,35,37,37,38,38,39,39,40,40,41,41,42,42,43,43,44,44,45,45,46,46,47,47,48,48,49,49,50,50,51,51,52,52,53,53,54,54,55,55,56,56,57,57,58,58,60,60,61,61,62,62],"right_children":[2,4,6,8,10,12,14,16,18,20,22,24,26,28,30,32,34,36,38,40,42,44,46,48,50,52,54,56,58,60,62,64,-1,66,68,70,-1,72,74,76,78,80,82,84,86,88,90,92,94,96,98,100,102,104,106,108,110,112,114,-1,116,118,120,-1,-1,-1,-1,-1,-1,-1,-1,-1,-1,-1,-1,-1,-1,-1,-1,-1,-1,-1,-1,-1,-1,-1,-1,-1,-1,-1,-1,-1,-1,-1,-1,-1,-1,-1,-1,-1,-1,-1,-1,-1,-1,-1,-1,-1,-1,-1,-1,-1,-1,-1,-1,-1,-1,-1,-1,-1,-1],"split_conditions":[2.1083151E-1,8.755861E-2,4.0239918E-1,1.3046905E-2,1.4560674E-1,3.0502027E-1,5.0776184E-1,4.5730025E-3,1.9498607E-2,2.3105204E-2,7.437326E-1,2.552563E-1,3.468448E-1,4.6472937E-1,5.529405E-1,5.8410573E-1,4.958217E-1,1.9932768E-1,6.602004E-1,4.6158677E-1,3.871544E-2,6.908078E-1,7.448797E-1,1.9668241E-1,6.048316E-1,2.1744415E-1,2.729805E-1,2.665903E-1,3.3147633E-1,1.1142061E-2,6.08245E-1,4.4758618E-4,-4.5621498E-3,4.568245E-1,2.2495528E-1,5.5710305E-3,2.855619E-3,7.0194983E-1,3.5854462E-1,3.8820502E-1,4.8125502E-1,3.5489586E-1,5.6456354E-2,3.3426183E-1,3.0481532E-1,2.0662366E-1,7.5E-1,7.6044565E-1,1.3370474E-1,2.7618867E-1,7.81837E-1,2.0436813E-1,3.2911664E-1,2.140722E-1,3.0640668E-1,1.4109072E-1,4.0985286E-1,2.1904703E-2,5.878238E-1,4.95917E-3,7.565596E-2,2.242115E-1,9.275766E-1,-2.2291935E-3,-4.3671327E-3,-3.6289345E-3,-5.1885174E-4,2.1593792E-3,-4.2656837E-3,-2.7390255E-3,8.4012374E-4,-3.2442862E-3,-2.1844283E-3,-3.5446894E-4,2.0313605E-3,-1.945304E-3,1.1771913E-3,-6.695606E-3,-2.6175743E-3,6.205228E-3,6.9130794E-4,-2.8026002E-3,-2.0126862E-4,7.7806646E-4,2.2239608E-3,-7.566044E-4,-5.6700925E-3,2.920576E-3,6.2977346E-3,-2.9835715E-3,4.232849E-3,3.6689949E-3,1.331322E-3,8.586931E-3,4.498601E-3,3.3569883E-3,5.5211666E-3,6.7767547E-3,3.0139317E-3,6.17386E-3,1.767181E-4,1.0646323E-2,7.4280277E-3,2.8415858E-3,9.814453E-3,3.5499192E-3,7.613744E-3,4.678491E-3,1.0183427E-2,-1.2531162E-3,7.605409E-3,1.8355073E-2,1.25173405E-2,1.1884413E-2,9.245952E-3,8.703108E-3,1.37823215E-2,1.571372E-2,1.7102689E-3,1.8996416E-2,5.1722825E-3],"split_indices":[0,0,0,0,0,0,0,0,4,3,4,0,0,0,0,1,4,3,1,1,3,4,2,3,2,3,4,3,4,4,0,0,0,4,2,4,0,4,2,1,1,1,3,4,3,0,5,4,4,0,2,3,0,2,4,2,0,3,2,0,1,3,4,0,0,0,0,0,0,0,0,0,0,0,0,0,0,0,0,0,0,0,0,0,0,0,0,0,0,0,0,0,0,0,0,0,0,0,0,0,0,0,0,0,0,0,0,0,0,0,0,0,0,0,0,0,0,0,0,0,0],"split_type":[0,0,0,0,0,0,0,0,0,0,0,0,0,0,0,0,0,0,0,0,0,0,0,0,0,0,0,0,0,0,0,0,0,0,0,0,0,0,0,0,0,0,0,0,0,0,0,0,0,0,0,0,0,0,0,0,0,0,0,0,0,0,0,0,0,0,0,0,0,0,0,0,0,0,0,0,0,0,0,0,0,0,0,0,0,0,0,0,0,0,0,0,0,0,0,0,0,0,0,0,0,0,0,0,0,0,0,0,0,0,0,0,0,0,0,0,0,0,0,0,0],"sum_hessian":[7.98E3,5.612E3,2.368E3,4.767E3,8.45E2,1.338E3,1.03E3,4.362E3,4.05E2,4.05E2,4.4E2,6.52E2,6.86E2,6.55E2,3.75E2,4.147E3,2.15E2,1.2E1,3.93E2,7.7E1,3.28E2,3.42E2,9.8E1,3.08E2,3.44E2,3.12E2,3.74E2,4.36E2,2.19E2,2.18E2,1.57E2,6.67E2,3.48E3,8E1,1.35E2,9E0,3E0,3.88E2,5E0,4.4E1,3.3E1,4.2E1,2.86E2,3.12E2,3E1,8.7E1,1.1E1,2.52E2,5.6E1,2.37E2,1.07E2,2.75E2,3.7E1,1.13E2,2.61E2,4.09E2,2.7E1,6.7E1,1.52E2,3E0,2.15E2,1.24E2,3.3E1,8E0,6.59E2,7.1E1,9E0,1E0,1.34E2,5E0,4E0,2.74E2,1.14E2,2E0,3E0,1.7E1,2.7E1,7E0,2.6E1,6E0,3.6E1,3.5E1,2.51E2,1.67E2,1.45E2,2.8E1,2E0,7.7E1,1E1,8E0,3E0,1.88E2,6.4E1,9E0,4.7E1,1.06E2,1.31E2,8.8E1,1.9E1,2.7E2,5E0,1.9E1,1.8E1,6E0,1.07E2,1.7E1,2.44E2,5E0,4.04E2,2E0,2.5E1,1.3E1,5.4E1,1.02E2,5E1,1E1,2.05E2,1.22E2,2E0,3.2E1,1E0],"tree_param":{"num_deleted":"0","num_feature":"6","num_nodes":"121","size_leaf_vector":"1"}},{"base_weights":[1.660726E-4,-3.4044206E-2,7.410085E-2,-3.9736316E-2,-1.5748607E-3,4.6972565E-2,1.0618706E-1,-4.066858E-2,-2.990707E-2,-1.285849E-2,6.6521387E-3,3.297018E-2,6.0804915E-2,9.00072E-2,1.2716073E-1,-1.6387116E-2,-4.0699136E-2,-3.0684223E-2,-9.046186E-3,-1.797141E-2,-8.520264E-3,1.1250213E-2,1.1990096E-4,2.5532506E-2,4.0398378E-2,5.5045877E-2,6.756886E-2,8.254881E-2,9.7916715E-2,1.1459136E-1,1.425672E-1,-2.3154665E-2,1.2109092E-3,-3.9878715E-2,-4.140819E-3,-1.8050423E-2,-3.179837E-2,3.9963084E-3,-1.4977676E-2,-1.9706115E-2,6.8443418E-3,1.1896573E-2,-1.1438348E-2,2.5458622E-4,1.8064726E-2,-1.6264757E-2,6.306276E-3,3.2865288E-4,2.7253488E-2,5.5232443E-2,3.6135763E-2,-3.2877713E-2,5.5602476E-2,7.444943E-2,5.954214E-2,9.657672E-2,7.8934506E-2,3.434609E-2,9.883719E-2,9.508843E-2,1.18604735E-1,1.3695823E-1,1.693884E-1,-6.8386697E-4,-2.9602998E-3,-3.8625558E-3,-4.1230554E-3,-2.1220024E-3,4.327321E-3,-5.2362407E-4,-3.223626E-3,7.91407E-4,-2.1360118E-3,1.3969997E-3,-2.0745797E-3,-1.6736396E-3,3.8488507E-3,-1.9048884E-3,3.954649E-3,-2.0179607E-3,-5.699536E-4,6.8799267E-4,-1.9630864E-3,9.5551834E-4,3.145786E-3,3.1223847E-3,-2.2851329E-3,-2.0442987E-4,3.4203473E-3,2.9990952E-3,-2.9361034E-3,2.8655268E-3,-8.269997E-4,2.695593E-4,5.9000393E-3,2.6447808E-3,4.196439E-3,8.6692796E-4,-5.7985852E-3,5.1420364E-3,6.9918805E-3,1.4150155E-3,7.7047804E-3,-1.3845119E-3,6.1144927E-3,7.088995E-3,1.0956702E-2,8.134888E-3,5.9778653E-3,5.446832E-3,1.066789E-3,1.0230682E-2,8.2790945E-3,1.0536825E-2,4.0348363E-3,4.0949616E-3,1.1910853E-2,1.4876233E-2,1.2531742E-2,1.7154342E-2,4.9136686E-3],"categories":[],"categories_nodes":[],"categories_segments":[],"categories_sizes":[],"default_left":[0,0,0,0,0,0,0,0,0,0,0,0,0,0,0,0,0,0,0,0,0,0,0,0,0,0,0,0,0,0,0,0,0,0,0,0,0,0,0,0,0,0,0,0,0,0,0,0,0,0,0,0,0,0,0,0,0,0,0,0,0,0,0,0,0,0,0,0,0,0,0,0,0,0,0,0,0,0,0,0,0,0,0,0,0,0,0,0,0,0,0,0,0,0,0,0,0,0,0,0,0,0,0,0,0,0,0,0,0,0,0,0,0,0,0,0,0,0,0,0,0],"id":11,"left_children":[1,3,5,7,9,11,13,15,17,19,21,23,25,27,29,31,33,35,37,39,41,43,45,47,49,51,53,55,57,59,61,63,-1,65,-1,67,69,-1,71,73,75,77,79,81,83,85,87,89,91,93,95,97,99,101,103,105,107,109,111,113,115,117,119,-1,-1,-1,-1,-1,-1,-1,-1,-1,-1,-1,-1,-1,-1,-1,-1,-1,-1,-1,-1,-1,-1,-1,-1,-1,-1,-1,-1,-1,-1,-1,-1,-1,-1,-1,-1,-1,-1,-1,-1,-1,-1,-1,-1,-1,-1,-1,-1,-1,-1,-1,-1,-1,-1,-1,-1,-1,-1],"loss_changes":[2.01891E1,1.0084958E0,2.1928844E0,4.1329384E-2,7.574233E-2,2.63345E-1,3.8084412E-1,2.477169E-3,6.3045323E-3,7.4771456E-3,1.4175504E-2,3.670323E-2,2.3080587E-2,3.0616283E-2,8.06818E-2,1.6303285E-3,8.1062317E-4,4.9296916E-3,5.2497224E-3,6.893415E-3,1.1336749E-2,2.0750973E-2,1.9969452E-2,1.4912173E-2,1.9503057E-2,2.0277858E-2,1.2798309E-2,9.817839E-3,1.4920473E-2,1.07162E-2,1.0047913E-2,4.288205E-4,0E0,1.7769337E-3,0E0,7.5268876E-3,3.99521E-3,0E0,2.360624E-3,5.4366477E-3,8.852279E-3,2.1288663E-2,8.162117E-3,1.4232081E-2,1.9188188E-2,1.7604012E-2,3.338287E-2,2.1135848E-2,1.6271308E-2,1.448971E-2,1.3966948E-2,3.6321983E-3,1.8857002E-2,2.4605334E-2,1.8372595E-2,1.4255643E-2,8.040547E-3,2.2776872E-3,8.677483E-3,2.5572658E-2,4.081726E-3,7.1902275E-3,3.8176775E-4,0E0,0E0,0E0,0E0,0E0,0E0,0E0,0E0,0E0,0E0,0E0,0E0,0E0,0E0,0E0,0E0,0E0,0E0,0E0,0E0,0E0,0E0,0E0,0E0,0E0,0E0,0E0,0E0,0E0,0E0,0E0,0E0,0E0,0E0,0E0,0E0,0E0,0E0,0E0,0E0,0E0,0E0,0E0,0E0,0E0,0E0,0E0,0E0,0E0,0E0,0E0,0E0,0E0,0E0,0E0,0E0,0E0,0E0],"parents":[2147483647,0,0,1,1,2,2,3,3,4,4,5,5,6,6,7,7,8,8,9,9,10,10,11,11,12,12,13,13,14,14,15,15,16,16,17,17,18,18,19,19,20,20,21,21,22,22,23,23,24,24,25,25,26,26,27,27,28,28,29,29,30,30,31,31,33,33,35,35,36,36,38,38,39,39,40,40,41,41,42,42,43,43,44,44,45,45,46,46,47,47,48,48,49,49,50,50,51,51,52,52,53,53,54,54,55,55,56,56,57,57,58,58,59,59,60,60,61,61,62,62],"right_children":[2,4,6,8,10,12,14,16,18,20,22,24,26,28,30,32,34,36,38,40,42,44,46,48,50,52,54,56,58,60,62,64,-1,66,-1,68,70,-1,72,74,76,78,80,82,84,86,88,90,92,94,96,98,100,102,104,106,108,110,112,114,116,118,120,-1,-1,-1,-1,-1,-1,-1,-1,-1,-1,-1,-1,-1,-1,-1,-1,-1,-1,-1,-1,-1,-1,-1,-1,-1,-1,-1,-1,-1,-1,-1,-1,-1,-1,-1,-1,-1,-1,-1,-1,-1,-1,-1,-1,-1,-1,-1,-1,-1,-1,-1,-1,-1,-1,-1,-1,-1,-1],"split_conditions":[1.8803842E-1,6.670393E-2,3.802423E-1,6.088391E-3,1.1913158E-1,2.8732783E-1,4.7935778E-1,3.847743E-1,9.6378833E-1,9.2481196E-2,4.3129793E-1,2.396919E-1,3.382495E-1,4.342206E-1,5.360184E-1,6.772463E-1,6.9745606E-1,7.281103E-3,1.4109072E-1,7.195843E-1,1.281337E-1,3.3426183E-1,4.6158677E-1,2.3454219E-1,2.5491351E-2,5.5710305E-3,8.165252E-2,2.5E-1,1.6989887E-1,2.5E-1,6.08245E-1,3.3426184E-2,1.2109092E-3,5.878238E-1,-4.140819E-3,6.1058715E-2,1.9498607E-2,3.9963084E-3,4.2315343E-1,1.6713092E-2,2.367688E-1,6.963788E-2,4.54039E-1,2.367688E-1,1.65089E-1,1.0289534E-2,1.2422169E-1,1.9581315E-1,8.2618326E-1,1.5220192E-3,9.329615E-2,3.243571E-1,1.6161177E-1,1.7938656E-1,8.244773E-2,4.5659316E-1,8.690808E-1,9.430824E-2,6.838623E-1,6.716125E-1,1.1142061E-2,4.931842E-2,9.275766E-1,-6.8386697E-4,-2.9602998E-3,-3.8625558E-3,-4.1230554E-3,-2.1220024E-3,4.327321E-3,-5.2362407E-4,-3.223626E-3,7.91407E-4,-2.1360118E-3,1.3969997E-3,-2.0745797E-3,-1.6736396E-3,3.8488507E-3,-1.9048884E-3,3.954649E-3,-2.0179607E-3,-5.699536E-4,6.8799267E-4,-1.9630864E-3,9.5551834E-4,3.145786E-3,3.1223847E-3,-2.2851329E-3,-2.0442987E-4,3.4203473E-3,2.9990952E-3,-2.9361034E-3,2.8655268E-3,-8.269997E-4,2.695593E-4,5.9000393E-3,2.6447808E-3,4.196439E-3,8.6692796E-4,-5.7985852E-3,5.1420364E-3,6.9918805E-3,1.4150155E-3,7.7047804E-3,-1.3845119E-3,6.1144927E-3,7.088995E-3,1.0956702E-2,8.134888E-3,5.9778653E-3,5.446832E-3,1.066789E-3,1.0230682E-2,8.2790945E-3,1.0536825E-2,4.0348363E-3,4.0949616E-3,1.1910853E-2,1.4876233E-2,1.2531742E-2,1.7154342E-2,4.9136686E-3],"split_indices":[0,0,0,0,0,0,0,1,4,0,1,0,0,0,0,2,1,3,2,2,4,4,1,2,3,4,3,5,2,5,0,4,0,2,0,0,4,0,1,4,4,4,4,4,0,3,3,2,2,3,3,0,3,2,3,2,4,2,2,2,4,3,4,0,0,0,0,0,0,0,0,0,0,0,0,0,0,0,0,0,0,0,0,0,0,0,0,0,0,0,0,0,0,0,0,0,0,0,0,0,0,0,0,0,0,0,0,0,0,0,0,0,0,0,0,0,0,0,0,0,0],"split_type":[0,0,0,0,0,0,0,0,0,0,0,0,0,0,0,0,0,0,0,0,0,0,0,0,0,0,0,0,0,0,0,0,0,0,0,0,0,0,0,0,0,0,0,0,0,0,0,0,0,0,0,0,0,0,0,0,0,0,0,0,0,0,0,0,0,0,0,0,0,0,0,0,0,0,0,0,0,0,0,0,0,0,0,0,0,0,0,0,0,0,0,0,0,0,0,0,0,0,0,0,0,0,0,0,0,0,0,0,0,0,0,0,0,0,0,0,0,0,0,0,0],"sum_hessian":[7.98E3,5.456E3,2.524E3,4.642E3,8.14E2,1.369E3,1.155E3,4.237E3,4.05E2,3.43E2,4.71E2,6.82E2,6.87E2,6.55E2,5E2,6E0,4.231E3,3.9E2,1.5E1,1.56E2,1.87E2,2.76E2,1.95E2,3.43E2,3.39E2,3.76E2,3.11E2,3.43E2,3.12E2,2.8E2,2.2E2,5E0,1E0,1.988E3,2.243E3,3.3E1,3.57E2,1E0,1.4E1,1.46E2,1E1,2.3E1,1.64E2,1.06E2,1.7E2,5.3E1,1.42E2,2.2E1,3.21E2,7.3E1,2.66E2,2E0,3.74E2,1.63E2,1.48E2,6.5E1,2.78E2,5E0,3.07E2,5.2E1,2.28E2,1.87E2,3.3E1,2E0,3E0,1.047E3,9.41E2,3.2E1,1E0,6E0,3.51E2,3E0,1.1E1,4E0,1.42E2,6E0,4E0,1.1E1,1.2E1,6.4E1,1E2,8E1,2.6E1,1.05E2,6.5E1,6E0,4.7E1,1.1E2,3.2E1,1.1E1,1.1E1,3.09E2,1.2E1,5E0,6.8E1,1.02E2,1.64E2,1E0,1E0,2.93E2,8.1E1,7E0,1.56E2,3E0,1.45E2,2.4E1,4.1E1,2.44E2,3.4E1,2E0,3E0,2.48E2,5.9E1,4.3E1,9E0,2E0,2.26E2,8.7E1,1E2,3.2E1,1E0],"tree_param":{"num_deleted":"0","num_feature":"6","num_nodes":"121","size_leaf_vector":"1"}},{"base_weights":[1.7048858E-4,-3.0640813E-2,6.675944E-2,-3.576558E-2,-1.4077566E-3,4.2301707E-2,9.568707E-2,-3.6605157E-2,-2.6913628E-2,-1.1569854E-2,6.0015E-3,2.969529E-2,5.475502E-2,8.4032394E-2,1.1964082E-1,-1.5096013E-2,-3.6632087E-2,-2.304526E-2,-3.119006E-2,-9.363803E-3,-2.038612E-2,1.01353945E-2,1.2858975E-4,1.9753315E-2,3.4251418E-2,5.0001215E-2,6.1462488E-2,7.611598E-2,9.386773E-2,1.1116133E-1,1.3539067E-1,-2.1446561E-2,1.1503637E-3,-3.6839123E-3,-3.411367E-2,-2.3660518E-2,2.872996E-2,-8.30857E-3,-3.2415096E-2,-1.2100479E-2,1.4456753E-2,-5.3859476E-2,-1.4367142E-2,4.926185E-3,2.3129033E-2,2.4013547E-2,-3.6656598E-3,4.1366685E-3,2.4774935E-2,4.8339922E-2,3.057137E-2,4.662652E-2,6.0778107E-2,1.5290196E-2,6.275951E-2,7.7554844E-2,5.543689E-2,9.006263E-2,1.2213868E-1,7.5271085E-2,1.1362147E-1,1.5062311E-1,1.2083536E-1,-9.1341604E-4,-3.0714243E-3,-1.2824925E-3,-3.5002201E-3,-2.4739911E-3,-1.3936339E-4,4.5178444E-3,-2.0835028E-4,-3.4526791E-3,1.9294414E-3,-3.4108714E-3,-1.7160705E-3,-1.6525325E-3,-3.6711674E-4,2.752098E-3,-2.3276964E-3,9.832282E-4,-6.2028817E-3,-4.5371423E-3,-8.6140906E-4,-6.0606802E-5,2.0577095E-3,3.2088258E-3,-9.015465E-4,3.8431492E-3,-9.0925116E-4,4.8111575E-3,-5.2031333E-4,2.6529813E-3,-5.990178E-4,6.479936E-3,2.089999E-3,2.470958E-4,5.086074E-3,3.3237245E-3,7.54703E-4,-5.508656E-3,4.712588E-3,3.969121E-3,6.744088E-3,2.315811E-3,-2.3826563E-3,6.881059E-3,5.177343E-3,8.457663E-3,7.2615477E-3,6.283672E-3,1.2898177E-3,9.103678E-3,-6.4885285E-4,-1.2233913E-3,1.2610102E-2,2.8245195E-3,8.232312E-3,1.2182334E-2,1.0254091E-2,1.189076E-2,1.619224E-2,4.158441E-3,1.2761538E-2],"categories":[],"categories_nodes":[],"categories_segments":[],"categories_sizes":[],"default_left":[0,0,0,0,0,0,0,0,0,0,0,0,0,0,0,0,0,0,0,0,0,0,0,0,0,0,0,0,0,0,0,0,0,0,0,0,0,0,0,0,0,0,0,0,0,0,0,0,0,0,0,0,0,0,0,0,0,0,0,0,0,0,0,0,0,0,0,0,0,0,0,0,0,0,0,0,0,0,0,0,0,0,0,0,0,0,0,0,0,0,0,0,0,0,0,0,0,0,0,0,0,0,0,0,0,0,0,0,0,0,0,0,0,0,0,0,0,0,0,0,0,0,0],"id":12,"left_children":[1,3,5,7,9,11,13,15,17,19,21,23,25,27,29,31,33,35,37,39,41,43,45,47,49,51,53,55,57,59,61,63,-1,-1,65,67,69,71,73,75,77,79,81,83,85,87,89,91,93,95,97,99,101,103,105,107,109,111,113,115,117,119,121,-1,-1,-1,-1,-1,-1,-1,-1,-1,-1,-1,-1,-1,-1,-1,-1,-1,-1,-1,-1,-1,-1,-1,-1,-1,-1,-1,-1,-1,-1,-1,-1,-1,-1,-1,-1,-1,-1,-1,-1,-1,-1,-1,-1,-1,-1,-1,-1,-1,-1,-1,-1,-1,-1,-1,-1,-1,-1,-1,-1],"loss_changes":[1.6376602E1,8.174772E-1,1.7823992E0,3.3521175E-2,6.1433706E-2,2.1345258E-1,3.1267166E-1,1.9016266E-3,5.997598E-3,6.499611E-3,1.1457907E-2,3.0261219E-2,1.8864632E-2,5.366373E-2,3.5164833E-2,1.4291697E-3,9.498596E-4,7.592328E-3,5.0565153E-3,1.8232325E-2,1.2926515E-2,1.8635247E-2,1.7850623E-2,1.6914845E-2,2.2734404E-2,1.2004495E-2,1.5868545E-2,8.733034E-3,2.6005268E-2,1.3521194E-2,9.956598E-3,4.0409574E-4,0E0,0E0,5.887866E-3,5.132973E-3,1.6146332E-3,8.626887E-3,4.064977E-3,9.226631E-3,1.4936497E-2,5.813081E-3,1.01329535E-2,1.7242845E-2,2.3040485E-2,1.3237115E-2,1.3783366E-2,1.2404602E-2,2.4080865E-2,1.0858923E-2,2.2643894E-2,1.8595397E-2,1.0529935E-2,3.3216842E-3,1.4585853E-2,7.974148E-3,9.2624575E-3,2.9465437E-2,2.1775067E-2,3.975697E-3,8.592844E-3,1.5312433E-3,3.2305956E-2,0E0,0E0,0E0,0E0,0E0,0E0,0E0,0E0,0E0,0E0,0E0,0E0,0E0,0E0,0E0,0E0,0E0,0E0,0E0,0E0,0E0,0E0,0E0,0E0,0E0,0E0,0E0,0E0,0E0,0E0,0E0,0E0,0E0,0E0,0E0,0E0,0E0,0E0,0E0,0E0,0E0,0E0,0E0,0E0,0E0,0E0,0E0,0E0,0E0,0E0,0E0,0E0,0E0,0E0,0E0,0E0,0E0,0E0,0E0,0E0],"parents":[2147483647,0,0,1,1,2,2,3,3,4,4,5,5,6,6,7,7,8,8,9,9,10,10,11,11,12,12,13,13,14,14,15,15,16,16,17,17,18,18,19,19,20,20,21,21,22,22,23,23,24,24,25,25,26,26,27,27,28,28,29,29,30,30,31,31,34,34,35,35,36,36,37,37,38,38,39,39,40,40,41,41,42,42,43,43,44,44,45,45,46,46,47,47,48,48,49,49,50,50,51,51,52,52,53,53,54,54,55,55,56,56,57,57,58,58,59,59,60,60,61,61,62,62],"right_children":[2,4,6,8,10,12,14,16,18,20,22,24,26,28,30,32,34,36,38,40,42,44,46,48,50,52,54,56,58,60,62,64,-1,-1,66,68,70,72,74,76,78,80,82,84,86,88,90,92,94,96,98,100,102,104,106,108,110,112,114,116,118,120,122,-1,-1,-1,-1,-1,-1,-1,-1,-1,-1,-1,-1,-1,-1,-1,-1,-1,-1,-1,-1,-1,-1,-1,-1,-1,-1,-1,-1,-1,-1,-1,-1,-1,-1,-1,-1,-1,-1,-1,-1,-1,-1,-1,-1,-1,-1,-1,-1,-1,-1,-1,-1,-1,-1,-1,-1,-1,-1,-1,-1],"split_conditions":[1.8803842E-1,6.670393E-2,3.802423E-1,6.088391E-3,1.1913158E-1,2.8732783E-1,5.0776184E-1,3.847743E-1,8.448711E-2,7.7437323E-1,4.3129793E-1,2.1991213E-1,3.4356332E-1,4.474455E-1,5.6410307E-1,6.772463E-1,3.1289458E-3,8.165252E-2,4.178273E-2,7.0194983E-1,3.4632903E-1,3.9624012E-1,1.3927576E-1,3.5198852E-1,2.5491351E-2,1.6161177E-1,1.7938656E-1,2.665903E-1,9.164345E-1,8.866585E-2,4.568245E-1,6.462396E-1,1.1503637E-3,-3.6839123E-3,1.0306407E-1,9.6378833E-1,2.9001608E-2,5.184028E-1,9.08078E-1,5.878238E-1,6.6695035E-1,3.1892113E-2,2.3105204E-2,6.859884E-1,6.445398E-1,5.2759045E-1,1.6989887E-1,2.8412256E-1,3.834148E-1,1.5220192E-3,4.5567906E-1,5.5710305E-3,3.0068707E-1,1E0,1.10167414E-1,5E-1,8.0779946E-1,8.9972144E-1,1.09403186E-1,2.5491351E-2,6.21276E-2,2.9664306E-2,3.23292E-1,-9.1341604E-4,-3.0714243E-3,-1.2824925E-3,-3.5002201E-3,-2.4739911E-3,-1.3936339E-4,4.5178444E-3,-2.0835028E-4,-3.4526791E-3,1.9294414E-3,-3.4108714E-3,-1.7160705E-3,-1.6525325E-3,-3.6711674E-4,2.752098E-3,-2.3276964E-3,9.832282E-4,-6.2028817E-3,-4.5371423E-3,-8.6140906E-4,-6.0606802E-5,2.0577095E-3,3.2088258E-3,-9.015465E-4,3.8431492E-3,-9.0925116E-4,4.8111575E-3,-5.2031333E-4,2.6529813E-3,-5.990178E-4,6.479936E-3,2.089999E-3,2.470958E-4,5.086074E-3,3.3237245E-3,7.54703E-4,-5.508656E-3,4.712588E-3,3.969121E-3,6.744088E-3,2.315811E-3,-2.3826563E-3,6.881059E-3,5.177343E-3,8.457663E-3,7.2615477E-3,6.283672E-3,1.2898177E-3,9.103678E-3,-6.4885285E-4,-1.2233913E-3,1.2610102E-2,2.8245195E-3,8.232312E-3,1.2182334E-2,1.0254091E-2,1.189076E-2,1.619224E-2,4.158441E-3,1.2761538E-2],"split_indices":[0,0,0,0,0,0,0,1,3,4,1,0,0,0,0,2,0,3,4,4,1,1,4,2,3,3,2,3,4,1,4,4,0,0,4,4,0,2,4,2,2,3,3,2,2,2,2,4,2,3,1,4,0,5,3,5,4,4,1,3,3,3,2,0,0,0,0,0,0,0,0,0,0,0,0,0,0,0,0,0,0,0,0,0,0,0,0,0,0,0,0,0,0,0,0,0,0,0,0,0,0,0,0,0,0,0,0,0,0,0,0,0,0,0,0,0,0,0,0,0,0,0,0],"split_type":[0,0,0,0,0,0,0,0,0,0,0,0,0,0,0,0,0,0,0,0,0,0,0,0,0,0,0,0,0,0,0,0,0,0,0,0,0,0,0,0,0,0,0,0,0,0,0,0,0,0,0,0,0,0,0,0,0,0,0,0,0,0,0,0,0,0,0,0,0,0,0,0,0,0,0,0,0,0,0,0,0,0,0,0,0,0,0,0,0,0,0,0,0,0,0,0,0,0,0,0,0,0,0,0,0,0,0,0,0,0,0,0,0,0,0,0,0,0,0,0,0,0,0],"sum_hessian":[7.98E3,5.456E3,2.524E3,4.642E3,8.14E2,1.369E3,1.155E3,4.237E3,4.05E2,3.43E2,4.71E2,6.82E2,6.87E2,7.8E2,3.75E2,6E0,4.231E3,2.16E2,1.89E2,2.76E2,6.7E1,2.76E2,1.95E2,2.16E2,4.66E2,4.07E2,2.8E2,4.37E2,3.43E2,2.49E2,1.26E2,5E0,1E0,3.897E3,3.34E2,2.14E2,2E0,1E1,1.79E2,2.48E2,2.8E1,9E0,5.8E1,1.98E2,7.8E1,2.6E1,1.69E2,5.3E1,1.63E2,9.4E1,3.72E2,3.14E2,9.3E1,8E0,2.72E2,4.06E2,3.1E1,3.06E2,3.7E1,1.8E1,2.31E2,5.7E1,6.9E1,3E0,2E0,1.4E1,3.2E2,2.04E2,1E1,1E0,1E0,5E0,5E0,1.6E2,1.9E1,1.62E2,8.6E1,2.1E1,7E0,1E0,8E0,8E0,5E1,1.47E2,5.1E1,6.1E1,1.7E1,1.8E1,8E0,4E0,1.65E2,1.6E1,3.7E1,1.3E1,1.5E2,5E0,8.9E1,3.33E2,3.9E1,1E0,3.13E2,2.4E1,6.9E1,7E0,1E0,1.72E2,1E2,1.61E2,2.45E2,2.6E1,5E0,3.03E2,3E0,1E0,3.6E1,3E0,1.5E1,1.27E2,1.04E2,1.8E1,3.9E1,6E0,6.3E1],"tree_param":{"num_deleted":"0","num_feature":"6","num_nodes":"123","size_leaf_vector":"1"}},{"base_weights":[1.7181365E-4,-2.6334263E-2,6.297403E-2,-3.1762544E-2,4.290287E-3,4.3458827E-2,8.9646876E-2,-3.281385E-2,-2.0386653E-2,-3.922439E-3,1.1841481E-2,3.2608457E-2,5.5184405E-2,8.049209E-2,1.12556726E-1,-3.1092502E-2,-3.3398032E-2,-2.0874165E-2,1.5593088E-2,-2.8613372E-2,-2.7698446E-3,2.1929171E-2,6.9773295E-3,2.521239E-2,3.815717E-2,5.0027136E-2,6.065866E-2,7.303793E-2,8.990389E-2,1.0835576E-1,1.401357E-1,-3.1746138E-2,-2.492632E-2,-3.3312336E-2,-4.9625556E-3,-4.4739753E-2,-2.0149367E-2,8.0232695E-4,2.2787887E-3,-4.774819E-2,3.0686792E-2,2.5997411E-2,-4.9872845E-3,1.9824395E-2,9.011405E-3,-3.0050546E-2,8.901684E-3,6.906785E-2,2.36665E-2,5.9147764E-2,3.6683552E-2,4.7610465E-2,6.879219E-2,6.474224E-2,4.943559E-2,5.93547E-2,7.590903E-2,8.698305E-2,1.2145144E-1,1.17260754E-1,9.866147E-2,1.4193988E-2,4.0299087E-3,-3.0069356E-3,-3.33342E-3,-3.246817E-3,-1.7344803E-3,-3.3348338E-3,-1.9744528E-3,-1.2846885E-3,-5.039963E-3,-1.6534608E-3,-2.5157055E-3,-3.3102502E-4,4.5137407E-4,-2.8758363E-3,-6.8274895E-3,6.572839E-3,-1.4583737E-3,1.8164054E-4,5.0048674E-3,-1.1989617E-3,-2.530551E-5,2.934E-3,1.0688979E-3,-4.642853E-3,-1.3973165E-3,7.4000293E-3,7.4749213E-4,-1.4833078E-3,8.00383E-3,1.9362232E-3,4.167659E-3,8.687108E-3,3.1160081E-3,4.0655844E-3,2.8191272E-3,5.1287943E-3,3.0516894E-3,7.1603768E-3,-1.6212389E-3,5.7621594E-3,7.897452E-3,9.34728E-3,4.3863463E-3,-3.849626E-3,6.2562893E-3,9.917248E-3,7.369158E-3,1.0321806E-2,8.0415355E-3,1.3355605E-2,6.2878244E-3,2.6524097E-3,1.1852051E-2,1.0757216E-3,1.0071802E-2],"categories":[],"categories_nodes":[],"categories_segments":[],"categories_sizes":[],"default_left":[0,0,0,0,0,0,0,0,0,0,0,0,0,0,0,0,0,0,0,0,0,0,0,0,0,0,0,0,0,0,0,0,0,0,0,0,0,0,0,0,0,0,0,0,0,0,0,0,0,0,0,0,0,0,0,0,0,0,0,0,0,0,0,0,0,0,0,0,0,0,0,0,0,0,0,0,0,0,0,0,0,0,0,0,0,0,0,0,0,0,0,0,0,0,0,0,0,0,0,0,0,0,0,0,0,0,0,0,0,0,0,0,0,0,0,0,0],"id":13,"left_children":[1,3,5,7,9,11,13,15,17,19,21,23,25,27,29,31,33,35,37,39,41,43,45,47,49,51,53,55,57,59,61,63,65,67,-1,69,71,73,-1,75,77,79,81,83,-1,85,87,89,91,93,95,97,99,101,103,105,107,109,111,113,115,-1,-1,-1,-1,-1,-1,-1,-1,-1,-1,-1,-1,-1,-1,-1,-1,-1,-1,-1,-1,-1,-1,-1,-1,-1,-1,-1,-1,-1,-1,-1,-1,-1,-1,-1,-1,-1,-1,-1,-1,-1,-1,-1,-1,-1,-1,-1,-1,-1,-1,-1,-1,-1,-1,-1,-1],"loss_changes":[1.3287152E1,9.332335E-1,1.2292309E0,5.6354046E-2,5.2511886E-2,1.7250109E-1,2.0067501E-1,3.3488274E-3,7.4469447E-3,1.147495E-2,2.1486014E-2,2.8339565E-2,1.5514135E-2,4.3806076E-2,1.7603636E-2,3.722787E-3,2.858162E-3,6.034896E-3,6.202159E-4,2.1889798E-2,2.494384E-2,1.8736027E-2,2.1572664E-2,1.9314274E-2,1.0388672E-2,1.232487E-2,1.1190057E-2,1.1444569E-2,1.8277168E-2,1.0012627E-2,4.041195E-4,1.6844273E-3,5.8408603E-3,9.191036E-4,0E0,1.3381243E-3,6.661758E-3,6.0732033E-5,0E0,3.493704E-3,8.890325E-3,1.6193438E-2,1.1997501E-2,1.185644E-2,0E0,3.3009723E-3,2.5917714E-2,1.0391522E-2,2.244915E-2,1.6690873E-2,1.1740208E-2,1.779604E-2,1.000376E-2,1.8454194E-2,1.7493501E-2,2.5952786E-2,9.8183155E-3,2.2621393E-2,8.618385E-3,1.1144519E-2,2.169478E-2,0E0,0E0,0E0,0E0,0E0,0E0,0E0,0E0,0E0,0E0,0E0,0E0,0E0,0E0,0E0,0E0,0E0,0E0,0E0,0E0,0E0,0E0,0E0,0E0,0E0,0E0,0E0,0E0,0E0,0E0,0E0,0E0,0E0,0E0,0E0,0E0,0E0,0E0,0E0,0E0,0E0,0E0,0E0,0E0,0E0,0E0,0E0,0E0,0E0,0E0,0E0,0E0,0E0,0E0,0E0,0E0],"parents":[2147483647,0,0,1,1,2,2,3,3,4,4,5,5,6,6,7,7,8,8,9,9,10,10,11,11,12,12,13,13,14,14,15,15,16,16,17,17,18,18,19,19,20,20,21,21,22,22,23,23,24,24,25,25,26,26,27,27,28,28,29,29,30,30,31,31,32,32,33,33,35,35,36,36,37,37,39,39,40,40,41,41,42,42,43,43,45,45,46,46,47,47,48,48,49,49,50,50,51,51,52,52,53,53,54,54,55,55,56,56,57,57,58,58,59,59,60,60],"right_children":[2,4,6,8,10,12,14,16,18,20,22,24,26,28,30,32,34,36,38,40,42,44,46,48,50,52,54,56,58,60,62,64,66,68,-1,70,72,74,-1,76,78,80,82,84,-1,86,88,90,92,94,96,98,100,102,104,106,108,110,112,114,116,-1,-1,-1,-1,-1,-1,-1,-1,-1,-1,-1,-1,-1,-1,-1,-1,-1,-1,-1,-1,-1,-1,-1,-1,-1,-1,-1,-1,-1,-1,-1,-1,-1,-1,-1,-1,-1,-1,-1,-1,-1,-1,-1,-1,-1,-1,-1,-1,-1,-1,-1,-1,-1,-1,-1,-1],"split_conditions":[2.1083151E-1,8.755861E-2,4.0590882E-1,1.3046905E-2,1.4560674E-1,3.1280035E-1,5.2299035E-1,6.1398274E-1,6.602004E-1,5.292479E-2,5.0594084E-2,2.552563E-1,3.6092067E-1,4.6472937E-1,6.08245E-1,6.088391E-3,6.088391E-3,3.0011594E-1,3.5854462E-1,6.930902E-1,1.1142062E-1,4.931842E-2,5.5091828E-2,4.1929507E-3,1.7905971E-1,6.930902E-1,6.2740165E-1,1.5289575E-1,3.5185194E-1,5.4247178E-2,9.275766E-1,5.878238E-1,4.8994362E-1,4.9822927E-3,-4.9625556E-3,2.6276207E-1,4.92981E-1,1.7799422E-2,2.2787887E-3,1.2274383E-1,7.587967E-2,9.235983E-2,4.54039E-1,5.041783E-1,9.011405E-3,1.7951046E-1,5.717646E-2,1.5838723E-1,1.9668241E-1,6.5386933E-1,6.7409474E-1,5.944956E-1,9.108635E-1,5.230743E-1,1.4653209E-1,3.2847107E-3,1.7905971E-1,2.9805014E-1,4.0540597E-1,7.565596E-2,5.5091828E-2,1.4193988E-2,4.0299087E-3,-3.0069356E-3,-3.33342E-3,-3.246817E-3,-1.7344803E-3,-3.3348338E-3,-1.9744528E-3,-1.2846885E-3,-5.039963E-3,-1.6534608E-3,-2.5157055E-3,-3.3102502E-4,4.5137407E-4,-2.8758363E-3,-6.8274895E-3,6.572839E-3,-1.4583737E-3,1.8164054E-4,5.0048674E-3,-1.1989617E-3,-2.530551E-5,2.934E-3,1.0688979E-3,-4.642853E-3,-1.3973165E-3,7.4000293E-3,7.4749213E-4,-1.4833078E-3,8.00383E-3,1.9362232E-3,4.167659E-3,8.687108E-3,3.1160081E-3,4.0655844E-3,2.8191272E-3,5.1287943E-3,3.0516894E-3,7.1603768E-3,-1.6212389E-3,5.7621594E-3,7.897452E-3,9.34728E-3,4.3863463E-3,-3.849626E-3,6.2562893E-3,9.917248E-3,7.369158E-3,1.0321806E-2,8.0415355E-3,1.3355605E-2,6.2878244E-3,2.6524097E-3,1.1852051E-2,1.0757216E-3,1.0071802E-2],"split_indices":[0,0,0,0,0,0,0,1,1,4,3,0,0,0,0,0,0,1,2,2,4,3,3,3,1,2,2,1,1,3,4,2,1,0,0,1,1,0,0,0,3,3,4,4,0,0,3,2,3,2,4,2,4,2,1,3,1,4,2,1,3,0,0,0,0,0,0,0,0,0,0,0,0,0,0,0,0,0,0,0,0,0,0,0,0,0,0,0,0,0,0,0,0,0,0,0,0,0,0,0,0,0,0,0,0,0,0,0,0,0,0,0,0,0,0,0,0],"split_type":[0,0,0,0,0,0,0,0,0,0,0,0,0,0,0,0,0,0,0,0,0,0,0,0,0,0,0,0,0,0,0,0,0,0,0,0,0,0,0,0,0,0,0,0,0,0,0,0,0,0,0,0,0,0,0,0,0,0,0,0,0,0,0,0,0,0,0,0,0,0,0,0,0,0,0,0,0,0,0,0,0,0,0,0,0,0,0,0,0,0,0,0,0,0,0,0,0,0,0,0,0,0,0,0,0,0,0,0,0,0,0,0,0,0,0,0,0],"sum_hessian":[7.98E3,5.612E3,2.368E3,4.767E3,8.45E2,1.369E3,9.99E2,4.362E3,4.05E2,4.05E2,4.4E2,7.13E2,6.56E2,7.17E2,2.82E2,1.119E3,3.243E3,4E2,5E0,1.7E1,3.88E2,1.42E2,2.98E2,3.08E2,4.05E2,3.43E2,3.13E2,4.05E2,3.12E2,2.49E2,3.3E1,1.008E3,1.11E2,3.229E3,1.4E1,1E1,3.9E2,2E0,3E0,1.3E1,4E0,2.7E1,3.61E2,1.39E2,3E0,1.4E1,2.84E2,9E0,2.99E2,2.4E1,3.81E2,3.07E2,3.6E1,2.26E2,8.7E1,7.4E1,3.31E2,2.89E2,2.3E1,1.24E2,1.25E2,3.2E1,1E0,5E2,5.08E2,5.4E1,5.7E1,3.219E3,1E1,2E0,8E0,2.29E2,1.61E2,1E0,1E0,8E0,5E0,2E0,2E0,1.4E1,1.3E1,1.45E2,2.16E2,6.7E1,7.2E1,6E0,8E0,5E0,2.79E2,1E0,8E0,2.43E2,5.6E1,1.1E1,1.3E1,2.57E2,1.24E2,2.51E2,5.6E1,3.5E1,1E0,1.54E2,7.2E1,8E0,7.9E1,2E0,7.2E1,2.5E1,3.06E2,7.9E1,2.1E2,1.8E1,5E0,2E0,1.22E2,3E0,1.22E2],"tree_param":{"num_deleted":"0","num_feature":"6","num_nodes":"117","size_leaf_vector":"1"}},{"base_weights":[1.7452992E-4,-2.4841946E-2,5.4239772E-2,-2.8991655E-2,-1.1708582E-3,3.436245E-2,7.7749886E-2,-2.9537413E-2,-2.0414647E-2,-9.476734E-3,4.885058E-3,2.318532E-2,4.359851E-2,6.435959E-2,9.173939E-2,-2.9846584E-2,-2.688152E-2,-4.390817E-2,-1.91112E-2,-2.4137901E-2,-8.301716E-3,8.561485E-3,-3.3563378E-4,1.6337361E-2,2.678833E-2,4.452889E-2,1.3637963E-2,6.310991E-2,8.923297E-2,8.2902044E-2,1.0504015E-1,-2.6438385E-5,-2.9854104E-3,-1.1366784E-2,-2.7700083E-2,-4.8770984E-3,-9.820868E-4,1.719597E-3,-2.0981105E-2,2.5383346E-2,-4.480635E-2,-1.30981915E-2,-4.0991066E-4,-1.4277274E-3,1.4761979E-2,-1.4505379E-2,5.017526E-3,9.393071E-3,2.6605923E-2,2.2168191E-2,4.1277558E-2,4.376537E-2,9.4820246E-2,2.1556642E-2,-3.1344593E-2,6.6385545E-2,5.2087605E-2,-1.5642986E-3,9.405372E-2,6.705164E-2,8.643661E-2,1.0057179E-1,1.2665815E-2,-1.9244271E-3,2.3992015E-3,-2.454493E-3,-3.054001E-3,-1.721184E-3,2.3936788E-3,-1.4016579E-3,-2.8417062E-3,-1.7055428E-3,4.2372174E-3,6.845345E-5,-5.0535495E-3,5.6941616E-3,-1.3739512E-3,-6.6071324E-4,7.011942E-4,4.4693355E-4,-1.9066038E-3,3.231448E-3,8.4263535E-4,2.8505006E-3,-2.0475532E-3,-2.3468242E-4,2.9636477E-3,5.9516606E-4,5.0438964E-3,2.9109956E-3,-5.321033E-3,3.6966184E-3,1.7454183E-3,3.2278232E-3,6.126638E-3,3.6654442E-3,4.700594E-3,1.0104638E-2,1.939255E-3,2.7751224E-3,-2.4861263E-3,-3.5824466E-3,-8.952484E-4,6.917925E-3,5.3888275E-3,6.898602E-3,3.8463012E-3,6.1512864E-3,1.1935969E-2,7.393719E-3,2.9331455E-3,9.546271E-3,8.001217E-3,1.100228E-2,9.13415E-3],"categories":[],"categories_nodes":[],"categories_segments":[],"categories_sizes":[],"default_left":[0,0,0,0,0,0,0,0,0,0,0,0,0,0,0,0,0,0,0,0,0,0,0,0,0,0,0,0,0,0,0,0,0,0,0,0,0,0,0,0,0,0,0,0,0,0,0,0,0,0,0,0,0,0,0,0,0,0,0,0,0,0,0,0,0,0,0,0,0,0,0,0,0,0,0,0,0,0,0,0,0,0,0,0,0,0,0,0,0,0,0,0,0,0,0,0,0,0,0,0,0,0,0,0,0,0,0,0,0,0,0,0,0,0,0],"id":14,"left_children":[1,3,5,7,9,11,13,15,17,19,21,23,25,27,29,31,33,35,37,39,41,43,45,47,49,51,53,55,57,59,61,-1,-1,63,65,-1,-1,67,69,71,73,75,77,79,81,83,85,87,89,91,93,95,97,99,101,103,105,-1,107,109,111,113,-1,-1,-1,-1,-1,-1,-1,-1,-1,-1,-1,-1,-1,-1,-1,-1,-1,-1,-1,-1,-1,-1,-1,-1,-1,-1,-1,-1,-1,-1,-1,-1,-1,-1,-1,-1,-1,-1,-1,-1,-1,-1,-1,-1,-1,-1,-1,-1,-1,-1,-1,-1,-1],"loss_changes":[1.0795825E1,5.359969E-1,1.1773062E0,2.1130562E-2,4.1040543E-2,1.4041805E-1,2.1064138E-1,2.780199E-3,7.765807E-3,5.725747E-3,9.062204E-3,1.4909118E-2,2.0270824E-2,1.2832165E-2,5.746889E-2,8.597374E-4,5.590558E-3,1.8416699E-3,1.0475114E-2,2.672552E-2,1.2107544E-2,1.7177915E-2,1.4939953E-2,1.5223898E-2,2.6263505E-2,2.3727417E-2,9.2245415E-3,1.7086029E-2,1.46164E-2,1.342082E-2,8.609772E-3,0E0,0E0,7.4251704E-3,3.2019317E-3,0E0,0E0,1.0085872E-2,1.2341514E-2,6.490557E-3,4.7258213E-3,9.721022E-3,5.6577018E-3,1.1214735E-2,1.8743947E-2,1.4449698E-2,2.599582E-2,1.8204305E-2,1.8937E-2,2.0979732E-2,1.5471354E-2,1.4799118E-2,2.7366877E-3,6.72826E-3,8.053752E-5,1.145947E-2,2.8428197E-2,0E0,1.3244778E-2,1.5232831E-2,8.424282E-3,6.3505173E-3,0E0,0E0,0E0,0E0,0E0,0E0,0E0,0E0,0E0,0E0,0E0,0E0,0E0,0E0,0E0,0E0,0E0,0E0,0E0,0E0,0E0,0E0,0E0,0E0,0E0,0E0,0E0,0E0,0E0,0E0,0E0,0E0,0E0,0E0,0E0,0E0,0E0,0E0,0E0,0E0,0E0,0E0,0E0,0E0,0E0,0E0,0E0,0E0,0E0,0E0,0E0,0E0,0E0],"parents":[2147483647,0,0,1,1,2,2,3,3,4,4,5,5,6,6,7,7,8,8,9,9,10,10,11,11,12,12,13,13,14,14,15,15,16,16,17,17,18,18,19,19,20,20,21,21,22,22,23,23,24,24,25,25,26,26,27,27,28,28,29,29,30,30,33,33,34,34,37,37,38,38,39,39,40,40,41,41,42,42,43,43,44,44,45,45,46,46,47,47,48,48,49,49,50,50,51,51,52,52,53,53,54,54,55,55,56,56,58,58,59,59,60,60,61,61],"right_children":[2,4,6,8,10,12,14,16,18,20,22,24,26,28,30,32,34,36,38,40,42,44,46,48,50,52,54,56,58,60,62,-1,-1,64,66,-1,-1,68,70,72,74,76,78,80,82,84,86,88,90,92,94,96,98,100,102,104,106,-1,108,110,112,114,-1,-1,-1,-1,-1,-1,-1,-1,-1,-1,-1,-1,-1,-1,-1,-1,-1,-1,-1,-1,-1,-1,-1,-1,-1,-1,-1,-1,-1,-1,-1,-1,-1,-1,-1,-1,-1,-1,-1,-1,-1,-1,-1,-1,-1,-1,-1,-1,-1,-1,-1,-1,-1],"split_conditions":[1.8803842E-1,6.670393E-2,3.802423E-1,1.3046905E-2,1.1913158E-1,2.7618867E-1,4.7009838E-1,3.1289458E-3,3.4872058E-1,3.1173262E-1,4.3129793E-1,2.1991213E-1,4.7148237E-1,9.6657383E-1,5.360184E-1,3.779948E-1,1.0306407E-1,7.2950786E-1,3.847743E-1,7.8666106E-2,1.2763363E-1,3.3426183E-1,4.6158677E-1,7.5E-1,6.428769E-1,9.916434E-1,4.4267568E-1,7.29805E-1,1.09403186E-1,2.5E-1,6.08245E-1,-2.6438385E-5,-2.9854104E-3,8.635098E-2,5.4949737E-1,-4.8770984E-3,-9.820868E-4,6.351276E-1,8.448711E-2,9.2481196E-2,2.425338E-1,3.149685E-1,5.2114314E-1,2.367688E-1,5.1532036E-1,1.0289534E-2,1.2422169E-1,9.359332E-1,5.534884E-1,3.373471E-1,1.4019883E-1,3.1280035E-1,3.468448E-1,9.7771585E-1,3.0502027E-1,6.8067193E-1,2.211666E-1,-1.5642986E-3,4.3821794E-1,6.716125E-1,4.7302566E-2,4.931842E-2,1.2665815E-2,-1.9244271E-3,2.3992015E-3,-2.454493E-3,-3.054001E-3,-1.721184E-3,2.3936788E-3,-1.4016579E-3,-2.8417062E-3,-1.7055428E-3,4.2372174E-3,6.845345E-5,-5.0535495E-3,5.6941616E-3,-1.3739512E-3,-6.6071324E-4,7.011942E-4,4.4693355E-4,-1.9066038E-3,3.231448E-3,8.4263535E-4,2.8505006E-3,-2.0475532E-3,-2.3468242E-4,2.9636477E-3,5.9516606E-4,5.0438964E-3,2.9109956E-3,-5.321033E-3,3.6966184E-3,1.7454183E-3,3.2278232E-3,6.126638E-3,3.6654442E-3,4.700594E-3,1.0104638E-2,1.939255E-3,2.7751224E-3,-2.4861263E-3,-3.5824466E-3,-8.952484E-4,6.917925E-3,5.3888275E-3,6.898602E-3,3.8463012E-3,6.1512864E-3,1.1935969E-2,7.393719E-3,2.9331455E-3,9.546271E-3,8.001217E-3,1.100228E-2,9.13415E-3],"split_indices":[0,0,0,0,0,0,0,0,1,1,1,0,1,4,0,1,4,2,1,3,3,4,1,5,2,4,2,4,1,5,0,0,0,4,2,0,0,2,3,0,1,1,2,4,4,3,3,4,1,2,3,0,0,4,0,2,1,0,0,2,3,3,0,0,0,0,0,0,0,0,0,0,0,0,0,0,0,0,0,0,0,0,0,0,0,0,0,0,0,0,0,0,0,0,0,0,0,0,0,0,0,0,0,0,0,0,0,0,0,0,0,0,0,0,0],"split_type":[0,0,0,0,0,0,0,0,0,0,0,0,0,0,0,0,0,0,0,0,0,0,0,0,0,0,0,0,0,0,0,0,0,0,0,0,0,0,0,0,0,0,0,0,0,0,0,0,0,0,0,0,0,0,0,0,0,0,0,0,0,0,0,0,0,0,0,0,0,0,0,0,0,0,0,0,0,0,0,0,0,0,0,0,0,0,0,0,0,0,0,0,0,0,0,0,0,0,0,0,0,0,0,0,0,0,0,0,0,0,0,0,0,0,0],"sum_hessian":[7.98E3,5.456E3,2.524E3,4.642E3,8.14E2,1.369E3,1.155E3,4.362E3,2.8E2,3.43E2,4.71E2,6.21E2,7.48E2,5.93E2,5.62E2,3.898E3,4.64E2,1.3E1,2.67E2,2.4E1,3.19E2,2.76E2,1.95E2,2.16E2,4.05E2,7.25E2,2.3E1,5.68E2,2.5E1,3.42E2,2.2E2,1E0,3.897E3,2.4E1,4.4E2,1.1E1,2E0,2.2E1,2.45E2,7E0,1.7E1,1.98E2,1.21E2,1.06E2,1.7E2,5.3E1,1.42E2,1.3E2,8.6E1,3.09E2,9.6E1,7.16E2,9E0,2E1,3E0,4.34E2,1.34E2,1E0,2.4E1,6.6E1,2.76E2,1.87E2,3.3E1,2E1,4E0,2.13E2,2.27E2,1.2E1,1E1,1.28E2,1.17E2,2E0,5E0,2E0,1.5E1,1E0,1.97E2,6.6E1,5.5E1,8E1,2.6E1,4.4E1,1.26E2,6E0,4.7E1,1.1E2,3.2E1,1.21E2,9E0,8.4E1,2E0,7.3E1,2.36E2,6.8E1,2.8E1,2.28E2,4.88E2,8E0,1E0,1.8E1,2E0,2E0,1E0,3.51E2,8.3E1,5.8E1,7.6E1,1.2E1,1.2E1,5.5E1,1.1E1,1.09E2,1.67E2,8.7E1,1E2],"tree_param":{"num_deleted":"0","num_feature":"6","num_nodes":"115","size_leaf_vector":"1"}},{"base_weights":[1.7274827E-4,-2.2359477E-2,4.886906E-2,-2.6096253E-2,-1.0438897E-3,3.224578E-2,7.173875E-2,-2.6555916E-2,-1.7912839E-2,-8.523516E-3,4.409575E-3,2.177956E-2,4.1345764E-2,6.444359E-2,9.159205E-2,-2.4804471E-2,-2.7012601E-3,-3.9262205E-2,-1.6671434E-2,-6.5121446E-3,-1.659155E-2,2.358227E-3,1.3210788E-2,1.7100887E-2,2.7320925E-2,3.6385067E-2,4.6632748E-2,5.85774E-2,7.300887E-2,8.812858E-2,1.1436483E-1,-2.0194177E-2,-2.592808E-2,-4.390093E-3,-9.166145E-4,1.5768753E-3,-1.8537357E-2,-8.869275E-3,1.3951222E-2,-4.5718748E-2,-1.1373525E-2,1.1219148E-2,-3.924598E-4,2.0672524E-2,-5.66467E-3,1.5975606E-2,4.703362E-2,4.3651786E-2,2.3079298E-2,3.3394925E-2,4.601814E-2,5.698502E-2,4.189273E-2,5.996612E-2,3.778213E-2,7.035428E-2,1.0204317E-1,7.818665E-2,9.563083E-2,1.15894E-1,3.1951235E-3,-2.1706426E-3,2.1361103E-3,-1.8524108E-3,-2.621605E-3,-1.0728185E-3,3.1235327E-3,-1.1814462E-3,-2.515086E-3,-1.1152173E-3,4.947656E-4,2.5870115E-3,-2.0569633E-3,1.0854375E-3,-5.3210696E-3,-3.973281E-3,-6.145935E-4,-2.8623831E-3,1.6491415E-3,-1.2321645E-4,6.0794167E-3,5.148933E-3,1.3305087E-3,6.644995E-4,-2.9654594E-3,1.04577E-3,2.431439E-3,-1.8533595E-3,6.8557146E-3,3.1629622E-3,6.461901E-3,2.5755744E-3,1.8871005E-4,1.5321024E-3,3.691022E-3,6.3620806E-3,3.8352106E-3,6.906584E-3,4.51583E-3,2.8596194E-3,5.0801355E-3,5.858052E-3,9.075276E-3,4.425698E-4,4.8716534E-3,8.514709E-3,6.4412206E-3,1.3018127E-2,7.2645876E-3,9.575989E-3,6.106763E-3,6.505201E-3,1.0086947E-2,1.2973085E-2,8.784893E-3],"categories":[],"categories_nodes":[],"categories_segments":[],"categories_sizes":[],"default_left":[0,0,0,0,0,0,0,0,0,0,0,0,0,0,0,0,0,0,0,0,0,0,0,0,0,0,0,0,0,0,0,0,0,0,0,0,0,0,0,0,0,0,0,0,0,0,0,0,0,0,0,0,0,0,0,0,0,0,0,0,0,0,0,0,0,0,0,0,0,0,0,0,0,0,0,0,0,0,0,0,0,0,0,0,0,0,0,0,0,0,0,0,0,0,0,0,0,0,0,0,0,0,0,0,0,0,0,0,0,0,0,0,0,0,0],"id":15,"left_children":[1,3,5,7,9,11,13,15,17,19,21,23,25,27,29,31,-1,33,35,37,39,41,43,45,47,49,51,53,55,57,59,61,63,-1,-1,65,67,69,71,73,75,77,79,81,83,85,87,89,91,93,95,97,99,101,103,105,107,109,111,113,-1,-1,-1,-1,-1,-1,-1,-1,-1,-1,-1,-1,-1,-1,-1,-1,-1,-1,-1,-1,-1,-1,-1,-1,-1,-1,-1,-1,-1,-1,-1,-1,-1,-1,-1,-1,-1,-1,-1,-1,-1,-1,-1,-1,-1,-1,-1,-1,-1,-1,-1,-1,-1,-1,-1],"loss_changes":[8.758135E0,4.3463135E-1,9.576144E-1,1.698947E-2,3.3281337E-2,1.3853455E-1,1.4791012E-1,2.8443336E-3,5.9712455E-3,5.4743234E-3,8.490498E-3,1.7240405E-2,1.8812895E-2,3.4914732E-2,1.2242079E-2,4.247308E-3,0E0,1.4124941E-3,8.133121E-3,1.3484783E-2,9.815097E-3,9.363872E-3,1.2652192E-2,1.1812262E-2,2.053535E-2,1.0215342E-2,1.601398E-2,1.1249661E-2,1.6945124E-2,1.1169672E-2,5.8189034E-4,1.2089439E-2,1.0857582E-3,0E0,0E0,8.728926E-3,9.306632E-3,7.909298E-3,1.2464197E-2,4.8159957E-3,8.502597E-3,1.9587763E-2,1.5180244E-2,1.3845542E-2,7.87506E-3,1.635629E-2,1.9616695E-2,1.3836615E-2,1.4074609E-2,1.9448072E-2,1.0244623E-2,1.3311923E-2,2.9463738E-2,1.3325095E-2,1.1455841E-2,2.0006418E-2,1.0395274E-2,2.8146744E-2,1.5544653E-2,1.4090836E-3,0E0,0E0,0E0,0E0,0E0,0E0,0E0,0E0,0E0,0E0,0E0,0E0,0E0,0E0,0E0,0E0,0E0,0E0,0E0,0E0,0E0,0E0,0E0,0E0,0E0,0E0,0E0,0E0,0E0,0E0,0E0,0E0,0E0,0E0,0E0,0E0,0E0,0E0,0E0,0E0,0E0,0E0,0E0,0E0,0E0,0E0,0E0,0E0,0E0,0E0,0E0,0E0,0E0,0E0,0E0],"parents":[2147483647,0,0,1,1,2,2,3,3,4,4,5,5,6,6,7,7,8,8,9,9,10,10,11,11,12,12,13,13,14,14,15,15,17,17,18,18,19,19,20,20,21,21,22,22,23,23,24,24,25,25,26,26,27,27,28,28,29,29,30,30,31,31,32,32,35,35,36,36,37,37,38,38,39,39,40,40,41,41,42,42,43,43,44,44,45,45,46,46,47,47,48,48,49,49,50,50,51,51,52,52,53,53,54,54,55,55,56,56,57,57,58,58,59,59],"right_children":[2,4,6,8,10,12,14,16,18,20,22,24,26,28,30,32,-1,34,36,38,40,42,44,46,48,50,52,54,56,58,60,62,64,-1,-1,66,68,70,72,74,76,78,80,82,84,86,88,90,92,94,96,98,100,102,104,