{"learner":{"attributes":{"scikit_learn":"{\"_estimator_type\": \"regressor\"}"},"feature_names":[],"feature_types":[],"gradient_booster":{"model":{"cats":{"enc":[],"feature_segments":[],"sorted_idx":[]},"gbtree_model_param":{"num_parallel_tree":"1","num_trees":"100"},"iteration_indptr":[0,1,2,3,4,5,6,7,8,9,10,11,12,13,14,15,16,17,18,19,20,21,22,23,24,25,26,27,28,29,30,31,32,33,34,35,36,37,38,39,40,41,42,43,44,45,46,47,48,49,50,51,52,53,54,55,56,57,58,59,60,61,62,63,64,65,66,67,68,69,70,71,72,73,74,75,76,77,78,79,80,81,82,83,84,85,86,87,88,89,90,91,92,93,94,95,96,97,98,99,100],"tree_info":[0,0,0,0,0,0,0,0,0,0,0,0,0,0,0,0,0,0,0,0,0,0,0,0,0,0,0,0,0,0,0,0,0,0,0,0,0,0,0,0,0,0,0,0,0,0,0,0,0,0,0,0,0,0,0,0,0,0,0,0,0,0,0,0,0,0,0,0,0,0,0,0,0,0,0,0,0,0,0,0,0,0,0,0,0,0,0,0,0,0,0,0,0,0,0,0,0,0,0,0],"trees":[{"base_weights":[-3.8116426E-9,-1.0438011E-1,2.421931E-1,-1.2496834E-1,1.2059236E-2,1.6062854E-1,3.3987883E-1,-1.2849608E-1,-7.517333E-2,-1.7779835E-2,4.392647E-2,1.2298711E-1,2.0578136E-1,2.9405382E-1,4.0747678E-1,-1.2962392E-1,-1.1305338E-1,-7.764877E-2,-4.3253344E-2,-3.6388587E-2,-7.206619E-3,3.1332046E-2,5.4537546E-2,1.0457106E-1,1.514216E-1,1.8845546E-1,2.2078916E-1,2.8243777E-1,3.4104638E-2,3.7475538E-2,4.487763E-2,-6.512709E-2,-1.2967082E-2,-5.9740397E-4,-1.1338164E-1,-7.8933336E-2,-1.4072278E-2,-6.798103E-3,-1.8968662E-2,-4.3035075E-2,-2.3973083E-2,-1.3762549E-2,6.4166943E-3,3.3255596E-2,-4.572096E-2,6.133463E-2,3.6336314E-2,8.256585E-2,1.1306814E-1,1.3270137E-2,1.5236777E-1,8.489439E-2,1.8926185E-1,1.1795266E-2,2.2241479E-2,2.5197018E-2,2.8833164E-2,-1.9731706E-3,-7.154301E-3,-5.2307304E-3,-1.1401319E-2,-2.802497E-3,-8.0297515E-3,4.2740465E-3,-4.5345468E-3,-3.6126412E-3,9.929409E-4,-3.2971154E-3,-6.0290173E-3,-1.089429E-3,-3.2500082E-3,-2.2460024E-4,-2.682401E-3,-4.3875207E-3,1.5361181E-3,2.8586888E-3,5.301205E-3,1.1002397E-3,-8.720401E-3,3.1018388E-3,7.067628E-3,4.742328E-3,-9.100974E-4,8.497378E-3,-4.4483324E-3,5.4806243E-3,1.1460765E-2,-3.0812097E-3,5.0717304E-3,1.5456261E-2,1.1632613E-2,1.1634967E-2,-4.7357156E-4,1.9076211E-2,1.2289179E-2],"categories":[],"categories_nodes":[],"categories_segments":[],"categories_sizes":[],"default_left":[0,0,0,0,0,0,0,0,0,0,0,0,0,0,0,0,0,0,0,0,0,0,0,0,0,0,0,0,0,0,0,0,0,0,0,0,0,0,0,0,0,0,0,0,0,0,0,0,0,0,0,0,0,0,0,0,0,0,0,0,0,0,0,0,0,0,0,0,0,0,0,0,0,0,0,0,0,0,0,0,0,0,0,0,0,0,0,0,0,0,0,0,0,0,0],"id":0,"left_children":[1,3,5,7,9,11,13,15,17,19,21,23,25,27,29,31,33,35,37,39,41,43,45,47,49,51,53,55,-1,-1,-1,57,-1,-1,59,61,63,-1,65,67,69,71,73,75,77,79,81,83,85,87,89,91,93,-1,-1,-1,-1,-1,-1,-1,-1,-1,-1,-1,-1,-1,-1,-1,-1,-1,-1,-1,-1,-1,-1,-1,-1,-1,-1,-1,-1,-1,-1,-1,-1,-1,-1,-1,-1,-1,-1,-1,-1,-1,-1],"loss_changes":[2.0178609E2,1.3373531E1,1.9099747E1,8.2299805E-1,7.9857665E-1,2.204586E0,3.265953E0,6.2408447E-2,2.1610498E-2,8.512916E-2,5.2549183E-2,3.6014557E-1,1.1310768E-1,2.6121902E-1,4.2507172E-1,4.005432E-3,1.0184288E-2,2.2736311E-2,1.372309E-2,1.1923879E-2,2.491746E-2,2.9384926E-2,2.4864972E-2,7.274914E-2,3.4577847E-2,7.566452E-3,2.6090622E-2,2.2705078E-2,0E0,0E0,0E0,4.4601038E-5,0E0,0E0,5.9161186E-3,1.7611861E-2,1.4375096E-2,0E0,7.3002777E-3,1.5551209E-2,6.0027353E-3,2.8219268E-2,4.160898E-2,1.545617E-2,1.27247395E-2,4.255396E-2,3.1664826E-2,4.232639E-2,2.188301E-2,6.5149707E-3,4.012108E-3,1.1828357E-2,4.436493E-3,0E0,0E0,0E0,0E0,0E0,0E0,0E0,0E0,0E0,0E0,0E0,0E0,0E0,0E0,0E0,0E0,0E0,0E0,0E0,0E0,0E0,0E0,0E0,0E0,0E0,0E0,0E0,0E0,0E0,0E0,0E0,0E0,0E0,0E0,0E0,0E0,0E0,0E0,0E0,0E0,0E0,0E0],"parents":[2147483647,0,0,1,1,2,2,3,3,4,4,5,5,6,6,7,7,8,8,9,9,10,10,11,11,12,12,13,13,14,14,15,15,16,16,17,17,18,18,19,19,20,20,21,21,22,22,23,23,24,24,25,25,26,26,27,27,31,31,34,34,35,35,36,36,38,38,39,39,40,40,41,41,42,42,43,43,44,44,45,45,46,46,47,47,48,48,49,49,50,50,51,51,52,52],"right_children":[2,4,6,8,10,12,14,16,18,20,22,24,26,28,30,32,34,36,38,40,42,44,46,48,50,52,54,56,-1,-1,-1,58,-1,-1,60,62,64,-1,66,68,70,72,74,76,78,80,82,84,86,88,90,92,94,-1,-1,-1,-1,-1,-1,-1,-1,-1,-1,-1,-1,-1,-1,-1,-1,-1,-1,-1,-1,-1,-1,-1,-1,-1,-1,-1,-1,-1,-1,-1,-1,-1,-1,-1,-1,-1,-1,-1,-1,-1,-1],"split_conditions":[1.9718836E-1,6.640647E-2,3.7035602E-1,1.6015053E-2,1.3826625E-1,2.9442346E-1,4.700253E-1,2.1196455E-3,7.1295685E-1,9.559931E-2,1.6734637E-1,2.5721562E-1,3.3057535E-1,4.4910628E-1,5.247702E-1,3.847743E-1,2.1781623E-3,6.348911E-1,3.9247468E-2,6.1559886E-1,1.2421201E-1,7.866251E-1,6.192624E-1,2.1753292E-1,1.1142061E-2,5.5710305E-3,1.7938656E-1,3.8668275E-1,3.4104638E-2,3.7475538E-2,4.487763E-2,-4.053265E-4,-1.2967082E-2,-5.9740397E-4,3.4010294E-1,1.9498607E-2,6.400122E-1,-6.798103E-3,1.0913422E-1,4.1225627E-1,7.3537606E-1,4.3129793E-1,1.9614134E-2,7.7437323E-1,4.4879578E-2,3.205154E-1,4.03507E-1,5.7048273E-1,2.2284122E-2,2.6044893E-1,4.689099E-1,3.1480128E-1,4.7486976E-1,1.1795266E-2,2.2241479E-2,2.5197018E-2,2.8833164E-2,-1.9731706E-3,-7.154301E-3,-5.2307304E-3,-1.1401319E-2,-2.802497E-3,-8.0297515E-3,4.2740465E-3,-4.5345468E-3,-3.6126412E-3,9.929409E-4,-3.2971154E-3,-6.0290173E-3,-1.089429E-3,-3.2500082E-3,-2.2460024E-4,-2.682401E-3,-4.3875207E-3,1.5361181E-3,2.8586888E-3,5.301205E-3,1.1002397E-3,-8.720401E-3,3.1018388E-3,7.067628E-3,4.742328E-3,-9.100974E-4,8.497378E-3,-4.4483324E-3,5.4806243E-3,1.1460765E-2,-3.0812097E-3,5.0717304E-3,1.5456261E-2,1.1632613E-2,1.1634967E-2,-4.7357156E-4,1.9076211E-2,1.2289179E-2],"split_indices":[0,0,0,0,0,0,0,0,2,0,0,0,0,0,0,1,3,1,0,4,0,2,2,0,4,4,2,0,0,0,0,0,0,0,1,4,1,0,3,4,4,1,3,4,3,2,1,1,4,0,1,0,1,0,0,0,0,0,0,0,0,0,0,0,0,0,0,0,0,0,0,0,0,0,0,0,0,0,0,0,0,0,0,0,0,0,0,0,0,0,0,0,0,0,0],"split_type":[0,0,0,0,0,0,0,0,0,0,0,0,0,0,0,0,0,0,0,0,0,0,0,0,0,0,0,0,0,0,0,0,0,0,0,0,0,0,0,0,0,0,0,0,0,0,0,0,0,0,0,0,0,0,0,0,0,0,0,0,0,0,0,0,0,0,0,0,0,0,0,0,0,0,0,0,0,0,0,0,0,0,0,0,0,0,0,0,0,0,0,0,0,0,0],"sum_hessian":[7.98E3,5.577E3,2.403E3,4.739E3,8.38E2,1.311E3,1.092E3,4.424E3,3.15E2,4.33E2,4.05E2,7.17E2,5.94E2,6.54E2,4.38E2,4.116E3,3.08E2,2.91E2,2.4E1,1.56E2,2.77E2,1.87E2,2.18E2,4.38E2,2.79E2,2.82E2,3.12E2,5.3E2,1.24E2,2.5E2,1.88E2,4E0,4.112E3,1E0,3.07E2,2.85E2,6E0,1.1E1,1.3E1,1E2,5.6E1,1.87E2,9E1,1.83E2,4E0,1.57E2,6.1E1,1.25E2,3.13E2,2E0,2.77E2,3E0,2.79E2,6E0,3.06E2,9.3E1,4.37E2,1E0,3E0,4E0,3.03E2,8E0,2.77E2,2E0,4E0,8E0,5E0,6.5E1,3.5E1,2.3E1,3.3E1,1E2,8.7E1,1.3E1,7.7E1,1.5E2,3.3E1,2E0,2E0,3.8E1,1.19E2,4.9E1,1.2E1,1.23E2,2E0,9E0,3.04E2,1E0,1E0,2.58E2,1.9E1,2E0,1E0,2.71E2,8E0],"tree_param":{"num_deleted":"0","num_feature":"6","num_nodes":"95","size_leaf_vector":"1"}},{"base_weights":[2.9115821E-5,-9.569264E-2,2.1414152E-1,-1.1248413E-1,6.865097E-3,1.4087604E-1,3.0604693E-1,-1.1565536E-1,-6.7720905E-2,-1.6046604E-2,3.5751183E-2,1.067836E-1,1.853319E-1,2.64783E-1,3.669167E-1,-1.1650405E-1,-9.8823935E-2,-6.992188E-2,-3.9304722E-2,-3.283677E-2,-6.506667E-3,4.183237E-2,1.5489646E-2,9.002771E-2,1.363833E-1,1.6976018E-1,1.98819E-1,2.5429574E-1,3.0721456E-1,3.3742912E-2,4.041361E-2,-7.211836E-2,-1.1657144E-2,-5.6753383E-4,-9.9225186E-2,-7.1077876E-2,-1.2702265E-2,-6.1749432E-2,-1.7258918E-2,-3.0698657E-2,-7.4267946E-2,-1.3274661E-2,4.944348E-3,3.3804055E-2,5.9874937E-2,-1.3170907E-2,2.9277742E-2,6.98611E-2,1.0181528E-1,1.2606628E-2,1.3722843E-1,1.70089E-1,3.8514882E-3,1.0784242E-2,2.0024577E-1,2.2704123E-2,2.5956431E-2,8.902225E-3,3.0825628E-2,-9.235929E-4,-8.876535E-3,-9.226003E-3,-1.10086845E-2,-2.0690188E-4,-7.180211E-3,3.9891107E-3,-4.1717836E-3,-6.8370565E-3,-3.1414533E-3,-4.297163E-3,1.800543E-4,-3.238206E-3,1.5380564E-3,-8.356429E-3,-9.24496E-4,9.4700203E-4,-1.9028474E-3,-2.3042444E-4,3.7493536E-3,1.2926474E-3,4.0035113E-3,4.7540893E-3,8.837493E-3,-2.910685E-3,2.1935075E-3,3.7325707E-3,-2.2669758E-3,2.0611368E-3,7.3101926E-3,4.9873684E-3,1.0318446E-2,-2.9271494E-3,4.818144E-3,5.878722E-3,1.3787039E-2,7.91953E-3,1.707825E-2,1.1083587E-2,2.010603E-2],"categories":[],"categories_nodes":[],"categories_segments":[],"categories_sizes":[],"default_left":[0,0,0,0,0,0,0,0,0,0,0,0,0,0,0,0,0,0,0,0,0,0,0,0,0,0,0,0,0,0,0,0,0,0,0,0,0,0,0,0,0,0,0,0,0,0,0,0,0,0,0,0,0,0,0,0,0,0,0,0,0,0,0,0,0,0,0,0,0,0,0,0,0,0,0,0,0,0,0,0,0,0,0,0,0,0,0,0,0,0,0,0,0,0,0,0,0,0,0],"id":1,"left_children":[1,3,5,7,9,11,13,15,17,19,21,23,25,27,29,31,33,35,37,39,41,43,45,47,49,51,53,55,57,-1,-1,59,-1,-1,61,63,65,67,69,71,73,75,77,79,81,83,85,87,89,91,93,95,-1,-1,97,-1,-1,-1,-1,-1,-1,-1,-1,-1,-1,-1,-1,-1,-1,-1,-1,-1,-1,-1,-1,-1,-1,-1,-1,-1,-1,-1,-1,-1,-1,-1,-1,-1,-1,-1,-1,-1,-1,-1,-1,-1,-1,-1,-1],"loss_changes":[1.635928E2,9.499863E0,1.6561684E1,6.6503143E-1,5.148151E-1,2.0626545E0,2.6481628E0,5.1692963E-2,1.7015457E-2,6.930321E-2,4.1737735E-2,3.7457752E-1,9.1207504E-2,2.1334839E-1,3.454399E-1,4.180908E-3,7.622242E-3,1.8411636E-2,1.1304561E-2,1.1627838E-2,2.1610744E-2,3.6216766E-2,3.2394744E-2,1.11982346E-1,2.7560234E-2,5.662918E-3,1.9033432E-2,1.731491E-2,9.689331E-4,0E0,0E0,8.601401E-3,0E0,0E0,6.3357353E-3,1.4145374E-2,1.2346356E-2,2.6239082E-4,6.938357E-3,1.2211114E-2,3.4587793E-3,2.3082215E-2,2.4623718E-2,2.354902E-2,2.3920178E-2,1.5743528E-2,2.3840107E-2,2.8499901E-2,1.7184496E-2,5.8797617E-3,5.8932304E-3,4.2505264E-3,0E0,0E0,7.343292E-5,0E0,0E0,0E0,0E0,0E0,0E0,0E0,0E0,0E0,0E0,0E0,0E0,0E0,0E0,0E0,0E0,0E0,0E0,0E0,0E0,0E0,0E0,0E0,0E0,0E0,0E0,0E0,0E0,0E0,0E0,0E0,0E0,0E0,0E0,0E0,0E0,0E0,0E0,0E0,0E0,0E0,0E0,0E0,0E0],"parents":[2147483647,0,0,1,1,2,2,3,3,4,4,5,5,6,6,7,7,8,8,9,9,10,10,11,11,12,12,13,13,14,14,15,15,16,16,17,17,18,18,19,19,20,20,21,21,22,22,23,23,24,24,25,25,26,26,27,27,28,28,31,31,34,34,35,35,36,36,37,37,38,38,39,39,40,40,41,41,42,42,43,43,44,44,45,45,46,46,47,47,48,48,49,49,50,50,51,51,54,54],"right_children":[2,4,6,8,10,12,14,16,18,20,22,24,26,28,30,32,34,36,38,40,42,44,46,48,50,52,54,56,58,-1,-1,60,-1,-1,62,64,66,68,70,72,74,76,78,80,82,84,86,88,90,92,94,96,-1,-1,98,-1,-1,-1,-1,-1,-1,-1,-1,-1,-1,-1,-1,-1,-1,-1,-1,-1,-1,-1,-1,-1,-1,-1,-1,-1,-1,-1,-1,-1,-1,-1,-1,-1,-1,-1,-1,-1,-1,-1,-1,-1,-1,-1,-1],"split_conditions":[1.8846853E-1,6.640647E-2,3.7035602E-1,1.6015053E-2,1.3826625E-1,2.9442346E-1,4.700253E-1,3.6567003E-3,7.1295685E-1,9.559931E-2,6.3724947E-1,2.5721562E-1,3.3057535E-1,4.4910628E-1,5.247702E-1,3.933293E-1,2.1781623E-3,6.348911E-1,3.9247468E-2,5.818402E-1,1.2659955E-1,5.106838E-1,6.6695035E-1,2.1753292E-1,1.1142061E-2,8.2618326E-1,1.7938656E-1,3.8668275E-1,7.00448E-4,3.3742912E-2,4.041361E-2,3.3426184E-2,-1.1657144E-2,-5.6753383E-4,1.3113272E-1,1.1142061E-2,6.400122E-1,1.4240254E-1,2.562674E-1,5.643658E-1,6.656598E-1,3.6091664E-1,4.6158677E-1,1.476673E-1,7.130919E-1,4.1606742E-1,7.9361653E-1,2.2495528E-1,2.2284122E-2,2.6044893E-1,1.5220192E-3,5.5710305E-3,3.8514882E-3,1.0784242E-2,1.02204874E-1,2.2704123E-2,2.5956431E-2,8.902225E-3,3.0825628E-2,-9.235929E-4,-8.876535E-3,-9.226003E-3,-1.10086845E-2,-2.0690188E-4,-7.180211E-3,3.9891107E-3,-4.1717836E-3,-6.8370565E-3,-3.1414533E-3,-4.297163E-3,1.800543E-4,-3.238206E-3,1.5380564E-3,-8.356429E-3,-9.24496E-4,9.4700203E-4,-1.9028474E-3,-2.3042444E-4,3.7493536E-3,1.2926474E-3,4.0035113E-3,4.7540893E-3,8.837493E-3,-2.910685E-3,2.1935075E-3,3.7325707E-3,-2.2669758E-3,2.0611368E-3,7.3101926E-3,4.9873684E-3,1.0318446E-2,-2.9271494E-3,4.818144E-3,5.878722E-3,1.3787039E-2,7.91953E-3,1.707825E-2,1.1083587E-2,2.010603E-2],"split_indices":[0,0,0,0,0,0,0,0,2,0,2,0,0,0,0,1,3,1,0,1,3,2,2,0,4,2,2,0,3,0,0,4,0,0,3,4,1,3,4,1,1,1,1,0,4,1,2,2,4,0,3,4,0,0,1,0,0,0,0,0,0,0,0,0,0,0,0,0,0,0,0,0,0,0,0,0,0,0,0,0,0,0,0,0,0,0,0,0,0,0,0,0,0,0,0,0,0,0,0],"split_type":[0,0,0,0,0,0,0,0,0,0,0,0,0,0,0,0,0,0,0,0,0,0,0,0,0,0,0,0,0,0,0,0,0,0,0,0,0,0,0,0,0,0,0,0,0,0,0,0,0,0,0,0,0,0,0,0,0,0,0,0,0,0,0,0,0,0,0,0,0,0,0,0,0,0,0,0,0,0,0,0,0,0,0,0,0,0,0,0,0,0,0,0,0,0,0,0,0,0,0],"sum_hessian":[7.98E3,5.515E3,2.465E3,4.739E3,7.76E2,1.373E3,1.092E3,4.424E3,3.15E2,4.33E2,3.43E2,7.79E2,5.94E2,6.54E2,4.38E2,4.206E3,2.18E2,2.91E2,2.4E1,1.56E2,2.77E2,2.63E2,8E1,5E2,2.79E2,2.82E2,3.12E2,5.3E2,1.24E2,2.5E2,1.88E2,8E0,4.198E3,1E0,2.17E2,2.85E2,6E0,1.1E1,1.3E1,1.5E2,6E0,1.74E2,1.03E2,1.84E2,7.9E1,2.6E1,5.4E1,1.87E2,3.13E2,2E0,2.77E2,2.81E2,1E0,6E0,3.06E2,9.3E1,4.37E2,1E0,1.23E2,2E0,6E0,1.38E2,7.9E1,3E0,2.82E2,2E0,4E0,8E0,3E0,5E0,8E0,1.45E2,5E0,5E0,1E0,3.5E1,1.39E2,8.5E1,1.8E1,4.3E1,1.41E2,5.7E1,2.2E1,1.8E1,8E0,4.7E1,7E0,1.2E1,1.75E2,9E0,3.04E2,1E0,1E0,3E0,2.74E2,3E0,2.78E2,4E0,3.02E2],"tree_param":{"num_deleted":"0","num_feature":"6","num_nodes":"99","size_leaf_vector":"1"}},{"base_weights":[5.4631957E-5,-8.457774E-2,1.9642705E-1,-1.012492E-1,9.70991E-3,1.3032755E-1,2.7559093E-1,-1.0409938E-1,-6.1017375E-2,-1.4461338E-2,3.5524223E-2,9.9824086E-2,1.6691774E-1,2.4843848E-1,3.524286E-1,-1.0501789E-1,-9.152454E-2,-9.079027E-3,-5.8590185E-2,-2.9623035E-2,-5.846778E-3,2.501961E-2,4.4379674E-2,8.492834E-2,1.22821964E-1,1.5631673E-1,1.8415059E-1,2.289578E-1,2.843666E-2,3.2980204E-2,3.7762493E-2,-5.4929238E-2,-1.0505325E-2,-5.391568E-4,-9.178669E-2,-6.0593493E-2,-2.8015029E-2,-2.764005E-2,-6.816699E-2,-1.17027145E-2,6.3154516E-3,2.6673822E-2,-4.085932E-2,1.5062867E-2,4.7412954E-2,6.74225E-2,9.16825E-2,1.1976297E-2,1.23576336E-1,1.5735064E-1,9.67874E-2,6.3792706E-2,1.8495847E-1,2.0457862E-2,2.3366712E-2,-2.4347797E-3,-6.7200935E-3,-7.099498E-3,-9.361231E-3,-6.164295E-3,-1.1458136E-3,-4.162184E-3,1.0671163E-3,-2.8696014E-3,3.4019512E-3,-7.660059E-3,-8.782711E-4,-1.580355E-4,-2.3187436E-3,-4.027443E-3,1.3902199E-3,4.0687127E-3,2.1569354E-3,1.1780218E-3,-7.987908E-3,2.969971E-3,-4.0642344E-3,5.5650645E-3,2.9295757E-3,5.258949E-3,9.043055E-3,1.0903931E-2,8.732417E-3,-2.780792E-3,4.5772367E-3,1.3014843E-2,1.1077032E-2,1.0248016E-2,1.584438E-2,1.0890807E-2,3.6243366E-3,1.40801E-3,8.160896E-3,8.676574E-3,1.8592058E-2],"categories":[],"categories_nodes":[],"categories_segments":[],"categories_sizes":[],"default_left":[0,0,0,0,0,0,0,0,0,0,0,0,0,0,0,0,0,0,0,0,0,0,0,0,0,0,0,0,0,0,0,0,0,0,0,0,0,0,0,0,0,0,0,0,0,0,0,0,0,0,0,0,0,0,0,0,0,0,0,0,0,0,0,0,0,0,0,0,0,0,0,0,0,0,0,0,0,0,0,0,0,0,0,0,0,0,0,0,0,0,0,0,0,0,0],"id":2,"left_children":[1,3,5,7,9,11,13,15,17,19,21,23,25,27,29,31,33,-1,35,37,39,41,43,45,47,49,51,53,-1,-1,-1,55,-1,-1,57,59,61,63,65,67,69,71,73,75,77,79,81,83,85,87,89,91,93,-1,-1,-1,-1,-1,-1,-1,-1,-1,-1,-1,-1,-1,-1,-1,-1,-1,-1,-1,-1,-1,-1,-1,-1,-1,-1,-1,-1,-1,-1,-1,-1,-1,-1,-1,-1,-1,-1,-1,-1,-1,-1],"loss_changes":[1.3265654E2,8.769115E0,1.254348E1,5.371704E-1,5.240197E-1,1.4476986E0,2.1928024E0,4.150009E-2,1.7516255E-2,5.651214E-2,3.6656976E-2,2.3553371E-1,7.991028E-2,5.025139E-1,3.679657E-2,1.5220642E-3,6.4823627E-3,0E0,1.6371608E-2,1.0115683E-2,1.9873414E-2,2.1577694E-2,1.8760651E-2,4.572487E-2,2.1933556E-2,7.851601E-3,9.689331E-3,1.3162613E-2,0E0,0E0,0E0,2.4023559E-4,0E0,0E0,5.0446987E-3,1.3525844E-2,1.0972066E-2,1.0807879E-2,2.8329976E-3,2.1818822E-2,3.2725275E-2,1.2284026E-2,1.12109035E-2,1.914473E-2,2.7919978E-2,3.824544E-2,1.4231443E-2,5.3064846E-3,8.980274E-3,5.7764053E-3,2.6573166E-3,1.5080152E-3,4.5576096E-3,0E0,0E0,0E0,0E0,0E0,0E0,0E0,0E0,0E0,0E0,0E0,0E0,0E0,0E0,0E0,0E0,0E0,0E0,0E0,0E0,0E0,0E0,0E0,0E0,0E0,0E0,0E0,0E0,0E0,0E0,0E0,0E0,0E0,0E0,0E0,0E0,0E0,0E0,0E0,0E0,0E0,0E0],"parents":[2147483647,0,0,1,1,2,2,3,3,4,4,5,5,6,6,7,7,8,8,9,9,10,10,11,11,12,12,13,13,14,14,15,15,16,16,18,18,19,19,20,20,21,21,22,22,23,23,24,24,25,25,26,26,27,27,31,31,34,34,35,35,36,36,37,37,38,38,39,39,40,40,41,41,42,42,43,43,44,44,45,45,46,46,47,47,48,48,49,49,50,50,51,51,52,52],"right_children":[2,4,6,8,10,12,14,16,18,20,22,24,26,28,30,32,34,-1,36,38,40,42,44,46,48,50,52,54,-1,-1,-1,56,-1,-1,58,60,62,64,66,68,70,72,74,76,78,80,82,84,86,88,90,92,94,-1,-1,-1,-1,-1,-1,-1,-1,-1,-1,-1,-1,-1,-1,-1,-1,-1,-1,-1,-1,-1,-1,-1,-1,-1,-1,-1,-1,-1,-1,-1,-1,-1,-1,-1,-1,-1,-1,-1,-1,-1,-1],"split_conditions":[1.9718836E-1,6.640647E-2,3.7035602E-1,1.6015053E-2,1.3826625E-1,2.9442346E-1,5.008839E-1,2.1196455E-3,3.4010294E-1,9.559931E-2,1.6734637E-1,2.5721562E-1,3.420859E-1,4.4910628E-1,5.438202E-1,3.847743E-1,2.1781623E-3,-9.079027E-3,7.195843E-1,5.818402E-1,1.2421201E-1,7.866251E-1,2.4693376E-1,2.1753292E-1,1.1142061E-2,4.7486976E-1,7.00448E-4,3.8668275E-1,2.843666E-2,3.2980204E-2,3.7762493E-2,3.2190979E-4,-1.0505325E-2,-5.391568E-4,1.0306407E-1,6.348911E-1,1.4240254E-1,5.768085E-1,6.656598E-1,4.3129793E-1,1.8582216E-2,3.7422005E-2,4.4879578E-2,1.9382435E-1,6.148251E-1,1.14574336E-1,3.353313E-1,2.6044893E-1,6.7409474E-1,2.7855154E-2,8.523677E-1,3.5041517E-1,1.7938656E-1,2.0457862E-2,2.3366712E-2,-2.4347797E-3,-6.7200935E-3,-7.099498E-3,-9.361231E-3,-6.164295E-3,-1.1458136E-3,-4.162184E-3,1.0671163E-3,-2.8696014E-3,3.4019512E-3,-7.660059E-3,-8.782711E-4,-1.580355E-4,-2.3187436E-3,-4.027443E-3,1.3902199E-3,4.0687127E-3,2.1569354E-3,1.1780218E-3,-7.987908E-3,2.969971E-3,-4.0642344E-3,5.5650645E-3,2.9295757E-3,5.258949E-3,9.043055E-3,1.0903931E-2,8.732417E-3,-2.780792E-3,4.5772367E-3,1.3014843E-2,1.1077032E-2,1.0248016E-2,1.584438E-2,1.0890807E-2,3.6243366E-3,1.40801E-3,8.160896E-3,8.676574E-3,1.8592058E-2],"split_indices":[0,0,0,0,0,0,0,0,1,0,0,0,0,0,0,1,3,0,2,1,0,2,2,0,4,1,3,0,0,0,0,0,0,0,4,1,3,1,1,1,3,3,3,3,2,3,2,0,4,4,4,0,2,0,0,0,0,0,0,0,0,0,0,0,0,0,0,0,0,0,0,0,0,0,0,0,0,0,0,0,0,0,0,0,0,0,0,0,0,0,0,0,0,0,0],"split_type":[0,0,0,0,0,0,0,0,0,0,0,0,0,0,0,0,0,0,0,0,0,0,0,0,0,0,0,0,0,0,0,0,0,0,0,0,0,0,0,0,0,0,0,0,0,0,0,0,0,0,0,0,0,0,0,0,0,0,0,0,0,0,0,0,0,0,0,0,0,0,0,0,0,0,0,0,0,0,0,0,0,0,0,0,0,0,0,0,0,0,0,0,0,0,0],"sum_hessian":[7.98E3,5.577E3,2.403E3,4.739E3,8.38E2,1.311E3,1.092E3,4.424E3,3.15E2,4.33E2,4.05E2,7.17E2,5.94E2,8.1E2,2.82E2,4.116E3,3.08E2,2.1E1,2.94E2,1.56E2,2.77E2,1.87E2,2.18E2,4.38E2,2.79E2,3.74E2,2.2E2,5.3E2,2.8E2,1.56E2,1.26E2,4E0,4.112E3,1E0,3.07E2,2.75E2,1.9E1,1.5E2,6E0,1.87E2,9E1,1.83E2,4E0,2.1E1,1.97E2,1.25E2,3.13E2,2E0,2.77E2,3.66E2,8E0,2E0,2.18E2,9.3E1,4.37E2,2E0,2E0,2.8E1,2.79E2,2.69E2,6E0,1.4E1,5E0,1.48E2,2E0,5E0,1E0,1E2,8.7E1,1.2E1,7.8E1,4.7E1,1.36E2,2E0,2E0,1.7E1,4E0,1.34E2,6.3E1,7.8E1,4.7E1,5.8E1,2.55E2,1E0,1E0,1.77E2,1E2,9E0,3.57E2,6E0,2E0,1E0,1E0,3E0,2.15E2],"tree_param":{"num_deleted":"0","num_feature":"6","num_nodes":"95","size_leaf_vector":"1"}},{"base_weights":[7.646246E-5,-7.754157E-2,1.7369404E-1,-9.113613E-2,5.490305E-3,1.12800546E-1,2.4629751E-1,-9.369773E-2,-5.4977294E-2,-1.795441E-2,2.4060562E-2,7.644006E-2,1.3886732E-1,2.2209512E-1,3.1743568E-1,-9.4388716E-2,-7.9995856E-2,-8.212392E-2,-5.276644E-2,-2.6711727E-2,-1.0545616E-2,1.028543E-2,3.1753495E-2,5.7019666E-2,8.594696E-2,1.15202375E-1,1.5193662E-1,2.0473193E-1,2.5603116E-2,2.9703189E-2,3.401598E-2,-9.066858E-2,-9.508526E-3,-7.361098E-2,-9.016945E-2,-3.3821024E-3,-8.5263155E-2,-5.4560628E-2,-2.5368279E-2,-3.269749E-2,-1.5636744E-2,-1.423878E-3,-2.0895047E-2,1.36061935E-2,-3.9890412E-2,3.836929E-2,1.1546989E-2,1.1560983E-1,5.4452904E-2,2.891642E-2,8.742616E-2,1.1793869E-1,8.2355514E-2,1.4437462E-1,1.6351475E-1,1.833952E-2,2.1035375E-2,-2.1023324E-3,-9.073967E-3,-1.3904127E-3,-7.526483E-3,-9.074857E-3,-2.220949E-3,-8.879994E-3,-3.5621435E-3,-5.550149E-3,-1.047601E-3,4.7010306E-4,-4.1921064E-3,-2.3815613E-3,-4.8072673E-3,-7.160394E-4,-2.6200057E-3,1.0073581E-3,-1.2451744E-3,-2.4719443E-3,2.0438854E-3,7.886246E-4,2.7390108E-3,-1.2657382E-4,-5.6263027E-3,2.5187912E-3,4.7935583E-3,-2.2933935E-3,2.6792565E-3,1.2362229E-2,3.3767545E-3,1.4226498E-3,5.720873E-3,7.615957E-3,1.680295E-4,9.410617E-3,7.221836E-3,1.2048291E-2,7.732229E-3,8.975229E-3,-4.758355E-3,8.236674E-3,1.4553151E-2,3.4900457E-3,1.6469734E-2],"categories":[],"categories_nodes":[],"categories_segments":[],"categories_sizes":[],"default_left":[0,0,0,0,0,0,0,0,0,0,0,0,0,0,0,0,0,0,0,0,0,0,0,0,0,0,0,0,0,0,0,0,0,0,0,0,0,0,0,0,0,0,0,0,0,0,0,0,0,0,0,0,0,0,0,0,0,0,0,0,0,0,0,0,0,0,0,0,0,0,0,0,0,0,0,0,0,0,0,0,0,0,0,0,0,0,0,0,0,0,0,0,0,0,0,0,0,0,0,0,0],"id":3,"left_children":[1,3,5,7,9,11,13,15,17,19,21,23,25,27,29,31,33,35,37,39,41,43,45,47,49,51,53,55,-1,-1,-1,57,-1,59,61,-1,63,65,67,69,71,73,75,77,79,81,83,85,87,89,91,93,95,97,99,-1,-1,-1,-1,-1,-1,-1,-1,-1,-1,-1,-1,-1,-1,-1,-1,-1,-1,-1,-1,-1,-1,-1,-1,-1,-1,-1,-1,-1,-1,-1,-1,-1,-1,-1,-1,-1,-1,-1,-1,-1,-1,-1,-1,-1,-1],"loss_changes":[1.0756427E2,6.22686E0,1.0874596E1,4.338913E-1,3.3871788E-1,1.2622795E0,1.8647003E0,3.434372E-2,1.4632046E-2,2.2037417E-2,4.5664877E-2,9.90448E-2,2.2404766E-1,4.4372177E-1,3.017807E-2,2.281189E-3,7.5882673E-3,4.5226514E-4,1.3117373E-2,9.896599E-3,1.771835E-2,2.6702428E-2,3.6720604E-2,2.1977484E-2,2.9191256E-2,1.5632868E-2,2.0170212E-2,2.883339E-2,0E0,0E0,0E0,1.4834404E-3,0E0,1.2777925E-2,1.1330247E-3,0E0,3.4825504E-4,1.0866344E-2,1.0151687E-2,1.2647733E-2,4.916084E-3,1.293147E-2,1.4416032E-2,1.1452798E-2,6.252654E-3,2.5146842E-2,3.7412167E-2,4.158914E-4,1.9362152E-2,1.4025953E-2,3.0385017E-2,1.734519E-2,2.8298989E-2,1.0322571E-2,2.3150444E-2,0E0,0E0,0E0,0E0,0E0,0E0,0E0,0E0,0E0,0E0,0E0,0E0,0E0,0E0,0E0,0E0,0E0,0E0,0E0,0E0,0E0,0E0,0E0,0E0,0E0,0E0,0E0,0E0,0E0,0E0,0E0,0E0,0E0,0E0,0E0,0E0,0E0,0E0,0E0,0E0,0E0,0E0,0E0,0E0,0E0,0E0],"parents":[2147483647,0,0,1,1,2,2,3,3,4,4,5,5,6,6,7,7,8,8,9,9,10,10,11,11,12,12,13,13,14,14,15,15,16,16,17,17,18,18,19,19,20,20,21,21,22,22,23,23,24,24,25,25,26,26,27,27,31,31,33,33,34,34,36,36,37,37,38,38,39,39,40,40,41,41,42,42,43,43,44,44,45,45,46,46,47,47,48,48,49,49,50,50,51,51,52,52,53,53,54,54],"right_children":[2,4,6,8,10,12,14,16,18,20,22,24,26,28,30,32,34,36,38,40,42,44,46,48,50,52,54,56,-1,-1,-1,58,-1,60,62,-1,64,66,68,70,72,74,76,78,80,82,84,86,88,90,92,94,96,98,100,-1,-1,-1,-1,-1,-1,-1,-1,-1,-1,-1,-1,-1,-1,-1,-1,-1,-1,-1,-1,-1,-1,-1,-1,-1,-1,-1,-1,-1,-1,-1,-1,-1,-1,-1,-1,-1,-1,-1,-1,-1,-1,-1,-1,-1,-1],"split_conditions":[1.8846853E-1,6.640647E-2,3.6640626E-1,1.6015053E-2,1.2421201E-1,2.644533E-1,5.008839E-1,3.6567003E-3,3.4010294E-1,9.559931E-2,1.476673E-1,2.1753292E-1,3.0124718E-1,4.4910628E-1,5.438202E-1,5.818402E-1,1.3113272E-1,2.6276207E-1,7.195843E-1,6.1559886E-1,4.3129793E-1,5.439383E-1,6.3724947E-1,1.1142061E-2,2.2284122E-2,7.367611E-1,3.420859E-1,3.8668275E-1,2.5603116E-2,2.9703189E-2,3.401598E-2,1.1297096E-3,-9.508526E-3,3.577425E-1,9.916434E-1,-3.3821024E-3,7.2950786E-1,6.348911E-1,4.0036902E-1,4.1225627E-1,8.0779946E-1,1.0853799E-1,8.8579386E-1,4.5846063E-1,1.28787E-1,3.3426183E-1,6.6695035E-1,3.677462E-1,2.2495528E-1,3.298599E-1,7.18663E-1,4.689099E-1,3.298599E-1,2.7855154E-2,1.02204874E-1,1.833952E-2,2.1035375E-2,-2.1023324E-3,-9.073967E-3,-1.3904127E-3,-7.526483E-3,-9.074857E-3,-2.220949E-3,-8.879994E-3,-3.5621435E-3,-5.550149E-3,-1.047601E-3,4.7010306E-4,-4.1921064E-3,-2.3815613E-3,-4.8072673E-3,-7.160394E-4,-2.6200057E-3,1.0073581E-3,-1.2451744E-3,-2.4719443E-3,2.0438854E-3,7.886246E-4,2.7390108E-3,-1.2657382E-4,-5.6263027E-3,2.5187912E-3,4.7935583E-3,-2.2933935E-3,2.6792565E-3,1.2362229E-2,3.3767545E-3,1.4226498E-3,5.720873E-3,7.615957E-3,1.680295E-4,9.410617E-3,7.221836E-3,1.2048291E-2,7.732229E-3,8.975229E-3,-4.758355E-3,8.236674E-3,1.4553151E-2,3.4900457E-3,1.6469734E-2],"split_indices":[0,0,0,0,0,0,0,0,1,0,0,0,0,0,0,1,3,1,2,4,1,1,2,4,4,2,0,0,0,0,0,3,0,1,4,0,2,1,1,4,4,0,4,1,0,4,2,1,2,1,4,1,1,4,1,0,0,0,0,0,0,0,0,0,0,0,0,0,0,0,0,0,0,0,0,0,0,0,0,0,0,0,0,0,0,0,0,0,0,0,0,0,0,0,0,0,0,0,0,0,0],"split_type":[0,0,0,0,0,0,0,0,0,0,0,0,0,0,0,0,0,0,0,0,0,0,0,0,0,0,0,0,0,0,0,0,0,0,0,0,0,0,0,0,0,0,0,0,0,0,0,0,0,0,0,0,0,0,0,0,0,0,0,0,0,0,0,0,0,0,0,0,0,0,0,0,0,0,0,0,0,0,0,0,0,0,0,0,0,0,0,0,0,0,0,0,0,0,0,0,0,0,0,0,0],"sum_hessian":[7.98E3,5.515E3,2.465E3,4.739E3,7.76E2,1.342E3,1.123E3,4.424E3,3.15E2,3.43E2,4.33E2,5.62E2,7.8E2,8.41E2,2.82E2,4.206E3,2.18E2,2.1E1,2.94E2,1.56E2,1.87E2,1.56E2,2.77E2,1.87E2,3.75E2,2.81E2,4.99E2,5.61E2,2.8E2,1.56E2,1.26E2,6.84E2,3.522E3,1.39E2,7.9E1,2E0,1.9E1,2.75E2,1.9E1,1E2,5.6E1,1E2,8.7E1,1.47E2,9E0,2.08E2,6.9E1,6E0,1.81E2,1E1,3.65E2,2.57E2,2.4E1,3.1E2,1.89E2,1.24E2,4.37E2,1E0,6.83E2,4E0,1.35E2,7.8E1,1E0,1.7E1,2E0,2.69E2,6E0,7E0,1.2E1,6.5E1,3.5E1,3.2E1,2.4E1,4.9E1,5.1E1,8E1,7E0,1.05E2,4.2E1,3E0,6E0,8.9E1,1.19E2,2.1E1,4.8E1,5E0,1E0,1.2E1,1.69E2,3E0,7E0,2.5E2,1.15E2,2.4E2,1.7E1,2.3E1,1E0,7E0,3.03E2,2E0,1.87E2],"tree_param":{"num_deleted":"0","num_feature":"6","num_nodes":"101","size_leaf_vector":"1"}},{"base_weights":[9.011577E-5,-6.853912E-2,1.5933046E-1,-8.203666E-2,7.798035E-3,1.0577381E-1,2.2347227E-1,-8.433719E-2,-4.95623E-2,-1.1892601E-2,2.882744E-2,8.1014015E-2,1.3547423E-1,2.014064E-1,2.8591725E-1,-8.495476E-2,-7.208857E-2,-7.463081E-2,-4.7524776E-2,-2.2696793E-2,-3.6210194E-3,2.768269E-2,1.0053033E-1,6.882477E-2,9.983569E-2,1.23783685E-1,1.4561146E-1,1.8562095E-1,2.3051916E-2,2.6751786E-2,3.0641166E-2,-5.18589E-2,-8.500546E-2,-6.631357E-2,-8.12937E-2,-3.156629E-3,-7.7358946E-2,-4.922237E-2,-2.4221828E-2,-5.4313544E-2,-2.0232506E-2,3.0252514E-2,-6.5765004E-3,1.790906E-2,3.3577E-2,1.1878683E-2,4.6238975E-4,7.006642E-2,1.4143277E-2,7.305376E-3,1.0047509E-1,1.2025479E-1,1.4953549E-1,7.452718E-2,1.4675798E-1,1.750601E-1,1.9432516E-1,6.0719998E-5,-6.6935956E-3,-8.194047E-3,-8.559314E-3,-1.2791796E-3,-6.779369E-3,-8.2179895E-3,-3.1154947E-3,-8.041328E-3,-3.324667E-3,-1.1063052E-3,-5.0328425E-3,-1.3949971E-6,-3.8053903E-3,-6.1819064E-3,-8.6887827E-4,2.5698217E-3,-2.2861697E-3,6.8418956E-3,9.0083975E-4,-1.3896226E-3,4.3950096E-4,2.4897999E-3,-5.4966006E-4,7.83383E-3,3.0577013E-3,7.078435E-3,-4.9702957E-4,-1.152825E-3,6.195051E-3,-2.650154E-3,3.7459605E-3,1.0617639E-2,8.943248E-3,1.2667367E-2,1.05246E-2,1.5455673E-2,5.282535E-3,8.477104E-3,3.2611694E-3,1.4697501E-2,4.0173563E-3,2.049314E-2,1.6839446E-2,2.870685E-3,1.948124E-2],"categories":[],"categories_nodes":[],"categories_segments":[],"categories_sizes":[],"default_left":[0,0,0,0,0,0,0,0,0,0,0,0,0,0,0,0,0,0,0,0,0,0,0,0,0,0,0,0,0,0,0,0,0,0,0,0,0,0,0,0,0,0,0,0,0,0,0,0,0,0,0,0,0,0,0,0,0,0,0,0,0,0,0,0,0,0,0,0,0,0,0,0,0,0,0,0,0,0,0,0,0,0,0,0,0,0,0,0,0,0,0,0,0,0,0,0,0,0,0,0,0,0,0],"id":4,"left_children":[1,3,5,7,9,11,13,15,17,19,21,23,25,27,29,31,33,35,37,39,41,43,45,47,49,51,53,55,-1,-1,-1,57,59,61,63,-1,65,67,69,71,73,75,77,79,81,-1,-1,83,85,87,89,91,93,95,97,99,101,-1,-1,-1,-1,-1,-1,-1,-1,-1,-1,-1,-1,-1,-1,-1,-1,-1,-1,-1,-1,-1,-1,-1,-1,-1,-1,-1,-1,-1,-1,-1,-1,-1,-1,-1,-1,-1,-1,-1,-1,-1,-1,-1,-1,-1,-1],"loss_changes":[8.723162E1,5.7480087E0,8.234638E0,3.4993935E-1,3.4775794E-1,9.5383835E-1,1.4484596E0,2.7345657E-2,1.2593746E-2,3.870343E-2,3.0542314E-2,1.578536E-1,5.248928E-2,3.2991028E-1,2.4744034E-2,2.6512146E-3,6.251216E-3,1.4276057E-4,1.0477662E-2,1.3548695E-2,2.4926763E-2,2.24998E-2,9.956237E-3,2.881527E-2,1.5832424E-2,7.735729E-3,1.457119E-2,1.4793396E-2,0E0,0E0,0E0,7.159954E-3,5.5122375E-4,1.0223389E-2,9.942055E-4,0E0,2.1189451E-5,1.1007667E-2,7.366066E-3,3.9145574E-3,2.184137E-2,1.5599903E-2,1.83714E-2,2.5164697E-2,3.1041145E-2,0E0,0E0,2.3462296E-2,1.4214312E-2,4.0510017E-3,8.006334E-3,1.1138201E-2,6.403625E-3,2.4110451E-4,1.1973381E-3,1.5268803E-2,1.7163277E-2,0E0,0E0,0E0,0E0,0E0,0E0,0E0,0E0,0E0,0E0,0E0,0E0,0E0,0E0,0E0,0E0,0E0,0E0,0E0,0E0,0E0,0E0,0E0,0E0,0E0,0E0,0E0,0E0,0E0,0E0,0E0,0E0,0E0,0E0,0E0,0E0,0E0,0E0,0E0,0E0,0E0,0E0,0E0,0E0,0E0,0E0],"parents":[2147483647,0,0,1,1,2,2,3,3,4,4,5,5,6,6,7,7,8,8,9,9,10,10,11,11,12,12,13,13,14,14,15,15,16,16,17,17,18,18,19,19,20,20,21,21,22,22,23,23,24,24,25,25,26,26,27,27,31,31,32,32,33,33,34,34,36,36,37,37,38,38,39,39,40,40,41,41,42,42,43,43,44,44,47,47,48,48,49,49,50,50,51,51,52,52,53,53,54,54,55,55,56,56],"right_children":[2,4,6,8,10,12,14,16,18,20,22,24,26,28,30,32,34,36,38,40,42,44,46,48,50,52,54,56,-1,-1,-1,58,60,62,64,-1,66,68,70,72,74,76,78,80,82,-1,-1,84,86,88,90,92,94,96,98,100,102,-1,-1,-1,-1,-1,-1,-1,-1,-1,-1,-1,-1,-1,-1,-1,-1,-1,-1,-1,-1,-1,-1,-1,-1,-1,-1,-1,-1,-1,-1,-1,-1,-1,-1,-1,-1,-1,-1,-1,-1,-1,-1,-1,-1,-1,-1],"split_conditions":[1.9718836E-1,6.640647E-2,3.7035602E-1,1.6015053E-2,1.3826625E-1,2.9442346E-1,5.008839E-1,3.6567003E-3,3.4010294E-1,9.991224E-2,5.286259E-1,2.5721562E-1,3.3057535E-1,4.4910628E-1,5.438202E-1,3.933293E-1,1.3113272E-1,2.6276207E-1,7.1295685E-1,6.963788E-2,2.4693376E-1,3.3426183E-1,3.983287E-1,8.2618326E-1,1.1142061E-2,2.242115E-1,1.7938656E-1,4.090392E-1,2.3051916E-2,2.6751786E-2,3.0641166E-2,3.3426184E-2,5.8410573E-1,3.577425E-1,8.194005E-1,-3.156629E-3,7.2950786E-1,1.9498607E-2,4.0036902E-1,6.930902E-1,1.1142062E-1,5E-1,5.8022726E-1,6.232633E-1,3.983287E-1,1.1878683E-2,4.6238975E-4,5.7048273E-1,8.63427E-1,2.6044893E-1,6.7409474E-1,1.10167414E-1,3.2670724E-1,1E0,6.459375E-1,2.5E-1,5.5710305E-3,6.0719998E-5,-6.6935956E-3,-8.194047E-3,-8.559314E-3,-1.2791796E-3,-6.779369E-3,-8.2179895E-3,-3.1154947E-3,-8.041328E-3,-3.324667E-3,-1.1063052E-3,-5.0328425E-3,-1.3949971E-6,-3.8053903E-3,-6.1819064E-3,-8.6887827E-4,2.5698217E-3,-2.2861697E-3,6.8418956E-3,9.0083975E-4,-1.3896226E-3,4.3950096E-4,2.4897999E-3,-5.4966006E-4,7.83383E-3,3.0577013E-3,7.078435E-3,-4.9702957E-4,-1.152825E-3,6.195051E-3,-2.650154E-3,3.7459605E-3,1.0617639E-2,8.943248E-3,1.2667367E-2,1.05246E-2,1.5455673E-2,5.282535E-3,8.477104E-3,3.2611694E-3,1.4697501E-2,4.0173563E-3,2.049314E-2,1.6839446E-2,2.870685E-3,1.948124E-2],"split_indices":[0,0,0,0,0,0,0,0,1,0,3,0,0,0,0,1,3,1,2,4,2,4,4,2,4,3,2,0,0,0,0,4,1,1,2,0,2,4,1,2,4,5,2,2,4,0,0,1,2,0,4,3,0,5,3,5,4,0,0,0,0,0,0,0,0,0,0,0,0,0,0,0,0,0,0,0,0,0,0,0,0,0,0,0,0,0,0,0,0,0,0,0,0,0,0,0,0,0,0,0,0,0,0],"split_type":[0,0,0,0,0,0,0,0,0,0,0,0,0,0,0,0,0,0,0,0,0,0,0,0,0,0,0,0,0,0,0,0,0,0,0,0,0,0,0,0,0,0,0,0,0,0,0,0,0,0,0,0,0,0,0,0,0,0,0,0,0,0,0,0,0,0,0,0,0,0,0,0,0,0,0,0,0,0,0,0,0,0,0,0,0,0,0,0,0,0,0,0,0,0,0,0,0,0,0,0,0,0,0],"sum_hessian":[7.98E3,5.577E3,2.403E3,4.739E3,8.38E2,1.311E3,1.092E3,4.424E3,3.15E2,4.33E2,4.05E2,7.17E2,5.94E2,8.1E2,2.82E2,4.206E3,2.18E2,2.1E1,2.94E2,1.87E2,2.46E2,4E2,5E0,4.38E2,2.79E2,2.82E2,3.12E2,5.3E2,2.8E2,1.56E2,1.26E2,8E0,4.198E3,1.39E2,7.9E1,2E0,1.9E1,2.73E2,2.1E1,1.2E1,1.75E2,1.9E1,2.27E2,1.52E2,2.48E2,4E0,1E0,4.28E2,1E1,2E0,2.77E2,2.53E2,2.9E1,6E0,3.06E2,2.49E2,2.81E2,2E0,6E0,6.98E2,3.5E3,4E0,1.35E2,7.7E1,2E0,1.7E1,2E0,8E0,2.65E2,8E0,1.3E1,1E1,2E0,9E0,1.66E2,6E0,1.3E1,1.36E2,9.1E1,1.17E2,3.5E1,1.4E1,2.34E2,4.24E2,4E0,7E0,3E0,1E0,1E0,1.77E2,1E2,1.72E2,8.1E1,2.7E1,2E0,4E0,2E0,3.05E2,1E0,4E1,2.09E2,1E0,2.8E2],"tree_param":{"num_deleted":"0","num_feature":"6","num_nodes":"103","size_leaf_vector":"1"}},{"base_weights":[1.0675876E-4,-6.284002E-2,1.4090738E-1,-7.3847175E-2,4.388771E-3,9.152935E-2,1.9978085E-1,-7.613172E-2,-4.7282945E-2,-1.4808626E-2,1.9595029E-2,6.462865E-2,1.1471615E-1,1.7258573E-1,2.4182202E-1,-7.675607E-2,-7.0302606E-2,-5.41071E-2,-4.031842E-2,-1.3179264E-2,-4.9667362E-2,1.871787E-2,1.0921004E-2,5.342426E-2,7.820325E-2,9.472705E-2,1.23321906E-1,1.6216366E-1,1.9406946E-1,2.2717692E-1,2.7601173E-2,-2.6933253E-3,-7.678727E-2,-8.509318E-3,-7.0568986E-2,-4.2767797E-2,-6.499143E-2,-1.390228E-3,-4.1791826E-2,-1.8939368E-2,-6.1408756E-3,-5.439156E-2,8.235708E-4,7.612249E-3,2.4927143E-2,5.9084047E-2,3.2261252E-2,7.000334E-2,9.558924E-2,1.00263655E-1,7.480492E-2,1.1713654E-1,1.3279732E-1,1.7215732E-1,1.5508272E-1,2.727151E-3,1.947095E-1,2.1197037E-1,2.4093648E-2,-6.9115097E-3,-7.702133E-3,-1.0127228E-3,-2.6367494E-4,-5.425399E-3,-7.135381E-3,2.926136E-3,-4.384536E-3,-6.5378468E-3,-1.4498424E-3,-1.7201251E-3,1.1536636E-3,-4.3824073E-3,-1.3984276E-3,-4.532082E-3,-1.6965739E-3,8.2624855E-4,-1.1634456E-3,-6.0025975E-3,-1.3723378E-3,1.0624275E-3,-3.7425754E-3,3.081581E-3,6.814535E-4,4.9002827E-3,7.0639984E-3,2.077556E-3,5.5802707E-3,-9.2507154E-4,7.1296603E-3,9.96886E-3,2.363318E-3,9.320277E-3,1.21591175E-2,9.222118E-3,5.0643384E-3,9.682826E-3,1.2056508E-2,2.2775421E-3,1.3384662E-2,1.726059E-2,4.4808923E-3,1.6626338E-2,1.4055899E-2,1.8842822E-2,2.3384713E-2,1.6883954E-2,2.2042314E-2],"categories":[],"categories_nodes":[],"categories_segments":[],"categories_sizes":[],"default_left":[0,0,0,0,0,0,0,0,0,0,0,0,0,0,0,0,0,0,0,0,0,0,0,0,0,0,0,0,0,0,0,0,0,0,0,0,0,0,0,0,0,0,0,0,0,0,0,0,0,0,0,0,0,0,0,0,0,0,0,0,0,0,0,0,0,0,0,0,0,0,0,0,0,0,0,0,0,0,0,0,0,0,0,0,0,0,0,0,0,0,0,0,0,0,0,0,0,0,0,0,0,0,0,0,0,0,0],"id":5,"left_children":[1,3,5,7,9,11,13,15,17,19,21,23,25,27,29,31,33,35,37,39,41,43,-1,45,47,49,51,53,55,57,-1,-1,59,61,63,65,67,69,71,73,75,77,-1,79,81,83,85,87,89,91,93,95,97,99,101,-1,103,105,-1,-1,-1,-1,-1,-1,-1,-1,-1,-1,-1,-1,-1,-1,-1,-1,-1,-1,-1,-1,-1,-1,-1,-1,-1,-1,-1,-1,-1,-1,-1,-1,-1,-1,-1,-1,-1,-1,-1,-1,-1,-1,-1,-1,-1,-1,-1,-1,-1],"loss_changes":[7.074402E1,4.0821533E0,7.1505127E0,2.840557E-1,2.2711246E-1,8.302698E-1,1.243351E0,1.0482788E-2,1.5783668E-2,1.8883765E-2,3.207104E-2,9.072924E-2,1.1217308E-1,1.2212944E-1,1.571083E-1,4.0416718E-3,6.543398E-3,2.0423591E-2,1.089713E-2,1.326251E-2,4.5511387E-3,2.9531091E-2,0E0,3.9417267E-2,3.322625E-2,1.687634E-2,1.3749123E-2,6.419182E-3,1.8069267E-2,1.4419556E-2,0E0,0E0,1.7280579E-3,1.8009014E-6,1.660347E-3,8.656457E-3,8.891821E-4,1.83354E-3,9.785324E-3,8.65525E-3,1.1965033E-2,2.3842193E-3,0E0,2.1559896E-2,2.9227912E-2,2.8109372E-2,1.911991E-2,2.0543754E-2,2.3306727E-2,1.4267802E-2,1.7211407E-2,9.979725E-3,1.8886566E-2,2.8338432E-3,2.2747517E-2,0E0,9.529114E-3,2.0021439E-2,0E0,0E0,0E0,0E0,0E0,0E0,0E0,0E0,0E0,0E0,0E0,0E0,0E0,0E0,0E0,0E0,0E0,0E0,0E0,0E0,0E0,0E0,0E0,0E0,0E0,0E0,0E0,0E0,0E0,0E0,0E0,0E0,0E0,0E0,0E0,0E0,0E0,0E0,0E0,0E0,0E0,0E0,0E0,0E0,0E0,0E0,0E0,0E0,0E0],"parents":[2147483647,0,0,1,1,2,2,3,3,4,4,5,5,6,6,7,7,8,8,9,9,10,10,11,11,12,12,13,13,14,14,15,15,16,16,17,17,18,18,19,19,20,20,21,21,23,23,24,24,25,25,26,26,27,27,28,28,29,29,32,32,33,33,34,34,35,35,36,36,37,37,38,38,39,39,40,40,41,41,43,43,44,44,45,45,46,46,47,47,48,48,49,49,50,50,51,51,52,52,53,53,54,54,56,56,57,57],"right_children":[2,4,6,8,10,12,14,16,18,20,22,24,26,28,30,32,34,36,38,40,42,44,-1,46,48,50,52,54,56,58,-1,-1,60,62,64,66,68,70,72,74,76,78,-1,80,82,84,86,88,90,92,94,96,98,100,102,-1,104,106,-1,-1,-1,-1,-1,-1,-1,-1,-1,-1,-1,-1,-1,-1,-1,-1,-1,-1,-1,-1,-1,-1,-1,-1,-1,-1,-1,-1,-1,-1,-1,-1,-1,-1,-1,-1,-1,-1,-1,-1,-1,-1,-1,-1,-1,-1,-1,-1,-1],"split_conditions":[1.8846853E-1,6.640647E-2,3.6640626E-1,1.1564255E-2,1.2421201E-1,2.7378923E-1,4.700253E-1,1.0059029E-3,3.383191E-2,5.818402E-1,5.774323E-1,2.3742993E-1,3.0124718E-1,4.3392414E-1,5.438202E-1,3.847743E-1,3.4010294E-1,8.0973975E-2,1.9498607E-2,9.991224E-2,1.7354912E-1,1.476673E-1,1.0921004E-2,7.938719E-1,6.13243E-1,6.1684567E-1,3.420859E-1,5E-1,5.5710305E-3,5.008839E-1,2.7601173E-2,-2.6933253E-3,-2.1748692E-3,7.1914643E-3,5.8495823E-2,1.4109072E-1,8.1127685E-1,1.0913422E-1,7.195843E-1,6.963788E-2,3.582224E-2,6.656598E-1,8.235708E-4,5.439383E-1,6.3724947E-1,2.1753292E-1,3.933293E-1,1.5220192E-3,9.5264626E-1,1.5225226E-1,4.1225627E-1,2.8277212E-1,1.02204874E-1,4.3356597E-1,5.687304E-1,2.727151E-3,9.164345E-1,2.5E-1,2.4093648E-2,-6.9115097E-3,-7.702133E-3,-1.0127228E-3,-2.6367494E-4,-5.425399E-3,-7.135381E-3,2.926136E-3,-4.384536E-3,-6.5378468E-3,-1.4498424E-3,-1.7201251E-3,1.1536636E-3,-4.3824073E-3,-1.3984276E-3,-4.532082E-3,-1.6965739E-3,8.2624855E-4,-1.1634456E-3,-6.0025975E-3,-1.3723378E-3,1.0624275E-3,-3.7425754E-3,3.081581E-3,6.814535E-4,4.9002827E-3,7.0639984E-3,2.077556E-3,5.5802707E-3,-9.2507154E-4,7.1296603E-3,9.96886E-3,2.363318E-3,9.320277E-3,1.21591175E-2,9.222118E-3,5.0643384E-3,9.682826E-3,1.2056508E-2,2.2775421E-3,1.3384662E-2,1.726059E-2,4.4808923E-3,1.6626338E-2,1.4055899E-2,1.8842822E-2,2.3384713E-2,1.6883954E-2,2.2042314E-2],"split_indices":[0,0,0,0,0,0,0,0,0,1,3,0,0,0,0,1,1,3,4,0,3,0,0,4,2,2,0,5,4,0,0,0,0,0,4,2,2,3,2,4,3,1,0,1,2,0,1,3,4,3,4,2,1,1,2,0,4,5,0,0,0,0,0,0,0,0,0,0,0,0,0,0,0,0,0,0,0,0,0,0,0,0,0,0,0,0,0,0,0,0,0,0,0,0,0,0,0,0,0,0,0,0,0,0,0,0,0],"split_type":[0,0,0,0,0,0,0,0,0,0,0,0,0,0,0,0,0,0,0,0,0,0,0,0,0,0,0,0,0,0,0,0,0,0,0,0,0,0,0,0,0,0,0,0,0,0,0,0,0,0,0,0,0,0,0,0,0,0,0,0,0,0,0,0,0,0,0,0,0,0,0,0,0,0,0,0,0,0,0,0,0,0,0,0,0,0,0,0,0,0,0,0,0,0,0,0,0,0,0,0,0,0,0,0,0,0,0],"sum_hessian":[7.98E3,5.515E3,2.465E3,4.739E3,7.76E2,1.342E3,1.123E3,4.362E3,3.77E2,3.43E2,4.33E2,6.23E2,7.19E2,6.85E2,4.38E2,3.929E3,4.33E2,1.87E2,1.9E2,3.29E2,1.4E1,4.3E2,3E0,3.44E2,2.79E2,2.2E2,4.99E2,4.67E2,2.18E2,3.12E2,1.26E2,3E0,3.926E3,2E0,4.31E2,9.4E1,9.3E1,7E0,1.83E2,1.8E2,1.49E2,1.3E1,1E0,1.55E2,2.75E2,2.7E2,7.4E1,1.93E2,8.6E1,1.69E2,5.1E1,3.1E2,1.89E2,1.84E2,2.83E2,1E0,2.17E2,1.56E2,1.56E2,1.25E2,3.801E3,1E0,1E0,2.3E1,4.08E2,1E0,9.3E1,9.2E1,1E0,3E0,4E0,1.7E2,1.3E1,1.1E1,1.69E2,4.1E1,1.08E2,1.1E1,2E0,1.46E2,9E0,2.07E2,6.8E1,1.47E2,1.23E2,5.1E1,2.3E1,3E0,1.9E2,8.1E1,5E0,1.31E2,3.8E1,2.8E1,2.3E1,4.9E1,2.61E2,2E0,1.87E2,1.83E2,1E0,1.54E2,1.29E2,1.92E2,2.5E1,2.9E1,1.27E2],"tree_param":{"num_deleted":"0","num_feature":"6","num_nodes":"107","size_leaf_vector":"1"}},{"base_weights":[1.2756829E-4,-5.5538353E-2,1.2928912E-1,-6.647236E-2,6.300428E-3,8.905504E-2,1.8568872E-1,-6.8336666E-2,-4.0155794E-2,-9.747412E-3,2.3439497E-2,6.7765325E-2,1.15592696E-1,1.6719298E-1,2.3195817E-1,-6.8941906E-2,-6.005156E-2,-6.3290015E-2,-3.8294412E-2,-1.8473955E-2,-3.0658832E-3,2.2433802E-2,8.674678E-2,5.5710636E-2,8.295209E-2,1.0549278E-1,1.2522799E-1,1.5391977E-1,1.8728718E-1,2.224301E-2,2.6049182E-2,-6.225844E-3,-6.9135584E-2,-5.7179008E-2,-6.9955005E-3,-2.6540263E-3,-6.5637976E-3,-3.9052952E-2,-1.5069406E-3,-2.3921741E-2,-8.278375E-3,2.7061561E-2,-5.695195E-3,1.3658414E-2,2.7735814E-2,1.0295537E-2,2.8519184E-4,4.902347E-2,6.506036E-2,8.84783E-2,7.230355E-2,1.00976296E-1,1.21669166E-1,1.4362274E-1,1.19944446E-1,1.5567048E-1,1.2272483E-1,1.6242323E-2,1.9261946E-1,-3.6961033E-3,-6.9158594E-3,-3.8551562E-3,-5.9027458E-3,-1.4168841E-3,-4.055612E-3,4.49715E-3,-2.9092617E-3,-3.112464E-3,-6.53334E-4,-2.6767835E-4,-3.1340613E-3,7.616402E-3,1.3916185E-3,1.1344886E-3,-1.0064363E-3,3.1153315E-3,4.605539E-4,6.8133916E-3,2.5039187E-3,6.1855195E-3,3.4001896E-3,6.6670314E-3,-4.6219616E-4,9.777323E-5,8.926931E-3,8.954412E-3,5.797077E-3,-2.8991604E-3,1.0161727E-2,1.2457354E-2,2.2057197E-3,3.143549E-4,1.4576862E-2,1.0397411E-2,1.2582024E-2,8.850648E-3,1.5627963E-2,-3.570661E-4,1.2753469E-2,3.6603883E-3,1.9315017E-2],"categories":[],"categories_nodes":[],"categories_segments":[],"categories_sizes":[],"default_left":[0,0,0,0,0,0,0,0,0,0,0,0,0,0,0,0,0,0,0,0,0,0,0,0,0,0,0,0,0,0,0,0,0,0,0,0,0,0,0,0,0,0,0,0,0,0,0,0,0,0,0,0,0,0,0,0,0,0,0,0,0,0,0,0,0,0,0,0,0,0,0,0,0,0,0,0,0,0,0,0,0,0,0,0,0,0,0,0,0,0,0,0,0,0,0,0,0,0,0,0,0],"id":6,"left_children":[1,3,5,7,9,11,13,15,17,19,21,23,25,27,29,31,33,35,37,39,41,43,45,47,49,51,53,55,57,-1,-1,-1,59,61,-1,-1,-1,63,65,67,69,71,73,75,77,-1,-1,79,81,83,85,87,89,91,93,95,97,-1,99,-1,-1,-1,-1,-1,-1,-1,-1,-1,-1,-1,-1,-1,-1,-1,-1,-1,-1,-1,-1,-1,-1,-1,-1,-1,-1,-1,-1,-1,-1,-1,-1,-1,-1,-1,-1,-1,-1,-1,-1,-1,-1],"loss_changes":[5.7389748E1,3.7719593E0,5.438591E0,2.2981071E-1,2.3099126E-1,7.859621E-1,8.1700516E-1,1.804924E-2,1.1183798E-2,2.5248446E-2,2.3903057E-2,1.385405E-1,4.751396E-2,1.6267395E-1,1.89991E-2,1.0242462E-3,4.7905445E-3,1.5626103E-4,8.173019E-3,1.0244116E-2,1.9720087E-2,1.8278569E-2,7.865284E-3,2.4258256E-2,1.3845682E-2,1.043582E-2,1.3290405E-2,4.8160553E-3,5.9690475E-3,0E0,0E0,0E0,3.9863586E-4,6.1601996E-3,0E0,0E0,0E0,1.0235399E-2,1.0283314E-2,1.5076771E-2,8.571519E-3,1.1849493E-2,1.7089E-2,2.4088532E-2,2.5419697E-2,0E0,0E0,4.8012555E-2,2.0501375E-2,1.5278339E-2,2.520305E-2,2.368927E-2,1.547879E-2,1.913619E-2,1.0377407E-2,2.9830933E-3,1.746437E-2,0E0,1.164341E-2,0E0,0E0,0E0,0E0,0E0,0E0,0E0,0E0,0E0,0E0,0E0,0E0,0E0,0E0,0E0,0E0,0E0,0E0,0E0,0E0,0E0,0E0,0E0,0E0,0E0,0E0,0E0,0E0,0E0,0E0,0E0,0E0,0E0,0E0,0E0,0E0,0E0,0E0,0E0,0E0,0E0,0E0],"parents":[2147483647,0,0,1,1,2,2,3,3,4,4,5,5,6,6,7,7,8,8,9,9,10,10,11,11,12,12,13,13,14,14,15,15,16,16,17,17,18,18,19,19,20,20,21,21,22,22,23,23,24,24,25,25,26,26,27,27,28,28,32,32,33,33,37,37,38,38,39,39,40,40,41,41,42,42,43,43,44,44,47,47,48,48,49,49,50,50,51,51,52,52,53,53,54,54,55,55,56,56,58,58],"right_children":[2,4,6,8,10,12,14,16,18,20,22,24,26,28,30,32,34,36,38,40,42,44,46,48,50,52,54,56,58,-1,-1,-1,60,62,-1,-1,-1,64,66,68,70,72,74,76,78,-1,-1,80,82,84,86,88,90,92,94,96,98,-1,100,-1,-1,-1,-1,-1,-1,-1,-1,-1,-1,-1,-1,-1,-1,-1,-1,-1,-1,-1,-1,-1,-1,-1,-1,-1,-1,-1,-1,-1,-1,-1,-1,-1,-1,-1,-1,-1,-1,-1,-1,-1,-1],"split_conditions":[1.9718836E-1,6.640647E-2,3.8668275E-1,1.6015053E-2,1.3826625E-1,3.0124718E-1,5.008839E-1,2.1196455E-3,3.4010294E-1,9.991224E-2,5.286259E-1,2.5721562E-1,3.420859E-1,4.4910628E-1,5.712225E-1,-2.1748692E-3,2.0091514E-1,2.6276207E-1,6.348911E-1,5.878238E-1,2.4693376E-1,3.3426183E-1,3.983287E-1,1.1331856E-1,6.7409474E-1,1E0,2.5E-1,2.705862E-1,2.5E-1,2.224301E-2,2.6049182E-2,-6.225844E-3,3.847743E-1,1.0306407E-1,-6.9955005E-3,-2.6540263E-3,-6.5637976E-3,7.281103E-3,6.400122E-1,6.6573817E-1,7.407391E-1,2.5E-1,3.4010294E-1,1.253482E-1,3.983287E-1,1.0295537E-2,2.8519184E-4,5.0594084E-2,9.6378833E-1,9.430824E-2,5E-1,5.5710305E-3,4.4398877E-1,7.00448E-4,3.542741E-1,1.4109072E-1,1.1142061E-2,1.6242323E-2,7.00448E-4,-3.6961033E-3,-6.9158594E-3,-3.8551562E-3,-5.9027458E-3,-1.4168841E-3,-4.055612E-3,4.49715E-3,-2.9092617E-3,-3.112464E-3,-6.53334E-4,-2.6767835E-4,-3.1340613E-3,7.616402E-3,1.3916185E-3,1.1344886E-3,-1.0064363E-3,3.1153315E-3,4.605539E-4,6.8133916E-3,2.5039187E-3,6.1855195E-3,3.4001896E-3,6.6670314E-3,-4.6219616E-4,9.777323E-5,8.926931E-3,8.954412E-3,5.797077E-3,-2.8991604E-3,1.0161727E-2,1.2457354E-2,2.2057197E-3,3.143549E-4,1.4576862E-2,1.0397411E-2,1.2582024E-2,8.850648E-3,1.5627963E-2,-3.570661E-4,1.2753469E-2,3.6603883E-3,1.9315017E-2],"split_indices":[0,0,0,0,0,0,0,0,1,0,3,0,0,0,0,0,3,1,1,2,2,4,4,3,4,5,5,3,5,0,0,0,1,4,0,0,0,3,1,4,2,5,1,4,4,0,0,3,4,2,5,4,1,3,0,2,4,0,3,0,0,0,0,0,0,0,0,0,0,0,0,0,0,0,0,0,0,0,0,0,0,0,0,0,0,0,0,0,0,0,0,0,0,0,0,0,0,0,0,0,0],"split_type":[0,0,0,0,0,0,0,0,0,0,0,0,0,0,0,0,0,0,0,0,0,0,0,0,0,0,0,0,0,0,0,0,0,0,0,0,0,0,0,0,0,0,0,0,0,0,0,0,0,0,0,0,0,0,0,0,0,0,0,0,0,0,0,0,0,0,0,0,0,0,0,0,0,0,0,0,0,0,0,0,0,0,0,0,0,0,0,0,0,0,0,0,0,0,0,0,0,0,0,0,0],"sum_hessian":[7.98E3,5.577E3,2.403E3,4.739E3,8.38E2,1.404E3,9.99E2,4.424E3,3.15E2,4.33E2,4.05E2,7.81E2,6.23E2,7.17E2,2.82E2,4.116E3,3.08E2,2.1E1,2.94E2,1.87E2,2.46E2,4E2,5E0,4.38E2,3.43E2,3.1E2,3.13E2,4.37E2,2.8E2,2.18E2,6.4E1,1.25E2,3.991E3,2.44E2,6.4E1,2E0,1.9E1,2.88E2,6E0,1.21E2,6.6E1,1.9E1,2.27E2,1.52E2,2.48E2,4E0,1E0,2.59E2,1.79E2,2.21E2,1.22E2,2.48E2,6.2E1,6.4E1,2.49E2,4.1E2,2.7E1,5.5E1,2.25E2,4E0,3.987E3,2.4E1,2.2E2,1.7E1,2.71E2,2E0,4E0,8.5E1,3.6E1,5.4E1,1.2E1,3E0,1.6E1,4.6E1,1.81E2,5.1E1,1.01E2,1.4E1,2.34E2,1.38E2,1.21E2,1.75E2,4E0,2E0,2.19E2,5.3E1,6.9E1,1E0,2.47E2,6E1,2E0,1E0,6.3E1,7.2E1,1.77E2,5E0,4.05E2,1E0,2.6E1,1E0,2.24E2],"tree_param":{"num_deleted":"0","num_feature":"6","num_nodes":"101","size_leaf_vector":"1"}},{"base_weights":[1.4018545E-4,-5.137883E-2,1.13374636E-1,-6.0245253E-2,-4.571689E-5,7.337461E-2,1.6213502E-1,-6.1841022E-2,-4.176944E-2,-1.4765955E-2,1.4747506E-2,4.9456272E-2,9.144144E-2,1.400079E-1,1.9634247E-1,-5.901364E-2,-6.245399E-3,-3.4999847E-2,-4.8532806E-2,-2.544941E-2,-1.0140874E-2,1.39205055E-2,9.396742E-3,3.6295228E-2,5.6955345E-2,7.6009326E-2,9.9962264E-2,1.3142177E-1,1.5771703E-1,1.8423262E-1,2.2464197E-2,-4.4751655E-2,-5.944323E-2,-3.8117733E-2,-7.944691E-3,-5.368505E-2,-3.394289E-2,-5.6598266E-3,-2.1852693E-2,3.4320258E-2,-1.089591E-2,1.3084519E-2,7.751373E-2,9.087827E-2,3.432175E-2,5.130085E-2,7.1060754E-2,1.1075005E-1,7.307843E-2,9.785503E-2,1.2300669E-1,1.0708892E-1,1.335694E-1,1.5198186E-1,1.9444416E-1,1.9631755E-2,1.7097427E-1,-5.1029297E-3,-1.427504E-3,-6.6694955E-4,-5.9504057E-3,-3.1235495E-3,-4.20433E-3,3.980612E-3,-2.1521715E-3,-5.4888884E-3,-2.7713103E-3,3.5467968E-4,-4.3173223E-3,-2.4718062E-3,1.3367938E-3,-3.6064908E-3,6.093278E-3,-1.8289875E-3,-4.7673314E-4,5.0484115E-4,1.8102864E-3,9.323715E-3,7.3100405E-4,9.835897E-3,2.2997053E-3,3.645561E-3,-1.1469379E-4,6.8468372E-3,4.4659153E-3,7.777506E-3,3.4287428E-3,6.1966474E-3,1.27231125E-2,7.5153573E-3,3.6346377E-3,1.0670089E-2,9.090264E-3,1.272326E-2,-1.6676091E-3,1.8050858E-4,1.1494009E-2,1.5101572E-2,1.2903559E-2,1.7520932E-2,1.4027397E-2,2.0045878E-2,8.1512565E-3,1.5752401E-2,1.8584525E-2],"categories":[],"categories_nodes":[],"categories_segments":[],"categories_sizes":[],"default_left":[0,0,0,0,0,0,0,0,0,0,0,0,0,0,0,0,0,0,0,0,0,0,0,0,0,0,0,0,0,0,0,0,0,0,0,0,0,0,0,0,0,0,0,0,0,0,0,0,0,0,0,0,0,0,0,0,0,0,0,0,0,0,0,0,0,0,0,0,0,0,0,0,0,0,0,0,0,0,0,0,0,0,0,0,0,0,0,0,0,0,0,0,0,0,0,0,0,0,0,0,0,0,0,0,0],"id":7,"left_children":[1,3,5,7,9,11,13,15,17,19,21,23,25,27,29,31,-1,33,35,37,39,41,-1,43,45,47,49,51,53,55,-1,57,59,61,63,65,67,-1,69,71,73,75,77,79,81,83,85,87,89,91,93,95,97,99,101,-1,103,-1,-1,-1,-1,-1,-1,-1,-1,-1,-1,-1,-1,-1,-1,-1,-1,-1,-1,-1,-1,-1,-1,-1,-1,-1,-1,-1,-1,-1,-1,-1,-1,-1,-1,-1,-1,-1,-1,-1,-1,-1,-1,-1,-1,-1,-1,-1,-1],"loss_changes":[4.6564804E1,2.4969025E0,4.85635E0,1.3533592E-1,1.763854E-1,5.8878994E-1,8.232784E-1,3.774643E-3,1.5470803E-2,1.9803122E-2,2.5159962E-2,5.6459308E-2,9.5099926E-2,8.358097E-2,1.0905838E-1,2.1493435E-3,0E0,1.5808955E-2,1.2084365E-2,1.2431279E-2,9.941317E-3,2.0304166E-2,0E0,2.036345E-2,2.6343942E-2,2.0620108E-2,1.2242794E-2,1.0152817E-2,1.6576767E-2,1.658535E-2,0E0,4.437223E-3,2.0394325E-3,3.3065826E-3,1.4471285E-2,2.6997626E-3,1.7801281E-2,0E0,1.1532553E-2,1.1563167E-2,1.264618E-2,1.5918806E-2,4.8376415E-3,1.292631E-3,1.6087055E-2,2.7956069E-2,2.3258626E-2,8.196056E-3,1.7315507E-2,1.8774986E-2,2.4552643E-2,3.5336375E-2,1.42092705E-2,2.8180122E-2,1.3203025E-3,0E0,2.1276474E-3,0E0,0E0,0E0,0E0,0E0,0E0,0E0,0E0,0E0,0E0,0E0,0E0,0E0,0E0,0E0,0E0,0E0,0E0,0E0,0E0,0E0,0E0,0E0,0E0,0E0,0E0,0E0,0E0,0E0,0E0,0E0,0E0,0E0,0E0,0E0,0E0,0E0,0E0,0E0,0E0,0E0,0E0,0E0,0E0,0E0,0E0,0E0,0E0],"parents":[2147483647,0,0,1,1,2,2,3,3,4,4,5,5,6,6,7,7,8,8,9,9,10,10,11,11,12,12,13,13,14,14,15,15,17,17,18,18,19,19,20,20,21,21,23,23,24,24,25,25,26,26,27,27,28,28,29,29,31,31,32,32,33,33,34,34,35,35,36,36,38,38,39,39,40,40,41,41,42,42,43,43,44,44,45,45,46,46,47,47,48,48,49,49,50,50,51,51,52,52,53,53,54,54,56,56],"right_children":[2,4,6,8,10,12,14,16,18,20,22,24,26,28,30,32,-1,34,36,38,40,42,-1,44,46,48,50,52,54,56,-1,58,60,62,64,66,68,-1,70,72,74,76,78,80,82,84,86,88,90,92,94,96,98,100,102,-1,104,-1,-1,-1,-1,-1,-1,-1,-1,-1,-1,-1,-1,-1,-1,-1,-1,-1,-1,-1,-1,-1,-1,-1,-1,-1,-1,-1,-1,-1,-1,-1,-1,-1,-1,-1,-1,-1,-1,-1,-1,-1,-1,-1,-1,-1,-1,-1,-1],"split_conditions":[1.8339641E-1,5.5226833E-2,3.6640626E-1,7.1914643E-3,1.2421201E-1,2.644533E-1,4.700253E-1,5.8410573E-1,8.448711E-2,8.0026284E-2,5.774323E-1,2.1753292E-1,3.0124718E-1,4.3392414E-1,5.438202E-1,-3.3454895E-3,-6.245399E-3,7.0313565E-2,3.9247468E-2,1.5881337E-2,2.3722862E-1,9.7493035E-1,9.396742E-3,1.1142061E-2,6.13243E-1,2.4693376E-1,9.0250695E-1,1.3587637E-1,9.164345E-1,5.8412023E-2,2.2464197E-2,5.6739515E-1,3.4010294E-1,4.363196E-1,3.1738022E-1,9.359332E-1,3.8820502E-1,-5.6598266E-3,7.195843E-1,3.0010223E-1,4.54039E-1,1.476673E-1,4.6158677E-1,3.677462E-1,8.0520266E-1,3.373471E-1,7.81837E-1,1.5838723E-1,4.689099E-1,6.21276E-2,4.372204E-1,7.755783E-3,2.5E-1,3.259053E-1,3.9624012E-1,1.9631755E-2,1.171871E-1,-5.1029297E-3,-1.427504E-3,-6.6694955E-4,-5.9504057E-3,-3.1235495E-3,-4.20433E-3,3.980612E-3,-2.1521715E-3,-5.4888884E-3,-2.7713103E-3,3.5467968E-4,-4.3173223E-3,-2.4718062E-3,1.3367938E-3,-3.6064908E-3,6.093278E-3,-1.8289875E-3,-4.7673314E-4,5.0484115E-4,1.8102864E-3,9.323715E-3,7.3100405E-4,9.835897E-3,2.2997053E-3,3.645561E-3,-1.1469379E-4,6.8468372E-3,4.4659153E-3,7.777506E-3,3.4287428E-3,6.1966474E-3,1.27231125E-2,7.5153573E-3,3.6346377E-3,1.0670089E-2,9.090264E-3,1.272326E-2,-1.6676091E-3,1.8050858E-4,1.1494009E-2,1.5101572E-2,1.2903559E-2,1.7520932E-2,1.4027397E-2,2.0045878E-2,8.1512565E-3,1.5752401E-2,1.8584525E-2],"split_indices":[0,0,0,0,0,0,0,1,3,0,3,0,0,0,0,0,0,3,0,3,1,4,0,4,2,2,4,1,4,3,0,1,1,2,2,4,1,0,2,2,4,0,1,1,2,2,2,2,1,3,1,3,5,4,1,0,3,0,0,0,0,0,0,0,0,0,0,0,0,0,0,0,0,0,0,0,0,0,0,0,0,0,0,0,0,0,0,0,0,0,0,0,0,0,0,0,0,0,0,0,0,0,0,0,0],"split_type":[0,0,0,0,0,0,0,0,0,0,0,0,0,0,0,0,0,0,0,0,0,0,0,0,0,0,0,0,0,0,0,0,0,0,0,0,0,0,0,0,0,0,0,0,0,0,0,0,0,0,0,0,0,0,0,0,0,0,0,0,0,0,0,0,0,0,0,0,0,0,0,0,0,0,0,0,0,0,0,0,0,0,0,0,0,0,0,0,0,0,0,0,0,0,0,0,0,0,0,0,0,0,0,0,0],"sum_hessian":[7.98E3,5.485E3,2.495E3,4.677E3,8.08E2,1.372E3,1.123E3,4.303E3,3.74E2,4.05E2,4.03E2,5.92E2,7.8E2,6.85E2,4.38E2,7.84E2,3.519E3,1.9E2,1.84E2,1.21E2,2.84E2,4E2,3E0,2.17E2,3.75E2,2.81E2,4.99E2,4.67E2,2.18E2,3.12E2,1.26E2,2.6E1,7.58E2,1.7E2,2E1,1.34E2,5E1,1.1E1,1.1E2,4E0,2.8E2,3.96E2,4E0,6E0,2.11E2,2.71E2,1.04E2,1.9E1,2.62E2,4.62E2,3.7E1,4.2E1,4.25E2,1.93E2,2.5E1,1.56E2,1.56E2,2.1E1,5E0,1E0,7.57E2,6.5E1,1.05E2,4E0,1.6E1,1.27E2,7E0,1E1,4E1,1.02E2,8E0,1E0,3E0,1.26E2,1.54E2,1.53E2,2.43E2,3E0,1E0,5E0,1E0,1.99E2,1.2E1,7.3E1,1.98E2,8.7E1,1.7E1,6E0,1.3E1,2.47E2,1.5E1,1.97E2,2.65E2,3.6E1,1E0,3E0,3.9E1,8.1E1,3.44E2,6E1,1.33E2,2.3E1,2E0,8.8E1,6.8E1],"tree_param":{"num_deleted":"0","num_feature":"6","num_nodes":"105","size_leaf_vector":"1"}},{"base_weights":[1.5786245E-4,-4.6244953E-2,1.02147326E-1,-5.3865947E-2,2.175067E-3,6.956117E-2,1.5082665E-1,-5.5380076E-2,-3.2492872E-2,-1.0927867E-2,1.33266365E-2,5.062843E-2,9.175005E-2,1.3561594E-1,1.8888482E-1,-5.589408E-2,-4.91198E-2,-5.41048E-2,-3.0770991E-2,-9.51337E-3,-4.1318286E-2,1.2559306E-2,8.691987E-3,3.797197E-2,6.139803E-2,8.319532E-2,1.0167449E-1,1.239612E-1,1.5030031E-1,1.8094653E-1,2.1272484E-2,-5.0352053E-3,-5.6056425E-2,-4.3839358E-2,-5.3023983E-2,-5.6398604E-2,-2.0777863E-3,3.058313E-3,-3.1083701E-2,3.138559E-2,-1.0111472E-2,-4.5493238E-2,8.565508E-4,1.1781903E-2,7.1773306E-2,4.277601E-2,1.882418E-2,5.2794944E-2,6.600262E-2,8.64549E-2,6.8277195E-2,1.1803724E-1,9.701347E-2,1.3761751E-1,1.19579166E-1,9.3334913E-4,1.507222E-1,1.9539906E-1,1.680779E-2,-3.8728553E-3,-5.609932E-3,-4.6629156E-3,-2.0480356E-3,-2.5678102E-3,-5.406771E-3,-2.4065205E-3,-5.865425E-3,-2.7760123E-3,-3.9777495E-3,-3.4261663E-3,5.636282E-3,-1.5585026E-3,-5.0589244E-4,-5.0574965E-3,-1.000192E-3,4.5468527E-4,1.6300001E-3,8.624436E-3,6.944537E-4,4.863818E-3,2.7444921E-3,9.515313E-4,4.4878693E-3,4.9070753E-3,8.732983E-3,-5.6086207E-4,6.6537983E-3,8.048235E-3,9.583785E-3,4.306739E-3,7.4710944E-3,-2.3486764E-4,1.1995497E-2,1.1927423E-2,9.355268E-3,4.9884035E-3,1.4001434E-2,1.216966E-2,8.226219E-3,1.6948672E-2,1.4340875E-2,4.954362E-3,1.9640232E-2],"categories":[],"categories_nodes":[],"categories_segments":[],"categories_sizes":[],"default_left":[0,0,0,0,0,0,0,0,0,0,0,0,0,0,0,0,0,0,0,0,0,0,0,0,0,0,0,0,0,0,0,0,0,0,0,0,0,0,0,0,0,0,0,0,0,0,0,0,0,0,0,0,0,0,0,0,0,0,0,0,0,0,0,0,0,0,0,0,0,0,0,0,0,0,0,0,0,0,0,0,0,0,0,0,0,0,0,0,0,0,0,0,0,0,0,0,0,0,0,0,0,0,0],"id":8,"left_children":[1,3,5,7,9,11,13,15,17,19,21,23,25,27,29,31,33,35,37,39,41,43,-1,45,47,49,51,53,55,57,-1,-1,59,61,63,65,-1,-1,67,69,71,73,-1,75,77,79,81,83,85,87,89,91,93,95,97,-1,99,101,-1,-1,-1,-1,-1,-1,-1,-1,-1,-1,-1,-1,-1,-1,-1,-1,-1,-1,-1,-1,-1,-1,-1,-1,-1,-1,-1,-1,-1,-1,-1,-1,-1,-1,-1,-1,-1,-1,-1,-1,-1,-1,-1,-1,-1],"loss_changes":[3.777559E1,2.0245E0,3.948845E0,1.5159416E-1,1.0929599E-1,6.2423897E-1,5.5327606E-1,1.1492729E-2,1.0094494E-2,1.4394511E-2,2.1722361E-2,1.0807562E-1,4.9952507E-2,1.04249E-1,1.5065193E-2,8.506775E-4,4.7672987E-3,5.09955E-4,6.6105425E-3,8.389741E-3,3.5136063E-3,1.7613687E-2,0E0,3.3689797E-2,1.3786912E-2,1.2332201E-2,1.249671E-2,7.83968E-3,1.72081E-2,7.888317E-3,0E0,0E0,7.677078E-4,8.9503825E-3,4.120171E-3,4.7124922E-5,0E0,0E0,7.3907673E-3,1.0129516E-2,8.936815E-3,2.019154E-3,0E0,1.2903281E-2,4.091777E-3,2.5537312E-2,1.8248394E-2,1.5907139E-2,1.1107922E-2,9.322643E-3,8.460283E-3,1.5288174E-2,8.101463E-3,1.2361288E-2,1.4879227E-2,0E0,1.8511295E-2,4.463196E-3,0E0,0E0,0E0,0E0,0E0,0E0,0E0,0E0,0E0,0E0,0E0,0E0,0E0,0E0,0E0,0E0,0E0,0E0,0E0,0E0,0E0,0E0,0E0,0E0,0E0,0E0,0E0,0E0,0E0,0E0,0E0,0E0,0E0,0E0,0E0,0E0,0E0,0E0,0E0,0E0,0E0,0E0,0E0,0E0,0E0],"parents":[2147483647,0,0,1,1,2,2,3,3,4,4,5,5,6,6,7,7,8,8,9,9,10,10,11,11,12,12,13,13,14,14,15,15,16,16,17,17,18,18,19,19,20,20,21,21,23,23,24,24,25,25,26,26,27,27,28,28,29,29,32,32,33,33,34,34,35,35,38,38,39,39,40,40,41,41,43,43,44,44,45,45,46,46,47,47,48,48,49,49,50,50,51,51,52,52,53,53,54,54,56,56,57,57],"right_children":[2,4,6,8,10,12,14,16,18,20,22,24,26,28,30,32,34,36,38,40,42,44,-1,46,48,50,52,54,56,58,-1,-1,60,62,64,66,-1,-1,68,70,72,74,-1,76,78,80,82,84,86,88,90,92,94,96,98,-1,100,102,-1,-1,-1,-1,-1,-1,-1,-1,-1,-1,-1,-1,-1,-1,-1,-1,-1,-1,-1,-1,-1,-1,-1,-1,-1,-1,-1,-1,-1,-1,-1,-1,-1,-1,-1,-1,-1,-1,-1,-1,-1,-1,-1,-1,-1],"split_conditions":[1.8339641E-1,6.640647E-2,3.8668275E-1,1.6015053E-2,1.2421201E-1,2.9442346E-1,5.008839E-1,1.7311275E-3,3.4010294E-1,5.818402E-1,5.774323E-1,2.3742993E-1,3.420859E-1,4.4393617E-1,5.712225E-1,-2.1748692E-3,6.415922E-2,7.2950786E-1,3.4328905E-1,2.3722862E-1,1.7354912E-1,9.7493035E-1,8.691987E-3,7.938719E-1,2.5721562E-1,3.8820502E-1,2.5E-1,3.7433204E-1,5.5710305E-3,4.931842E-2,2.1272484E-2,-5.0352053E-3,4.1036528E-1,5.97253E-2,3.3426184E-2,2.6276207E-1,-2.0777863E-3,3.058313E-3,1.9149585E-1,3.0010223E-1,4.54039E-1,6.656598E-1,8.565508E-4,1.476673E-1,4.6158677E-1,4.1976607E-1,1.5963641E-1,2.6188454E-1,1.1142061E-2,7.5E-1,3.0124718E-1,7.00448E-4,1.7005782E-1,2.9184006E-3,2.6188454E-1,9.3334913E-4,2.9805014E-1,7.565596E-2,1.680779E-2,-3.8728553E-3,-5.609932E-3,-4.6629156E-3,-2.0480356E-3,-2.5678102E-3,-5.406771E-3,-2.4065205E-3,-5.865425E-3,-2.7760123E-3,-3.9777495E-3,-3.4261663E-3,5.636282E-3,-1.5585026E-3,-5.0589244E-4,-5.0574965E-3,-1.000192E-3,4.5468527E-4,1.6300001E-3,8.624436E-3,6.944537E-4,4.863818E-3,2.7444921E-3,9.515313E-4,4.4878693E-3,4.9070753E-3,8.732983E-3,-5.6086207E-4,6.6537983E-3,8.048235E-3,9.583785E-3,4.306739E-3,7.4710944E-3,-2.3486764E-4,1.1995497E-2,1.1927423E-2,9.355268E-3,4.9884035E-3,1.4001434E-2,1.216966E-2,8.226219E-3,1.6948672E-2,1.4340875E-2,4.954362E-3,1.9640232E-2],"split_indices":[0,0,0,0,0,0,0,0,1,1,3,0,0,0,0,0,3,2,1,1,3,4,0,4,0,1,5,2,4,3,0,0,1,3,4,1,0,0,3,2,4,1,0,0,1,1,3,3,4,5,0,3,1,3,3,0,4,1,0,0,0,0,0,0,0,0,0,0,0,0,0,0,0,0,0,0,0,0,0,0,0,0,0,0,0,0,0,0,0,0,0,0,0,0,0,0,0,0,0,0,0,0,0],"split_type":[0,0,0,0,0,0,0,0,0,0,0,0,0,0,0,0,0,0,0,0,0,0,0,0,0,0,0,0,0,0,0,0,0,0,0,0,0,0,0,0,0,0,0,0,0,0,0,0,0,0,0,0,0,0,0,0,0,0,0,0,0,0,0,0,0,0,0,0,0,0,0,0,0,0,0,0,0,0,0,0,0,0,0,0,0,0,0,0,0,0,0,0,0,0,0,0,0,0,0,0,0,0,0],"sum_hessian":[7.98E3,5.485E3,2.495E3,4.739E3,7.46E2,1.496E3,9.99E2,4.424E3,3.15E2,3.43E2,4.03E2,8.09E2,6.87E2,7.17E2,2.82E2,4.081E3,3.43E2,2.1E1,2.94E2,3.29E2,1.4E1,4E2,3E0,3.74E2,4.35E2,3.74E2,3.13E2,4.05E2,3.12E2,2.18E2,6.4E1,1.25E2,3.956E3,1.51E2,1.92E2,1.9E1,2E0,1E0,2.93E2,4E0,3.25E2,1.3E1,1E0,3.96E2,4E0,2.98E2,7.6E1,1.56E2,2.79E2,3.03E2,7.1E1,6.4E1,2.49E2,9.1E1,3.14E2,1E0,3.11E2,9.6E1,1.22E2,1.2E1,3.944E3,1.34E2,1.7E1,8E0,1.84E2,2E0,1.7E1,2.15E2,7.8E1,1E0,3E0,1.55E2,1.7E2,1.1E1,2E0,1.53E2,2.43E2,3E0,1E0,2.14E2,8.4E1,5.7E1,1.9E1,1.43E2,1.3E1,2E0,2.77E2,1.91E2,1.12E2,1.6E1,5.5E1,1E0,6.3E1,2.9E1,2.2E2,3E0,8.8E1,2.95E2,1.9E1,8.1E1,2.3E2,1E0,9.5E1],"tree_param":{"num_deleted":"0","num_feature":"6","num_nodes":"103","size_leaf_vector":"1"}},{"base_weights":[1.673008E-4,-4.051456E-2,9.456133E-2,-4.8488475E-2,4.583025E-3,6.508695E-2,1.3587826E-1,-4.9988013E-2,-3.1052059E-2,-7.1651563E-3,1.7130138E-2,4.8151936E-2,8.2665816E-2,1.2215408E-1,1.7021781E-1,-5.04146E-2,-4.6009947E-2,-3.6141027E-2,-2.5880447E-2,-1.5272221E-2,-2.5609324E-3,1.819057E-2,-2.2602739E-2,4.0852703E-2,5.942412E-2,7.495422E-2,9.1612265E-2,1.1256632E-1,1.3666399E-1,1.6304094E-1,1.9177964E-2,-1.4773732E-2,-5.0438065E-2,-2.8794506E-4,-4.6220955E-2,-2.7506625E-2,-4.44828E-2,6.7519117E-3,-2.715859E-2,-6.408958E-3,-1.3905067E-2,-7.6962914E-3,6.1049215E-3,1.735877E-2,6.936442E-2,-5.947414E-2,3.353777E-2,4.1886657E-2,-3.185396E-3,8.3200045E-2,5.7074234E-2,7.786741E-2,6.161306E-2,9.9729165E-2,8.275202E-2,1.1533035E-1,9.854585E-2,1.1501523E-1,1.4142357E-1,1.7611271E-1,1.5140675E-2,-3.6558782E-4,-2.4063648E-3,-4.5356806E-3,-5.0593195E-3,-5.312003E-4,4.8800858E-4,-4.0596817E-3,-4.797037E-3,-3.547227E-3,-1.5667061E-3,-4.583416E-3,-2.1139642E-3,-9.7227993E-4,1.8581297E-3,-2.8891824E-3,-4.04847E-4,-1.927023E-3,-2.0150191E-4,-4.967821E-4,-4.1315095E-3,-3.4123863E-5,3.4960967E-3,9.771594E-4,2.1939555E-3,8.284164E-3,9.891838E-5,2.9753E-4,-7.037827E-3,5.6370627E-3,-4.7433874E-5,3.8029805E-3,5.5046226E-3,-2.444451E-3,4.0129176E-3,9.72815E-3,5.048651E-3,3.8180612E-3,6.078049E-3,7.539805E-3,9.951542E-3,8.397762E-4,6.380507E-3,1.0110537E-2,2.1125209E-3,-4.1098944E-3,8.381621E-3,1.0745687E-2,1.2563686E-2,5.8970316E-3,1.1278605E-2,9.511365E-3,1.343204E-2,2.058956E-3,1.418691E-2,4.7066435E-3,1.7696667E-2],"categories":[],"categories_nodes":[],"categories_segments":[],"categories_sizes":[],"default_left":[0,0,0,0,0,0,0,0,0,0,0,0,0,0,0,0,0,0,0,0,0,0,0,0,0,0,0,0,0,0,0,0,0,0,0,0,0,0,0,0,0,0,0,0,0,0,0,0,0,0,0,0,0,0,0,0,0,0,0,0,0,0,0,0,0,0,0,0,0,0,0,0,0,0,0,0,0,0,0,0,0,0,0,0,0,0,0,0,0,0,0,0,0,0,0,0,0,0,0,0,0,0,0,0,0,0,0,0,0,0,0,0,0,0,0,0,0],"id":9,"left_children":[1,3,5,7,9,11,13,15,17,19,21,23,25,27,29,31,33,35,37,39,41,43,45,47,49,51,53,55,57,59,-1,61,63,65,67,69,71,73,75,-1,77,79,81,83,85,87,89,91,93,95,97,99,101,103,105,107,109,111,113,115,-1,-1,-1,-1,-1,-1,-1,-1,-1,-1,-1,-1,-1,-1,-1,-1,-1,-1,-1,-1,-1,-1,-1,-1,-1,-1,-1,-1,-1,-1,-1,-1,-1,-1,-1,-1,-1,-1,-1,-1,-1,-1,-1,-1,-1,-1,-1,-1,-1,-1,-1,-1,-1,-1,-1,-1,-1],"loss_changes":[3.0651869E1,2.006095E0,2.918726E0,1.22382164E-1,1.2379618E-1,4.1428614E-1,4.5049095E-1,5.084038E-3,9.012938E-3,1.6160695E-2,1.7517582E-2,5.6648016E-2,4.059887E-2,8.450222E-2,1.25255585E-2,2.541542E-3,4.1738153E-3,1.2317345E-2,8.149758E-3,9.587139E-3,1.2418617E-2,1.5652195E-2,2.4764404E-2,2.0122647E-2,1.0895252E-2,9.776831E-3,1.4329433E-2,5.6085587E-3,1.268816E-2,6.641388E-3,0E0,3.2516196E-4,8.0013275E-4,1.0381649E-4,2.3029447E-3,8.403681E-3,1.9962937E-3,1.7397479E-3,7.2532E-3,0E0,9.785149E-3,1.5847139E-2,1.9357039E-2,1.3374917E-2,5.447099E-3,4.97609E-3,3.9097066E-3,1.9680321E-2,1.1110061E-2,5.6836456E-3,1.57457E-2,8.747578E-3,7.862836E-3,1.5063882E-2,2.400577E-2,1.5712738E-2,3.7870526E-2,8.73971E-3,9.2458725E-3,2.360344E-3,0E0,0E0,0E0,0E0,0E0,0E0,0E0,0E0,0E0,0E0,0E0,0E0,0E0,0E0,0E0,0E0,0E0,0E0,0E0,0E0,0E0,0E0,0E0,0E0,0E0,0E0,0E0,0E0,0E0,0E0,0E0,0E0,0E0,0E0,0E0,0E0,0E0,0E0,0E0,0E0,0E0,0E0,0E0,0E0,0E0,0E0,0E0,0E0,0E0,0E0,0E0,0E0,0E0,0E0,0E0,0E0,0E0],"parents":[2147483647,0,0,1,1,2,2,3,3,4,4,5,5,6,6,7,7,8,8,9,9,10,10,11,11,12,12,13,13,14,14,15,15,16,16,17,17,18,18,19,19,20,20,21,21,22,22,23,23,24,24,25,25,26,26,27,27,28,28,29,29,31,31,32,32,33,33,34,34,35,35,36,36,37,37,38,38,40,40,41,41,42,42,43,43,44,44,45,45,46,46,47,47,48,48,49,49,50,50,51,51,52,52,53,53,54,54,55,55,56,56,57,57,58,58,59,59],"right_children":[2,4,6,8,10,12,14,16,18,20,22,24,26,28,30,32,34,36,38,40,42,44,46,48,50,52,54,56,58,60,-1,62,64,66,68,70,72,74,76,-1,78,80,82,84,86,88,90,92,94,96,98,100,102,104,106,108,110,112,114,116,-1,-1,-1,-1,-1,-1,-1,-1,-1,-1,-1,-1,-1,-1,-1,-1,-1,-1,-1,-1,-1,-1,-1,-1,-1,-1,-1,-1,-1,-1,-1,-1,-1,-1,-1,-1,-1,-1,-1,-1,-1,-1,-1,-1,-1,-1,-1,-1,-1,-1,-1,-1,-1,-1,-1,-1,-1],"split_conditions":[1.9718836E-1,6.640647E-2,3.8668275E-1,1.1564255E-2,1.3826625E-1,2.9442346E-1,5.008839E-1,1.0059029E-3,3.383191E-2,9.559931E-2,8.1127685E-1,2.5721562E-1,3.420859E-1,4.4910628E-1,5.712225E-1,3.847743E-1,3.4010294E-1,8.0973975E-2,1.9498607E-2,2.9231724E-1,1.2659955E-1,5.286259E-1,5E-1,8.2618326E-1,1.9948313E-1,3.8820502E-1,8.165252E-2,6.838623E-1,2.5E-1,4.931842E-2,1.9177964E-2,3.2190979E-4,-2.1748692E-3,7.1914643E-3,3.922608E-2,3.871544E-2,7.228768E-1,1.0913422E-1,7.195843E-1,-6.408958E-3,5.878238E-1,1.14574336E-1,4.6158677E-1,3.3426183E-1,3.983287E-1,4.4879578E-2,3.4632903E-1,6.428769E-1,8.63427E-1,7.5E-1,2.6588234E-1,9.08078E-1,5.292479E-2,8.0520266E-1,8.244773E-2,4.215147E-1,7.03091E-1,6.2674093E-1,7.00448E-4,7.565596E-2,1.5140675E-2,-3.6558782E-4,-2.4063648E-3,-4.5356806E-3,-5.0593195E-3,-5.312003E-4,4.8800858E-4,-4.0596817E-3,-4.797037E-3,-3.547227E-3,-1.5667061E-3,-4.583416E-3,-2.1139642E-3,-9.7227993E-4,1.8581297E-3,-2.8891824E-3,-4.04847E-4,-1.927023E-3,-2.0150191E-4,-4.967821E-4,-4.1315095E-3,-3.4123863E-5,3.4960967E-3,9.771594E-4,2.1939555E-3,8.284164E-3,9.891838E-5,2.9753E-4,-7.037827E-3,5.6370627E-3,-4.7433874E-5,3.8029805E-3,5.5046226E-3,-2.444451E-3,4.0129176E-3,9.72815E-3,5.048651E-3,3.8180612E-3,6.078049E-3,7.539805E-3,9.951542E-3,8.397762E-4,6.380507E-3,1.0110537E-2,2.1125209E-3,-4.1098944E-3,8.381621E-3,1.0745687E-2,1.2563686E-2,5.8970316E-3,1.1278605E-2,9.511365E-3,1.343204E-2,2.058956E-3,1.418691E-2,4.7066435E-3,1.7696667E-2],"split_indices":[0,0,0,0,0,0,0,0,0,0,2,0,0,0,0,1,1,3,4,1,3,3,5,2,1,1,3,2,5,3,0,0,0,0,3,3,2,3,2,0,2,3,1,4,4,3,1,2,2,5,1,4,4,2,3,0,2,4,3,1,0,0,0,0,0,0,0,0,0,0,0,0,0,0,0,0,0,0,0,0,0,0,0,0,0,0,0,0,0,0,0,0,0,0,0,0,0,0,0,0,0,0,0,0,0,0,0,0,0,0,0,0,0,0,0,0,0],"split_type":[0,0,0,0,0,0,0,0,0,0,0,0,0,0,0,0,0,0,0,0,0,0,0,0,0,0,0,0,0,0,0,0,0,0,0,0,0,0,0,0,0,0,0,0,0,0,0,0,0,0,0,0,0,0,0,0,0,0,0,0,0,0,0,0,0,0,0,0,0,0,0,0,0,0,0,0,0,0,0,0,0,0,0,0,0,0,0,0,0,0,0,0,0,0,0,0,0,0,0,0,0,0,0,0,0,0,0,0,0,0,0,0,0,0,0,0,0],"sum_hessian":[7.98E3,5.577E3,2.403E3,4.739E3,8.38E2,1.404E3,9.99E2,4.362E3,3.77E2,4.33E2,4.05E2,7.17E2,6.87E2,7.17E2,2.82E2,3.929E3,4.33E2,1.87E2,1.9E2,1.56E2,2.77E2,3.95E2,1E1,4.38E2,2.79E2,3.74E2,3.13E2,4.37E2,2.8E2,2.18E2,6.4E1,3E0,3.926E3,2E0,4.31E2,9.4E1,9.3E1,7E0,1.83E2,3E0,1.53E2,1.74E2,1.03E2,3.9E2,5E0,6E0,4E0,4.28E2,1E1,2.2E1,2.57E2,3.03E2,7.1E1,1.58E2,1.55E2,3.59E2,7.8E1,5.5E1,2.25E2,9.6E1,1.22E2,2E0,1E0,1.25E2,3.801E3,1E0,1E0,1.08E2,3.23E2,5.5E1,3.9E1,8.7E1,6E0,3E0,4E0,1.7E2,1.3E1,1.05E2,4.8E1,1.62E2,1.2E1,8.5E1,1.8E1,1.48E2,2.42E2,4E0,1E0,1E0,5E0,2E0,2E0,3.34E2,9.4E1,7E0,3E0,1.4E1,8E0,4.4E1,2.13E2,2.76E2,2.7E1,3E0,6.8E1,1.55E2,3E0,1E0,1.54E2,2.1E2,1.49E2,2.2E1,5.6E1,3E1,2.5E1,1E0,2.24E2,1E0,9.5E1],"tree_param":{"num_deleted":"0","num_feature":"6","num_nodes":"117","size_leaf_vector":"1"}},{"base_weights":[1.7291964E-4,-3.7481997E-2,8.293522E-2,-4.3951817E-2,-2.4265873E-5,5.28039E-2,1.1781684E-1,-4.5110878E-2,-3.0531686E-2,-1.0787456E-2,1.07922675E-2,3.4561273E-2,6.46831E-2,1.01775944E-1,1.4378394E-1,-4.3199264E-2,-4.5696028E-2,-2.5114583E-2,-3.595944E-2,-1.5740715E-2,-4.9600555E-3,1.012104E-2,7.5384774E-3,2.5967823E-2,4.041736E-2,5.4683007E-2,7.189539E-2,9.421814E-2,1.1319423E-1,1.3465816E-1,1.6514285E-2,-4.131461E-2,-4.4999868E-2,-3.9122187E-2,-4.578367E-3,-2.790108E-2,-1.2286132E-3,-3.992126E-2,-2.4767183E-2,-4.4627346E-2,-1.3998503E-2,2.8652896E-3,-1.3885053E-2,6.593762E-3,2.1731876E-2,7.543242E-2,2.4212068E-2,5.586234E-2,3.669989E-2,5.9676874E-2,4.5225106E-2,6.957422E-2,8.951012E-2,9.599643E-2,6.475046E-2,1.1986374E-1,9.930708E-2,1.4598913E-1,1.2500855E-1,-4.161054E-3,-2.223885E-3,-2.913837E-3,-4.5353286E-3,-2.448079E-3,-4.2624096E-3,-2.126742E-3,-3.1573796E-3,4.213586E-3,-1.3910598E-3,-3.2782701E-3,-4.4566537E-3,8.0425927E-4,-3.2965727E-3,5.8463495E-4,-6.2101507E-3,4.869948E-3,-1.5466599E-3,-1.3015805E-3,1.0084285E-3,-1.7273616E-3,2.2159785E-3,3.0693706E-4,1.8364688E-3,2.9968203E-3,-4.6381686E-4,8.181334E-3,1.8573456E-3,-6.666782E-4,2.6262782E-3,6.5587573E-3,1.6499535E-4,-1.8141669E-3,3.831448E-3,6.1410884E-3,2.0832631E-3,6.0715675E-3,3.2629166E-3,7.865856E-3,6.283851E-3,9.221106E-3,-2.2768097E-3,9.393699E-3,1.2287915E-2,-1.9329861E-3,6.858047E-3,2.584979E-4,1.2048707E-2,1.1367093E-2,8.160788E-3,8.125606E-3,1.4781176E-2,1.1019507E-2,1.3420448E-2],"categories":[],"categories_nodes":[],"categories_segments":[],"categories_sizes":[],"default_left":[0,0,0,0,0,0,0,0,0,0,0,0,0,0,0,0,0,0,0,0,0,0,0,0,0,0,0,0,0,0,0,0,0,0,0,0,0,0,0,0,0,0,0,0,0,0,0,0,0,0,0,0,0,0,0,0,0,0,0,0,0,0,0,0,0,0,0,0,0,0,0,0,0,0,0,0,0,0,0,0,0,0,0,0,0,0,0,0,0,0,0,0,0,0,0,0,0,0,0,0,0,0,0,0,0,0,0,0,0,0,0,0,0],"id":10,"left_children":[1,3,5,7,9,11,13,15,17,19,21,23,25,27,29,31,33,35,37,39,41,43,-1,45,47,49,51,53,55,57,-1,59,61,63,-1,65,67,69,71,73,75,77,79,81,83,85,87,89,91,93,95,97,99,101,103,105,107,109,111,-1,-1,-1,-1,-1,-1,-1,-1,-1,-1,-1,-1,-1,-1,-1,-1,-1,-1,-1,-1,-1,-1,-1,-1,-1,-1,-1,-1,-1,-1,-1,-1,-1,-1,-1,-1,-1,-1,-1,-1,-1,-1,-1,-1,-1,-1,-1,-1,-1,-1,-1,-1,-1,-1],"loss_changes":[2.4875154E1,1.3295021E0,2.6171513E0,7.1388245E-2,9.430053E-2,2.8836942E-1,4.668789E-1,2.840042E-3,1.0122895E-2,1.16409585E-2,1.6752962E-2,2.5672495E-2,5.45609E-2,5.129671E-2,6.333065E-2,1.6258955E-3,9.727478E-5,1.2678325E-2,7.2144866E-3,1.0396823E-2,1.3169927E-2,1.6279519E-2,0E0,1.7106414E-2,1.5978575E-2,1.3548732E-2,1.2907267E-2,1.6736269E-2,1.4122963E-2,1.5973568E-2,0E0,1.976192E-3,1.5597343E-3,1.5201792E-3,0E0,3.49468E-3,1.21350335E-2,3.015682E-3,1.3983741E-2,1.094689E-2,1.9898906E-2,1.1710455E-2,1.1131119E-2,1.2762606E-2,2.033788E-2,1.0201298E-3,1.3599709E-2,3.099823E-2,2.3363024E-2,1.3673723E-2,2.2018462E-2,2.0634413E-2,1.7565459E-2,1.1211634E-2,1.03424415E-2,1.3212919E-2,1.538372E-2,4.271269E-3,9.186745E-3,0E0,0E0,0E0,0E0,0E0,0E0,0E0,0E0,0E0,0E0,0E0,0E0,0E0,0E0,0E0,0E0,0E0,0E0,0E0,0E0,0E0,0E0,0E0,0E0,0E0,0E0,0E0,0E0,0E0,0E0,0E0,0E0,0E0,0E0,0E0,0E0,0E0,0E0,0E0,0E0,0E0,0E0,0E0,0E0,0E0,0E0,0E0,0E0,0E0,0E0,0E0,0E0,0E0,0E0],"parents":[2147483647,0,0,1,1,2,2,3,3,4,4,5,5,6,6,7,7,8,8,9,9,10,10,11,11,12,12,13,13,14,14,15,15,16,16,17,17,18,18,19,19,20,20,21,21,23,23,24,24,25,25,26,26,27,27,28,28,29,29,31,31,32,32,33,33,35,35,36,36,37,37,38,38,39,39,40,40,41,41,42,42,43,43,44,44,45,45,46,46,47,47,48,48,49,49,50,50,51,51,52,52,53,53,54,54,55,55,56,56,57,57,58,58],"right_children":[2,4,6,8,10,12,14,16,18,20,22,24,26,28,30,32,34,36,38,40,42,44,-1,46,48,50,52,54,56,58,-1,60,62,64,-1,66,68,70,72,74,76,78,80,82,84,86,88,90,92,94,96,98,100,102,104,106,108,110,112,-1,-1,-1,-1,-1,-1,-1,-1,-1,-1,-1,-1,-1,-1,-1,-1,-1,-1,-1,-1,-1,-1,-1,-1,-1,-1,-1,-1,-1,-1,-1,-1,-1,-1,-1,-1,-1,-1,-1,-1,-1,-1,-1,-1,-1,-1,-1,-1,-1,-1,-1,-1,-1,-1],"split_conditions":[1.8339641E-1,5.5226833E-2,3.618645E-1,7.1914643E-3,1.2421201E-1,2.5721562E-1,4.700253E-1,6.1166406E-1,8.448711E-2,9.559931E-2,5.774323E-1,2.1753292E-1,3.0124718E-1,4.2541313E-1,5.438202E-1,5.878238E-1,-2.1748692E-3,7.0313565E-2,3.9247468E-2,3.1173262E-1,4.3129793E-1,7.4094707E-1,7.5384774E-3,1.1142061E-2,3.353313E-1,6.7409474E-1,8.523677E-1,2.665903E-1,6.066156E-1,4.931842E-2,1.6514285E-2,5.844889E-1,3.933293E-1,2.3649514E-2,-4.578367E-3,4.7486976E-1,3.1738022E-1,4.7399637E-1,3.8820502E-1,1.4019883E-1,3.1817147E-1,2.9805014E-1,8.8579386E-1,4.7841066E-1,4.689099E-1,3.677462E-1,2.2495528E-1,8.579387E-1,2.2284122E-2,7.690825E-1,5E-1,6.21276E-2,4.372204E-1,2.0910494E-1,1.1142061E-2,5.5710305E-3,8.0973975E-2,8.866585E-2,4.1504177E-1,-4.161054E-3,-2.223885E-3,-2.913837E-3,-4.5353286E-3,-2.448079E-3,-4.2624096E-3,-2.126742E-3,-3.1573796E-3,4.213586E-3,-1.3910598E-3,-3.2782701E-3,-4.4566537E-3,8.0425927E-4,-3.2965727E-3,5.8463495E-4,-6.2101507E-3,4.869948E-3,-1.5466599E-3,-1.3015805E-3,1.0084285E-3,-1.7273616E-3,2.2159785E-3,3.0693706E-4,1.8364688E-3,2.9968203E-3,-4.6381686E-4,8.181334E-3,1.8573456E-3,-6.666782E-4,2.6262782E-3,6.5587573E-3,1.6499535E-4,-1.8141669E-3,3.831448E-3,6.1410884E-3,2.0832631E-3,6.0715675E-3,3.2629166E-3,7.865856E-3,6.283851E-3,9.221106E-3,-2.2768097E-3,9.393699E-3,1.2287915E-2,-1.9329861E-3,6.858047E-3,2.584979E-4,1.2048707E-2,1.1367093E-2,8.160788E-3,8.125606E-3,1.4781176E-2,1.1019507E-2,1.3420448E-2],"split_indices":[0,0,0,0,0,0,0,1,3,0,3,0,0,0,0,2,0,3,0,1,1,4,0,4,2,4,4,3,2,3,0,2,1,3,0,1,2,2,1,3,1,4,4,1,1,1,2,4,4,2,5,3,1,3,4,4,3,1,4,0,0,0,0,0,0,0,0,0,0,0,0,0,0,0,0,0,0,0,0,0,0,0,0,0,0,0,0,0,0,0,0,0,0,0,0,0,0,0,0,0,0,0,0,0,0,0,0,0,0,0,0,0,0],"split_type":[0,0,0,0,0,0,0,0,0,0,0,0,0,0,0,0,0,0,0,0,0,0,0,0,0,0,0,0,0,0,0,0,0,0,0,0,0,0,0,0,0,0,0,0,0,0,0,0,0,0,0,0,0,0,0,0,0,0,0,0,0,0,0,0,0,0,0,0,0,0,0,0,0,0,0,0,0,0,0,0,0,0,0,0,0,0,0,0,0,0,0,0,0,0,0,0,0,0,0,0,0,0,0,0,0,0,0,0,0,0,0,0,0],"sum_hessian":[7.98E3,5.485E3,2.495E3,4.677E3,8.08E2,1.34E3,1.155E3,4.303E3,3.74E2,4.05E2,4.03E2,5.3E2,8.1E2,7.17E2,4.38E2,1.026E3,3.277E3,1.9E2,1.84E2,2.18E2,1.87E2,4E2,3E0,2.17E2,3.13E2,3.43E2,4.67E2,4.37E2,2.8E2,3.12E2,1.26E2,5.13E2,5.13E2,4.9E1,3.228E3,1.7E2,2E1,1.34E2,5E1,1.1E1,2.07E2,1E2,8.7E1,3.08E2,9.2E1,6E0,2.11E2,5.8E1,2.55E2,2.21E2,1.22E2,4.17E2,5E1,4.1E2,2.7E1,1.84E2,9.6E1,1.37E2,1.75E2,5.04E2,9E0,1.3E1,5E2,1.1E1,3.8E1,6.3E1,1.07E2,4E0,1.6E1,5.6E1,7.8E1,1E1,4E1,3E0,8E0,4E0,2.03E2,3.1E1,6.9E1,8E1,7E0,2.38E2,7E1,7E1,2.2E1,5E0,1E0,1.3E1,1.98E2,4.9E1,9E0,7E0,2.48E2,2.11E2,1E1,5.3E1,6.9E1,1.73E2,2.44E2,4.9E1,1E0,3.85E2,2.5E1,1E0,2.6E1,1E0,1.83E2,5E1,4.6E1,5E0,1.32E2,7.2E1,1.03E2],"tree_param":{"num_deleted":"0","num_feature":"6","num_nodes":"113","size_leaf_vector":"1"}},{"base_weights":[1.749228E-4,-3.3738848E-2,7.471449E-2,-3.9564718E-2,-9.34289E-6,4.8912447E-2,1.07789844E-1,-4.0605627E-2,-2.7512355E-2,-9.713898E-3,9.743279E-3,3.3946E-2,6.188068E-2,9.6902065E-2,1.3861032E-1,-3.8892806E-2,-4.112987E-3,-2.4616566E-2,-3.6152482E-2,-1.4177158E-2,-4.463007E-3,9.046494E-3,6.3537404E-2,2.3426073E-2,3.9116245E-2,5.574538E-2,7.0288084E-2,8.8630214E-2,1.0977987E-1,1.3262717E-1,1.5663649E-1,-3.717222E-2,-4.051174E-2,-1.940733E-2,-2.7750276E-2,-1.9201625E-2,-3.9205227E-2,-4.0633403E-2,-1.25826765E-2,-1.518697E-2,1.0633656E-3,8.412276E-3,6.973091E-3,7.655564E-3,5.7322386E-4,6.932328E-2,2.1800099E-2,3.4368366E-2,5.043494E-2,5.447663E-2,1.0472717E-1,1.8332576E-2,7.1243785E-2,1.0098417E-1,8.4539E-2,1.2628016E-1,1.0337596E-1,1.3564172E-1,1.01040445E-1,1.5855653E-2,6.4103426E-3,-3.7457724E-3,-6.9469464E-4,-1.5028677E-3,-4.0680813E-3,-2.3033E-3,1.2121706E-3,-2.2777792E-3,-3.972593E-3,-4.158029E-3,2.5026198E-3,-4.5124297E-3,-2.5859196E-3,5.407875E-4,-5.6581376E-3,4.480352E-3,-1.3927522E-3,-4.1825083E-4,-3.918766E-3,-1.4830204E-3,1.0188876E-3,1.0796611E-3,-1.9684181E-4,7.4995565E-3,1.7644785E-3,2.286451E-3,-2.6839387E-3,4.8813787E-3,2.973253E-3,5.6633973E-3,2.4175842E-3,5.2255965E-3,7.482175E-3,1.2023826E-2,2.8455218E-3,3.297595E-3,-1.2183905E-3,7.529979E-3,5.8370396E-3,5.352273E-3,1.0392263E-2,8.639005E-3,5.5942475E-3,2.4557262E-4,1.27760265E-2,8.894392E-3,1.1554111E-2,1.0833065E-2,1.3880436E-2,2.8209996E-3,1.1488844E-2],"categories":[],"categories_nodes":[],"categories_segments":[],"categories_sizes":[],"default_left":[0,0,0,0,0,0,0,0,0,0,0,0,0,0,0,0,0,0,0,0,0,0,0,0,0,0,0,0,0,0,0,0,0,0,0,0,0,0,0,0,0,0,0,0,0,0,0,0,0,0,0,0,0,0,0,0,0,0,0,0,0,0,0,0,0,0,0,0,0,0,0,0,0,0,0,0,0,0,0,0,0,0,0,0,0,0,0,0,0,0,0,0,0,0,0,0,0,0,0,0,0,0,0,0,0,0,0,0,0,0,0],"id":11,"left_children":[1,3,5,7,9,11,13,15,17,19,21,23,25,27,29,31,-1,33,35,37,39,41,43,45,47,49,51,53,55,57,59,61,63,65,67,69,71,73,75,77,79,81,-1,-1,-1,83,85,87,89,91,93,95,97,99,101,103,105,107,109,-1,-1,-1,-1,-1,-1,-1,-1,-1,-1,-1,-1,-1,-1,-1,-1,-1,-1,-1,-1,-1,-1,-1,-1,-1,-1,-1,-1,-1,-1,-1,-1,-1,-1,-1,-1,-1,-1,-1,-1,-1,-1,-1,-1,-1,-1,-1,-1,-1,-1,-1,-1],"loss_changes":[2.0177832E1,1.0780196E0,2.1248446E0,5.7570457E-2,7.666234E-2,2.703998E-1,3.5334206E-1,2.2654533E-3,8.492529E-3,9.451777E-3,1.4568314E-2,3.4655094E-2,3.481984E-2,7.6660156E-2,9.747982E-3,1.3548136E-3,0E0,4.0975213E-3,4.0078834E-3,8.727014E-3,1.1157896E-2,1.4808241E-2,3.323771E-3,1.4757581E-2,2.1750927E-2,2.1576881E-2,1.4235616E-2,1.6683817E-2,2.0019531E-2,7.147789E-3,1.3843775E-3,4.1407943E-3,1.6204715E-3,1.2853716E-2,9.516165E-3,1.687675E-2,4.915826E-3,9.117162E-3,1.6676512E-2,1.6739437E-2,1.828072E-2,9.847412E-3,0E0,0E0,0E0,7.286668E-4,1.1589408E-2,1.9375265E-2,1.9304007E-2,1.5517354E-2,8.409202E-3,3.5298257E-3,1.1634469E-2,1.1033893E-2,1.5334606E-2,1.4897943E-2,3.0279398E-2,1.9788742E-3,1.9955784E-2,0E0,0E0,0E0,0E0,0E0,0E0,0E0,0E0,0E0,0E0,0E0,0E0,0E0,0E0,0E0,0E0,0E0,0E0,0E0,0E0,0E0,0E0,0E0,0E0,0E0,0E0,0E0,0E0,0E0,0E0,0E0,0E0,0E0,0E0,0E0,0E0,0E0,0E0,0E0,0E0,0E0,0E0,0E0,0E0,0E0,0E0,0E0,0E0,0E0,0E0,0E0,0E0],"parents":[2147483647,0,0,1,1,2,2,3,3,4,4,5,5,6,6,7,7,8,8,9,9,10,10,11,11,12,12,13,13,14,14,15,15,17,17,18,18,19,19,20,20,21,21,22,22,23,23,24,24,25,25,26,26,27,27,28,28,29,29,30,30,31,31,32,32,33,33,34,34,35,35,36,36,37,37,38,38,39,39,40,40,41,41,45,45,46,46,47,47,48,48,49,49,50,50,51,51,52,52,53,53,54,54,55,55,56,56,57,57,58,58],"right_children":[2,4,6,8,10,12,14,16,18,20,22,24,26,28,30,32,-1,34,36,38,40,42,44,46,48,50,52,54,56,58,60,62,64,66,68,70,72,74,76,78,80,82,-1,-1,-1,84,86,88,90,92,94,96,98,100,102,104,106,108,110,-1,-1,-1,-1,-1,-1,-1,-1,-1,-1,-1,-1,-1,-1,-1,-1,-1,-1,-1,-1,-1,-1,-1,-1,-1,-1,-1,-1,-1,-1,-1,-1,-1,-1,-1,-1,-1,-1,-1,-1,-1,-1,-1,-1,-1,-1,-1,-1,-1,-1,-1,-1],"split_conditions":[1.8339641E-1,5.5226833E-2,3.7035602E-1,7.1914643E-3,1.2421201E-1,2.7378923E-1,5.008839E-1,6.1166406E-1,1.9149585E-1,9.559931E-2,9.7493035E-1,2.1753292E-1,3.3057535E-1,4.4393617E-1,5.712225E-1,5.86162E-1,-4.112987E-3,4.363196E-1,3.779948E-1,3.1173262E-1,3.8953793E-1,5.774323E-1,4.6158677E-1,1.1142061E-2,6.13243E-1,9.832869E-1,1.7938656E-1,3.8953793E-1,2.9805014E-1,1.5397927E-1,9.275766E-1,5.844889E-1,5.5710305E-3,4.2322347E-1,4.92981E-1,3.9247468E-2,4.8994362E-1,1.4019883E-1,3.1817147E-1,3.3098638E-1,3.5097492E-1,1.9668241E-1,6.973091E-3,7.655564E-3,5.7322386E-4,3.677462E-1,5.7048273E-1,3.2749447E-1,7.81837E-1,2.665903E-1,3.904996E-1,1E0,6.351276E-1,9.470752E-2,2.665903E-1,5.5710305E-3,6.43454E-1,3.4347898E-1,1.6545275E-1,1.5855653E-2,6.4103426E-3,-3.7457724E-3,-6.9469464E-4,-1.5028677E-3,-4.0680813E-3,-2.3033E-3,1.2121706E-3,-2.2777792E-3,-3.972593E-3,-4.158029E-3,2.5026198E-3,-4.5124297E-3,-2.5859196E-3,5.407875E-4,-5.6581376E-3,4.480352E-3,-1.3927522E-3,-4.1825083E-4,-3.918766E-3,-1.4830204E-3,1.0188876E-3,1.0796611E-3,-1.9684181E-4,7.4995565E-3,1.7644785E-3,2.286451E-3,-2.6839387E-3,4.8813787E-3,2.973253E-3,5.6633973E-3,2.4175842E-3,5.2255965E-3,7.482175E-3,1.2023826E-2,2.8455218E-3,3.297595E-3,-1.2183905E-3,7.529979E-3,5.8370396E-3,5.352273E-3,1.0392263E-2,8.639005E-3,5.5942475E-3,2.4557262E-4,1.27760265E-2,8.894392E-3,1.1554111E-2,1.0833065E-2,1.3880436E-2,2.8209996E-3,1.1488844E-2],"split_indices":[0,0,0,0,0,0,0,1,3,0,4,0,0,0,0,2,0,2,1,1,2,3,1,4,2,4,2,2,4,3,4,2,4,2,1,0,1,3,1,2,4,3,0,0,0,1,1,2,2,3,1,5,2,4,3,4,4,2,3,0,0,0,0,0,0,0,0,0,0,0,0,0,0,0,0,0,0,0,0,0,0,0,0,0,0,0,0,0,0,0,0,0,0,0,0,0,0,0,0,0,0,0,0,0,0,0,0,0,0,0,0],"split_type":[0,0,0,0,0,0,0,0,0,0,0,0,0,0,0,0,0,0,0,0,0,0,0,0,0,0,0,0,0,0,0,0,0,0,0,0,0,0,0,0,0,0,0,0,0,0,0,0,0,0,0,0,0,0,0,0,0,0,0,0,0,0,0,0,0,0,0,0,0,0,0,0,0,0,0,0,0,0,0,0,0,0,0,0,0,0,0,0,0,0,0,0,0,0,0,0,0,0,0,0,0,0,0,0,0,0,0,0,0,0,0],"sum_hessian":[7.98E3,5.485E3,2.495E3,4.677E3,8.08E2,1.403E3,1.092E3,4.303E3,3.74E2,4.05E2,4.03E2,6.53E2,7.5E2,8.1E2,2.82E2,1.026E3,3.277E3,2.83E2,9.1E1,2.18E2,1.87E2,3.99E2,4E0,2.17E2,4.36E2,4.38E2,3.12E2,4.98E2,3.12E2,2.18E2,6.4E1,5.09E2,5.17E2,1.09E2,1.74E2,1.5E1,7.6E1,1.1E1,2.07E2,6.3E1,1.24E2,3.96E2,3E0,3E0,1E0,6E0,2.11E2,3.1E2,1.26E2,4.29E2,9E0,6E0,3.06E2,1.18E2,3.8E2,8.2E1,2.3E2,1.96E2,2.2E1,6.2E1,2E0,5.04E2,5E0,4E0,5.13E2,9.8E1,1.1E1,1.25E2,4.9E1,1E1,5E0,5.1E1,2.5E1,3E0,8E0,4E0,2.03E2,4.4E1,1.9E1,4.5E1,7.9E1,3.22E2,7.4E1,5E0,1E0,2.07E2,4E0,7.3E1,2.37E2,1.01E2,2.5E1,3.9E2,3.9E1,7E0,2E0,4E0,2E0,2.29E2,7.7E1,8E0,1.1E2,3.55E2,2.5E1,1E0,8.1E1,1.09E2,1.21E2,2.4E1,1.72E2,4E0,1.8E1],"tree_param":{"num_deleted":"0","num_feature":"6","num_nodes":"111","size_leaf_vector":"1"}},{"base_weights":[1.7893185E-4,-2.9553602E-2,6.916724E-2,-3.5374954E-2,3.3698345E-3,4.748164E-2,9.956634E-2,-3.638258E-2,-2.115307E-2,-5.4781353E-3,1.2819709E-2,3.510613E-2,6.032777E-2,8.941643E-2,1.2496587E-1,-3.67844E-2,-3.3125453E-2,-4.0839765E-2,-1.9613205E-2,-4.5913435E-3,-3.628104E-2,1.6332738E-2,2.0493479E-3,2.6541082E-2,4.0585034E-2,5.4799188E-2,6.673824E-2,8.187818E-2,9.890882E-2,1.2103316E-1,1.5020736E-1,-8.752905E-3,-3.6803585E-2,-3.3571478E-2,-1.8583236E-2,-4.279174E-2,-1.4213335E-3,-2.0279076E-2,1.0679702E-2,-1.8829819E-2,-2.888645E-3,-4.0936045E-2,7.4619876E-4,1.00744935E-2,3.1721633E-2,-2.1047333E-2,1.25785535E-2,3.2199472E-2,8.863422E-3,5.77887E-2,3.8604468E-2,5.166175E-2,6.773144E-2,8.133854E-2,6.267521E-2,5.263053E-2,8.302105E-2,1.1008343E-1,9.119475E-2,1.0994222E-1,1.2937866E-1,1.7378183E-2,1.16410404E-1,1.2424613E-4,-1.9369501E-3,-3.2895238E-3,-3.6923427E-3,-2.21895E-3,-3.4174435E-3,-2.43317E-3,1.6353499E-3,-8.552827E-4,-4.414364E-3,6.5512E-5,-2.158987E-3,3.5100689E-3,-3.358184E-3,-1.3156895E-3,-6.1581824E-3,7.7117275E-4,-5.231208E-4,-4.787386E-3,-6.477254E-4,1.5467379E-3,-4.4744436E-4,2.276524E-3,5.4656803E-3,2.2762944E-3,-3.000342E-3,1.6895958E-3,-4.6926886E-3,3.3476825E-3,-4.323084E-3,-1.3956912E-4,3.6474501E-3,2.74394E-3,7.0025413E-3,3.7440676E-3,7.572185E-3,4.817551E-3,6.8963543E-3,7.0689716E-3,1.247514E-4,4.746766E-3,9.234558E-3,8.369789E-3,5.9537855E-3,-3.3415768E-3,7.2067506E-3,1.0970927E-2,8.088668E-3,1.1509726E-2,5.8805123E-3,8.082657E-3,1.0549536E-2,1.2845143E-2,9.114308E-3,1.0035753E-2,1.3435348E-2,1.32723395E-2,3.0212344E-3],"categories":[],"categories_nodes":[],"categories_segments":[],"categories_sizes":[],"default_left":[0,0,0,0,0,0,0,0,0,0,0,0,0,0,0,0,0,0,0,0,0,0,0,0,0,0,0,0,0,0,0,0,0,0,0,0,0,0,0,0,0,0,0,0,0,0,0,0,0,0,0,0,0,0,0,0,0,0,0,0,0,0,0,0,0,0,0,0,0,0,0,0,0,0,0,0,0,0,0,0,0,0,0,0,0,0,0,0,0,0,0,0,0,0,0,0,0,0,0,0,0,0,0,0,0,0,0,0,0,0,0,0,0,0,0,0,0,0,0,0,0],"id":12,"left_children":[1,3,5,7,9,11,13,15,17,19,21,23,25,27,29,31,33,35,37,39,41,43,45,47,49,51,53,55,57,59,61,63,65,67,69,71,-1,73,75,77,79,81,-1,83,85,87,89,91,93,95,97,99,101,103,105,107,109,111,113,115,117,-1,119,-1,-1,-1,-1,-1,-1,-1,-1,-1,-1,-1,-1,-1,-1,-1,-1,-1,-1,-1,-1,-1,-1,-1,-1,-1,-1,-1,-1,-1,-1,-1,-1,-1,-1,-1,-1,-1,-1,-1,-1,-1,-1,-1,-1,-1,-1,-1,-1,-1,-1,-1,-1,-1,-1,-1,-1,-1,-1],"loss_changes":[1.637265E1,1.0691924E0,1.5800438E0,6.7156315E-2,7.0220865E-2,2.2124505E-1,2.4662781E-1,4.5728683E-3,8.778483E-3,1.1688468E-2,1.5328184E-2,3.2616496E-2,2.0725965E-2,4.327917E-2,9.912491E-3,1.7914772E-3,2.593279E-3,5.352199E-4,6.1670914E-3,1.0200746E-2,2.7489495E-3,2.9150508E-2,2.4826907E-2,2.802226E-2,1.2624919E-2,1.1716247E-2,1.3529062E-2,9.201527E-3,1.6942024E-2,8.915901E-3,6.8593025E-3,4.4853293E-4,6.246567E-4,2.53582E-3,3.8120626E-3,5.481988E-4,0E0,7.94442E-3,8.745119E-3,1.0103572E-2,9.451685E-3,2.3196638E-3,0E0,1.7252112E-2,1.6832367E-2,1.323876E-2,1.8776504E-2,2.2066385E-2,1.9879472E-2,1.4047697E-2,1.4184535E-2,1.513499E-2,1.3679236E-2,1.9849688E-2,1.1505783E-2,3.251283E-2,1.3284683E-2,2.4855018E-2,1.9793034E-2,2.7959585E-2,6.2959194E-3,0E0,1.989466E-2,0E0,0E0,0E0,0E0,0E0,0E0,0E0,0E0,0E0,0E0,0E0,0E0,0E0,0E0,0E0,0E0,0E0,0E0,0E0,0E0,0E0,0E0,0E0,0E0,0E0,0E0,0E0,0E0,0E0,0E0,0E0,0E0,0E0,0E0,0E0,0E0,0E0,0E0,0E0,0E0,0E0,0E0,0E0,0E0,0E0,0E0,0E0,0E0,0E0,0E0,0E0,0E0,0E0,0E0,0E0,0E0,0E0,0E0],"parents":[2147483647,0,0,1,1,2,2,3,3,4,4,5,5,6,6,7,7,8,8,9,9,10,10,11,11,12,12,13,13,14,14,15,15,16,16,17,17,18,18,19,19,20,20,21,21,22,22,23,23,24,24,25,25,26,26,27,27,28,28,29,29,30,30,31,31,32,32,33,33,34,34,35,35,37,37,38,38,39,39,40,40,41,41,43,43,44,44,45,45,46,46,47,47,48,48,49,49,50,50,51,51,52,52,53,53,54,54,55,55,56,56,57,57,58,58,59,59,60,60,62,62],"right_children":[2,4,6,8,10,12,14,16,18,20,22,24,26,28,30,32,34,36,38,40,42,44,46,48,50,52,54,56,58,60,62,64,66,68,70,72,-1,74,76,78,80,82,-1,84,86,88,90,92,94,96,98,100,102,104,106,108,110,112,114,116,118,-1,120,-1,-1,-1,-1,-1,-1,-1,-1,-1,-1,-1,-1,-1,-1,-1,-1,-1,-1,-1,-1,-1,-1,-1,-1,-1,-1,-1,-1,-1,-1,-1,-1,-1,-1,-1,-1,-1,-1,-1,-1,-1,-1,-1,-1,-1,-1,-1,-1,-1,-1,-1,-1,-1,-1,-1,-1,-1,-1],"split_conditions":[1.9718836E-1,6.640647E-2,3.8668275E-1,1.6015053E-2,1.3826625E-1,2.9442346E-1,5.008839E-1,1.0059029E-3,3.4010294E-1,5.944773E-1,6.351276E-1,2.3742993E-1,3.420859E-1,4.4393617E-1,5.9460753E-1,3.847743E-1,9.860724E-1,7.2950786E-1,6.348911E-1,1.2912605E-2,1.7354912E-1,5.106838E-1,6.6695035E-1,7.6044565E-1,2.2425807E-1,1E0,2.5E-1,3.6453903E-3,4.8416443E-2,1.7005782E-1,1.5289575E-1,3.2190979E-4,-2.1748692E-3,6.3406895E-3,6.4734024E-1,2.2495528E-1,-1.4213335E-3,7.281103E-3,7.5E-1,8.635098E-1,3.871544E-2,6.656598E-1,7.4619876E-4,1E0,7.130919E-1,1.4221902E-1,4.3129793E-1,5.7048273E-1,1E0,1.7451811E-1,9.7771585E-1,8.1894153E-1,4.4921118E-1,1.5598886E-1,1.7005782E-1,1.5289575E-1,1.088603E-2,7.732316E-1,1.2422169E-1,1.2797076E-1,3.23292E-1,1.7378183E-2,6.3945657E-1,1.2424613E-4,-1.9369501E-3,-3.2895238E-3,-3.6923427E-3,-2.21895E-3,-3.4174435E-3,-2.43317E-3,1.6353499E-3,-8.552827E-4,-4.414364E-3,6.5512E-5,-2.158987E-3,3.5100689E-3,-3.358184E-3,-1.3156895E-3,-6.1581824E-3,7.7117275E-4,-5.231208E-4,-4.787386E-3,-6.477254E-4,1.5467379E-3,-4.4744436E-4,2.276524E-3,5.4656803E-3,2.2762944E-3,-3.000342E-3,1.6895958E-3,-4.6926886E-3,3.3476825E-3,-4.323084E-3,-1.3956912E-4,3.6474501E-3,2.74394E-3,7.0025413E-3,3.7440676E-3,7.572185E-3,4.817551E-3,6.8963543E-3,7.0689716E-3,1.247514E-4,4.746766E-3,9.234558E-3,8.369789E-3,5.9537855E-3,-3.3415768E-3,7.2067506E-3,1.0970927E-2,8.088668E-3,1.1509726E-2,5.8805123E-3,8.082657E-3,1.0549536E-2,1.2845143E-2,9.114308E-3,1.0035753E-2,1.3435348E-2,1.32723395E-2,3.0212344E-3],"split_indices":[0,0,0,0,0,0,0,0,1,1,2,0,0,0,0,1,4,2,1,3,3,2,2,4,1,5,5,3,3,1,1,0,0,3,2,2,0,3,5,4,3,1,0,5,4,0,1,1,5,1,4,4,1,4,1,1,3,2,3,1,2,0,2,0,0,0,0,0,0,0,0,0,0,0,0,0,0,0,0,0,0,0,0,0,0,0,0,0,0,0,0,0,0,0,0,0,0,0,0,0,0,0,0,0,0,0,0,0,0,0,0,0,0,0,0,0,0,0,0,0,0],"split_type":[0,0,0,0,0,0,0,0,0,0,0,0,0,0,0,0,0,0,0,0,0,0,0,0,0,0,0,0,0,0,0,0,0,0,0,0,0,0,0,0,0,0,0,0,0,0,0,0,0,0,0,0,0,0,0,0,0,0,0,0,0,0,0,0,0,0,0,0,0,0,0,0,0,0,0,0,0,0,0,0,0,0,0,0,0,0,0,0,0,0,0,0,0,0,0,0,0,0,0,0,0,0,0,0,0,0,0,0,0,0,0,0,0,0,0,0,0,0,0,0,0],"sum_hessian":[7.98E3,5.577E3,2.403E3,4.739E3,8.38E2,1.404E3,9.99E2,4.424E3,3.15E2,4.33E2,4.05E2,7.17E2,6.87E2,7.17E2,2.82E2,3.929E3,4.95E2,2.1E1,2.94E2,4.22E2,1.1E1,3.05E2,1E2,2.82E2,4.35E2,3.74E2,3.13E2,4.05E2,3.12E2,2.49E2,3.3E1,3E0,3.926E3,4.79E2,1.6E1,1.9E1,2E0,2.88E2,6E0,4.4E1,3.78E2,1E1,1E0,2.18E2,8.7E1,3.1E1,6.9E1,2.13E2,6.9E1,4.2E1,3.93E2,3.05E2,6.9E1,6.4E1,2.49E2,1.7E1,3.88E2,1.22E2,1.9E2,1.13E2,1.36E2,1.7E1,1.6E1,2E0,1E0,1.25E2,3.801E3,2.6E1,4.53E2,1.4E1,2E0,1E0,1.8E1,1.7E1,2.71E2,4E0,2E0,4E1,4E0,6.8E1,3.1E2,8E0,2E0,1.59E2,5.9E1,6.4E1,2.3E1,5E0,2.6E1,6.5E1,4E0,2.1E2,3E0,5.1E1,1.8E1,1.3E1,2.9E1,3.83E2,1E1,2.57E2,4.8E1,6.6E1,3E0,1.7E1,4.7E1,2.9E1,2.2E2,3E0,1.4E1,2.5E1,3.63E2,1.1E2,1.2E1,1.14E2,7.6E1,5.4E1,5.9E1,2.3E1,1.13E2,1.3E1,3E0],"tree_param":{"num_deleted":"0","num_feature":"6","num_nodes":"121","size_leaf_vector":"1"}},{"base_weights":[1.8336662E-4,-2.7346348E-2,6.0691316E-2,-3.206378E-2,-3.4265708E-5,3.8582373E-2,8.628595E-2,-3.274776E-2,-2.002168E-2,-8.001107E-3,7.9721E-3,2.5137506E-2,4.733779E-2,7.632438E-2,1.09481625E-1,-3.0660061E-2,-3.3263233E-3,-1.5149278E-2,-2.4774797E-2,3.0120192E-3,-9.771813E-3,7.3834094E-3,6.4995275E-3,2.6104594E-2,-9.870558E-3,4.0019423E-2,5.2615948E-2,6.80892E-2,8.4391855E-2,1.01706475E-1,1.22027114E-1,-2.8947385E-2,-3.3289306E-2,-3.1635272E-3,-2.2543432E-2,-3.833724E-2,-2.124241E-2,-1.5190298E-2,2.6918598E-2,-1.2213306E-2,5.328126E-4,6.7260247E-3,5.8103062E-2,3.0531641E-2,1.655986E-2,-3.8836755E-2,2.032946E-2,4.462735E-2,3.137732E-2,5.0939463E-2,7.1318805E-2,6.963275E-2,4.2792115E-2,9.80978E-2,7.883687E-2,6.6168316E-2,1.038107E-1,1.2978716E-1,1.03232086E-1,1.0455397E-3,-2.925747E-3,-1.8026585E-3,-3.3599057E-3,-2.0502082E-3,1.9835636E-3,-3.1178554E-3,-1.4555111E-4,9.287681E-4,-4.288235E-3,-2.669381E-3,-9.3941594E-4,-2.4597577E-3,1.7282147E-3,6.9332244E-3,9.875749E-4,-1.5983593E-3,-4.8189037E-4,-6.8064145E-4,4.378097E-3,7.398524E-4,-2.6899034E-3,6.9155926E-3,6.945804E-4,3.3104506E-3,1.7458635E-3,1.4020462E-3,9.5524425E-3,1.1944085E-3,-5.7754386E-3,-8.708834E-4,7.162956E-3,3.0523385E-3,4.9662623E-3,3.5211009E-3,-7.018535E-4,5.820078E-3,4.544241E-3,7.4745337E-3,-2.4304867E-3,6.8115727E-3,1.07453065E-2,-7.34664E-4,5.5079754E-3,-1.7083883E-4,9.900418E-3,7.003364E-3,9.472106E-3,2.5712102E-4,7.052731E-3,1.2691893E-2,9.94381E-3,8.328597E-3,1.35496855E-2,1.0805985E-2,4.4512452E-4],"categories":[],"categories_nodes":[],"categories_segments":[],"categories_sizes":[],"default_left":[0,0,0,0,0,0,0,0,0,0,0,0,0,0,0,0,0,0,0,0,0,0,0,0,0,0,0,0,0,0,0,0,0,0,0,0,0,0,0,0,0,0,0,0,0,0,0,0,0,0,0,0,0,0,0,0,0,0,0,0,0,0,0,0,0,0,0,0,0,0,0,0,0,0,0,0,0,0,0,0,0,0,0,0,0,0,0,0,0,0,0,0,0,0,0,0,0,0,0,0,0,0,0,0,0,0,0,0,0,0,0,0,0,0,0],"id":13,"left_children":[1,3,5,7,9,11,13,15,17,19,21,23,25,27,29,31,-1,33,35,37,39,41,-1,43,45,47,49,51,53,55,57,59,61,63,65,67,69,71,73,75,77,79,81,83,85,87,89,91,93,95,97,99,101,103,105,107,109,111,113,-1,-1,-1,-1,-1,-1,-1,-1,-1,-1,-1,-1,-1,-1,-1,-1,-1,-1,-1,-1,-1,-1,-1,-1,-1,-1,-1,-1,-1,-1,-1,-1,-1,-1,-1,-1,-1,-1,-1,-1,-1,-1,-1,-1,-1,-1,-1,-1,-1,-1,-1,-1,-1,-1,-1,-1],"loss_changes":[1.3296144E1,7.068305E-1,1.4090834E0,3.7875175E-2,5.1666204E-2,1.566664E-1,2.5875568E-1,3.742218E-3,5.507089E-3,7.94684E-3,1.3081983E-2,1.8235087E-2,2.9221296E-2,4.8200607E-2,2.1241665E-2,3.0395985E-3,0E0,1.127262E-2,5.269915E-3,2.5212742E-2,8.812044E-3,1.2979468E-2,0E0,2.1340221E-2,1.3911227E-2,1.2298584E-2,1.1041164E-2,1.2912512E-2,2.3177624E-2,9.5078945E-3,5.1249266E-3,6.9770813E-3,1.0206401E-3,2.0345282E-2,1.4340259E-2,5.8097914E-3,6.40196E-3,1.0505851E-2,1.7386522E-2,7.812742E-3,2.188174E-2,9.176295E-3,2.3468267E-3,1.1261582E-2,3.1947445E-2,8.375049E-3,1.2541149E-2,1.4249951E-2,1.8352449E-2,1.4638782E-2,1.3612345E-2,1.4597654E-2,1.6422912E-2,1.0391355E-2,3.4476995E-2,3.976956E-3,8.093119E-3,1.1548519E-2,1.9548357E-2,0E0,0E0,0E0,0E0,0E0,0E0,0E0,0E0,0E0,0E0,0E0,0E0,0E0,0E0,0E0,0E0,0E0,0E0,0E0,0E0,0E0,0E0,0E0,0E0,0E0,0E0,0E0,0E0,0E0,0E0,0E0,0E0,0E0,0E0,0E0,0E0,0E0,0E0,0E0,0E0,0E0,0E0,0E0,0E0,0E0,0E0,0E0,0E0,0E0,0E0,0E0,0E0,0E0,0E0,0E0,0E0],"parents":[2147483647,0,0,1,1,2,2,3,3,4,4,5,5,6,6,7,7,8,8,9,9,10,10,11,11,12,12,13,13,14,14,15,15,17,17,18,18,19,19,20,20,21,21,23,23,24,24,25,25,26,26,27,27,28,28,29,29,30,30,31,31,32,32,33,33,34,34,35,35,36,36,37,37,38,38,39,39,40,40,41,41,42,42,43,43,44,44,45,45,46,46,47,47,48,48,49,49,50,50,51,51,52,52,53,53,54,54,55,55,56,56,57,57,58,58],"right_children":[2,4,6,8,10,12,14,16,18,20,22,24,26,28,30,32,-1,34,36,38,40,42,-1,44,46,48,50,52,54,56,58,60,62,64,66,68,70,72,74,76,78,80,82,84,86,88,90,92,94,96,98,100,102,104,106,108,110,112,114,-1,-1,-1,-1,-1,-1,-1,-1,-1,-1,-1,-1,-1,-1,-1,-1,-1,-1,-1,-1,-1,-1,-1,-1,-1,-1,-1,-1,-1,-1,-1,-1,-1,-1,-1,-1,-1,-1,-1,-1,-1,-1,-1,-1,-1,-1,-1,-1,-1,-1,-1,-1,-1,-1,-1,-1],"split_conditions":[1.8339641E-1,5.5226833E-2,3.618645E-1,1.6015053E-2,1.2421201E-1,2.5721562E-1,4.8962122E-1,5.8410573E-1,8.448711E-2,1.281337E-1,5.774323E-1,8.2618326E-1,3.0124718E-1,4.215147E-1,5.438202E-1,1.3113272E-1,-3.3263233E-3,4.7148237E-1,1.210501E-1,7.24234E-2,1E0,9.7493035E-1,6.4995275E-3,6.8245125E-1,5E-1,6.7409474E-1,9.08078E-1,2.665903E-1,3.259053E-1,8.866585E-2,6.2568486E-1,3.577425E-1,2.2284122E-2,4.2315343E-1,5.793421E-1,3.847743E-1,4.8994362E-1,6.930902E-1,8.913649E-2,5.878238E-1,2.5814322E-1,8.1127685E-1,4.6158677E-1,4.5224577E-1,3.6409357E-1,4.0220417E-2,6.518106E-1,1.6713092E-1,2.97921E-1,6.21276E-2,4.372204E-1,2.4336332E-1,2.8830084E-1,5.5710305E-3,7.771588E-1,4.193114E-1,1.2797076E-1,3.23292E-1,2.0579648E-1,1.0455397E-3,-2.925747E-3,-1.8026585E-3,-3.3599057E-3,-2.0502082E-3,1.9835636E-3,-3.1178554E-3,-1.4555111E-4,9.287681E-4,-4.288235E-3,-2.669381E-3,-9.3941594E-4,-2.4597577E-3,1.7282147E-3,6.9332244E-3,9.875749E-4,-1.5983593E-3,-4.8189037E-4,-6.8064145E-4,4.378097E-3,7.398524E-4,-2.6899034E-3,6.9155926E-3,6.945804E-4,3.3104506E-3,1.7458635E-3,1.4020462E-3,9.5524425E-3,1.1944085E-3,-5.7754386E-3,-8.708834E-4,7.162956E-3,3.0523385E-3,4.9662623E-3,3.5211009E-3,-7.018535E-4,5.820078E-3,4.544241E-3,7.4745337E-3,-2.4304867E-3,6.8115727E-3,1.07453065E-2,-7.34664E-4,5.5079754E-3,-1.7083883E-4,9.900418E-3,7.003364E-3,9.472106E-3,2.5712102E-4,7.052731E-3,1.2691893E-2,9.94381E-3,8.328597E-3,1.35496855E-2,1.0805985E-2,4.4512452E-4],"split_indices":[0,0,0,0,0,0,0,1,3,4,3,2,0,0,0,3,0,1,3,4,5,4,0,4,5,4,4,3,4,1,2,1,4,1,1,1,1,2,4,2,3,2,1,1,3,3,4,4,0,3,1,3,3,4,4,2,1,2,1,0,0,0,0,0,0,0,0,0,0,0,0,0,0,0,0,0,0,0,0,0,0,0,0,0,0,0,0,0,0,0,0,0,0,0,0,0,0,0,0,0,0,0,0,0,0,0,0,0,0,0,0,0,0,0,0],"split_type":[0,0,0,0,0,0,0,0,0,0,0,0,0,0,0,0,0,0,0,0,0,0,0,0,0,0,0,0,0,0,0,0,0,0,0,0,0,0,0,0,0,0,0,0,0,0,0,0,0,0,0,0,0,0,0,0,0,0,0,0,0,0,0,0,0,0,0,0,0,0,0,0,0,0,0,0,0,0,0,0,0,0,0,0,0,0,0,0,0,0,0,0,0,0,0,0,0,0,0,0,0,0,0,0,0,0,0,0,0,0,0,0,0,0,0],"sum_hessian":[7.98E3,5.485E3,2.495E3,4.677E3,8.08E2,1.34E3,1.155E3,4.424E3,2.53E2,4.05E2,4.03E2,5.3E2,8.1E2,8.11E2,3.44E2,8.88E2,3.536E3,1.27E2,1.26E2,5.6E1,3.49E2,4E2,3E0,5.16E2,1.4E1,3.43E2,4.67E2,4.06E2,4.05E2,2.18E2,1.26E2,5.45E2,3.43E2,4.9E1,7.8E1,2.4E1,1.02E2,3.2E1,2.4E1,2.82E2,6.7E1,3.96E2,4E0,3.51E2,1.65E2,7E0,7E0,2.21E2,1.22E2,4.32E2,3.5E1,3.81E2,2.5E1,1.12E2,2.93E2,1.4E1,2.04E2,8.5E1,4.1E1,4E0,5.41E2,8E0,3.35E2,2.8E1,2.1E1,5.5E1,2.3E1,2E0,2.2E1,6.9E1,3.3E1,2.5E1,7E0,6E0,1.8E1,1.86E2,9.6E1,5.8E1,9E0,3.89E2,7E0,3E0,1E0,2.92E2,5.9E1,1.61E2,4E0,2E0,5E0,5E0,2E0,6E1,1.61E2,1.11E2,1.1E1,1.82E2,2.5E2,3.4E1,1E0,3.69E2,1.2E1,5E0,2E1,1E0,1.11E2,1.92E2,1.01E2,1E0,1.3E1,2.8E1,1.76E2,1.1E1,7.4E1,3.9E1,2E0],"tree_param":{"num_deleted":"0","num_feature":"6","num_nodes":"115","size_leaf_vector":"1"}},{"base_weights":[1.8456127E-4,-2.5534322E-2,5.2760087E-2,-2.924324E-2,-4.6944763E-3,3.3028927E-2,7.775391E-2,-2.9624524E-2,-2.2480952E-2,-1.2002249E-2,1.6811746E-3,2.1119224E-2,4.263638E-2,6.875172E-2,9.871629E-2,-2.8525494E-2,-3.0101132E-2,-2.6062386E-2,-1.2264251E-2,-2.3440616E-2,-9.683833E-3,4.4247825E-2,6.756507E-4,1.5927058E-2,2.67402E-2,3.6048986E-2,4.738729E-2,6.280111E-2,7.8037836E-2,9.167256E-2,1.10085264E-1,-2.6969489E-2,-2.9681405E-2,-2.4141748E-2,-3.0163673E-3,-2.3868222E-2,-4.8899534E-3,-4.5688383E-4,-2.4057774E-2,-9.811805E-3,-3.0514326E-2,-3.4294352E-2,-8.256958E-3,7.043854E-5,4.900772E-3,1.3605642E-2,-1.8253158E-3,-6.9601373E-3,1.7820224E-2,4.283706E-2,2.3307363E-2,6.2329683E-2,3.457697E-2,1.1567472E-2,4.8064437E-2,2.0221213E-2,6.345236E-2,-1.4591505E-2,7.868044E-2,7.8714244E-2,9.774292E-2,1.2116164E-1,9.835774E-2,-9.822571E-4,-2.7225239E-3,-1.2607345E-3,-2.9848951E-3,-2.8181837E-3,-8.890171E-4,-2.609751E-3,6.1033097E-5,6.03781E-3,-6.1458856E-4,-3.4474598E-3,-1.0835234E-3,-2.9906244E-3,1.4828152E-3,-1.1470731E-3,-3.996394E-3,1.7297492E-4,-4.9448544E-3,5.6092995E-3,-8.877068E-4,8.120829E-3,9.302366E-4,-1.6502861E-3,1.748481E-4,4.1578053E-3,-2.958559E-3,1.5761044E-3,6.1408062E-3,2.2941795E-3,6.049189E-3,1.0460367E-3,2.9030398E-3,9.773995E-3,3.9430414E-3,2.0120533E-3,3.8210922E-3,3.5001587E-3,-9.88887E-4,4.64407E-3,6.6407993E-3,9.105101E-3,-1.3887883E-6,6.9652433E-3,5.900367E-3,-1.15706025E-4,-2.0730197E-3,1.0567282E-2,7.53146E-3,6.9660284E-3,1.2044252E-2,1.0978885E-2,8.598822E-3,9.085764E-3,1.3372804E-2,2.5202734E-3,1.0514015E-2],"categories":[],"categories_nodes":[],"categories_segments":[],"categories_sizes":[],"default_left":[0,0,0,0,0,0,0,0,0,0,0,0,0,0,0,0,0,0,0,0,0,0,0,0,0,0,0,0,0,0,0,0,0,0,0,0,0,0,0,0,0,0,0,0,0,0,0,0,0,0,0,0,0,0,0,0,0,0,0,0,0,0,0,0,0,0,0,0,0,0,0,0,0,0,0,0,0,0,0,0,0,0,0,0,0,0,0,0,0,0,0,0,0,0,0,0,0,0,0,0,0,0,0,0,0,0,0,0,0,0,0,0,0,0,0,0,0,0,0],"id":14,"left_children":[1,3,5,7,9,11,13,15,17,19,21,23,25,27,29,31,33,35,37,39,41,43,45,47,49,51,53,55,57,59,61,63,65,67,-1,69,-1,71,73,75,77,79,81,-1,-1,83,85,87,89,91,93,95,97,99,101,103,105,107,109,111,113,115,117,-1,-1,-1,-1,-1,-1,-1,-1,-1,-1,-1,-1,-1,-1,-1,-1,-1,-1,-1,-1,-1,-1,-1,-1,-1,-1,-1,-1,-1,-1,-1,-1,-1,-1,-1,-1,-1,-1,-1,-1,-1,-1,-1,-1,-1,-1,-1,-1,-1,-1,-1,-1,-1,-1,-1,-1],"loss_changes":[1.0793126E1,4.1415453E-1,1.2904897E0,1.1065483E-2,3.7806135E-2,1.6695654E-1,2.1135902E-1,1.3959408E-3,8.7182075E-3,9.797145E-3,1.854608E-2,1.874867E-2,2.367282E-2,3.9968967E-2,1.7535686E-2,1.57547E-3,3.838539E-4,7.952586E-3,9.179537E-3,5.7741925E-3,1.0813536E-2,2.0381026E-3,1.376826E-2,1.5029296E-2,1.6352564E-2,1.1152685E-2,1.0795474E-2,1.2582064E-2,1.9779205E-2,9.533048E-3,4.580021E-3,2.2497773E-3,1.763463E-3,1.9676983E-3,0E0,9.183645E-3,0E0,1.2138147E-2,4.1717757E-3,1.1831354E-2,6.9197267E-3,9.366106E-3,1.2469161E-2,0E0,0E0,1.9317562E-2,1.8755134E-2,3.0881468E-2,2.75743E-2,1.757957E-2,1.8886045E-2,9.930849E-3,1.6462296E-2,5.37423E-3,1.0587335E-2,1.2900499E-2,9.460807E-3,2.2342365E-4,2.0296335E-2,1.9945383E-2,1.1090875E-2,1.1079431E-2,3.0593395E-2,0E0,0E0,0E0,0E0,0E0,0E0,0E0,0E0,0E0,0E0,0E0,0E0,0E0,0E0,0E0,0E0,0E0,0E0,0E0,0E0,0E0,0E0,0E0,0E0,0E0,0E0,0E0,0E0,0E0,0E0,0E0,0E0,0E0,0E0,0E0,0E0,0E0,0E0,0E0,0E0,0E0,0E0,0E0,0E0,0E0,0E0,0E0,0E0,0E0,0E0,0E0,0E0,0E0,0E0,0E0,0E0],"parents":[2147483647,0,0,1,1,2,2,3,3,4,4,5,5,6,6,7,7,8,8,9,9,10,10,11,11,12,12,13,13,14,14,15,15,16,16,17,17,18,18,19,19,20,20,21,21,22,22,23,23,24,24,25,25,26,26,27,27,28,28,29,29,30,30,31,31,32,32,33,33,35,35,37,37,38,38,39,39,40,40,41,41,42,42,45,45,46,46,47,47,48,48,49,49,50,50,51,51,52,52,53,53,54,54,55,55,56,56,57,57,58,58,59,59,60,60,61,61,62,62],"right_children":[2,4,6,8,10,12,14,16,18,20,22,24,26,28,30,32,34,36,38,40,42,44,46,48,50,52,54,56,58,60,62,64,66,68,-1,70,-1,72,74,76,78,80,82,-1,-1,84,86,88,90,92,94,96,98,100,102,104,106,108,110,112,114,116,118,-1,-1,-1,-1,-1,-1,-1,-1,-1,-1,-1,-1,-1,-1,-1,-1,-1,-1,-1,-1,-1,-1,-1,-1,-1,-1,-1,-1,-1,-1,-1,-1,-1,-1,-1,-1,-1,-1,-1,-1,-1,-1,-1,-1,-1,-1,-1,-1,-1,-1,-1,-1,-1,-1,-1,-1],"split_conditions":[1.6734637E-1,3.383191E-2,3.618645E-1,7.1914643E-3,9.991224E-2,2.5721562E-1,4.8962122E-1,6.400122E-1,5.4967064E-1,2.3105204E-2,1.6989887E-1,2.1753292E-1,3.0124718E-1,4.3392414E-1,5.438202E-1,5.4949737E-1,-2.1748692E-3,5.336822E-1,5.9124714E-1,7.755783E-3,3.1173262E-1,1.1273916E-1,1.3927576E-1,2.3919621E-1,2.1904703E-2,1.7905971E-1,1.4109072E-1,1.6713092E-2,7.00448E-4,4.1504177E-1,4.568245E-1,4.372204E-1,-3.3454895E-3,-2.668336E-3,-3.0163673E-3,9.164345E-1,-4.8899534E-3,3.6453903E-3,6.1166406E-1,4.1929507E-3,3.6768803E-1,1.4019883E-1,3.149685E-1,7.043854E-5,4.900772E-3,1.0401924E-1,2.869081E-1,3.847743E-1,5.303946E-1,4.958217E-1,7.316773E-2,5.230743E-1,2.6588234E-1,3.1480128E-1,9.08078E-1,5.5710305E-3,5E-1,4.700253E-1,1.0289534E-2,6.716125E-1,5.2759045E-1,2.9664306E-2,3.23292E-1,-9.822571E-4,-2.7225239E-3,-1.2607345E-3,-2.9848951E-3,-2.8181837E-3,-8.890171E-4,-2.609751E-3,6.1033097E-5,6.03781E-3,-6.1458856E-4,-3.4474598E-3,-1.0835234E-3,-2.9906244E-3,1.4828152E-3,-1.1470731E-3,-3.996394E-3,1.7297492E-4,-4.9448544E-3,5.6092995E-3,-8.877068E-4,8.120829E-3,9.302366E-4,-1.6502861E-3,1.748481E-4,4.1578053E-3,-2.958559E-3,1.5761044E-3,6.1408062E-3,2.2941795E-3,6.049189E-3,1.0460367E-3,2.9030398E-3,9.773995E-3,3.9430414E-3,2.0120533E-3,3.8210922E-3,3.5001587E-3,-9.88887E-4,4.64407E-3,6.6407993E-3,9.105101E-3,-1.3887883E-6,6.9652433E-3,5.900367E-3,-1.15706025E-4,-2.0730197E-3,1.0567282E-2,7.53146E-3,6.9660284E-3,1.2044252E-2,1.0978885E-2,8.598822E-3,9.085764E-3,1.3372804E-2,2.5202734E-3,1.0514015E-2],"split_indices":[0,0,0,0,0,0,0,1,1,3,2,0,0,0,0,2,0,1,1,3,1,0,4,2,3,1,2,4,3,4,4,1,0,0,0,4,0,3,1,3,4,3,1,0,0,0,4,1,1,4,3,2,1,0,4,4,5,0,3,2,2,3,2,0,0,0,0,0,0,0,0,0,0,0,0,0,0,0,0,0,0,0,0,0,0,0,0,0,0,0,0,0,0,0,0,0,0,0,0,0,0,0,0,0,0,0,0,0,0,0,0,0,0,0,0,0,0,0,0],"split_type":[0,0,0,0,0,0,0,0,0,0,0,0,0,0,0,0,0,0,0,0,0,0,0,0,0,0,0,0,0,0,0,0,0,0,0,0,0,0,0,0,0,0,0,0,0,0,0,0,0,0,0,0,0,0,0,0,0,0,0,0,0,0,0,0,0,0,0,0,0,0,0,0,0,0,0,0,0,0,0,0,0,0,0,0,0,0,0,0,0,0,0,0,0,0,0,0,0,0,0,0,0,0,0,0,0,0,0,0,0,0,0,0,0,0,0,0,0,0,0],"sum_hessian":[7.98E3,5.359E3,2.621E3,4.549E3,8.1E2,1.466E3,1.155E3,4.303E3,2.46E2,3.77E2,4.33E2,6.56E2,8.1E2,8.11E2,3.44E2,1.32E3,2.983E3,1.81E2,6.5E1,6.2E1,3.15E2,9E0,4.24E2,3.43E2,3.13E2,3.43E2,4.67E2,4.99E2,3.12E2,2.18E2,1.26E2,5.73E2,7.47E2,3.5E1,2.948E3,1.67E2,1.4E1,3.3E1,3.2E1,2.2E1,4E1,1.6E1,2.99E2,1E0,8E0,6.8E1,3.56E2,2.6E1,3.17E2,5.3E1,2.6E2,1.6E1,3.27E2,9E0,4.58E2,8E0,4.91E2,2E0,3.1E2,7.4E1,1.44E2,6E1,6.6E1,9E0,5.64E2,8E0,7.39E2,2.7E1,8E0,1.53E2,1.4E1,2E0,3.1E1,1.7E1,1.5E1,1.2E1,1E1,1.4E1,2.6E1,5E0,1.1E1,2E0,2.97E2,3E0,6.5E1,6.9E1,2.87E2,8E0,1.8E1,3.04E2,1.3E1,2.6E1,2.7E1,8.1E1,1.79E2,5E0,1.1E1,6.7E1,2.6E2,4E0,5E0,4.24E2,3.4E1,1E0,7E0,1.99E2,2.92E2,1E0,1E0,3.1E1,2.79E2,6.3E1,1.1E1,6.7E1,7.7E1,2E1,4E1,6E0,6E1],"tree_param":{"num_deleted":"0","num_feature":"6","num_nodes":"119","size_leaf_vector":"1"}},{"base_weights":[1.8504263E-4,-2.255442E-2,4.8457395E-2,-2.6323581E-2,-2.9737619E-3,3.2637145E-2,7.304107E-2,-2.666548E-2,-2.0259358E-2,-1.0819753E-2,2.963755E-3,2.067634E-2,4.1231368E-2,6.548235E-2,9.196023E-2,-2.597096E-2,-2.7290303E-2,-2.3497019E-2,-1.1024307E-2,-2.4071082E-2,-9.091697E-3,2.5118336E-2,1.8428457E-3,-2.0194908E-4,2.2039039E-2,3.602136E-2,4.7546074E-2,6.028848E-2,7.334509E-2,8.8508576E-2,1.14635274E-1,-2.5032299E-2,-2.698688E-2,-2.7325205E-3,2.552975E-3,-2.149657E-2,-4.4335578E-2,-1.4342062E-2,2.4543589E-2,-8.89618E-3,-3.954497E-2,-3.223892E-2,-7.7570835E-3,2.9110154E-2,-3.3346748E-3,-2.480497E-3,6.051383E-3,9.34715E-3,-5.7462882E-2,2.2908973E-2,-9.807414E-3,3.5004023E-2,8.763335E-2,5.162964E-2,3.6763933E-2,3.374478E-2,6.1280165E-2,5.5187736E-2,7.7519715E-2,9.877564E-2,7.9871096E-2,1.3507374E-1,8.62513E-2,-2.51473E-3,-8.5017673E-4,-1.4904094E-3,-2.7134516E-3,-2.3504703E-3,5.5336703E-5,-2.7606816E-3,-4.9939277E-3,-6.7366555E-4,-2.850776E-3,-2.3642478E-3,5.454724E-3,-2.7145667E-3,1.3480139E-3,-4.2500114E-3,-7.6474174E-4,-5.901631E-4,-4.491576E-3,5.2353456E-3,-8.301483E-4,3.496207E-3,-2.1556641E-3,1.0947941E-3,-5.7892135E-4,4.280817E-4,3.96305E-3,2.1796909E-3,-3.695162E-3,5.651973E-4,-7.121625E-3,2.6694462E-3,1.6347716E-3,-3.6497593E-3,1.7972477E-3,3.2927264E-3,4.9137734E-3,9.516402E-3,1.3694003E-3,6.4321454E-3,4.5656445E-3,2.2452043E-3,5.2515287E-3,5.7624923E-3,-2.361966E-3,8.442826E-3,5.9352303E-3,3.943904E-3,7.1842424E-3,4.9770824E-3,7.9826275E-3,8.340706E-4,1.0037313E-2,6.5735593E-3,8.92401E-3,3.664729E-3,1.387078E-2,9.973547E-3,1.7493897E-3],"categories":[],"categories_nodes":[],"categories_segments":[],"categories_sizes":[],"default_left":[0,0,0,0,0,0,0,0,0,0,0,0,0,0,0,0,0,0,0,0,0,0,0,0,0,0,0,0,0,0,0,0,0,0,0,0,0,0,0,0,0,0,0,0,0,0,0,0,0,0,0,0,0,0,0,0,0,0,0,0,0,0,0,0,0,0,0,0,0,0,0,0,0,0,0,0,0,0,0,0,0,0,0,0,0,0,0,0,0,0,0,0,0,0,0,0,0,0,0,0,0,0,0,0,0,0,0,0,0,0,0,0,0,0,0,0,0,0,0,0,0],"id":15,"left_children":[1,3,5,7,9,11,13,15,17,19,21,23,25,27,29,31,33,35,37,39,41,43,45,47,49,51,53,55,57,59,61,63,65,-1,-1,67,69,71,73,75,77,79,81,83,-1,85,87,89,91,93,95,97,99,101,103,105,107,109,111,113,115,117,119,-1,-1,-1,-1,-1,-1,-1,-1,-1,-1,-1,-1,-1,-1,-1,-1,-1,-1,-1,-1,-1,-1,-1,-1,-1,-1,-1,-1,-1,-1,-1,-1,-1,-1,-1,-1,-1,-1,-1,-1,-1,-1,-1,-1,-1,-1,-1,-1,-1,-1,-1,-1,-1,-1,-1,-1,-1,-1],"loss_changes":[8.761735E0,4.003749E-1,9.916954E-1,8.893728E-3,4.088773E-2,1.5919745E-1,1.3698292E-1,1.1591911E-3,7.1262494E-3,8.436993E-3,1.2370348E-2,1.8582791E-2,2.806151E-2,2.489996E-2,1.2002945E-2,1.2879372E-3,4.8378706E-3,6.6338778E-3,8.140373E-3,9.745238E-3,1.012983E-2,6.5718973E-3,8.694001E-3,2.2955518E-2,1.7207444E-2,2.318579E-2,1.597786E-2,9.461641E-3,1.7021775E-2,1.4281154E-2,8.073926E-3,1.8469691E-3,1.3366342E-3,0E0,0E0,7.4518993E-3,2.7479604E-5,6.3798437E-3,9.96418E-3,9.758122E-3,1.6544797E-3,5.744649E-3,1.0873606E-2,7.5731147E-3,0E0,1.0549069E-2,1.4218228E-2,2.1556139E-2,5.610762E-3,1.4391631E-2,1.3260607E-2,1.2823403E-2,3.708139E-3,1.9200027E-2,2.4745554E-2,2.6018757E-2,1.3776541E-2,1.1854827E-2,1.0491967E-2,1.5054464E-2,1.280719E-2,1.3551414E-3,1.4016554E-2,0E0,0E0,0E0,0E0,0E0,0E0,0E0,0E0,0E0,0E0,0E0,0E0,0E0,0E0,0E0,0E0,0E0,0E0,0E0,0E0,0E0,0E0,0E0,0E0,0E0,0E0,0E0,0E0,0E0,0E0,0E0,0E0,0E0,0E0,0E0,0E0,0E0,0E0,0E0,0E0,0E0,0E0,0E0,0E0,0E0,0E0,0E0,0E0,0E0,0E0,0E0,0E0,0E0,0E0,0E0,0E0,0E0,0E0],"parents":[2147483647,0,0,1,1,2,2,3,3,4,4,5,5,6,6,7,7,8,8,9,9,10,10,11,11,12,12,13,13,14,14,15,15,16,16,17,17,18,18,19,19,20,20,21,21,22,22,23,23,24,24,25,25,26,26,27,27,28,28,29,29,30,30,31,31,32,32,35,35,36,36,37,37,38,38,39,39,40,40,41,41,42,42,43,43,45,45,46,46,47,47,48,48,49,49,50,50,51,51,52,52,53,53,54,54,55,55,56,56,57,57,58,58,59,59,60,60,61,61,62,62],"right_children":[2,4,6,8,10,12,14,16,18,20,22,24,26,28,30,32,34,36,38,40,42,44,46,48,50,52,54,56,58,60,62,64,66,-1,-1,68,70,72,74,76,78,80,82,84,-1,86,88,90,92,94,96,98,100,102,104,106,108,110,112,114,116,118,120,-1,-1,-1,-1,-1,-1,-1,-1,-1,-1,-1,-1,-1,-1,-1,-1,-1,-1,-1,-1,-1,-1,-1,-1,-1,-1,-1,-1,-1,-1,-1,-1,-1,-1,-1,-1,-1,-1,-1,-1,-1,-1,-1,-1,-1,-1,-1,-1,-1,-1,-1,-1,-1,-1,-1,-1,-1,-1],"split_conditions":[1.7598651E-1,3.383191E-2,3.8668275E-1,7.1914643E-3,9.991224E-2,2.644533E-1,5.008839E-1,6.9745606E-1,5.4967064E-1,1.5881337E-2,2.2021729E-1,2.3919621E-1,3.3057535E-1,4.4910628E-1,5.9460753E-1,5.86162E-1,2.499178E-3,5.336822E-1,2.9523775E-2,7.755783E-3,3.1173262E-1,1.7172556E-1,1.3826625E-1,9.1922003E-1,8.2618326E-1,9.916434E-1,6.2740165E-1,3.6453903E-3,2.5E-1,4.931842E-2,1.5289575E-1,5.844889E-1,3.933293E-1,-2.7325205E-3,2.552975E-3,9.164345E-1,1.3873488E-2,1.9915327E-2,2.5456467E-1,4.1929507E-3,7.060434E-1,1.4019883E-1,3.149685E-1,2.4336332E-1,-3.3346748E-3,3.4010294E-1,3.3895543E-1,5.0011075E-1,1.9718836E-1,6.350975E-1,5E-1,2.1744415E-1,3.904996E-1,2.729805E-1,5.1532036E-1,5.538357E-1,1.1262951E-2,6.2674093E-1,8.866585E-2,7.565596E-2,1.7005782E-1,4.8936456E-1,6.3945657E-1,-2.51473E-3,-8.5017673E-4,-1.4904094E-3,-2.7134516E-3,-2.3504703E-3,5.5336703E-5,-2.7606816E-3,-4.9939277E-3,-6.7366555E-4,-2.850776E-3,-2.3642478E-3,5.454724E-3,-2.7145667E-3,1.3480139E-3,-4.2500114E-3,-7.6474174E-4,-5.901631E-4,-4.491576E-3,5.2353456E-3,-8.301483E-4,3.496207E-3,-2.1556641E-3,1.0947941E-3,-5.7892135E-4,4.280817E-4,3.96305E-3,2.1796909E-3,-3.695162E-3,5.651973E-4,-7.121625E-3,2.6694462E-3,1.6347716E-3,-3.6497593E-3,1.7972477E-3,3.2927264E-3,4.9137734E-3,9.516402E-3,1.3694003E-3,6.4321454E-3,4.5656445E-3,2.2452043E-3,5.2515287E-3,5.7624923E-3,-2.361966E-3,8.442826E-3,5.9352303E-3,3.943904E-3,7.1842424E-3,4.9770824E-3,7.9826275E-3,8.340706E-4,1.0037313E-2,6.5735593E-3,8.92401E-3,3.664729E-3,1.387078E-2,9.973547E-3,1.7493897E-3],"split_indices":[0,0,0,0,0,0,0,1,1,3,2,2,0,0,0,